#include <math.h> 
#include <string.h> 
#include <iostream>
#include "./keras2c/Model/include/k2c_include.h" 
#include "./keras2c/Model/include/k2c_tensor_include.h" 
#include "./keras2c/MLP_3000_epocas_SND_RTT/keras2c_model_MLP_SND_RTT.h"


 

 using namespace std;


void MLP_SND_RTTModel:: keras2c_model(const k2c_tensor* dense_8_input_input, k2c_tensor* dense_11_output) { 
/*

float dense_8_output_array[20] = {0}; 
k2c_tensor dense_8_output = {&dense_8_output_array[0],1,20,{20, 1, 1, 1, 1}}; 
float dense_8_kernel_array[40] = {
+9.43582430e-02f,+2.50071704e-01f,-1.62910335e-02f,-1.73468217e-02f,-1.15924433e-03f,
+3.60305086e-02f,+3.66558880e-03f,+2.43508250e-01f,-1.50023429e-02f,-1.25762736e-02f,
-7.25768209e-02f,-4.79671471e-02f,+4.89674509e-04f,-1.60865895e-02f,-2.97675487e-02f,
+1.57446861e-01f,-1.08601384e-01f,-3.48509774e-02f,-1.07421086e-03f,+1.75623938e-01f,
+3.39033037e-01f,-1.91229954e-01f,-1.86155550e-02f,-3.86627689e-02f,-2.68813789e-01f,
-3.54348496e-02f,-2.40627062e-02f,+7.07492605e-02f,-2.26534605e-01f,+2.13352125e-03f,
+2.43065372e-01f,-3.54608186e-02f,-6.72873110e-03f,-1.16081946e-02f,-3.97189148e-02f,
-9.40657407e-02f,+2.31062144e-01f,+4.36189206e-04f,-2.51615018e-01f,-8.39258656e-02f,
}; 
k2c_tensor dense_8_kernel = {&dense_8_kernel_array[0],2,40,{ 2,20, 1, 1, 1}}; 
float dense_8_bias_array[20] = {
+1.24217555e-01f,+6.63137957e-02f,+0.00000000e+00f,+0.00000000e+00f,+2.49287233e-01f,
-5.64688956e-03f,+0.00000000e+00f,+2.31356218e-01f,+2.10939959e-01f,-3.55829811e-03f,
+2.74509415e-02f,+0.00000000e+00f,+0.00000000e+00f,+0.00000000e+00f,+0.00000000e+00f,
+1.08470984e-01f,+5.58081595e-03f,-1.70936808e-03f,+2.33103916e-01f,+1.04926310e-01f,
}; 
k2c_tensor dense_8_bias = {&dense_8_bias_array[0],1,20,{20, 1, 1, 1, 1}}; 
float dense_8_fwork[42] = {0}; 

 
float dense_9_output_array[20] = {0}; 
k2c_tensor dense_9_output = {&dense_9_output_array[0],1,20,{20, 1, 1, 1, 1}}; 
float dense_9_kernel_array[400] = {
+6.00852072e-04f,+2.31557280e-01f,-4.73838449e-02f,-4.99905944e-02f,+8.85269791e-03f,
+3.67248058e-03f,-3.51758003e-02f,-3.46479006e-03f,+1.30743593e-01f,-2.95969620e-02f,
+1.51672632e-01f,+9.49989352e-03f,+1.12401666e-02f,-3.59833948e-02f,+1.41131505e-01f,
+1.69315383e-01f,-9.43012163e-03f,+9.41463560e-03f,+2.20813900e-01f,+2.01212093e-01f,
+3.64820845e-02f,-2.32276708e-01f,+2.27940194e-02f,+1.69399045e-02f,-2.56509244e-01f,
-4.71308939e-02f,-3.60273495e-02f,-2.77228445e-01f,+5.38271904e-01f,-4.89019528e-02f,
+4.19976473e-01f,-3.39516968e-01f,-2.66202599e-01f,+2.34551094e-02f,+4.14040267e-01f,
+4.44523811e-01f,+4.52675335e-02f,-4.81710546e-02f,+4.00990397e-01f,+4.71441150e-01f,
+3.09638493e-02f,+3.27910222e-02f,+4.94077317e-02f,+1.81368701e-02f,+1.97082274e-02f,
-4.33393717e-02f,+1.67666748e-03f,+2.94494294e-02f,+4.48936932e-02f,+2.26970427e-02f,
+1.11346617e-02f,+3.76703590e-03f,-1.20209679e-02f,-1.69638768e-02f,-4.32456248e-02f,
-1.83431730e-02f,-8.23368877e-03f,+2.72278227e-02f,+2.20208652e-02f,-3.05415988e-02f,
-1.42735839e-02f,-2.67682672e-02f,+1.51703991e-02f,+2.25166418e-02f,-1.93754565e-02f,
+1.08946338e-02f,-5.46202064e-05f,-3.91966812e-02f,+1.45782940e-02f,+1.22380480e-02f,
-9.91320610e-03f,-4.88876216e-02f,+4.57588583e-03f,-1.08091459e-02f,+2.02342905e-02f,
+2.10064091e-02f,-4.21530604e-02f,-1.11509077e-02f,-2.43231785e-02f,-5.65754250e-03f,
-4.80041169e-02f,+7.73983192e+00f,-4.16681878e-02f,+2.92536505e-02f,+7.45606327e+00f,
-1.26877800e-02f,+3.29567902e-02f,+7.45858526e+00f,-6.83988905e+00f,+3.83503996e-02f,
-7.11669397e+00f,+7.37375021e+00f,+7.39192581e+00f,-9.22162458e-03f,-7.09563160e+00f,
-7.11084414e+00f,+2.41100788e-04f,+3.49648260e-02f,-7.07522821e+00f,-7.00731325e+00f,
+8.89362022e-03f,-3.04202829e-02f,-6.87913969e-03f,-1.81326866e-02f,-3.94958965e-02f,
-6.37995079e-03f,-1.80011392e-02f,-3.01203388e-03f,-2.96600815e-02f,+3.50732077e-03f,
+1.92255818e-03f,-5.57085313e-03f,+5.64710144e-03f,+8.74578953e-04f,-1.68486591e-02f,
-3.83959413e-02f,-4.29958478e-02f,-1.74681544e-02f,-1.02990381e-02f,+3.00386958e-02f,
-2.50943191e-02f,+2.73706950e-02f,-3.40523347e-02f,+4.79045771e-02f,-4.92796674e-02f,
+5.54203987e-03f,+2.85979249e-02f,-3.99505273e-02f,+2.58398168e-02f,+1.77050345e-02f,
-2.11722385e-02f,-9.48239490e-03f,+1.18024722e-02f,-3.69413272e-02f,-2.11243760e-02f,
+3.28195430e-02f,+2.92418934e-02f,-6.09439611e-03f,-3.19299102e-02f,+1.45035051e-02f,
-2.93596517e-02f,+3.43137622e-01f,-4.42734472e-02f,-1.13248453e-02f,+1.68216169e-01f,
+3.18379514e-02f,-2.16791164e-02f,+2.26291373e-01f,+5.08291349e-02f,-2.58591007e-02f,
+8.81226137e-02f,+1.40066579e-01f,+1.49818867e-01f,-3.18182483e-02f,+9.52953398e-02f,
+8.34330544e-02f,-2.01638825e-02f,-3.30332145e-02f,+3.46916988e-02f,+7.17740208e-02f,
+3.57431173e-03f,+6.68551111e+00f,-1.24501362e-02f,+1.02912672e-02f,+6.31898689e+00f,
-2.27037556e-02f,+1.56005062e-02f,+6.34223986e+00f,-5.67585278e+00f,-2.63185054e-02f,
-5.97262096e+00f,+6.35413837e+00f,+6.32379532e+00f,+8.42839479e-03f,-5.96321821e+00f,
-6.00840282e+00f,-6.56746328e-04f,-3.18081267e-02f,-5.97975445e+00f,-5.92628622e+00f,
+2.89926566e-02f,+4.39817049e-02f,+1.64767541e-02f,+2.59332992e-02f,+6.16844231e-03f,
-2.88806856e-04f,+4.09621634e-02f,+4.75576892e-02f,-9.12142918e-03f,+8.54326785e-03f,
+1.59326438e-02f,+3.34006548e-02f,+9.18505806e-03f,-9.81509686e-03f,-3.76442187e-02f,
-2.44556721e-02f,+1.97985023e-03f,+3.98982428e-02f,+3.25484686e-02f,+4.12389114e-02f,
-4.37996276e-02f,+1.03327066e-01f,-4.79634181e-02f,+6.54423237e-03f,-9.80870500e-02f,
-4.75637428e-02f,-1.05952248e-02f,-8.58520418e-02f,+6.84219822e-02f,-1.09746819e-02f,
+1.88208118e-01f,-1.05997920e-01f,-1.02340646e-01f,+2.19525024e-03f,+1.86195120e-01f,
+2.38209561e-01f,-1.41487122e-02f,-1.99113619e-02f,+2.72317201e-01f,+2.41676152e-01f,
+8.74699280e-03f,+2.65189260e-03f,+7.60221481e-03f,-5.74891642e-03f,+3.35816778e-02f,
-2.24071741e-03f,-9.46759060e-03f,-3.75417694e-02f,+3.14588659e-02f,+3.35147418e-02f,
-2.34632138e-02f,-3.63967195e-02f,+6.12797588e-03f,+4.21403721e-03f,+1.38489343e-02f,
+3.03101651e-02f,-1.67554617e-03f,+3.84459831e-02f,-2.40019690e-02f,+1.98937394e-02f,
-4.17683125e-02f,+1.80711411e-02f,-3.82956117e-03f,-1.81812048e-03f,+8.40071589e-03f,
-8.90424103e-03f,+3.49170677e-02f,-3.28644514e-02f,+4.37103249e-02f,-1.44832022e-02f,
+1.70351602e-02f,+6.99383020e-03f,-5.19392639e-03f,+1.83662511e-02f,+2.43061781e-03f,
-4.50637937e-02f,+9.25911590e-03f,+4.91682403e-02f,+1.30564012e-02f,-2.95917150e-02f,
-2.59500034e-02f,+3.12268771e-02f,-3.99819836e-02f,-4.83197570e-02f,-4.55899499e-02f,
+1.00809336e-02f,+3.60761173e-02f,+1.46480240e-02f,-4.16747555e-02f,+8.38792324e-03f,
+2.20522545e-02f,-4.47379462e-02f,-2.61288285e-02f,-1.36339888e-02f,-1.66815147e-02f,
+1.31222345e-02f,+4.91332076e-02f,+2.27987282e-02f,+3.79122533e-02f,-1.49166211e-02f,
-1.40539035e-02f,+4.10174020e-02f,-4.22009490e-02f,+1.02323666e-02f,-2.91112196e-02f,
-2.17426177e-02f,+5.80141693e-03f,-3.60767841e-02f,+4.75000255e-02f,-2.25814469e-02f,
+4.54796217e-02f,-8.42066854e-03f,-2.83234362e-02f,+1.73439421e-02f,-3.73246670e-02f,
+2.72960179e-02f,+3.77078392e-02f,+2.97343731e-03f,+5.35073131e-03f,-1.84028968e-02f,
-1.18158683e-02f,+4.05907363e-01f,-7.34584406e-03f,+2.45661177e-02f,+2.55238593e-01f,
-4.69826572e-02f,+3.17635275e-02f,+3.53528827e-01f,-4.86027040e-02f,+3.67582552e-02f,
-2.27312073e-01f,+3.32886279e-01f,+3.30004185e-01f,+2.22669132e-02f,-1.98965937e-01f,
-2.03773230e-01f,+2.13629343e-02f,-2.10680850e-02f,-1.67792037e-01f,-2.18907773e-01f,
-2.52937153e-03f,-1.72918160e-02f,+3.91110070e-02f,+3.66714261e-02f,-1.89665765e-01f,
-2.48273257e-02f,-2.88037788e-02f,-2.45371446e-01f,+1.21860117e-01f,-3.11308783e-02f,
+2.49004364e-01f,-1.63437426e-01f,-2.11244881e-01f,-9.10214335e-03f,+3.24402571e-01f,
+3.29919010e-01f,-4.44406644e-02f,-3.65429893e-02f,+3.19893211e-01f,+2.76464969e-01f,
-1.73630603e-02f,+4.08664867e-02f,-4.07215208e-03f,+1.22961774e-02f,+1.86720453e-02f,
-3.26415673e-02f,-5.43593243e-03f,-1.26195922e-02f,+3.39188017e-02f,-1.03487149e-02f,
+9.05992184e-03f,-9.81383864e-03f,+3.34578902e-02f,-3.48267704e-03f,+3.34732346e-02f,
-2.09281826e-03f,-1.62595026e-02f,-6.96877390e-03f,+3.06996424e-03f,-3.26090679e-02f,
+3.20559777e-02f,+7.24262333e+00f,+3.82326134e-02f,-2.97938585e-02f,+6.96674061e+00f,
+3.05883624e-02f,+2.08411366e-03f,+6.96794224e+00f,-6.34113121e+00f,-1.46397604e-02f,
-6.61065769e+00f,+6.96998596e+00f,+6.95724869e+00f,-1.57645233e-02f,-6.58506536e+00f,
-6.59086752e+00f,-4.35082912e-02f,+3.08474936e-02f,-6.59523773e+00f,-6.56570292e+00f,
-2.17551589e-02f,+3.55050802e-01f,-4.47671488e-03f,-3.17281485e-03f,+3.21886897e-01f,
-2.78798472e-02f,-1.57031044e-02f,+2.88015544e-01f,+2.01982260e-02f,+4.10792045e-02f,
-9.32603255e-02f,+3.19173098e-01f,+2.70768702e-01f,+7.10172579e-03f,-1.18327670e-01f,
-1.13068707e-01f,+1.19426101e-03f,+2.94732489e-02f,-1.40347704e-01f,-1.33130237e-01f,
}; 
k2c_tensor dense_9_kernel = {&dense_9_kernel_array[0],2,400,{20,20, 1, 1, 1}}; 
float dense_9_bias_array[20] = {
+0.00000000e+00f,+2.70263225e-01f,+0.00000000e+00f,+0.00000000e+00f,+1.19606540e-01f,
+0.00000000e+00f,+0.00000000e+00f,+1.50453359e-01f,+1.52153289e-02f,-1.51979818e-03f,
+5.23154177e-02f,+1.25330314e-01f,+1.05932698e-01f,+0.00000000e+00f,+6.12969697e-02f,
+5.22107780e-02f,+0.00000000e+00f,+0.00000000e+00f,+6.40684813e-02f,+6.49920031e-02f,
}; 
k2c_tensor dense_9_bias = {&dense_9_bias_array[0],1,20,{20, 1, 1, 1, 1}}; 
float dense_9_fwork[420] = {0}; 

 
float dense_10_output_array[20] = {0}; 
k2c_tensor dense_10_output = {&dense_10_output_array[0],1,20,{20, 1, 1, 1, 1}}; 
float dense_10_kernel_array[400] = {
+6.86737150e-03f,-1.37482658e-02f,-3.63540277e-02f,-4.69841249e-02f,+3.95284407e-02f,
-3.68887298e-02f,+3.73667814e-02f,-4.39512134e-02f,-2.67361291e-02f,+8.26277584e-03f,
+8.45037773e-03f,-1.65100023e-03f,+1.40269883e-02f,-1.88637506e-02f,+1.25352256e-02f,
+1.75113194e-02f,+1.36446469e-02f,+4.66767810e-02f,+1.78719796e-02f,-2.59728190e-02f,
+1.38701871e-02f,+5.42981317e-03f,+2.89698294e-03f,-6.42927270e-03f,-1.05653033e-02f,
-1.32223461e-02f,+6.84022903e-01f,+1.61786191e-02f,-1.10081164e-02f,-1.45649761e-01f,
+6.58674479e-01f,-4.88548465e-02f,-7.02560768e-02f,-9.45484564e-02f,+3.34357433e-02f,
-2.53782999e-02f,-5.09736910e-02f,-1.00163028e-01f,-1.11301534e-01f,+6.79467797e-01f,
+8.54372978e-04f,-9.05268267e-03f,+1.95504166e-02f,-4.97829914e-03f,+4.48449291e-02f,
+4.86836322e-02f,-4.34742682e-02f,+2.60435231e-02f,-3.40543278e-02f,-2.93123852e-02f,
-1.83330402e-02f,+1.80316456e-02f,-4.34579700e-03f,+7.00641423e-04f,+2.76148319e-03f,
-4.22031283e-02f,-1.77597404e-02f,+3.86951119e-03f,+2.27697603e-02f,+2.63263918e-02f,
+4.32178862e-02f,-1.67415030e-02f,-2.89151557e-02f,+3.74569558e-02f,-2.56735813e-02f,
-4.95303981e-02f,+2.66413204e-02f,-2.94910800e-02f,-1.48406401e-02f,+3.43607180e-02f,
+2.89875381e-02f,-1.89099666e-02f,-3.28008533e-02f,-1.75303221e-02f,+4.68605869e-02f,
+2.99108960e-02f,+4.89804782e-02f,+3.99995558e-02f,+1.26353018e-02f,-3.07884943e-02f,
+1.88110974e-02f,-3.80266681e-02f,-2.10140254e-02f,-3.31535712e-02f,-2.47145295e-02f,
+2.28339224e-03f,+9.39074159e-01f,+2.28863936e-02f,+2.58657392e-02f,-4.60424423e-01f,
+9.69926775e-01f,+3.15613151e-02f,-4.44578141e-01f,-5.06045520e-01f,-5.45178950e-01f,
-2.45515108e-02f,+1.98808755e-03f,-5.23111820e-01f,-5.13391554e-01f,+9.70526159e-01f,
-1.38129219e-02f,+3.64368446e-02f,+4.09289934e-02f,+1.37231462e-02f,-2.14269161e-02f,
+3.67224105e-02f,-7.61233270e-04f,+1.54814236e-02f,-2.21944209e-02f,+3.15018035e-02f,
+3.64438780e-02f,-1.41200423e-02f,+2.61715688e-02f,-4.86464873e-02f,+2.48298086e-02f,
+3.26792486e-02f,+4.74602841e-02f,-4.00870815e-02f,+1.65094770e-02f,-1.53815523e-02f,
-6.61749765e-03f,+3.25536840e-02f,-1.21030584e-02f,+2.58565210e-02f,+2.36480720e-02f,
-4.06300202e-02f,-3.11689377e-02f,-7.60791451e-03f,-3.61863747e-02f,-1.28110051e-02f,
+3.85892391e-03f,+4.90680449e-02f,-1.22382045e-02f,-1.20101571e-02f,-4.81815226e-02f,
-3.31228152e-02f,-2.45250948e-02f,+3.38270925e-02f,-8.48691538e-03f,-4.77206483e-02f,
+1.00215673e-02f,-4.69222367e-02f,+5.73037833e-04f,-2.44673006e-02f,+2.31031291e-02f,
+6.44965190e-03f,+9.47688103e-01f,-8.61697551e-03f,-3.20820622e-02f,-3.68642926e-01f,
+8.88267100e-01f,-3.56241353e-02f,-4.02649045e-01f,-4.36629891e-01f,-4.78623778e-01f,
-3.09262630e-02f,-4.96889129e-02f,-4.16918933e-01f,-4.25020188e-01f,+9.00771737e-01f,
+2.98615955e-02f,+3.92650627e-02f,-4.14052978e-02f,+2.42329724e-02f,-4.55788374e-02f,
+4.66943085e-02f,-8.05136144e-01f,+1.96368732e-02f,-4.97720353e-02f,+9.04985428e-01f,
-7.33339727e-01f,+3.55990417e-02f,+9.35255468e-01f,+8.86393368e-01f,+9.62011755e-01f,
+1.03107803e-02f,+3.84890549e-02f,+8.50381672e-01f,+8.51013243e-01f,-7.51596749e-01f,
-2.97268759e-02f,+5.98113053e-03f,+4.68183421e-02f,+1.43695623e-04f,+2.73159482e-02f,
-6.07706606e-04f,+4.89488319e-02f,+3.69101316e-02f,+1.67773124e-02f,-1.95634365e-02f,
-1.21457474e-02f,+2.53641475e-02f,+4.11996990e-03f,+8.90098885e-03f,-4.45230603e-02f,
-1.67120583e-02f,-4.87357378e-03f,-2.84787063e-02f,-4.13554609e-02f,-4.16458547e-02f,
+5.01462072e-03f,+3.52207944e-02f,-4.31686565e-02f,+1.75842177e-02f,-8.68741423e-03f,
+2.96950042e-02f,-3.97051394e-01f,+1.97116807e-02f,+9.42187943e-03f,+6.94175720e-01f,
-4.54881579e-01f,-2.16687061e-02f,+5.84009528e-01f,+7.00994074e-01f,+5.53093195e-01f,
-4.96945269e-02f,-2.70408690e-02f,+6.62469745e-01f,+7.25276530e-01f,-4.53862250e-01f,
-4.29593325e-02f,-2.92486865e-02f,+1.39040118e-02f,-4.09924462e-02f,-1.58140659e-02f,
+5.83410216e-03f,+9.70859289e-01f,+2.30727699e-02f,+5.17664198e-03f,-4.88923013e-01f,
+9.92157698e-01f,+2.15707757e-02f,-4.72382188e-01f,-4.94186103e-01f,-5.38394392e-01f,
-1.27232075e-03f,+3.12879942e-02f,-4.71194059e-01f,-5.80859363e-01f,+9.65777755e-01f,
-1.67253558e-02f,+2.73797866e-02f,+1.00418394e-02f,-3.96756418e-02f,+1.07696056e-02f,
-1.94190368e-02f,+9.70822692e-01f,-5.69142513e-02f,-3.24790850e-02f,-5.24484038e-01f,
+9.48601305e-01f,-9.71517060e-03f,-5.20305037e-01f,-5.20415366e-01f,-6.27531350e-01f,
+3.94801386e-02f,-2.48438641e-02f,-5.15666425e-01f,-5.95498919e-01f,+1.00820029e+00f,
-4.29267809e-03f,+2.91629769e-02f,+3.08992006e-02f,+7.77726248e-03f,-4.50608730e-02f,
-8.03190470e-03f,-3.10738925e-02f,-1.78615563e-02f,-2.90212985e-02f,-3.27822715e-02f,
-1.37601867e-02f,-1.52751431e-02f,-3.20557579e-02f,-2.55287178e-02f,+2.47228406e-02f,
+3.04547064e-02f,+4.61435057e-02f,+4.56924364e-03f,-4.99185100e-02f,-4.01444919e-02f,
-9.50047560e-03f,-7.93405063e-03f,+1.45970518e-02f,-2.99514551e-02f,-1.56155229e-02f,
-3.44581008e-02f,-4.13821816e-01f,-1.31764822e-02f,-1.36861587e-02f,+6.57547414e-01f,
-3.49537104e-01f,+2.04988550e-02f,+5.85394859e-01f,+5.81904233e-01f,+4.81545627e-01f,
+2.01332681e-02f,+2.75637209e-02f,+6.00168288e-01f,+7.15383232e-01f,-3.48172158e-01f,
-3.93395163e-02f,-1.99402776e-02f,-4.07105125e-02f,+1.54487072e-02f,+3.35307233e-02f,
-7.34905526e-03f,-3.86713177e-01f,-3.48247252e-02f,+1.12845218e-02f,+6.04531646e-01f,
-3.88328820e-01f,+3.75679955e-02f,+5.39999187e-01f,+6.05110288e-01f,+5.41212678e-01f,
-2.85112746e-02f,-2.17910092e-02f,+6.06150329e-01f,+7.13888824e-01f,-3.36875319e-01f,
+3.37865390e-02f,-1.27483979e-02f,+5.86067513e-03f,+3.22134756e-02f,-4.92851250e-02f,
+4.47755493e-02f,-3.37005481e-02f,-6.97129965e-03f,-2.30477583e-02f,+3.32822241e-02f,
+3.89735810e-02f,+4.77316231e-03f,-3.21335681e-02f,-3.16566229e-02f,-2.18155235e-03f,
+4.32139747e-02f,+2.62181796e-02f,-4.61244583e-02f,-2.99930330e-02f,-4.30443659e-02f,
+2.77876519e-02f,+1.85748599e-02f,+4.94895242e-02f,-8.13622400e-03f,+3.42396833e-02f,
+4.48237173e-02f,-1.81085579e-02f,+4.74990532e-03f,-1.36623494e-02f,+3.96089219e-02f,
-3.31191793e-02f,-2.21477505e-02f,-3.24379653e-04f,+4.75417040e-02f,-2.78645754e-02f,
+3.71620543e-02f,-2.70981919e-02f,+1.10508129e-03f,-4.54639271e-03f,+2.78079621e-02f,
+1.45988129e-02f,-1.90240219e-02f,-1.33610414e-02f,-1.33284731e-02f,+5.65191358e-03f,
-7.14314356e-03f,-3.41505289e-01f,+5.59815485e-03f,+3.68158594e-02f,+6.12528205e-01f,
-3.15057158e-01f,-3.51551473e-02f,+5.71211100e-01f,+6.10052288e-01f,+4.77460831e-01f,
+3.67009751e-02f,+2.80616637e-02f,+6.30518734e-01f,+6.57809854e-01f,-3.50294918e-01f,
-2.81680059e-02f,+1.01526584e-02f,-7.04043545e-03f,+8.11297633e-03f,-4.22554128e-02f,
+1.02631859e-02f,-3.27435285e-01f,-1.86242592e-02f,-2.99582537e-02f,+6.02507830e-01f,
-2.91923016e-01f,+3.24257798e-02f,+5.99220932e-01f,+6.31879151e-01f,+4.73518252e-01f,
-4.68235984e-02f,+1.67526994e-02f,+6.37807131e-01f,+6.63680017e-01f,-3.49682510e-01f,
}; 
k2c_tensor dense_10_kernel = {&dense_10_kernel_array[0],2,400,{20,20, 1, 1, 1}}; 
float dense_10_bias_array[20] = {
-1.13914325e-03f,-1.66725239e-03f,-4.80768364e-03f,-5.06725628e-03f,+0.00000000e+00f,
-2.30178609e-03f,+3.45951587e-01f,-6.81103626e-03f,-4.50254511e-03f,+1.50696039e-01f,
+3.27717006e-01f,-3.42948129e-03f,+1.48206741e-01f,+1.55016795e-01f,+2.30598465e-01f,
+0.00000000e+00f,-5.53345121e-03f,+1.48732379e-01f,+1.44092500e-01f,+3.35714191e-01f,
}; 
k2c_tensor dense_10_bias = {&dense_10_bias_array[0],1,20,{20, 1, 1, 1, 1}}; 
float dense_10_fwork[420] = {0}; 

 
float dense_11_kernel_array[20] = {
+4.41940308e-01f,-1.22164391e-01f,+1.29135419e-03f,-2.65955836e-01f,+2.23684013e-01f,
-4.12592977e-01f,-1.18550646e+00f,+3.66273016e-01f,-3.18635628e-02f,+1.44124794e+00f,
-1.50785697e+00f,-4.28577423e-01f,+1.04336262e+00f,+1.27402413e+00f,+1.65844476e+00f,
-3.67823839e-02f,-3.49998385e-01f,+1.39142323e+00f,+1.11680436e+00f,-1.43788815e+00f,
}; 
k2c_tensor dense_11_kernel = {&dense_11_kernel_array[0],2,20,{20, 1, 1, 1, 1}}; 
float dense_11_bias_array[1] = {
-2.12483153e-01f,}; 
k2c_tensor dense_11_bias = {&dense_11_bias_array[0],1,1,{1,1,1,1,1}}; 
float dense_11_fwork[40] = {0}; 

 
k2c_dense(&dense_8_output,dense_8_input_input,&dense_8_kernel, 
	&dense_8_bias,k2c_relu,dense_8_fwork); 
k2c_dense(&dense_9_output,&dense_8_output,&dense_9_kernel, 
	&dense_9_bias,k2c_relu,dense_9_fwork); 
k2c_dense(&dense_10_output,&dense_9_output,&dense_10_kernel, 
	&dense_10_bias,k2c_relu,dense_10_fwork); 
k2c_dense(dense_11_output,&dense_10_output,&dense_11_kernel, 
	&dense_11_bias,k2c_sigmoid,dense_11_fwork); 
*/
return;
 } 


void MLP_SND_RTTModel::keras2c_model_Round0000001(const k2c_tensor* dense_32_input_input, k2c_tensor* dense_35_2_output) { 

/*

cout << "MLP_SND_RTT Round0000001 \n";

float dense_32_output_array[20] = {0}; 
k2c_tensor dense_32_output = {&dense_32_output_array[0],1,20,{20, 1, 1, 1, 1}}; 
float dense_32_kernel_array[40] = {
+1.10781811e-01f,-4.78301309e-02f,+4.41944450e-02f,+1.52841471e-02f,-1.57191828e-01f,
+2.47003343e-02f,-1.79392695e-02f,+2.58771293e-02f,+2.89727338e-02f,-2.37226374e-02f,
-4.46973182e-02f,-3.78345624e-02f,-7.61794043e-04f,+4.89765406e-02f,-6.99295849e-03f,
+3.45603265e-02f,-2.19427291e-02f,+3.06652822e-02f,-1.78283229e-02f,-2.53703520e-02f,
-1.62723273e-01f,-9.80940461e-02f,+3.05207759e-01f,-3.06578167e-02f,+2.07247570e-01f,
+2.52243042e-01f,-8.59964639e-04f,-1.57855153e-01f,-3.99594791e-02f,-1.37171760e-01f,
-1.17367744e-01f,-1.20551556e-01f,-1.44316986e-01f,+3.33710074e-01f,-3.71466503e-02f,
-4.10556681e-02f,-1.27301052e-01f,-1.61119357e-01f,-1.82180405e-02f,-1.31789818e-01f,
}; 
k2c_tensor dense_32_kernel = {&dense_32_kernel_array[0],2,40,{ 2,20, 1, 1, 1}}; 
float dense_32_bias_array[20] = {
+1.51559457e-01f,+1.34129316e-01f,-4.02479246e-02f,+0.00000000e+00f,+6.90401942e-02f,
-5.03003336e-02f,+0.00000000e+00f,+1.43764928e-01f,+0.00000000e+00f,+1.48562104e-01f,
+1.48960710e-01f,+1.47661641e-01f,+1.32318020e-01f,+4.53598681e-04f,+0.00000000e+00f,
+0.00000000e+00f,+1.37857914e-01f,+1.45620897e-01f,+0.00000000e+00f,+1.45310774e-01f,
}; 
k2c_tensor dense_32_bias = {&dense_32_bias_array[0],1,20,{20, 1, 1, 1, 1}}; 
float dense_32_fwork[42] = {0}; 

 
float dense_33_output_array[20] = {0}; 
k2c_tensor dense_33_output = {&dense_33_output_array[0],1,20,{20, 1, 1, 1, 1}}; 
float dense_33_kernel_array[400] = {
+4.87117171e-01f,+6.38783038e-01f,+5.95282137e-01f,+4.70705517e-02f,+5.99729300e-01f,
+5.93346655e-01f,-7.97803700e-01f,-3.45922932e-02f,+6.43335223e-01f,+1.90739296e-02f,
+4.59404439e-02f,-8.08940291e-01f,-4.81369495e-02f,+5.88623941e-01f,+6.87342942e-01f,
-6.53459609e-01f,-1.82079785e-02f,+6.15665257e-01f,+2.60387920e-02f,-3.51365120e-03f,
+5.06969154e-01f,+4.04627591e-01f,+3.90315354e-01f,+1.68133490e-02f,+5.18104911e-01f,
+4.48108941e-01f,-6.56090453e-02f,-4.02380005e-02f,+3.74323428e-01f,+2.77131312e-02f,
-1.29192425e-02f,-5.86687401e-02f,-4.08427715e-02f,+4.16119814e-01f,+4.22001332e-01f,
-1.53424785e-01f,-3.47354189e-02f,+3.80813390e-01f,+2.86239553e-02f,-3.00010126e-02f,
-1.29480585e-01f,-2.02575654e-01f,-2.48484150e-01f,-4.42045331e-02f,-1.78935632e-01f,
-1.75478429e-01f,+2.58072883e-01f,-2.27748044e-02f,-2.41551474e-01f,-2.09031701e-02f,
-2.96990778e-02f,+2.85553366e-01f,-1.41655914e-02f,-2.50619352e-01f,-1.58196002e-01f,
+2.99344450e-01f,-3.94922867e-02f,-2.48946637e-01f,-5.06845899e-02f,-2.96450797e-02f,
+3.67946737e-02f,+4.65484746e-02f,+3.53259481e-02f,+3.32851447e-02f,+1.99371912e-02f,
+1.69572495e-02f,-1.70972198e-03f,+2.64896043e-02f,+1.11447796e-02f,-3.70904058e-03f,
+2.01923139e-02f,+3.80912907e-02f,+4.73418124e-02f,+2.91097052e-02f,-4.37793620e-02f,
+2.41399445e-02f,-3.50564606e-02f,-3.33457813e-02f,-3.87530401e-03f,+9.66168940e-04f,
+1.80570632e-02f,-6.34031147e-02f,-1.04518183e-01f,+8.62176344e-03f,-3.75590213e-02f,
+4.97687887e-03f,+2.54493803e-01f,+1.40981562e-02f,-6.83274642e-02f,-1.00672469e-02f,
+3.35976072e-02f,+2.82613128e-01f,-1.18872635e-02f,-1.24071285e-01f,-4.91829179e-02f,
+2.17631817e-01f,+1.05435029e-02f,-8.87429789e-02f,-4.16420326e-02f,+2.74220724e-02f,
-2.00220257e-01f,-2.77789563e-01f,-2.93553025e-01f,+2.59734429e-02f,-2.93298364e-01f,
-2.14670256e-01f,+2.84135252e-01f,+7.19151646e-03f,-2.69535482e-01f,+2.48655789e-02f,
+3.14006507e-02f,+3.15539092e-01f,-7.44608790e-03f,-2.80528665e-01f,-2.71109015e-01f,
+3.26668918e-01f,-2.31287368e-02f,-3.14907134e-01f,+1.11033535e-02f,-2.27024667e-02f,
-1.14371888e-02f,+7.06096739e-03f,+4.75092418e-02f,+2.85607092e-02f,-9.11598280e-03f,
-2.12063789e-02f,-7.03339651e-03f,+2.68822648e-02f,-3.30517292e-02f,-2.27882713e-03f,
+2.92171352e-02f,+3.59320156e-02f,-5.84693998e-03f,-1.59026496e-02f,-2.91220900e-02f,
-2.71962881e-02f,-2.53423583e-02f,-1.23536699e-02f,+2.52713300e-02f,-1.25028379e-02f,
+6.95863545e-01f,+8.66585672e-01f,+8.05476665e-01f,+1.30031444e-02f,+8.48702192e-01f,
+8.19565535e-01f,-1.02950788e+00f,-3.01283486e-02f,+8.82461190e-01f,-3.20826918e-02f,
+3.70679908e-02f,-1.00899673e+00f,+4.53819148e-02f,+8.89243424e-01f,+8.02325070e-01f,
-8.53523850e-01f,+8.35635513e-03f,+8.48531425e-01f,+3.21361385e-02f,-3.78901027e-02f,
-7.44674355e-03f,+3.99244465e-02f,-6.80806488e-03f,+1.80442445e-02f,+3.40413116e-02f,
+4.65636589e-02f,-3.53143588e-02f,+4.49802727e-03f,-6.72590733e-03f,-2.74962541e-02f,
-3.26938517e-02f,+3.14297341e-02f,-4.23933640e-02f,-7.93341547e-03f,-4.70680855e-02f,
-1.55770890e-02f,-1.94006320e-02f,-5.51713631e-03f,-4.20320854e-02f,+4.90830094e-03f,
+7.29406714e-01f,+7.50653088e-01f,+7.28293538e-01f,-2.45116651e-04f,+8.17473471e-01f,
+7.04354703e-01f,-2.71834582e-01f,+3.01398523e-02f,+7.44659305e-01f,-4.58338633e-02f,
+1.32208131e-02f,-3.81821543e-01f,-3.49680781e-02f,+7.33157098e-01f,+6.79158211e-01f,
-4.16815102e-01f,+3.13109159e-03f,+6.93524599e-01f,-1.74899530e-02f,+3.28133139e-03f,
+5.85071623e-01f,+4.74426508e-01f,+4.60149318e-01f,-3.67599018e-02f,+5.72599828e-01f,
+5.34628332e-01f,-1.17855772e-01f,+8.27096403e-04f,+4.93090510e-01f,-4.75524180e-02f,
+5.95095009e-03f,-1.54659033e-01f,-2.45470926e-03f,+5.33546567e-01f,+5.29299974e-01f,
-2.20456034e-01f,-3.82492170e-02f,+4.55055982e-01f,-3.63123231e-03f,-2.00033654e-02f,
+5.04455745e-01f,+5.14628708e-01f,+5.22213161e-01f,-8.86703655e-03f,+5.99566281e-01f,
+4.45239961e-01f,-9.70989540e-02f,-2.24210266e-02f,+5.24096072e-01f,+3.64615582e-02f,
-1.94771904e-02f,-6.92629591e-02f,-3.24922092e-02f,+4.88338619e-01f,+5.08020878e-01f,
-1.85322121e-01f,+3.21052335e-02f,+5.03913999e-01f,+3.61793637e-02f,-7.99955614e-03f,
+2.37477994e+00f,+2.45772147e+00f,+2.40232182e+00f,-4.63328511e-03f,+2.40140033e+00f,
+2.36469197e+00f,-2.23819113e+00f,+3.76556776e-02f,+2.44035196e+00f,+2.36450173e-02f,
+4.30946797e-02f,-2.21874666e+00f,-4.13203724e-02f,+2.39994073e+00f,+2.40127826e+00f,
-2.18586850e+00f,-4.88445535e-02f,+2.45536852e+00f,-4.58003394e-02f,-2.89042406e-02f,
-1.76056713e-01f,-1.59915924e-01f,-1.15027659e-01f,-4.93298061e-02f,-1.90023467e-01f,
-1.28605470e-01f,+2.34892830e-01f,-2.77090818e-04f,-1.69932395e-01f,-2.67575514e-02f,
-3.59945782e-02f,+2.56555855e-01f,-4.41443212e-02f,-1.20195493e-01f,-1.05946861e-01f,
+2.49954194e-01f,-2.58218180e-02f,-1.19216874e-01f,+2.90237721e-02f,+3.08935419e-02f,
-4.15685996e-02f,-4.32903692e-03f,+4.96705510e-02f,-1.54384486e-02f,+2.57295035e-02f,
-4.41942103e-02f,+4.96064685e-02f,+2.95324661e-02f,-2.75171995e-02f,-1.89686306e-02f,
+2.45273449e-02f,-3.88991721e-02f,-1.35781392e-02f,+2.36316659e-02f,+2.37105601e-02f,
-2.06969623e-02f,+6.77461550e-03f,-4.78501692e-02f,-2.15580948e-02f,+4.99962009e-02f,
+4.38810326e-02f,-1.60675645e-02f,-3.67907509e-02f,-1.77646168e-02f,-2.63016224e-02f,
+1.30236261e-02f,+1.42226703e-02f,+1.42188556e-02f,+3.09523232e-02f,-1.04835629e-02f,
-2.92118788e-02f,-3.13309580e-02f,-1.88745502e-02f,+2.52269544e-02f,-4.41337228e-02f,
-1.84278972e-02f,-1.04984418e-02f,-5.02333790e-03f,-2.61987373e-03f,-6.16034120e-03f,
+7.28956699e-01f,+6.72106445e-01f,+7.13650644e-01f,+2.02699639e-02f,+8.16225529e-01f,
+6.36226952e-01f,-3.28848064e-01f,-4.67621088e-02f,+7.08245516e-01f,+1.27294771e-02f,
-3.97211388e-02f,-2.76221186e-01f,-5.65265492e-03f,+7.10102856e-01f,+6.26901746e-01f,
-4.18511212e-01f,+2.72485279e-02f,+7.09964693e-01f,-1.38043808e-02f,-1.52156400e-02f,
+6.66375458e-01f,+8.10668468e-01f,+7.62643695e-01f,-1.46174654e-02f,+7.50054359e-01f,
+7.06075311e-01f,-8.98802400e-01f,-4.14287224e-02f,+8.06673288e-01f,+4.61919345e-02f,
+3.49828564e-02f,-9.14651930e-01f,+4.24025767e-02f,+7.55275548e-01f,+7.93853462e-01f,
-7.70520627e-01f,+2.78719105e-02f,+7.27118731e-01f,-3.74289006e-02f,-4.90107350e-02f,
+2.89043449e-02f,-4.92405891e-02f,-3.16522010e-02f,-3.91248688e-02f,-8.27255100e-03f,
+3.53524126e-02f,-2.65974756e-02f,-4.81542461e-02f,+4.23382968e-04f,+1.24586113e-02f,
-1.98036190e-02f,-9.35886055e-03f,-4.29781340e-02f,-1.73912421e-02f,+2.86504067e-02f,
+1.24247558e-02f,+4.72208746e-02f,-1.74111240e-02f,-2.68884301e-02f,+2.08471529e-02f,
+6.72928989e-01f,+6.17198169e-01f,+5.91779172e-01f,+8.72902945e-03f,+7.99706578e-01f,
+6.43365383e-01f,-1.84331313e-01f,+1.54997967e-02f,+5.95455408e-01f,+1.69308111e-03f,
-1.51205659e-02f,-2.72106051e-01f,-3.03777941e-02f,+6.31674051e-01f,+6.21640325e-01f,
-3.37268025e-01f,+4.31200005e-02f,+6.50611699e-01f,+4.15189303e-02f,+1.86324213e-02f,
}; 
k2c_tensor dense_33_kernel = {&dense_33_kernel_array[0],2,400,{20,20, 1, 1, 1}}; 
float dense_33_bias_array[20] = {
+9.61371586e-02f,+5.80005348e-02f,+7.03711212e-02f,+0.00000000e+00f,+8.56225342e-02f,
+9.94577259e-02f,+4.38541807e-02f,+0.00000000e+00f,+7.04660267e-02f,+0.00000000e+00f,
-1.79639668e-03f,+2.60940958e-02f,+0.00000000e+00f,+7.12685809e-02f,+1.05095297e-01f,
+2.93784458e-02f,+0.00000000e+00f,+7.22511113e-02f,-2.41517089e-03f,-7.66644301e-03f,
}; 
k2c_tensor dense_33_bias = {&dense_33_bias_array[0],1,20,{20, 1, 1, 1, 1}}; 
float dense_33_fwork[420] = {0}; 

 
float dense_34_output_array[20] = {0}; 
k2c_tensor dense_34_output = {&dense_34_output_array[0],1,20,{20, 1, 1, 1, 1}}; 
float dense_34_kernel_array[400] = {
+1.69739481e-02f,+1.04475081e+00f,+1.02016020e+00f,+3.36154625e-02f,+3.53119016e-01f,
+9.92608249e-01f,-2.84390152e-01f,-1.15262866e-02f,+1.01853383e+00f,-4.67310613e-03f,
-4.78502452e-01f,+9.89601851e-01f,-3.31099719e-01f,+9.98280823e-01f,+4.35836948e-02f,
+1.10404921e+00f,-5.14348894e-02f,+2.92051077e-01f,-4.73517239e-01f,+1.05812442e+00f,
+3.65974307e-02f,+2.60821462e+00f,+2.52204990e+00f,-2.06431337e-02f,-1.27880061e+00f,
+2.50170541e+00f,+5.70217431e-01f,+2.69890912e-02f,+2.48773408e+00f,+4.30139415e-02f,
-1.78752565e+00f,+2.49730420e+00f,-1.68681026e+00f,+2.56132746e+00f,-4.85484861e-02f,
+2.62932205e+00f,+1.54586574e-02f,-1.42633796e+00f,-1.80241811e+00f,+2.52756596e+00f,
+4.61414643e-03f,+2.43276930e+00f,+2.43047261e+00f,-4.39802930e-02f,-9.08355296e-01f,
+2.39602351e+00f,+5.29257476e-01f,+4.00564782e-02f,+2.43812156e+00f,-3.63359712e-02f,
-1.52146590e+00f,+2.38102150e+00f,-1.45373046e+00f,+2.44308376e+00f,-3.89263146e-02f,
+2.48085737e+00f,-2.10057572e-02f,-1.03878474e+00f,-1.61512387e+00f,+2.49100351e+00f,
-2.65028607e-02f,+4.10619415e-02f,+4.54665311e-02f,-1.12653747e-02f,-1.92480087e-02f,
-3.20609696e-02f,-3.74916196e-02f,+9.66691971e-03f,+1.09275095e-02f,+9.47488472e-03f,
-3.98889668e-02f,-2.86317002e-02f,-4.64726575e-02f,+5.19061089e-03f,+3.64993103e-02f,
-2.22276337e-02f,-1.91474799e-02f,+4.82692234e-02f,+3.30840088e-02f,-2.18978282e-02f,
+5.79529582e-03f,+1.10033786e+00f,+1.06585431e+00f,-2.27475981e-03f,+1.48975456e+00f,
+1.10093582e+00f,-1.45732915e+00f,-5.78571483e-03f,+1.05353630e+00f,+3.13668102e-02f,
+7.65744925e-01f,+1.00884485e+00f,+8.74622643e-01f,+1.09996378e+00f,+2.70127542e-02f,
+1.16607070e+00f,-3.91965136e-02f,+1.50750411e+00f,+6.75825000e-01f,+1.11053681e+00f,
+2.28623282e-02f,+9.93911207e-01f,+9.81870592e-01f,-2.41274368e-02f,+1.85940370e-01f,
+1.02314901e+00f,-6.75818622e-02f,-4.66135032e-02f,+1.00989270e+00f,+4.29564342e-02f,
-6.30025566e-01f,+9.48469102e-01f,-5.31120062e-01f,+9.69431818e-01f,-3.82710807e-02f,
+1.09272289e+00f,-1.67721380e-02f,+1.34374142e-01f,-6.65537953e-01f,+9.86162543e-01f,
-2.38420404e-02f,-5.71677268e-01f,-4.95744020e-01f,-1.78151950e-02f,+1.06977127e-01f,
-4.96480167e-01f,-1.47984121e-02f,+1.50933750e-02f,-5.00346839e-01f,-4.95411344e-02f,
+6.80338562e-01f,-5.22192836e-01f,+5.09522080e-01f,-5.35407960e-01f,-3.58210690e-02f,
-5.19893765e-01f,+2.87230629e-02f,+1.20718211e-01f,+7.35721827e-01f,-5.30676246e-01f,
+2.53443234e-02f,+6.82757050e-03f,+4.35611345e-02f,+2.04196684e-02f,+1.66906975e-02f,
-8.20947811e-03f,-4.43316624e-03f,+3.12882103e-02f,-1.53628215e-02f,+1.11709721e-02f,
+1.03425607e-02f,+2.67833471e-03f,+2.69689821e-02f,+3.18525322e-02f,-2.63370518e-02f,
-3.57942209e-02f,+3.26789655e-02f,-3.20345908e-02f,+1.33082308e-02f,-3.29360254e-02f,
+2.67093000e-03f,+2.58162069e+00f,+2.49857116e+00f,+4.74534854e-02f,-1.20488763e+00f,
+2.54813790e+00f,+5.75227499e-01f,-9.83069092e-03f,+2.54150772e+00f,-2.39772070e-02f,
-1.64228261e+00f,+2.46266866e+00f,-1.60557151e+00f,+2.51314497e+00f,-4.11389098e-02f,
+2.55743933e+00f,-2.22968739e-02f,-1.21466410e+00f,-1.73697734e+00f,+2.51531315e+00f,
-3.06081418e-02f,-2.27390286e-02f,-6.84814528e-03f,-4.34043072e-02f,-4.33452390e-02f,
+3.98105383e-03f,+2.16026045e-02f,-3.48847136e-02f,+3.69221605e-02f,+4.15133722e-02f,
-1.95471644e-02f,+1.38906129e-02f,+3.46643850e-03f,+7.05276802e-03f,-4.07674536e-02f,
+2.88682058e-03f,-3.84121016e-03f,-8.59401375e-03f,-2.49590762e-02f,+2.09681652e-02f,
-2.39622314e-02f,-2.40303352e-02f,-4.39260304e-02f,-5.16615063e-03f,-2.11956631e-02f,
-2.69932561e-02f,-4.81649414e-02f,+3.32812779e-02f,+1.02188140e-02f,+1.81705505e-02f,
+2.18495764e-02f,-7.45631382e-03f,-4.27619219e-02f,+4.08512838e-02f,-2.72318721e-02f,
+6.02736464e-03f,+3.02157663e-02f,+2.41249800e-03f,-2.33319160e-02f,-8.02198146e-03f,
-1.12209853e-03f,-5.58703840e-01f,-5.78217387e-01f,-3.02099120e-02f,+1.14428714e-01f,
-5.92094600e-01f,-2.99602784e-02f,-1.37751214e-02f,-6.12073421e-01f,-1.53073017e-02f,
+6.68664277e-01f,-5.30713201e-01f,+5.75333655e-01f,-5.64428747e-01f,-2.38058101e-02f,
-5.91195464e-01f,+3.46383937e-02f,+1.23700902e-01f,+7.47200727e-01f,-5.43215394e-01f,
-2.11906917e-02f,+3.04636396e-02f,-8.12899321e-04f,+2.44618393e-02f,+2.45799534e-02f,
+4.67516296e-02f,+3.90742086e-02f,-2.31343638e-02f,-2.06044670e-02f,+1.62802972e-02f,
-2.68726349e-02f,+8.36461782e-03f,-4.18357477e-02f,+1.71278603e-02f,-1.25799067e-02f,
+4.53193076e-02f,-3.55186462e-02f,+2.74214260e-02f,+4.33864854e-02f,+3.11009027e-02f,
-4.40176129e-02f,+2.51276875e+00f,+2.42316556e+00f,+9.58630908e-03f,-9.90126312e-01f,
+2.42335367e+00f,+5.34466684e-01f,-1.17880479e-02f,+2.46280336e+00f,-7.09946733e-03f,
-1.61802435e+00f,+2.37547946e+00f,-1.48775542e+00f,+2.40204525e+00f,+2.31383108e-02f,
+2.52806163e+00f,+2.09965724e-02f,-1.05281091e+00f,-1.58570325e+00f,+2.40801740e+00f,
-8.91901029e-04f,+1.05548668e+00f,+9.03464019e-01f,-2.58489270e-02f,+4.98132082e-03f,
+9.95331466e-01f,-3.10403015e-02f,-9.52358171e-03f,+9.89374816e-01f,-4.45209667e-02f,
-7.57024050e-01f,+9.45328653e-01f,-6.19531453e-01f,+1.00441241e+00f,+3.24538387e-02f,
+1.01044071e+00f,+3.15762800e-03f,+2.12010927e-02f,-8.18435252e-01f,+1.04399943e+00f,
+9.79498029e-03f,-5.79613864e-01f,-5.68717659e-01f,-2.13772189e-02f,+2.43212841e-03f,
-5.47950268e-01f,+2.99986191e-02f,-3.36510092e-02f,-5.82158685e-01f,+2.45395675e-03f,
+5.31575024e-01f,-5.35231352e-01f,+4.21540439e-01f,-5.53959370e-01f,-3.68414037e-02f,
-6.29238307e-01f,-4.90699410e-02f,+1.55017069e-02f,+5.83871186e-01f,-5.92045665e-01f,
-2.92075798e-03f,+4.99850996e-02f,+2.74881013e-02f,-3.16666439e-03f,+2.72759087e-02f,
-6.55349344e-03f,+1.22488849e-02f,+3.33420187e-03f,-1.71225891e-02f,+4.54957746e-02f,
+1.40308999e-02f,+7.15196133e-04f,-4.20172438e-02f,+1.39918067e-02f,+4.60877307e-02f,
-4.81932759e-02f,+8.09531286e-03f,+4.16692235e-02f,+3.54608409e-02f,-1.44575238e-02f,
-2.39439122e-02f,+2.38058424e+00f,+2.30205178e+00f,-2.46204790e-02f,-9.08825457e-01f,
+2.36538625e+00f,+4.17240262e-01f,-4.31568623e-02f,+2.33747745e+00f,-2.91733742e-02f,
-1.36040270e+00f,+2.32171869e+00f,-1.29005623e+00f,+2.35687327e+00f,+5.47505543e-03f,
+2.38420510e+00f,+4.10336480e-02f,-9.66318548e-01f,-1.44991267e+00f,+2.40348911e+00f,
+1.82968043e-02f,-4.45755199e-02f,+7.79436389e-03f,+2.33246349e-02f,+4.83090766e-02f,
-2.73655225e-02f,-5.17842919e-03f,-3.84750962e-02f,+4.73234877e-02f,+1.17893592e-02f,
+2.36163996e-02f,-3.77266929e-02f,+2.25423910e-02f,-3.94558394e-03f,+1.26047842e-02f,
-7.94636144e-04f,+2.24893428e-02f,-1.04029067e-02f,+2.95894258e-02f,+4.06290106e-02f,
+8.67208093e-03f,+4.27730475e-03f,+2.91696731e-02f,-1.88086871e-02f,+2.01565363e-02f,
-2.04900205e-02f,-6.52373955e-03f,+1.33356117e-02f,+9.93210450e-03f,-1.13323443e-02f,
-1.52890328e-02f,-4.44933819e-03f,-4.32936139e-02f,-1.13814007e-02f,-4.84727696e-03f,
+4.66411673e-02f,-1.61050204e-02f,+2.03125589e-02f,+5.38629992e-03f,+1.66554581e-02f,
}; 
k2c_tensor dense_34_kernel = {&dense_34_kernel_array[0],2,400,{20,20, 1, 1, 1}}; 
float dense_34_bias_array[20] = {
-2.59002834e-03f,+4.12628129e-02f,+4.66499664e-02f,-5.11813269e-04f,-5.19219004e-02f,
+3.45503576e-02f,+1.09563924e-01f,+0.00000000e+00f,+4.20641638e-02f,-4.38226794e-04f,
+1.41476691e-01f,+3.84838916e-02f,+1.16453178e-01f,+4.10238951e-02f,+0.00000000e+00f,
+3.93766090e-02f,-6.84798928e-03f,-4.89910506e-02f,+1.54130682e-01f,+3.45781818e-02f,
}; 
k2c_tensor dense_34_bias = {&dense_34_bias_array[0],1,20,{20, 1, 1, 1, 1}}; 
float dense_34_fwork[420] = {0}; 

 
float dense_35_kernel_array[20] = {
+3.56893450e-01f,-3.07065368e+00f,-3.54316425e+00f,+2.57218927e-01f,+1.32147813e+00f,
-3.23999000e+00f,-1.02584052e+00f,-4.45863307e-02f,-3.20575356e+00f,+2.28769556e-02f,
+1.17325139e+00f,-3.50855422e+00f,+8.52747381e-01f,-3.37473178e+00f,+1.95808232e-01f,
-3.00997210e+00f,-1.40479907e-01f,+7.49080837e-01f,+8.66206169e-01f,-3.12300539e+00f,
}; 
k2c_tensor dense_35_kernel = {&dense_35_kernel_array[0],2,20,{20, 1, 1, 1, 1}}; 
float dense_35_bias_array[1] = {
+1.60475215e-03f,}; 
k2c_tensor dense_35_bias = {&dense_35_bias_array[0],1,1,{1,1,1,1,1}}; 
float dense_35_fwork[40] = {0}; 

 
k2c_dense(&dense_32_output,dense_32_input_input,&dense_32_kernel, 
	&dense_32_bias,k2c_relu,dense_32_fwork); 
k2c_dense(&dense_33_output,&dense_32_output,&dense_33_kernel, 
	&dense_33_bias,k2c_relu,dense_33_fwork); 
k2c_dense(&dense_34_output,&dense_33_output,&dense_34_kernel, 
	&dense_34_bias,k2c_relu,dense_34_fwork); 
k2c_dense(dense_35_2_output,&dense_34_output,&dense_35_kernel, 
	&dense_35_bias,k2c_sigmoid,dense_35_fwork); 
	*/
return;

 } 

void MLP_SND_RTTModel::keras2c_model_Round0000002 (const k2c_tensor* dense_32_input_input, k2c_tensor* dense_35_output) 
{ 
/*
cout << "MLP_SND_RTTModel::keras2c_model_Round0000002\n";
float dense_32_output_array[20] = {0}; 
k2c_tensor dense_32_output = {&dense_32_output_array[0],1,20,{20, 1, 1, 1, 1}}; 
float dense_32_kernel_array[40] = {
+6.96291849e-02f,+2.58236900e-02f,+9.30715576e-02f,+3.44209000e-02f,+4.01979648e-02f,
+9.21671987e-02f,-1.41539099e-02f,+8.75317007e-02f,-9.24233347e-03f,+1.29321232e-01f,
-3.49890962e-02f,-2.62520928e-02f,-1.25816949e-02f,+9.14936587e-02f,-3.26227918e-02f,
-8.57426673e-02f,-1.77177507e-02f,+1.10980272e-02f,-3.75439785e-02f,+8.40307325e-02f,
-2.23295629e-01f,+3.02642971e-01f,-2.13163823e-01f,-4.10795920e-02f,-2.36785442e-01f,
+2.99806267e-01f,-1.88233525e-01f,+3.14535588e-01f,-3.51234302e-02f,-2.03898221e-01f,
-3.84990945e-02f,-2.02432811e-01f,-2.70308256e-02f,+2.88459629e-01f,-1.58812776e-02f,
-1.39824614e-01f,-1.91387817e-01f,-4.26349752e-02f,-1.68966785e-01f,+2.96074212e-01f,
}; 
k2c_tensor dense_32_kernel = {&dense_32_kernel_array[0],2,40,{ 2,20, 1, 1, 1}}; 
float dense_32_bias_array[20] = {
+2.01437816e-01f,-7.30828866e-02f,+1.97165400e-01f,-6.65522763e-04f,+2.07983434e-01f,
-1.25717536e-01f,+1.99903250e-01f,-1.21335760e-01f,+0.00000000e+00f,+1.82992622e-01f,
+0.00000000e+00f,+2.10200146e-01f,+0.00000000e+00f,-1.16957113e-01f,+0.00000000e+00f,
+2.16430694e-01f,+2.06190094e-01f,+0.00000000e+00f,+1.96252540e-01f,-1.15419313e-01f,
}; 
k2c_tensor dense_32_bias = {&dense_32_bias_array[0],1,20,{20, 1, 1, 1, 1}}; 
float dense_32_fwork[42] = {0}; 

 
float dense_33_output_array[20] = {0}; 
k2c_tensor dense_33_output = {&dense_33_output_array[0],1,20,{20, 1, 1, 1, 1}}; 
float dense_33_kernel_array[400] = {
+6.86013162e-01f,-9.12100077e-03f,+6.85321808e-01f,-4.11561877e-03f,-7.63577223e-03f,
-2.24941492e-01f,-3.16920765e-02f,+2.52589099e-02f,+1.19829094e+00f,-9.48641449e-03f,
-2.18997356e-02f,+3.10858320e-02f,+4.98472564e-02f,+6.98314905e-01f,+7.29228675e-01f,
+7.38906085e-01f,+6.65973186e-01f,+6.85966253e-01f,-3.47836502e-02f,+6.82097673e-01f,
-1.04463838e-01f,+3.02613415e-02f,-1.48459256e-01f,+3.47659104e-02f,-1.97529551e-02f,
+2.99202830e-01f,-2.38724425e-02f,+1.52557110e-02f,-1.81838647e-01f,+2.08577365e-02f,
-4.88077886e-02f,-3.67320366e-02f,-3.69916186e-02f,-1.08794823e-01f,-1.66176260e-01f,
-1.10193022e-01f,-1.87031150e-01f,-1.05847687e-01f,-4.65520136e-02f,-1.23196967e-01f,
+7.16110289e-01f,-2.37878319e-02f,+6.18901551e-01f,+3.75703834e-02f,+3.03911902e-02f,
-2.53246158e-01f,+3.37061174e-02f,+4.76070307e-02f,+7.50326335e-01f,-3.78878340e-02f,
+4.61309068e-02f,-7.10136816e-03f,+6.13857061e-04f,+5.60448110e-01f,+7.79072881e-01f,
+8.78714442e-01f,+7.49051750e-01f,+5.83291769e-01f,+2.33952440e-02f,+7.23130643e-01f,
-9.92243364e-03f,+2.26170905e-02f,+3.52024771e-02f,-5.28544188e-03f,+4.92362492e-02f,
-3.86509895e-02f,+2.23714821e-02f,-3.97265665e-02f,-4.70382906e-02f,-3.81459706e-02f,
+5.76652214e-03f,+3.82587574e-02f,-2.30957400e-02f,-3.71914096e-02f,+2.73206495e-02f,
+3.73429954e-02f,-1.25816166e-02f,-4.26618196e-02f,-3.78235355e-02f,-4.02119756e-02f,
+6.95465267e-01f,-2.51650773e-02f,+8.49478364e-01f,-3.20650563e-02f,-2.67011765e-02f,
-8.26878548e-01f,-4.85449955e-02f,-4.75276448e-02f,+2.15826035e+00f,+4.64096628e-02f,
-3.70175838e-02f,-5.38809188e-02f,+2.70050652e-02f,+7.98913062e-01f,+3.82001817e-01f,
+1.13023067e+00f,+3.64956647e-01f,+8.14272285e-01f,+2.56492011e-02f,+4.35664356e-01f,
-3.34270865e-01f,-3.67852710e-02f,-3.42397422e-01f,-4.55975793e-02f,+2.33686604e-02f,
+3.74526829e-01f,+2.34044679e-02f,-4.94798310e-02f,-4.19797540e-01f,-3.70136909e-02f,
+4.27255780e-03f,+3.56221385e-02f,-4.44061756e-02f,-3.05594683e-01f,-3.20613652e-01f,
-2.30648965e-01f,-2.75515318e-01f,-2.90384978e-01f,-4.81651798e-02f,-2.94107765e-01f,
+7.77186930e-01f,-3.21579799e-02f,+7.38415956e-01f,-3.79703753e-02f,-3.35158594e-02f,
-4.83601511e-01f,+4.56491113e-02f,+4.31232527e-02f,+1.38749063e+00f,+3.90235009e-03f,
+3.98700498e-02f,-3.39818038e-02f,-2.61403080e-02f,+7.38878548e-01f,+8.53307068e-01f,
+8.04495573e-01f,+8.46115172e-01f,+7.55429029e-01f,+2.32336782e-02f,+8.36321473e-01f,
-2.93429643e-01f,-3.68638523e-02f,-3.08925092e-01f,-4.48519699e-02f,-2.92093158e-02f,
+4.41470295e-01f,-2.95958519e-02f,+9.71955713e-03f,-3.63717556e-01f,-3.45853530e-03f,
-4.20953743e-02f,-5.68825006e-03f,+5.61277941e-03f,-3.17806900e-01f,-3.18782330e-01f,
-2.06390828e-01f,-2.71016866e-01f,-3.47614616e-01f,+3.04995216e-02f,-2.73712903e-01f,
-2.28429195e-02f,+3.16843726e-02f,+9.35848802e-03f,-3.40905786e-02f,+2.89406814e-02f,
+3.50521319e-02f,+1.93912424e-02f,+6.75056130e-03f,-2.29894873e-02f,-9.19278711e-03f,
+2.17199437e-02f,+1.29965581e-02f,+2.36128084e-02f,-3.69270071e-02f,-3.49126346e-02f,
-1.57744773e-02f,+3.71184610e-02f,-1.85242295e-02f,+3.38419564e-02f,-2.15492845e-02f,
+5.36738753e-01f,+4.73370403e-03f,+5.40620506e-01f,+3.55905630e-02f,-7.67143816e-03f,
-4.86648118e-04f,+2.83242203e-02f,-3.74284014e-02f,+7.53935218e-01f,-2.31366158e-02f,
+4.51614000e-02f,-2.96705812e-02f,-3.93371694e-02f,+5.28718829e-01f,+5.45217931e-01f,
+6.39694810e-01f,+5.68370461e-01f,+5.16772687e-01f,-4.53637242e-02f,+5.68569303e-01f,
-3.89040224e-02f,+2.86129229e-02f,-2.44799498e-02f,-2.39831451e-02f,+3.59351970e-02f,
+2.33434923e-02f,-2.96185501e-02f,-1.72858462e-02f,+3.12655307e-02f,+3.74407284e-02f,
+4.76514213e-02f,+4.31061499e-02f,+4.24014814e-02f,-1.47605911e-02f,+3.73287685e-02f,
-1.18573084e-02f,-1.03542693e-02f,-3.51918340e-02f,+2.92464755e-02f,-1.73745044e-02f,
+7.71060348e-01f,-5.10590151e-02f,+7.72080719e-01f,-2.29269397e-02f,-2.25865375e-02f,
-1.24561691e+00f,+4.88349721e-02f,-1.78707717e-03f,+1.34950948e+00f,-6.21601380e-03f,
-4.98587005e-02f,+4.56775203e-02f,+7.94763491e-03f,+7.82965004e-01f,+7.97857821e-01f,
+1.78737462e+00f,+7.64797449e-01f,+7.93488204e-01f,-4.09269705e-02f,+8.04385841e-01f,
-2.25903746e-02f,+4.14057262e-02f,+5.17491251e-03f,-1.50865540e-02f,+3.28177214e-03f,
+1.84107162e-02f,+2.78748572e-04f,-1.74128190e-02f,+1.10864751e-02f,-9.20574740e-03f,
+5.12171537e-04f,-2.04973351e-02f,+1.97601318e-03f,-3.66170332e-03f,+2.56040357e-02f,
+4.57267426e-02f,-3.45494971e-02f,-3.03581487e-02f,+2.93647125e-03f,-7.90967792e-03f,
-2.96240062e-01f,+7.51669228e-04f,-2.28258356e-01f,-5.14590740e-03f,+1.86016895e-02f,
+3.64471227e-01f,+1.64344162e-03f,+3.55886258e-02f,-3.20708394e-01f,-1.57179926e-02f,
-2.17715036e-02f,-1.44988503e-02f,-3.82855050e-02f,-3.14442307e-01f,-2.87310451e-01f,
-1.44949362e-01f,-2.25632265e-01f,-2.85257071e-01f,-3.71536128e-02f,-2.70936042e-01f,
-1.75518021e-02f,+8.86820629e-03f,+4.46315669e-02f,+4.10094000e-02f,+4.94644754e-02f,
-4.56671491e-02f,-4.15151343e-02f,-3.55157033e-02f,-4.85239290e-02f,-2.70927306e-02f,
-1.83344111e-02f,-4.17269468e-02f,-3.65282074e-02f,-2.62370706e-02f,+3.09840776e-02f,
-6.74064085e-03f,+3.69637646e-02f,+4.35896255e-02f,+4.79266979e-02f,-3.35110351e-03f,
+3.37157726e-01f,+4.52948175e-02f,+3.87825459e-01f,-4.80276719e-02f,-1.16271488e-02f,
-4.08439070e-01f,-1.44781154e-02f,+1.69867221e-02f,+8.04486394e-01f,+2.80725956e-02f,
-1.59097426e-02f,+8.61237757e-03f,+2.19992511e-02f,+3.64594996e-01f,+3.90163779e-01f,
+2.63462931e-01f,+4.16287452e-01f,+4.00551587e-01f,-8.90309736e-03f,+3.39067787e-01f,
+8.08678150e-01f,-3.62131931e-02f,+7.59401381e-01f,-3.67875919e-02f,-2.28793975e-02f,
-4.96122599e-01f,+2.54381895e-02f,-4.74313982e-02f,+1.42038989e+00f,+1.85901411e-02f,
-4.34099510e-03f,-3.58585790e-02f,-2.48155482e-02f,+8.07268441e-01f,+7.95318305e-01f,
+8.74895513e-01f,+8.61567378e-01f,+7.80054748e-01f,-3.16715017e-02f,+8.30516756e-01f,
-1.46490932e-02f,-3.17025073e-02f,+4.72140573e-02f,-3.68614085e-02f,-2.24387888e-02f,
-2.96073090e-02f,+3.93370129e-02f,+3.03906538e-02f,+3.44212987e-02f,+2.28367485e-02f,
-3.96262296e-02f,+3.72215174e-02f,+4.08695973e-02f,+3.82871740e-02f,+1.28983371e-02f,
-3.64661440e-02f,+3.03300358e-02f,+4.47282232e-02f,+3.03300470e-03f,-1.35662071e-02f,
+3.64128619e-01f,+2.02827696e-02f,+3.56719315e-01f,+1.89374946e-02f,+3.24195661e-02f,
-1.92623571e-01f,-9.63721238e-03f,+1.38481157e-02f,+8.21869075e-01f,-3.19184512e-02f,
-2.15985775e-02f,-2.70606782e-02f,-1.64407492e-02f,+3.21224183e-01f,+4.38370526e-01f,
+3.05892259e-01f,+4.42607790e-01f,+2.95627058e-01f,-1.20512247e-02f,+4.57442731e-01f,
-3.11385632e-01f,+2.85551581e-03f,-2.85673231e-01f,-2.49357112e-02f,-2.23712809e-02f,
+3.99521202e-01f,-1.13338232e-03f,-4.40076888e-02f,-3.44121546e-01f,-4.75531965e-02f,
-4.22374494e-02f,+2.40604971e-02f,+3.75595577e-02f,-2.81688005e-01f,-2.26882264e-01f,
-2.06438974e-01f,-2.81221420e-01f,-2.76441664e-01f,-3.86940725e-02f,-2.98174053e-01f,
}; 
k2c_tensor dense_33_kernel = {&dense_33_kernel_array[0],2,400,{20,20, 1, 1, 1}}; 
float dense_33_bias_array[20] = {
+1.13054991e-01f,-2.89594824e-03f,+9.96392220e-02f,+0.00000000e+00f,+0.00000000e+00f,
+6.26828000e-02f,-7.71701045e-04f,-1.21794315e-03f,+1.14883833e-01f,-4.01528832e-03f,
+0.00000000e+00f,-1.59514509e-03f,+0.00000000e+00f,+9.80798379e-02f,+1.16449632e-01f,
+9.34596434e-02f,+1.00592025e-01f,+9.29463804e-02f,+0.00000000e+00f,+1.06544010e-01f,
}; 
k2c_tensor dense_33_bias = {&dense_33_bias_array[0],1,20,{20, 1, 1, 1, 1}}; 
float dense_33_fwork[420] = {0}; 

 
float dense_34_output_array[20] = {0}; 
k2c_tensor dense_34_output = {&dense_34_output_array[0],1,20,{20, 1, 1, 1, 1}}; 
float dense_34_kernel_array[400] = {
+2.32239532e+00f,-1.65801644e-02f,+2.23501539e+00f,-5.69747053e-02f,+3.58566009e-02f,
+2.27675271e+00f,-7.88600370e-03f,+3.05923726e-02f,-1.48418427e+00f,+1.95093211e-02f,
-1.17899585e+00f,+2.12369561e+00f,-1.96637157e-02f,-1.81244183e+00f,+2.28553581e+00f,
-4.95063514e-02f,+2.08303618e+00f,+3.37428972e-03f,-2.92848945e+00f,-1.20907712e+00f,
+7.32564554e-03f,+3.31832804e-02f,+1.18591115e-02f,+4.35856618e-02f,+3.93921770e-02f,
-3.88200860e-03f,-1.61602981e-02f,+4.06926759e-02f,+2.34488044e-02f,+1.04246028e-02f,
+3.32407281e-02f,-3.75530533e-02f,-1.95339080e-02f,-3.08063161e-02f,+5.12128621e-02f,
-4.55808155e-02f,-1.69842895e-02f,-4.20209765e-02f,+5.06820530e-03f,-5.67224203e-03f,
+1.93120480e+00f,+3.31219174e-02f,+1.85491240e+00f,-4.98666652e-02f,+4.98714671e-03f,
+1.96718955e+00f,-4.07190807e-02f,-2.36481111e-02f,-1.79461110e+00f,+3.45413834e-02f,
-8.36191058e-01f,+1.90192544e+00f,-2.66401842e-03f,-2.29541945e+00f,+1.97173131e+00f,
+3.90022062e-02f,+1.86829972e+00f,+2.23616399e-02f,-1.75478780e+00f,-8.79155815e-01f,
-3.57897989e-02f,+5.90380281e-03f,-1.62590146e-02f,+4.60605510e-02f,+4.68620770e-02f,
-1.55092478e-02f,-2.33325362e-02f,+3.43560316e-02f,-1.60569325e-02f,-3.07691097e-03f,
+1.22897141e-02f,-3.80538218e-02f,-3.79661322e-02f,+4.54259776e-02f,-4.73699346e-02f,
-3.27106863e-02f,+4.86416556e-02f,+4.09151204e-02f,-3.43928933e-02f,-3.00643593e-03f,
-2.33399868e-03f,-7.87278265e-03f,-2.23392248e-03f,-2.77906302e-02f,+2.91749723e-02f,
-1.10938773e-02f,-1.82193145e-02f,+1.85250975e-02f,-3.21749076e-02f,-1.60887837e-02f,
+2.44480036e-02f,-3.94325741e-02f,+2.39411741e-03f,+4.64871041e-02f,+3.09370495e-02f,
+3.67619731e-02f,-7.94078037e-03f,+1.39131583e-02f,+1.81193687e-02f,+4.00944464e-02f,
-6.13489687e-01f,-1.94975603e-02f,-6.89171433e-01f,-6.31141756e-03f,-2.61644162e-02f,
-6.70109034e-01f,-1.81663521e-02f,+1.09541481e-02f,+3.48556906e-01f,-6.88012689e-03f,
+3.34645838e-01f,-6.85871780e-01f,-2.96770465e-02f,+1.54109284e-01f,-6.92270458e-01f,
-1.46463634e-02f,-7.69396484e-01f,-4.61246036e-02f,+2.83189595e-01f,+3.31746250e-01f,
+2.83380635e-02f,+4.08384949e-03f,+1.11191012e-02f,-3.26067805e-02f,+2.39257328e-02f,
-4.76550683e-02f,-4.28497791e-04f,+3.13071646e-02f,-1.64813884e-02f,+4.84250821e-02f,
-9.12357122e-04f,+1.09630693e-02f,+1.52420513e-02f,-1.10511892e-02f,-8.39254167e-03f,
-4.89404202e-02f,-4.17599408e-03f,+4.31504101e-03f,-3.44340801e-02f,+4.60290052e-02f,
+5.78328792e-04f,+2.42770892e-02f,-2.58557834e-02f,+1.52535383e-02f,+4.49242406e-02f,
+3.13158296e-02f,-4.35596108e-02f,+1.67329609e-02f,+2.73606610e-02f,+3.29578407e-02f,
+2.34780461e-03f,-3.98070961e-02f,+3.87904681e-02f,-1.43230334e-02f,+5.59904287e-03f,
+4.65464443e-02f,-2.19268482e-02f,-8.75040144e-03f,-1.66874900e-02f,-4.27699089e-02f,
+8.35566223e-01f,+1.11067039e-03f,+8.39268208e-01f,-5.27103618e-03f,-2.68236324e-02f,
+8.70732009e-01f,-1.47212036e-02f,+2.67853644e-02f,+4.24446297e+00f,-4.18306654e-03f,
+4.30625534e+00f,+7.69807100e-01f,-4.22925353e-02f,+4.58108091e+00f,+8.58986914e-01f,
-4.88310270e-02f,+9.28612292e-01f,-3.12802196e-02f,+4.24517584e+00f,+4.28102827e+00f,
-1.58995017e-03f,-2.73611397e-03f,+5.20279258e-02f,+2.35292055e-02f,-1.66802295e-02f,
-4.65477891e-02f,-9.50377062e-03f,+4.75939922e-02f,-8.82684067e-03f,+2.34568454e-02f,
-4.03395072e-02f,-1.26598636e-02f,+2.55231299e-02f,-3.61298919e-02f,+4.38605109e-03f,
-4.76947911e-02f,+1.00951167e-02f,-2.17309482e-02f,-2.36962195e-02f,+3.74184586e-02f,
-4.28806990e-04f,+4.25639190e-02f,-4.79034670e-02f,+1.71118267e-02f,-3.87046710e-02f,
+4.94223125e-02f,+9.62037966e-03f,+4.45912741e-02f,+3.18373367e-03f,+3.31752934e-02f,
-1.21822208e-03f,+4.00468819e-02f,+3.91721725e-04f,-4.68096025e-02f,+4.34711464e-02f,
-2.07627416e-02f,+1.13667250e-02f,+3.70036811e-04f,+3.16325463e-02f,+1.67872757e-03f,
-3.28354575e-02f,+2.42222436e-02f,+2.40642689e-02f,+3.93435024e-02f,-3.79965454e-03f,
-4.06022277e-03f,+2.35244296e-02f,-4.09090519e-02f,+3.23671624e-02f,-3.40259671e-02f,
-7.82651175e-03f,-1.44843841e-02f,-4.62273844e-02f,+2.85195038e-02f,+8.81340075e-03f,
+1.84786953e-02f,+4.60042153e-03f,-4.34013270e-02f,-3.95692587e-02f,-3.54585908e-02f,
-2.57808696e-02f,-7.57230446e-03f,-8.52769613e-03f,+1.83499195e-02f,-3.21550369e-02f,
-2.25756411e-02f,-4.22827490e-02f,+3.97184156e-02f,-2.20274813e-02f,-2.61189938e-02f,
+4.77926992e-02f,+8.42981413e-03f,-2.76291855e-02f,-3.25548537e-02f,-1.31865367e-02f,
-1.51710026e-02f,+1.58178322e-02f,-4.77528945e-02f,+2.73529999e-02f,+4.63251360e-02f,
+1.82417989e+00f,+2.64046737e-03f,+1.80985034e+00f,+2.32156310e-02f,-1.01837907e-02f,
+1.76470971e+00f,+2.34960429e-02f,+1.53654907e-03f,-1.81704807e+00f,-6.71313470e-03f,
-6.32274568e-01f,+1.82187557e+00f,-3.23870182e-02f,-2.42318749e+00f,+1.84396172e+00f,
-1.16745345e-02f,+1.76519430e+00f,-1.43042430e-02f,-1.71493196e+00f,-6.75595284e-01f,
+2.38898325e+00f,-1.22079230e-03f,+2.32047105e+00f,-1.44571653e-02f,-4.38779481e-02f,
+2.28575683e+00f,-1.38791651e-03f,+4.42094356e-03f,-1.68045092e+00f,-5.21795414e-02f,
-1.42239881e+00f,+2.16693950e+00f,+2.37666480e-02f,-2.01729894e+00f,+2.33129859e+00f,
-3.26009803e-02f,+2.19138575e+00f,-4.13170680e-02f,-2.96896315e+00f,-1.45135474e+00f,
+4.06347394e-01f,+1.81806348e-02f,+4.80811507e-01f,+4.08540741e-02f,-2.95699406e-02f,
+4.16053832e-01f,-1.76522881e-03f,-1.33499259e-03f,-1.74535036e+00f,+4.14446667e-02f,
-1.87044299e+00f,+5.43866158e-01f,+3.24350856e-02f,-1.13415909e+00f,+4.11653906e-01f,
-2.16282699e-02f,+9.05325353e-01f,-9.19066370e-04f,-1.78642654e+00f,-1.86629403e+00f,
+2.17719245e+00f,-2.60482784e-02f,+2.15344715e+00f,-4.76233615e-03f,+3.89772393e-02f,
+2.19673276e+00f,-4.76706997e-02f,+9.42742266e-03f,-1.42275310e+00f,-3.89295891e-02f,
-1.15570605e+00f,+2.07888079e+00f,-3.11557781e-02f,-1.77233851e+00f,+2.19774199e+00f,
+2.68421676e-02f,+2.05758357e+00f,-2.99959779e-02f,-2.72669363e+00f,-1.17839277e+00f,
+1.80089128e+00f,+2.46803928e-02f,+1.70079088e+00f,-5.69175482e-02f,+3.69354413e-04f,
+1.77897501e+00f,+2.59489752e-02f,+2.39159912e-02f,-1.85576534e+00f,-2.57387967e-03f,
-6.20977759e-01f,+1.76003540e+00f,+7.76267052e-03f,-2.42191601e+00f,+1.74931014e+00f,
+2.02392675e-02f,+1.68767548e+00f,-1.78550966e-02f,-1.62187123e+00f,-5.78736126e-01f,
-1.32892281e-03f,+2.10782178e-02f,-4.76749316e-02f,-4.03485410e-02f,+1.23305321e-02f,
+5.57903200e-03f,-2.97565348e-02f,+1.62489153e-02f,+3.76461782e-02f,+8.30977038e-03f,
-4.44987789e-02f,+1.19575858e-02f,-1.29905343e-02f,+3.15698422e-02f,-2.14105844e-02f,
-3.47744301e-03f,-9.18484852e-03f,+3.84944119e-02f,+1.99670531e-02f,-2.29696631e-02f,
+2.28938079e+00f,+3.03879995e-02f,+2.24318218e+00f,-4.20617573e-02f,+5.74089773e-03f,
+2.24959588e+00f,+3.81382555e-03f,-5.32934591e-02f,-1.42314625e+00f,-2.69588158e-02f,
-1.17055786e+00f,+2.09744048e+00f,-2.36272942e-02f,-1.72536206e+00f,+2.27999234e+00f,
-2.08382774e-03f,+2.08682990e+00f,+2.08353661e-02f,-2.79459810e+00f,-1.19485044e+00f,
}; 
k2c_tensor dense_34_kernel = {&dense_34_kernel_array[0],2,400,{20,20, 1, 1, 1}}; 
float dense_34_bias_array[20] = {
-1.31209791e-01f,-6.21414836e-03f,-1.47989482e-01f,-5.79143595e-03f,-5.99559280e-04f,
-1.41239211e-01f,+0.00000000e+00f,-8.34654830e-03f,-2.50102486e-03f,-7.12581119e-03f,
+7.11417058e-03f,-1.96784526e-01f,+0.00000000e+00f,+2.30985191e-02f,-1.54142871e-01f,
-6.00400439e-04f,-2.31034309e-01f,+0.00000000e+00f,-3.91068682e-03f,+8.62029009e-03f,
}; 
k2c_tensor dense_34_bias = {&dense_34_bias_array[0],1,20,{20, 1, 1, 1, 1}}; 
float dense_34_fwork[420] = {0}; 

 
float dense_35_kernel_array[20] = {
-2.61736751e+00f,+3.46798867e-01f,-2.27158594e+00f,+2.12088853e-01f,+6.13861196e-02f,
-2.47647929e+00f,-3.72858465e-01f,+5.29893279e-01f,+3.76891637e+00f,+4.21396166e-01f,
+2.87348557e+00f,-2.34314394e+00f,-3.89128864e-01f,+4.74046803e+00f,-2.35121465e+00f,
+1.51870057e-01f,-1.81507480e+00f,-2.68321425e-01f,+5.26669884e+00f,+2.60144496e+00f,
}; 
k2c_tensor dense_35_kernel = {&dense_35_kernel_array[0],2,20,{20, 1, 1, 1, 1}}; 
float dense_35_bias_array[1] = {
-2.62218088e-01f,}; 
k2c_tensor dense_35_bias = {&dense_35_bias_array[0],1,1,{1,1,1,1,1}}; 
float dense_35_fwork[40] = {0}; 

 
k2c_dense(&dense_32_output,dense_32_input_input,&dense_32_kernel, 
	&dense_32_bias,k2c_relu,dense_32_fwork); 
k2c_dense(&dense_33_output,&dense_32_output,&dense_33_kernel, 
	&dense_33_bias,k2c_relu,dense_33_fwork); 
k2c_dense(&dense_34_output,&dense_33_output,&dense_34_kernel, 
	&dense_34_bias,k2c_relu,dense_34_fwork); 
k2c_dense(dense_35_output,&dense_34_output,&dense_35_kernel, 
	&dense_35_bias,k2c_sigmoid,dense_35_fwork); 
*/
return;

 } 


void MLP_SND_RTTModel::keras2c_model_Round_REC_100Mbps(const k2c_tensor* input_layer_8_input, k2c_tensor* dense_35_output) { 

cout <<"MLP_SND_RTTModel::keras2c_model_Round_REC_100Mbps\n";

float dense_32_output_array[20] = {0}; 
k2c_tensor dense_32_output = {&dense_32_output_array[0],1,20,{20, 1, 1, 1, 1}}; 
float dense_32_kernel_array[40] = {
+1.23949327e-01f,+6.58527672e-01f,+3.94762546e-01f,-4.73856956e-01f,-2.26280674e-01f,
-7.39924982e-02f,-2.88877964e-01f,-2.66282648e-01f,+3.15352619e-01f,+1.28317475e-02f,
-1.64091483e-01f,+4.17881668e-01f,-8.21838006e-02f,+2.10297108e-03f,-2.70320833e-01f,
+1.40214041e-01f,+4.70163465e-01f,+1.73675418e-01f,+6.45675600e-01f,-2.67631471e-01f,
+4.03036475e-01f,-2.89273977e-01f,+2.89994508e-01f,+3.52102309e-01f,+6.97497845e-01f,
+5.74600697e-01f,+5.55543661e-01f,+5.34033000e-01f,-2.68709481e-01f,-4.09635425e-01f,
+4.81678933e-01f,+5.81377804e-01f,+1.38912931e-01f,-2.79956967e-01f,+5.89165241e-02f,
+5.01158476e-01f,+5.17576039e-01f,-4.32155162e-01f,-3.64503503e-01f,-5.79617620e-02f,
}; 
k2c_tensor dense_32_kernel = {&dense_32_kernel_array[0],2,40,{ 2,20, 1, 1, 1}}; 
float dense_32_bias_array[20] = {
-2.35065073e-01f,-9.76481959e-02f,-2.76039153e-01f,+3.43988091e-01f,-3.35750788e-01f,
-3.26675981e-01f,-2.77141362e-01f,-2.73136586e-01f,+1.96955889e-01f,+0.00000000e+00f,
+1.08445667e-01f,-2.64074504e-01f,+3.63440961e-01f,+0.00000000e+00f,+3.72072786e-01f,
-2.75725961e-01f,+2.18087398e-02f,+0.00000000e+00f,-5.05560264e-02f,+3.65645677e-01f,
}; 
k2c_tensor dense_32_bias = {&dense_32_bias_array[0],1,20,{20, 1, 1, 1, 1}}; 
float dense_32_fwork[42] = {0}; 

 
float dense_33_output_array[20] = {0}; 
k2c_tensor dense_33_output = {&dense_33_output_array[0],1,20,{20, 1, 1, 1, 1}}; 
float dense_33_kernel_array[400] = {
+4.25823629e-01f,-8.83628353e-02f,+4.77555916e-02f,-2.82852918e-01f,+6.14375830e-01f,
+3.29699010e-01f,+3.21020156e-01f,-3.17969590e-01f,-4.13066335e-02f,-1.68213814e-01f,
-1.08735345e-01f,+7.30560347e-02f,-1.01871245e-01f,+2.81658590e-01f,+3.72767955e-01f,
+5.10051362e-02f,+6.33081555e-01f,-2.24278141e-02f,-5.95246851e-01f,+1.65923417e-01f,
-8.07949807e-03f,-2.29623944e-01f,+3.13601881e-01f,+6.32179320e-01f,-1.21258281e-01f,
-1.19401681e+00f,+2.71463811e-01f,+1.47829294e-01f,-3.64759803e-01f,-1.45907626e-01f,
+4.06499892e-01f,+9.15080383e-02f,-2.61564314e-01f,-1.17985167e-01f,+2.27136001e-01f,
+2.27678508e-01f,+5.28605878e-01f,+8.47598910e-03f,+4.45744723e-01f,-2.20724300e-01f,
+4.06043023e-01f,-3.30651104e-01f,+3.38501483e-02f,-1.08313537e+00f,+5.55485845e-01f,
+2.41756499e-01f,-2.12046608e-01f,-2.70978838e-01f,+6.97275028e-02f,+7.93189406e-02f,
+1.57333970e-01f,-1.17917098e-01f,-1.34511307e-01f,+9.31192935e-02f,+4.32367593e-01f,
+2.60618925e-01f,+5.32168448e-01f,-3.42288464e-01f,-8.78012836e-01f,-3.66210312e-01f,
+2.67891139e-01f,+1.78603038e-01f,+5.08479103e-02f,-4.52612415e-02f,-2.45084226e-01f,
+3.99313599e-01f,-1.73840225e-01f,+5.56893647e-02f,+8.72252047e-01f,+3.39719057e-01f,
-1.80419400e-01f,+3.10185719e-02f,+1.59550503e-01f,+4.13381070e-01f,-1.71006203e-01f,
+9.66676831e-01f,+3.60532224e-01f,+2.26591737e-03f,+2.54176766e-01f,+1.07084304e-01f,
+2.77187973e-01f,+4.79570478e-02f,-1.51776358e-01f,-6.57635212e-01f,+4.69307959e-01f,
+5.74434996e-02f,+8.54776442e-01f,-3.15474123e-01f,-1.07663667e+00f,+3.28821003e-01f,
+1.11941263e-01f,+1.14011407e-01f,+4.83334720e-01f,-5.45797348e-01f,-1.09196827e-01f,
-6.42000914e-01f,+9.14122760e-01f,-2.79015899e-01f,-1.44171342e-01f,+3.02287340e-01f,
+2.11634204e-01f,-3.89482319e-01f,-3.30717951e-01f,-8.16048503e-01f,+5.44936836e-01f,
+4.68223058e-02f,+2.62853414e-01f,-1.64630219e-01f,-8.23997974e-01f,-1.14403665e-02f,
+1.88100234e-01f,+7.75263757e-02f,+3.42523456e-01f,-5.66977143e-01f,-4.91122067e-01f,
-4.30501372e-01f,+9.89086092e-01f,+2.46554717e-01f,-6.24412239e-01f,-3.25067878e-01f,
+2.30098844e+00f,-2.60228902e-01f,-3.16943496e-01f,-4.49308425e-01f,+1.81807625e+00f,
+3.10219914e-01f,-2.22299123e+00f,-3.14420998e-01f,+6.09993410e+00f,-3.71934146e-01f,
+2.34405422e+00f,+2.37896991e+00f,-2.20778322e+00f,+2.40963984e+00f,+2.42072439e+00f,
+6.32778454e+00f,-2.57731438e+00f,+3.07871774e-02f,-1.27600551e+00f,+1.77185833e-02f,
+2.50902939e+00f,-3.84938747e-01f,-3.45110267e-01f,-7.48270571e-01f,+2.22807884e+00f,
+8.73596072e-01f,-2.52322865e+00f,-3.14247489e-01f,+6.32138443e+00f,+4.10546064e-02f,
+2.71902728e+00f,+3.11295795e+00f,-2.72398138e+00f,+3.08592057e+00f,+3.28929520e+00f,
+6.21936321e+00f,-2.89788651e+00f,-2.83831745e-01f,-1.99481881e+00f,-8.20643604e-02f,
+2.30415881e-01f,-1.91483915e-01f,+9.23432112e-02f,+5.14225841e-01f,-1.77667886e-01f,
-3.38453859e-01f,+2.44423300e-01f,+3.73632073e-01f,-3.06355268e-01f,+1.46204054e-01f,
+4.22070444e-01f,-2.10684553e-01f,-1.21728741e-01f,+2.70590752e-01f,-4.08924371e-01f,
-2.11797971e-02f,-2.73033887e-01f,+1.71770126e-01f,-8.62473343e-03f,-3.42869461e-01f,
-4.74708080e-02f,+1.92340791e-01f,+2.53116488e-01f,+2.64596105e-01f,+3.41650248e-01f,
-1.17467821e-01f,+5.49473166e-02f,+1.75628841e-01f,+1.27932727e-01f,+3.52262557e-02f,
+3.26602101e-01f,-2.99852192e-01f,-3.01011324e-01f,-2.59938776e-01f,-7.06494153e-02f,
-2.08319828e-01f,+1.05206668e-02f,+2.88808048e-01f,-2.67908484e-01f,-2.46902987e-01f,
-2.58810855e-02f,+8.82793963e-02f,-1.94169637e-02f,+1.20318763e-01f,-1.13504425e-01f,
+1.68394521e-01f,+2.95743972e-01f,-2.08048344e-01f,+2.63219208e-01f,+4.29154336e-02f,
+1.06081910e-01f,+2.16516033e-01f,-1.35359108e-01f,+2.21458718e-01f,+2.13664904e-01f,
+1.85702235e-01f,+1.41595006e-01f,-4.94440086e-02f,-4.43422608e-02f,-1.47738159e-01f,
+2.04326972e-01f,+9.73761156e-02f,-3.67680997e-01f,-6.49679720e-01f,+4.44314241e-01f,
-2.55309016e-01f,-2.66411364e-01f,+3.47357869e-01f,+1.74178243e-01f,-3.65832180e-01f,
+4.20788825e-01f,+3.33554804e-01f,+2.01063335e-01f,+4.92481977e-01f,+8.30948073e-03f,
+3.83051306e-01f,+9.89052700e-04f,-3.66942823e-01f,-5.35676301e-01f,+2.72154868e-01f,
-1.34348676e-01f,+2.46069640e-01f,+2.36447245e-01f,+2.34768733e-01f,+8.38806331e-02f,
+2.30538011e-01f,+3.50195080e-01f,-7.30243623e-02f,+6.95592046e-01f,-8.58138800e-02f,
+4.19123657e-02f,-3.11648875e-01f,+2.46300057e-01f,-1.37999281e-01f,+2.47591510e-01f,
+1.49254605e-01f,-2.66013861e-01f,+1.99279085e-01f,+2.03202087e-02f,-2.80663967e-02f,
-2.62830108e-01f,-3.36653948e-01f,+2.00611353e-01f,+2.35341847e-01f,+7.46959746e-02f,
-3.91217768e-02f,+3.54795456e-02f,+3.32248807e-01f,+3.50691259e-01f,+3.56453001e-01f,
-3.59195471e-02f,+2.55794942e-01f,+3.88472676e-02f,-1.59608722e-01f,+1.21105433e-01f,
+3.63301098e-01f,+1.60411239e-01f,+1.92298174e-01f,+2.31480539e-01f,-3.15753907e-01f,
-1.05792560e-01f,+1.63571313e-01f,+3.34302634e-01f,+5.31994224e-01f,-1.85188279e-01f,
-1.90471232e-01f,-6.07428253e-02f,+1.72892928e-01f,+5.99407911e-01f,-2.27344826e-01f,
-2.77479768e-01f,+3.91649753e-01f,+2.46262386e-01f,+9.69925597e-02f,+4.86478984e-01f,
+4.56436813e-01f,-4.30060238e-01f,-2.22072393e-01f,+1.18386641e-01f,+1.08675212e-01f,
+1.78035423e-01f,-2.86120743e-01f,+1.20277874e-01f,-4.49419111e-01f,+3.77211571e-02f,
-2.43507013e-01f,-1.92076996e-01f,-2.89130211e-01f,-1.65948689e-01f,-1.96563765e-01f,
+3.75247866e-01f,-3.43543470e-01f,-3.65108490e-01f,+3.45274359e-02f,+2.76009113e-01f,
+2.03524977e-01f,+2.78795123e-01f,-2.73572117e-01f,-6.32453263e-01f,-3.20999324e-01f,
+1.64367065e-01f,-4.04388040e-01f,-2.34805524e-01f,-3.29803377e-01f,+1.72734156e-01f,
-9.35958624e-02f,+4.10368890e-01f,-2.40516260e-01f,+3.87352526e-01f,-3.65651369e-01f,
-1.36202902e-01f,+1.78683951e-01f,+2.45116219e-01f,+1.50336504e-01f,+4.16665934e-02f,
+5.55594206e-01f,+4.38163102e-01f,+2.34523397e-02f,+1.66076645e-01f,-1.58307388e-01f,
+3.34219515e-01f,+2.21046388e-01f,-1.47596791e-01f,-3.02843422e-01f,+7.58000910e-02f,
-2.44334117e-01f,+2.14582622e-01f,-1.51927128e-01f,+1.17714942e-01f,-9.98210013e-02f,
-3.46515954e-01f,+1.72618389e-01f,+3.77821147e-01f,+5.05503118e-02f,+5.26936054e-02f,
-3.36203694e-01f,-7.76173174e-02f,-6.92839921e-02f,-1.58636302e-01f,-3.12235236e-01f,
-1.23673730e-01f,+3.56791019e-02f,+1.30512312e-01f,+7.89947033e-01f,-1.26759753e-01f,
-1.19895387e+00f,+2.58439332e-02f,-4.38221097e-02f,-5.30803144e-01f,-2.23166198e-01f,
-1.15822688e-01f,-2.82472461e-01f,-1.73263505e-01f,-7.23601952e-02f,+1.59408733e-01f,
+2.25581393e-01f,+2.31591925e-01f,+1.69186771e-01f,+2.74068952e-01f,-3.29721123e-01f,
-5.57775199e-01f,-1.37649355e-02f,-2.15695396e-01f,+8.31865728e-01f,-4.97393996e-01f,
+2.64394253e-01f,-1.00799441e-01f,+9.91172791e-02f,+1.39367020e+00f,+2.30087221e-01f,
+2.09498301e-01f,-1.71595544e-01f,+1.11737229e-01f,+1.86862379e-01f,-2.09269315e-01f,
+1.20652461e+00f,-2.84032315e-01f,+8.93823430e-02f,+7.36106634e-01f,-4.52145934e-02f,
}; 
k2c_tensor dense_33_kernel = {&dense_33_kernel_array[0],2,400,{20,20, 1, 1, 1}}; 
float dense_33_bias_array[20] = {
-2.32081607e-01f,-3.47956456e-02f,-4.12564017e-02f,+4.09549177e-01f,-1.79782346e-01f,
+1.66869741e-02f,+1.46662995e-01f,+0.00000000e+00f,+3.20043802e-01f,+1.72509956e-13f,
-1.20447166e-01f,-1.08814776e-01f,+1.58093005e-01f,-6.54229671e-02f,-3.80245559e-02f,
+5.52051723e-01f,-2.26951391e-03f,-2.22714711e-02f,+3.44334513e-01f,+0.00000000e+00f,
}; 
k2c_tensor dense_33_bias = {&dense_33_bias_array[0],1,20,{20, 1, 1, 1, 1}}; 
float dense_33_fwork[420] = {0}; 

 
float dense_34_output_array[20] = {0}; 
k2c_tensor dense_34_output = {&dense_34_output_array[0],1,20,{20, 1, 1, 1, 1}}; 
float dense_34_kernel_array[400] = {
+3.41346227e-02f,-9.00503844e-02f,-2.73746848e-01f,-8.22416544e-02f,-8.12168598e-01f,
-6.51821122e-02f,+2.20049500e-01f,+7.22488761e-03f,-3.79455835e-01f,-3.55106115e-01f,
-9.64127779e-01f,-6.77623674e-02f,-5.38300276e-02f,-2.65491724e-01f,+3.43553215e-01f,
-3.79506558e-01f,-2.94305831e-01f,-2.22033784e-02f,-2.62493730e-01f,-2.95031548e-01f,
-2.84747690e-01f,-4.44347151e-02f,-2.28230283e-01f,-1.63680509e-01f,-1.44635871e-01f,
-1.03685603e-01f,-1.82404801e-01f,-3.20535481e-01f,-2.28936717e-01f,+4.87824567e-02f,
-1.61656201e-01f,+3.96676838e-01f,-1.16713524e-01f,-3.39527786e-01f,+2.46862248e-01f,
-4.67208512e-02f,+2.63999403e-01f,-1.66198879e-01f,+7.52837062e-02f,-8.22568834e-02f,
-3.44322950e-01f,+1.16949417e-01f,-3.56123358e-01f,-3.67438495e-01f,-2.81670302e-01f,
-2.49240056e-01f,-8.47216230e-03f,+1.36584878e-01f,+2.19495595e-02f,+2.16309667e-01f,
+9.24057513e-02f,-3.00309122e-01f,+3.59363258e-01f,-1.55108139e-01f,-3.90078157e-01f,
-1.63069144e-01f,-4.11486439e-02f,-2.76832938e-01f,+7.98749030e-02f,-5.12806619e-05f,
+5.47780228e+00f,-5.44208956e+00f,+1.08825967e-01f,-1.23829454e-01f,+6.07775927e+00f,
-5.80113888e+00f,+5.79806900e+00f,+2.88032711e-01f,+1.99930325e-01f,-1.95679590e-01f,
+6.46274948e+00f,+6.06766796e+00f,-5.91295242e+00f,+5.48174477e+00f,-5.53159523e+00f,
-6.03969002e+00f,+1.53819725e-01f,+6.02463913e+00f,+8.92165005e-02f,-1.41799971e-01f,
+2.79089920e-02f,-3.76528502e-01f,-9.48646963e-02f,-2.14297399e-01f,-1.13306308e+00f,
+2.44420290e-01f,+5.17041385e-01f,+2.23497629e-01f,+1.29574415e-04f,+2.04386219e-01f,
-1.12967634e+00f,+4.11873132e-01f,-1.70315206e-02f,-1.10281082e-02f,-1.42841443e-01f,
+2.40332589e-01f,-2.51691490e-01f,+1.66741163e-01f,-2.01340020e-02f,-7.31191859e-02f,
-4.41326916e-01f,+8.48922372e-01f,-1.64135292e-01f,+2.41152227e-01f,-7.00250626e-01f,
+5.75959325e-01f,-9.08836007e-01f,-2.86953598e-01f,-4.01219785e-01f,+9.39596668e-02f,
-5.47681928e-01f,-3.13405842e-01f,+2.97150701e-01f,-2.38939345e-01f,+9.01710629e-01f,
+3.16116661e-01f,+3.54832351e-01f,-6.63903236e-01f,+1.76756740e-01f,+3.71399522e-01f,
+5.46101987e-01f,+3.21094841e-02f,-2.73841806e-02f,+7.35866129e-02f,+3.83436888e-01f,
-4.81062323e-01f,+6.87254250e-01f,-7.09880888e-02f,+1.79148182e-01f,-1.51306510e-01f,
+1.34291798e-01f,+4.88935441e-01f,-3.32926698e-02f,+4.49793994e-01f,-2.17673317e-01f,
-3.25927198e-01f,+2.76160061e-01f,+3.46961394e-02f,-1.13747478e-01f,-3.76732975e-01f,
+2.10298657e-01f,+2.67136991e-01f,-7.74597824e-02f,+2.42961586e-01f,-1.00069195e-01f,
-1.52202383e-01f,-1.79515660e-01f,-6.86438978e-02f,+9.49865878e-02f,-3.54538083e-01f,
-5.65520823e-02f,+1.66922629e-01f,+1.44784987e-01f,+2.20810354e-01f,-5.35219610e-02f,
+1.90570474e-01f,-3.23778361e-01f,+2.50027478e-02f,+2.49918699e-02f,+2.72144079e-01f,
-2.85352677e-01f,+1.53130308e-01f,-3.40931043e-02f,-6.45588040e-02f,+2.92296350e-01f,
+7.67159104e-01f,-2.69268341e-02f,-3.19552183e-01f,+1.39759004e-01f,-1.41608119e-01f,
+1.14431441e-01f,-3.92852843e-01f,+6.24206781e-01f,-1.62936628e-01f,+2.58398771e-01f,
+6.44652188e-01f,-3.80413592e-01f,-1.20058566e-01f,+3.02919328e-01f,-1.23346992e-01f,
+2.54315495e-01f,+1.31812513e-01f,-2.42096364e-01f,-3.71891022e-01f,-1.20224506e-01f,
-3.24986577e-02f,+2.97491074e-01f,+4.95784581e-02f,+3.84390116e-01f,-2.23404616e-01f,
+1.22665167e-02f,+2.90145099e-01f,-3.28509450e-01f,+3.33040595e-01f,+2.10426748e-01f,
+1.35596514e-01f,+3.01643312e-02f,+3.11970651e-01f,-1.34838849e-01f,-2.11194456e-02f,
-2.08838642e-01f,+3.12467039e-01f,+1.07920319e-01f,-2.03842118e-01f,-1.00524902e+00f,
+2.81590104e-01f,-4.51732039e-01f,+2.72781134e-01f,-2.75865138e-01f,+2.63804197e-01f,
-8.66896927e-01f,+4.08706129e-01f,+4.62408096e-01f,+1.16245955e-01f,+6.75865531e-01f,
+6.03489101e-01f,-1.67443603e-01f,+1.11178428e-01f,-3.64543021e-01f,+2.34728336e-01f,
+8.53726175e-03f,+3.32036376e-01f,-2.17565790e-01f,+5.10167181e-02f,-1.67261645e-01f,
-3.15086901e-01f,-1.08886823e-01f,+2.09649980e-01f,+2.11547852e-01f,+1.27305269e-01f,
-3.38808298e-01f,+4.29056250e-02f,-1.59416974e-01f,+3.32952403e-02f,+1.98156208e-01f,
+2.48581216e-01f,+4.78760004e-02f,-9.58797634e-02f,-8.28306973e-02f,+1.07635304e-01f,
+7.54805207e-02f,-6.62327290e-01f,+1.31701469e-01f,-8.23569894e-02f,+4.10641849e-01f,
-5.89819014e-01f,+1.18478745e-01f,+1.95285797e-01f,-1.46004036e-01f,+2.10602254e-01f,
+7.04904974e-01f,+5.15639722e-01f,+1.57774910e-01f,+7.28271306e-01f,-1.54817536e-01f,
-3.29111904e-01f,+4.95677963e-02f,+6.62387133e-01f,-1.95846558e-02f,+1.47808388e-01f,
-2.75676906e-01f,+8.04386020e-01f,-3.96678984e-01f,+2.24924326e-01f,-6.11052871e-01f,
+2.68203199e-01f,+3.41657326e-02f,+2.90562689e-01f,+1.62012041e-01f,-2.18235582e-01f,
-3.84961106e-02f,-1.64891809e-01f,+3.34964573e-01f,-1.91345319e-01f,+5.32213211e-01f,
+6.89678490e-01f,-1.21609882e-01f,-3.90733853e-02f,-1.00815207e-01f,-1.09798655e-01f,
-3.59549999e-01f,+4.29423571e-01f,-9.82063562e-02f,+5.63694239e-02f,-2.72538453e-01f,
+4.42603648e-01f,-3.22685152e-01f,-3.26651037e-01f,-1.56045407e-01f,-2.83798307e-01f,
-3.76545757e-01f,-5.79329208e-02f,+4.08614248e-01f,-4.45975363e-01f,+1.47716090e-01f,
+4.13804144e-01f,+1.83534510e-02f,+3.14056575e-01f,-3.30595851e-01f,-7.67384917e-02f,
+2.86044836e-01f,+6.51671767e-01f,-6.70944452e-02f,-1.94633603e-01f,+9.31751132e-02f,
+6.37181044e-01f,-1.38799861e-01f,-2.95520723e-01f,-3.25621903e-01f,+1.14620090e-01f,
+1.07208349e-01f,+1.42977638e-02f,+1.78670570e-01f,+1.20697953e-01f,+6.03326976e-01f,
+4.61919725e-01f,-9.40733254e-02f,-1.74133375e-01f,-3.30978215e-01f,+1.61832944e-01f,
+8.07653487e-01f,-2.47570127e-01f,-2.49271482e-01f,-2.24023476e-01f,-1.38785318e-01f,
-4.18288171e-01f,+9.50767875e-01f,+1.08381569e-01f,+6.73670396e-02f,-3.77665818e-01f,
-2.24538729e-01f,+7.80139208e-01f,-6.82601213e-01f,+9.01548862e-01f,-4.37296391e-01f,
-2.81316608e-01f,-6.92823902e-02f,+8.24588895e-01f,-1.18401378e-01f,+2.21357912e-01f,
+1.19900823e-01f,+9.22083855e-04f,-7.45342970e-02f,+3.49080265e-01f,-3.61524761e-01f,
+1.38713837e-01f,-8.57044905e-02f,+9.06300545e-03f,-2.91252583e-01f,+1.61296964e-01f,
-1.34993464e-01f,-3.17101717e-01f,-1.09591782e-02f,-3.81334901e-01f,+3.18553448e-02f,
-6.90416694e-02f,-1.39793485e-01f,-3.34663570e-01f,+1.89910889e-01f,+1.62615478e-01f,
+3.58705878e+00f,-4.05385447e+00f,+1.34995833e-01f,-1.36788398e-01f,+3.97720218e+00f,
-3.95724821e+00f,+4.04595804e+00f,-6.49586320e-03f,+1.57598212e-01f,+3.14628422e-01f,
+4.36511469e+00f,+3.97801375e+00f,-4.02760077e+00f,+3.94312739e+00f,-3.74094272e+00f,
-4.19297552e+00f,+2.18863681e-01f,+3.91982245e+00f,+4.77762520e-02f,-8.58952925e-02f,
+2.70523131e-02f,+3.29502285e-01f,+5.93585372e-02f,+6.41965568e-02f,+8.56170058e-02f,
-3.35437268e-01f,+3.23280215e-01f,+2.77321339e-01f,+2.99355507e-01f,+4.83978093e-02f,
+8.95071030e-03f,-1.06935173e-01f,+8.58592093e-02f,+2.70237923e-01f,+3.01546216e-01f,
-2.69425809e-01f,-2.99259096e-01f,+2.41932571e-01f,+3.42755079e-01f,+5.27596176e-02f,
}; 
k2c_tensor dense_34_kernel = {&dense_34_kernel_array[0],2,400,{20,20, 1, 1, 1}}; 
float dense_34_bias_array[20] = {
+1.00511871e-02f,+1.60692677e-01f,-3.10129263e-02f,+0.00000000e+00f,+3.56294602e-01f,
+1.58267453e-01f,-3.28339972e-02f,+0.00000000e+00f,-7.23368078e-02f,-2.22366489e-02f,
+4.17846680e-01f,+1.45255774e-02f,+2.22120017e-01f,+1.18308840e-02f,+1.05258800e-01f,
+1.88479617e-01f,-1.36198737e-02f,-9.51299816e-03f,+0.00000000e+00f,-1.97911765e-02f,
}; 
k2c_tensor dense_34_bias = {&dense_34_bias_array[0],1,20,{20, 1, 1, 1, 1}}; 
float dense_34_fwork[420] = {0}; 

 
//float dense_35_output_array[1] = {0}; 
//k2c_tensor dense_35_output = {&dense_35_output_array[0],1,1,{1,1,1,1,1}}; 
float dense_35_kernel_array[20] = {
-1.16898394e+00f,+7.28579938e-01f,+3.03842962e-01f,-3.77511322e-01f,-5.22287512e+00f,
+1.12635589e+00f,-1.38836432e+00f,-9.67098176e-02f,+1.34087369e-01f,+4.93822217e-01f,
-5.16457891e+00f,-1.46250927e+00f,+1.20511532e+00f,-7.32140720e-01f,+6.14292145e-01f,
+7.60794640e-01f,+4.94368106e-01f,-1.35295379e+00f,+4.73135531e-01f,+1.30259886e-01f,
}; 
k2c_tensor dense_35_kernel = {&dense_35_kernel_array[0],2,20,{20, 1, 1, 1, 1}}; 
float dense_35_bias_array[1] = {
+1.55003324e-01f,}; 
k2c_tensor dense_35_bias = {&dense_35_bias_array[0],1,1,{1,1,1,1,1}}; 
float dense_35_fwork[40] = {0}; 

 
k2c_dense(&dense_32_output,input_layer_8_input,&dense_32_kernel, 
	&dense_32_bias,k2c_relu,dense_32_fwork); 
k2c_dense(&dense_33_output,&dense_32_output,&dense_33_kernel, 
	&dense_33_bias,k2c_relu,dense_33_fwork); 
k2c_dense(&dense_34_output,&dense_33_output,&dense_34_kernel, 
	&dense_34_bias,k2c_relu,dense_34_fwork); 
k2c_dense(dense_35_output,&dense_34_output,&dense_35_kernel, 
	&dense_35_bias,k2c_sigmoid,dense_35_fwork); 


 } 


 void MLP_SND_RTTModel::keras2c_model_Round_COMPLEXITY(const k2c_tensor* input_layer_8_input, k2c_tensor* keras_tensor_64_output) { 

	cout << "MLP_SND_RTT_Model_Round_COMPLEXITY\n";

	float dense_32_output_array[20] = {0}; 
	k2c_tensor dense_32_output = {&dense_32_output_array[0],1,20,{20, 1, 1, 1, 1}}; 
	float dense_32_kernel_array[40] = {
	+1.23949327e-01f,+6.58527672e-01f,+3.94762546e-01f,-4.73856956e-01f,-2.26280674e-01f,
	-7.39924982e-02f,-2.88877964e-01f,-2.66282648e-01f,+3.15352619e-01f,+1.28317475e-02f,
	-1.64091483e-01f,+4.17881668e-01f,-8.21838006e-02f,+2.10297108e-03f,-2.70320833e-01f,
	+1.40214041e-01f,+4.70163465e-01f,+1.73675418e-01f,+6.45675600e-01f,-2.67631471e-01f,
	+4.03036475e-01f,-2.89273977e-01f,+2.89994508e-01f,+3.52102309e-01f,+6.97497845e-01f,
	+5.74600697e-01f,+5.55543661e-01f,+5.34033000e-01f,-2.68709481e-01f,-4.09635425e-01f,
	+4.81678933e-01f,+5.81377804e-01f,+1.38912931e-01f,-2.79956967e-01f,+5.89165241e-02f,
	+5.01158476e-01f,+5.17576039e-01f,-4.32155162e-01f,-3.64503503e-01f,-5.79617620e-02f,
	}; 
	k2c_tensor dense_32_kernel = {&dense_32_kernel_array[0],2,40,{ 2,20, 1, 1, 1}}; 
	float dense_32_bias_array[20] = {
	-2.35065073e-01f,-9.76481959e-02f,-2.76039153e-01f,+3.43988091e-01f,-3.35750788e-01f,
	-3.26675981e-01f,-2.77141362e-01f,-2.73136586e-01f,+1.96955889e-01f,+0.00000000e+00f,
	+1.08445667e-01f,-2.64074504e-01f,+3.63440961e-01f,+0.00000000e+00f,+3.72072786e-01f,
	-2.75725961e-01f,+2.18087398e-02f,+0.00000000e+00f,-5.05560264e-02f,+3.65645677e-01f,
	}; 
	k2c_tensor dense_32_bias = {&dense_32_bias_array[0],1,20,{20, 1, 1, 1, 1}}; 
	float dense_32_fwork[42] = {0}; 

	
	float dense_33_output_array[20] = {0}; 
	k2c_tensor dense_33_output = {&dense_33_output_array[0],1,20,{20, 1, 1, 1, 1}}; 
	float dense_33_kernel_array[400] = {
	+4.25823629e-01f,-8.83628353e-02f,+4.77555916e-02f,-2.82852918e-01f,+6.14375830e-01f,
	+3.29699010e-01f,+3.21020156e-01f,-3.17969590e-01f,-4.13066335e-02f,-1.68213814e-01f,
	-1.08735345e-01f,+7.30560347e-02f,-1.01871245e-01f,+2.81658590e-01f,+3.72767955e-01f,
	+5.10051362e-02f,+6.33081555e-01f,-2.24278141e-02f,-5.95246851e-01f,+1.65923417e-01f,
	-8.07949807e-03f,-2.29623944e-01f,+3.13601881e-01f,+6.32179320e-01f,-1.21258281e-01f,
	-1.19401681e+00f,+2.71463811e-01f,+1.47829294e-01f,-3.64759803e-01f,-1.45907626e-01f,
	+4.06499892e-01f,+9.15080383e-02f,-2.61564314e-01f,-1.17985167e-01f,+2.27136001e-01f,
	+2.27678508e-01f,+5.28605878e-01f,+8.47598910e-03f,+4.45744723e-01f,-2.20724300e-01f,
	+4.06043023e-01f,-3.30651104e-01f,+3.38501483e-02f,-1.08313537e+00f,+5.55485845e-01f,
	+2.41756499e-01f,-2.12046608e-01f,-2.70978838e-01f,+6.97275028e-02f,+7.93189406e-02f,
	+1.57333970e-01f,-1.17917098e-01f,-1.34511307e-01f,+9.31192935e-02f,+4.32367593e-01f,
	+2.60618925e-01f,+5.32168448e-01f,-3.42288464e-01f,-8.78012836e-01f,-3.66210312e-01f,
	+2.67891139e-01f,+1.78603038e-01f,+5.08479103e-02f,-4.52612415e-02f,-2.45084226e-01f,
	+3.99313599e-01f,-1.73840225e-01f,+5.56893647e-02f,+8.72252047e-01f,+3.39719057e-01f,
	-1.80419400e-01f,+3.10185719e-02f,+1.59550503e-01f,+4.13381070e-01f,-1.71006203e-01f,
	+9.66676831e-01f,+3.60532224e-01f,+2.26591737e-03f,+2.54176766e-01f,+1.07084304e-01f,
	+2.77187973e-01f,+4.79570478e-02f,-1.51776358e-01f,-6.57635212e-01f,+4.69307959e-01f,
	+5.74434996e-02f,+8.54776442e-01f,-3.15474123e-01f,-1.07663667e+00f,+3.28821003e-01f,
	+1.11941263e-01f,+1.14011407e-01f,+4.83334720e-01f,-5.45797348e-01f,-1.09196827e-01f,
	-6.42000914e-01f,+9.14122760e-01f,-2.79015899e-01f,-1.44171342e-01f,+3.02287340e-01f,
	+2.11634204e-01f,-3.89482319e-01f,-3.30717951e-01f,-8.16048503e-01f,+5.44936836e-01f,
	+4.68223058e-02f,+2.62853414e-01f,-1.64630219e-01f,-8.23997974e-01f,-1.14403665e-02f,
	+1.88100234e-01f,+7.75263757e-02f,+3.42523456e-01f,-5.66977143e-01f,-4.91122067e-01f,
	-4.30501372e-01f,+9.89086092e-01f,+2.46554717e-01f,-6.24412239e-01f,-3.25067878e-01f,
	+2.30098844e+00f,-2.60228902e-01f,-3.16943496e-01f,-4.49308425e-01f,+1.81807625e+00f,
	+3.10219914e-01f,-2.22299123e+00f,-3.14420998e-01f,+6.09993410e+00f,-3.71934146e-01f,
	+2.34405422e+00f,+2.37896991e+00f,-2.20778322e+00f,+2.40963984e+00f,+2.42072439e+00f,
	+6.32778454e+00f,-2.57731438e+00f,+3.07871774e-02f,-1.27600551e+00f,+1.77185833e-02f,
	+2.50902939e+00f,-3.84938747e-01f,-3.45110267e-01f,-7.48270571e-01f,+2.22807884e+00f,
	+8.73596072e-01f,-2.52322865e+00f,-3.14247489e-01f,+6.32138443e+00f,+4.10546064e-02f,
	+2.71902728e+00f,+3.11295795e+00f,-2.72398138e+00f,+3.08592057e+00f,+3.28929520e+00f,
	+6.21936321e+00f,-2.89788651e+00f,-2.83831745e-01f,-1.99481881e+00f,-8.20643604e-02f,
	+2.30415881e-01f,-1.91483915e-01f,+9.23432112e-02f,+5.14225841e-01f,-1.77667886e-01f,
	-3.38453859e-01f,+2.44423300e-01f,+3.73632073e-01f,-3.06355268e-01f,+1.46204054e-01f,
	+4.22070444e-01f,-2.10684553e-01f,-1.21728741e-01f,+2.70590752e-01f,-4.08924371e-01f,
	-2.11797971e-02f,-2.73033887e-01f,+1.71770126e-01f,-8.62473343e-03f,-3.42869461e-01f,
	-4.74708080e-02f,+1.92340791e-01f,+2.53116488e-01f,+2.64596105e-01f,+3.41650248e-01f,
	-1.17467821e-01f,+5.49473166e-02f,+1.75628841e-01f,+1.27932727e-01f,+3.52262557e-02f,
	+3.26602101e-01f,-2.99852192e-01f,-3.01011324e-01f,-2.59938776e-01f,-7.06494153e-02f,
	-2.08319828e-01f,+1.05206668e-02f,+2.88808048e-01f,-2.67908484e-01f,-2.46902987e-01f,
	-2.58810855e-02f,+8.82793963e-02f,-1.94169637e-02f,+1.20318763e-01f,-1.13504425e-01f,
	+1.68394521e-01f,+2.95743972e-01f,-2.08048344e-01f,+2.63219208e-01f,+4.29154336e-02f,
	+1.06081910e-01f,+2.16516033e-01f,-1.35359108e-01f,+2.21458718e-01f,+2.13664904e-01f,
	+1.85702235e-01f,+1.41595006e-01f,-4.94440086e-02f,-4.43422608e-02f,-1.47738159e-01f,
	+2.04326972e-01f,+9.73761156e-02f,-3.67680997e-01f,-6.49679720e-01f,+4.44314241e-01f,
	-2.55309016e-01f,-2.66411364e-01f,+3.47357869e-01f,+1.74178243e-01f,-3.65832180e-01f,
	+4.20788825e-01f,+3.33554804e-01f,+2.01063335e-01f,+4.92481977e-01f,+8.30948073e-03f,
	+3.83051306e-01f,+9.89052700e-04f,-3.66942823e-01f,-5.35676301e-01f,+2.72154868e-01f,
	-1.34348676e-01f,+2.46069640e-01f,+2.36447245e-01f,+2.34768733e-01f,+8.38806331e-02f,
	+2.30538011e-01f,+3.50195080e-01f,-7.30243623e-02f,+6.95592046e-01f,-8.58138800e-02f,
	+4.19123657e-02f,-3.11648875e-01f,+2.46300057e-01f,-1.37999281e-01f,+2.47591510e-01f,
	+1.49254605e-01f,-2.66013861e-01f,+1.99279085e-01f,+2.03202087e-02f,-2.80663967e-02f,
	-2.62830108e-01f,-3.36653948e-01f,+2.00611353e-01f,+2.35341847e-01f,+7.46959746e-02f,
	-3.91217768e-02f,+3.54795456e-02f,+3.32248807e-01f,+3.50691259e-01f,+3.56453001e-01f,
	-3.59195471e-02f,+2.55794942e-01f,+3.88472676e-02f,-1.59608722e-01f,+1.21105433e-01f,
	+3.63301098e-01f,+1.60411239e-01f,+1.92298174e-01f,+2.31480539e-01f,-3.15753907e-01f,
	-1.05792560e-01f,+1.63571313e-01f,+3.34302634e-01f,+5.31994224e-01f,-1.85188279e-01f,
	-1.90471232e-01f,-6.07428253e-02f,+1.72892928e-01f,+5.99407911e-01f,-2.27344826e-01f,
	-2.77479768e-01f,+3.91649753e-01f,+2.46262386e-01f,+9.69925597e-02f,+4.86478984e-01f,
	+4.56436813e-01f,-4.30060238e-01f,-2.22072393e-01f,+1.18386641e-01f,+1.08675212e-01f,
	+1.78035423e-01f,-2.86120743e-01f,+1.20277874e-01f,-4.49419111e-01f,+3.77211571e-02f,
	-2.43507013e-01f,-1.92076996e-01f,-2.89130211e-01f,-1.65948689e-01f,-1.96563765e-01f,
	+3.75247866e-01f,-3.43543470e-01f,-3.65108490e-01f,+3.45274359e-02f,+2.76009113e-01f,
	+2.03524977e-01f,+2.78795123e-01f,-2.73572117e-01f,-6.32453263e-01f,-3.20999324e-01f,
	+1.64367065e-01f,-4.04388040e-01f,-2.34805524e-01f,-3.29803377e-01f,+1.72734156e-01f,
	-9.35958624e-02f,+4.10368890e-01f,-2.40516260e-01f,+3.87352526e-01f,-3.65651369e-01f,
	-1.36202902e-01f,+1.78683951e-01f,+2.45116219e-01f,+1.50336504e-01f,+4.16665934e-02f,
	+5.55594206e-01f,+4.38163102e-01f,+2.34523397e-02f,+1.66076645e-01f,-1.58307388e-01f,
	+3.34219515e-01f,+2.21046388e-01f,-1.47596791e-01f,-3.02843422e-01f,+7.58000910e-02f,
	-2.44334117e-01f,+2.14582622e-01f,-1.51927128e-01f,+1.17714942e-01f,-9.98210013e-02f,
	-3.46515954e-01f,+1.72618389e-01f,+3.77821147e-01f,+5.05503118e-02f,+5.26936054e-02f,
	-3.36203694e-01f,-7.76173174e-02f,-6.92839921e-02f,-1.58636302e-01f,-3.12235236e-01f,
	-1.23673730e-01f,+3.56791019e-02f,+1.30512312e-01f,+7.89947033e-01f,-1.26759753e-01f,
	-1.19895387e+00f,+2.58439332e-02f,-4.38221097e-02f,-5.30803144e-01f,-2.23166198e-01f,
	-1.15822688e-01f,-2.82472461e-01f,-1.73263505e-01f,-7.23601952e-02f,+1.59408733e-01f,
	+2.25581393e-01f,+2.31591925e-01f,+1.69186771e-01f,+2.74068952e-01f,-3.29721123e-01f,
	-5.57775199e-01f,-1.37649355e-02f,-2.15695396e-01f,+8.31865728e-01f,-4.97393996e-01f,
	+2.64394253e-01f,-1.00799441e-01f,+9.91172791e-02f,+1.39367020e+00f,+2.30087221e-01f,
	+2.09498301e-01f,-1.71595544e-01f,+1.11737229e-01f,+1.86862379e-01f,-2.09269315e-01f,
	+1.20652461e+00f,-2.84032315e-01f,+8.93823430e-02f,+7.36106634e-01f,-4.52145934e-02f,
	}; 
	k2c_tensor dense_33_kernel = {&dense_33_kernel_array[0],2,400,{20,20, 1, 1, 1}}; 
	float dense_33_bias_array[20] = {
	-2.32081607e-01f,-3.47956456e-02f,-4.12564017e-02f,+4.09549177e-01f,-1.79782346e-01f,
	+1.66869741e-02f,+1.46662995e-01f,+0.00000000e+00f,+3.20043802e-01f,+1.72509956e-13f,
	-1.20447166e-01f,-1.08814776e-01f,+1.58093005e-01f,-6.54229671e-02f,-3.80245559e-02f,
	+5.52051723e-01f,-2.26951391e-03f,-2.22714711e-02f,+3.44334513e-01f,+0.00000000e+00f,
	}; 
	k2c_tensor dense_33_bias = {&dense_33_bias_array[0],1,20,{20, 1, 1, 1, 1}}; 
	float dense_33_fwork[420] = {0}; 

	
	float dense_34_output_array[20] = {0}; 
	k2c_tensor dense_34_output = {&dense_34_output_array[0],1,20,{20, 1, 1, 1, 1}}; 
	float dense_34_kernel_array[400] = {
	+3.41346227e-02f,-9.00503844e-02f,-2.73746848e-01f,-8.22416544e-02f,-8.12168598e-01f,
	-6.51821122e-02f,+2.20049500e-01f,+7.22488761e-03f,-3.79455835e-01f,-3.55106115e-01f,
	-9.64127779e-01f,-6.77623674e-02f,-5.38300276e-02f,-2.65491724e-01f,+3.43553215e-01f,
	-3.79506558e-01f,-2.94305831e-01f,-2.22033784e-02f,-2.62493730e-01f,-2.95031548e-01f,
	-2.84747690e-01f,-4.44347151e-02f,-2.28230283e-01f,-1.63680509e-01f,-1.44635871e-01f,
	-1.03685603e-01f,-1.82404801e-01f,-3.20535481e-01f,-2.28936717e-01f,+4.87824567e-02f,
	-1.61656201e-01f,+3.96676838e-01f,-1.16713524e-01f,-3.39527786e-01f,+2.46862248e-01f,
	-4.67208512e-02f,+2.63999403e-01f,-1.66198879e-01f,+7.52837062e-02f,-8.22568834e-02f,
	-3.44322950e-01f,+1.16949417e-01f,-3.56123358e-01f,-3.67438495e-01f,-2.81670302e-01f,
	-2.49240056e-01f,-8.47216230e-03f,+1.36584878e-01f,+2.19495595e-02f,+2.16309667e-01f,
	+9.24057513e-02f,-3.00309122e-01f,+3.59363258e-01f,-1.55108139e-01f,-3.90078157e-01f,
	-1.63069144e-01f,-4.11486439e-02f,-2.76832938e-01f,+7.98749030e-02f,-5.12806619e-05f,
	+5.47780228e+00f,-5.44208956e+00f,+1.08825967e-01f,-1.23829454e-01f,+6.07775927e+00f,
	-5.80113888e+00f,+5.79806900e+00f,+2.88032711e-01f,+1.99930325e-01f,-1.95679590e-01f,
	+6.46274948e+00f,+6.06766796e+00f,-5.91295242e+00f,+5.48174477e+00f,-5.53159523e+00f,
	-6.03969002e+00f,+1.53819725e-01f,+6.02463913e+00f,+8.92165005e-02f,-1.41799971e-01f,
	+2.79089920e-02f,-3.76528502e-01f,-9.48646963e-02f,-2.14297399e-01f,-1.13306308e+00f,
	+2.44420290e-01f,+5.17041385e-01f,+2.23497629e-01f,+1.29574415e-04f,+2.04386219e-01f,
	-1.12967634e+00f,+4.11873132e-01f,-1.70315206e-02f,-1.10281082e-02f,-1.42841443e-01f,
	+2.40332589e-01f,-2.51691490e-01f,+1.66741163e-01f,-2.01340020e-02f,-7.31191859e-02f,
	-4.41326916e-01f,+8.48922372e-01f,-1.64135292e-01f,+2.41152227e-01f,-7.00250626e-01f,
	+5.75959325e-01f,-9.08836007e-01f,-2.86953598e-01f,-4.01219785e-01f,+9.39596668e-02f,
	-5.47681928e-01f,-3.13405842e-01f,+2.97150701e-01f,-2.38939345e-01f,+9.01710629e-01f,
	+3.16116661e-01f,+3.54832351e-01f,-6.63903236e-01f,+1.76756740e-01f,+3.71399522e-01f,
	+5.46101987e-01f,+3.21094841e-02f,-2.73841806e-02f,+7.35866129e-02f,+3.83436888e-01f,
	-4.81062323e-01f,+6.87254250e-01f,-7.09880888e-02f,+1.79148182e-01f,-1.51306510e-01f,
	+1.34291798e-01f,+4.88935441e-01f,-3.32926698e-02f,+4.49793994e-01f,-2.17673317e-01f,
	-3.25927198e-01f,+2.76160061e-01f,+3.46961394e-02f,-1.13747478e-01f,-3.76732975e-01f,
	+2.10298657e-01f,+2.67136991e-01f,-7.74597824e-02f,+2.42961586e-01f,-1.00069195e-01f,
	-1.52202383e-01f,-1.79515660e-01f,-6.86438978e-02f,+9.49865878e-02f,-3.54538083e-01f,
	-5.65520823e-02f,+1.66922629e-01f,+1.44784987e-01f,+2.20810354e-01f,-5.35219610e-02f,
	+1.90570474e-01f,-3.23778361e-01f,+2.50027478e-02f,+2.49918699e-02f,+2.72144079e-01f,
	-2.85352677e-01f,+1.53130308e-01f,-3.40931043e-02f,-6.45588040e-02f,+2.92296350e-01f,
	+7.67159104e-01f,-2.69268341e-02f,-3.19552183e-01f,+1.39759004e-01f,-1.41608119e-01f,
	+1.14431441e-01f,-3.92852843e-01f,+6.24206781e-01f,-1.62936628e-01f,+2.58398771e-01f,
	+6.44652188e-01f,-3.80413592e-01f,-1.20058566e-01f,+3.02919328e-01f,-1.23346992e-01f,
	+2.54315495e-01f,+1.31812513e-01f,-2.42096364e-01f,-3.71891022e-01f,-1.20224506e-01f,
	-3.24986577e-02f,+2.97491074e-01f,+4.95784581e-02f,+3.84390116e-01f,-2.23404616e-01f,
	+1.22665167e-02f,+2.90145099e-01f,-3.28509450e-01f,+3.33040595e-01f,+2.10426748e-01f,
	+1.35596514e-01f,+3.01643312e-02f,+3.11970651e-01f,-1.34838849e-01f,-2.11194456e-02f,
	-2.08838642e-01f,+3.12467039e-01f,+1.07920319e-01f,-2.03842118e-01f,-1.00524902e+00f,
	+2.81590104e-01f,-4.51732039e-01f,+2.72781134e-01f,-2.75865138e-01f,+2.63804197e-01f,
	-8.66896927e-01f,+4.08706129e-01f,+4.62408096e-01f,+1.16245955e-01f,+6.75865531e-01f,
	+6.03489101e-01f,-1.67443603e-01f,+1.11178428e-01f,-3.64543021e-01f,+2.34728336e-01f,
	+8.53726175e-03f,+3.32036376e-01f,-2.17565790e-01f,+5.10167181e-02f,-1.67261645e-01f,
	-3.15086901e-01f,-1.08886823e-01f,+2.09649980e-01f,+2.11547852e-01f,+1.27305269e-01f,
	-3.38808298e-01f,+4.29056250e-02f,-1.59416974e-01f,+3.32952403e-02f,+1.98156208e-01f,
	+2.48581216e-01f,+4.78760004e-02f,-9.58797634e-02f,-8.28306973e-02f,+1.07635304e-01f,
	+7.54805207e-02f,-6.62327290e-01f,+1.31701469e-01f,-8.23569894e-02f,+4.10641849e-01f,
	-5.89819014e-01f,+1.18478745e-01f,+1.95285797e-01f,-1.46004036e-01f,+2.10602254e-01f,
	+7.04904974e-01f,+5.15639722e-01f,+1.57774910e-01f,+7.28271306e-01f,-1.54817536e-01f,
	-3.29111904e-01f,+4.95677963e-02f,+6.62387133e-01f,-1.95846558e-02f,+1.47808388e-01f,
	-2.75676906e-01f,+8.04386020e-01f,-3.96678984e-01f,+2.24924326e-01f,-6.11052871e-01f,
	+2.68203199e-01f,+3.41657326e-02f,+2.90562689e-01f,+1.62012041e-01f,-2.18235582e-01f,
	-3.84961106e-02f,-1.64891809e-01f,+3.34964573e-01f,-1.91345319e-01f,+5.32213211e-01f,
	+6.89678490e-01f,-1.21609882e-01f,-3.90733853e-02f,-1.00815207e-01f,-1.09798655e-01f,
	-3.59549999e-01f,+4.29423571e-01f,-9.82063562e-02f,+5.63694239e-02f,-2.72538453e-01f,
	+4.42603648e-01f,-3.22685152e-01f,-3.26651037e-01f,-1.56045407e-01f,-2.83798307e-01f,
	-3.76545757e-01f,-5.79329208e-02f,+4.08614248e-01f,-4.45975363e-01f,+1.47716090e-01f,
	+4.13804144e-01f,+1.83534510e-02f,+3.14056575e-01f,-3.30595851e-01f,-7.67384917e-02f,
	+2.86044836e-01f,+6.51671767e-01f,-6.70944452e-02f,-1.94633603e-01f,+9.31751132e-02f,
	+6.37181044e-01f,-1.38799861e-01f,-2.95520723e-01f,-3.25621903e-01f,+1.14620090e-01f,
	+1.07208349e-01f,+1.42977638e-02f,+1.78670570e-01f,+1.20697953e-01f,+6.03326976e-01f,
	+4.61919725e-01f,-9.40733254e-02f,-1.74133375e-01f,-3.30978215e-01f,+1.61832944e-01f,
	+8.07653487e-01f,-2.47570127e-01f,-2.49271482e-01f,-2.24023476e-01f,-1.38785318e-01f,
	-4.18288171e-01f,+9.50767875e-01f,+1.08381569e-01f,+6.73670396e-02f,-3.77665818e-01f,
	-2.24538729e-01f,+7.80139208e-01f,-6.82601213e-01f,+9.01548862e-01f,-4.37296391e-01f,
	-2.81316608e-01f,-6.92823902e-02f,+8.24588895e-01f,-1.18401378e-01f,+2.21357912e-01f,
	+1.19900823e-01f,+9.22083855e-04f,-7.45342970e-02f,+3.49080265e-01f,-3.61524761e-01f,
	+1.38713837e-01f,-8.57044905e-02f,+9.06300545e-03f,-2.91252583e-01f,+1.61296964e-01f,
	-1.34993464e-01f,-3.17101717e-01f,-1.09591782e-02f,-3.81334901e-01f,+3.18553448e-02f,
	-6.90416694e-02f,-1.39793485e-01f,-3.34663570e-01f,+1.89910889e-01f,+1.62615478e-01f,
	+3.58705878e+00f,-4.05385447e+00f,+1.34995833e-01f,-1.36788398e-01f,+3.97720218e+00f,
	-3.95724821e+00f,+4.04595804e+00f,-6.49586320e-03f,+1.57598212e-01f,+3.14628422e-01f,
	+4.36511469e+00f,+3.97801375e+00f,-4.02760077e+00f,+3.94312739e+00f,-3.74094272e+00f,
	-4.19297552e+00f,+2.18863681e-01f,+3.91982245e+00f,+4.77762520e-02f,-8.58952925e-02f,
	+2.70523131e-02f,+3.29502285e-01f,+5.93585372e-02f,+6.41965568e-02f,+8.56170058e-02f,
	-3.35437268e-01f,+3.23280215e-01f,+2.77321339e-01f,+2.99355507e-01f,+4.83978093e-02f,
	+8.95071030e-03f,-1.06935173e-01f,+8.58592093e-02f,+2.70237923e-01f,+3.01546216e-01f,
	-2.69425809e-01f,-2.99259096e-01f,+2.41932571e-01f,+3.42755079e-01f,+5.27596176e-02f,
	}; 
	k2c_tensor dense_34_kernel = {&dense_34_kernel_array[0],2,400,{20,20, 1, 1, 1}}; 
	float dense_34_bias_array[20] = {
	+1.00511871e-02f,+1.60692677e-01f,-3.10129263e-02f,+0.00000000e+00f,+3.56294602e-01f,
	+1.58267453e-01f,-3.28339972e-02f,+0.00000000e+00f,-7.23368078e-02f,-2.22366489e-02f,
	+4.17846680e-01f,+1.45255774e-02f,+2.22120017e-01f,+1.18308840e-02f,+1.05258800e-01f,
	+1.88479617e-01f,-1.36198737e-02f,-9.51299816e-03f,+0.00000000e+00f,-1.97911765e-02f,
	}; 
	k2c_tensor dense_34_bias = {&dense_34_bias_array[0],1,20,{20, 1, 1, 1, 1}}; 
	float dense_34_fwork[420] = {0}; 

	
	float dense_35_output_array[1] = {0}; 
	k2c_tensor dense_35_output = {&dense_35_output_array[0],1,1,{1,1,1,1,1}}; 
	float dense_35_kernel_array[20] = {
	-1.16898394e+00f,+7.28579938e-01f,+3.03842962e-01f,-3.77511322e-01f,-5.22287512e+00f,
	+1.12635589e+00f,-1.38836432e+00f,-9.67098176e-02f,+1.34087369e-01f,+4.93822217e-01f,
	-5.16457891e+00f,-1.46250927e+00f,+1.20511532e+00f,-7.32140720e-01f,+6.14292145e-01f,
	+7.60794640e-01f,+4.94368106e-01f,-1.35295379e+00f,+4.73135531e-01f,+1.30259886e-01f,
	}; 
	k2c_tensor dense_35_kernel = {&dense_35_kernel_array[0],2,20,{20, 1, 1, 1, 1}}; 
	float dense_35_bias_array[1] = {
	+1.55003324e-01f,}; 
	k2c_tensor dense_35_bias = {&dense_35_bias_array[0],1,1,{1,1,1,1,1}}; 
	float dense_35_fwork[40] = {0}; 

	
	k2c_dense(&dense_32_output,input_layer_8_input,&dense_32_kernel, 
		&dense_32_bias,k2c_relu,dense_32_fwork); 
	k2c_dense(&dense_33_output,&dense_32_output,&dense_33_kernel, 
		&dense_33_bias,k2c_relu,dense_33_fwork); 
	k2c_dense(&dense_34_output,&dense_33_output,&dense_34_kernel, 
		&dense_34_bias,k2c_relu,dense_34_fwork); 
	k2c_dense(keras_tensor_64_output,&dense_34_output,&dense_35_kernel, 
		&dense_35_bias,k2c_sigmoid,dense_35_fwork); 

 } 



void MLP_SND_RTTModel:: keras2c_model_initialize() { 

    cout << "Inicializando o Modleo MLP_SND_RTT" <<  endl;

} 

void MLP_SND_RTTModel:: keras2c_model_terminate() { 

    cout << "Finalizando o Modleo MLP_SND_RTT" << endl;

} 

