#include <math.h> 
#include <string.h> 
#include <iostream>
#include "./keras2c/Model/include/k2c_include.h" 
#include "./keras2c/Model/include/k2c_tensor_include.h" 
#include "./keras2c/MLP_3000_epocas/keras2c_model_MLP.h"

using namespace std;


void MLPModel:: keras2c_model(const k2c_tensor* dense_68_input_1_input, k2c_tensor* dense_70_1_output) { 
/*
        float dense_68_output_array[20] = {0}; 
        k2c_tensor dense_68_1_output = {&dense_68_output_array[0],1,20,{20, 1, 1, 1, 1}}; 
        float dense_68_kernel_array[60] = {
        -1.04626305e-02f,-1.38489427e-02f,+2.80009620e-02f,-1.85167342e-02f,+4.69948538e-02f,
        +5.33367507e-02f,+6.67548105e-02f,+5.29491790e-02f,+7.02229813e-02f,+6.99670464e-02f,
        +2.77499240e-02f,+2.96481177e-02f,-9.24018025e-03f,+2.73745339e-02f,+5.35146743e-02f,
        +1.64938085e-02f,+5.17090201e-01f,+5.21747023e-02f,+6.25099316e-02f,+2.03872323e-02f,
        +7.23078772e-02f,+6.56160116e-02f,-2.32916605e-02f,+4.62371968e-02f,-2.54048835e-02f,
        +1.54929012e-01f,+5.38166091e-02f,-3.95850977e-03f,-1.81149635e-02f,+4.20286171e-02f,
        +1.97778419e-02f,+3.78378220e-02f,+1.17666069e-02f,-2.24352274e-02f,+6.32296223e-03f,
        -3.99258137e-02f,+4.03960586e-01f,+3.40443105e-02f,+3.22912559e-02f,+1.09911161e-02f,
        +4.45453852e-01f,+4.68047351e-01f,-4.56491970e-02f,-4.51814681e-02f,-2.98268437e-01f,
        +3.55963588e-01f,-2.63597101e-01f,-2.97722369e-01f,-3.24177057e-01f,-2.71146625e-01f,
        -3.52145359e-02f,-2.93273836e-01f,+4.34380114e-01f,-3.00387353e-01f,-2.96615452e-01f,
        -1.49117485e-02f,+4.96367276e-01f,-2.38585681e-01f,-2.63561904e-01f,+4.08213526e-01f,
        }; 
        k2c_tensor dense_68_kernel = {&dense_68_kernel_array[0],2,60,{ 3,20, 1, 1, 1}}; 
        float dense_68_bias_array[20] = {
        -1.73081949e-01f,-1.52666703e-01f,+0.00000000e+00f,-2.88818800e-03f,+2.97965378e-01f,
        -2.25618511e-01f,+2.52963334e-01f,+2.95977235e-01f,+3.18822175e-01f,+2.60306716e-01f,
        -1.69478785e-02f,+2.91601866e-01f,-1.79613903e-01f,+3.05258811e-01f,+2.93904245e-01f,
        +0.00000000e+00f,+3.70784014e-01f,+3.19830865e-01f,+2.53218174e-01f,-1.61594078e-01f,
        }; 
        k2c_tensor dense_68_bias = {&dense_68_bias_array[0],1,20,{20, 1, 1, 1, 1}}; 
        float dense_68_fwork[63] = {0}; 

        
        float dense_69_output_array[20] = {0}; 
        k2c_tensor dense_69_1_output = {&dense_69_output_array[0],1,20,{20, 1, 1, 1, 1}}; 
        float dense_69_kernel_array[400] = {
        -3.85397196e-01f,+5.09656787e-01f,-3.37752074e-01f,-2.66992804e-02f,+5.20439073e-03f,
        -3.57264578e-01f,+9.95030999e-03f,+5.70413291e-01f,-2.26451345e-02f,+5.59967399e-01f,
        -1.00999698e-02f,+5.63598871e-01f,-2.69099548e-02f,-4.12786864e-02f,-4.74109501e-03f,
        -4.24897075e-02f,+5.81233084e-01f,-3.33863407e-01f,+5.93070745e-01f,+5.88138938e-01f,
        -2.98952639e-01f,+5.43506384e-01f,-2.98025966e-01f,+9.68527049e-04f,+1.83552764e-02f,
        -2.46397093e-01f,-7.56958779e-03f,+5.31368077e-01f,-4.92364392e-02f,+5.29490709e-01f,
        -1.58819556e-02f,+5.29311359e-01f,+2.18942296e-02f,-8.95177294e-03f,-1.58082470e-02f,
        +4.16366719e-02f,+4.66275543e-01f,-2.93468118e-01f,+4.82279450e-01f,+5.03905118e-01f,
        +3.91131639e-03f,+3.86275314e-02f,+4.55758721e-03f,-2.66187433e-02f,+3.14843692e-02f,
        -4.28467169e-02f,+2.34055519e-03f,-4.92394678e-02f,-4.33937572e-02f,-7.42661953e-03f,
        +1.65358298e-02f,+1.81110762e-02f,+1.76517032e-02f,+2.48308443e-02f,-4.42971960e-02f,
        -2.80345324e-02f,-2.29685903e-02f,-3.82547602e-02f,+3.29499729e-02f,-1.99198127e-02f,
        -2.64638457e-02f,+9.91214067e-03f,-4.20119055e-02f,-1.91298481e-02f,-4.76790778e-02f,
        -1.09024001e-02f,+2.31794789e-02f,-2.60635577e-02f,+9.69947502e-03f,-2.51369551e-02f,
        +1.66687258e-02f,+3.99711430e-02f,-4.33454774e-02f,-3.05947065e-02f,+9.65195894e-03f,
        -1.80410966e-02f,+4.11953740e-02f,-3.73537652e-02f,-4.09501232e-02f,-1.10319508e-02f,
        +1.53379130e+00f,-1.40518236e+00f,+1.52263319e+00f,+1.70237757e-02f,+1.10741034e-02f,
        +1.48539305e+00f,-7.00845523e-03f,-1.36090577e+00f,+5.93452901e-03f,-1.32994998e+00f,
        +3.67930792e-02f,-1.39605772e+00f,+1.92884374e-02f,-4.13335748e-02f,-3.72239724e-02f,
        -3.63963731e-02f,-1.32336760e+00f,+1.48324871e+00f,-1.41327226e+00f,-1.41351330e+00f,
        -4.87774938e-01f,+6.61341846e-01f,-5.33076704e-01f,+2.60858648e-02f,-3.62471342e-02f,
        -4.78171170e-01f,+1.68394390e-02f,+7.14098811e-01f,-1.41904503e-03f,+7.23440051e-01f,
        -2.98496373e-02f,+7.06165612e-01f,-2.18772888e-02f,-4.88546900e-02f,+6.05734438e-03f,
        -4.98357303e-02f,+6.62748992e-01f,-5.03068626e-01f,+6.72694385e-01f,+6.48537695e-01f,
        +7.83406496e-01f,-6.51272535e-01f,+8.39109302e-01f,+1.36000551e-02f,-1.46551616e-02f,
        +8.32206547e-01f,-1.11169489e-02f,-6.63197756e-01f,-3.45032178e-02f,-6.32388592e-01f,
        -1.49082057e-02f,-6.82266474e-01f,-4.05930355e-02f,-3.29342335e-02f,-3.54898199e-02f,
        +3.94742228e-02f,-6.54973328e-01f,+7.61111259e-01f,-6.67895794e-01f,-7.27979958e-01f,
        +1.26129866e+00f,-1.04815376e+00f,+1.25385165e+00f,-4.30358909e-02f,-1.52888894e-02f,
        +1.20333946e+00f,+2.39984356e-02f,-1.09847867e+00f,+1.54623734e-02f,-1.09368289e+00f,
        +7.45061785e-03f,-1.09556282e+00f,-4.30090949e-02f,+2.10665986e-02f,+6.59191608e-03f,
        -2.82964949e-02f,-1.11746109e+00f,+1.21539688e+00f,-1.07119501e+00f,-1.08680689e+00f,
        +1.35723245e+00f,-1.20508242e+00f,+1.37170994e+00f,-4.13223729e-02f,-1.30322091e-02f,
        +1.35157263e+00f,-2.34962963e-02f,-1.22995257e+00f,+1.56132728e-02f,-1.21281052e+00f,
        +3.26981805e-02f,-1.23373032e+00f,+3.06797959e-02f,-4.65849489e-02f,-2.42564678e-02f,
        +2.67451648e-02f,-1.26209247e+00f,+1.34547770e+00f,-1.27341235e+00f,-1.24312532e+00f,
        +8.69028986e-01f,-7.20446408e-01f,+8.25614691e-01f,+2.81867124e-02f,-1.02676451e-04f,
        +8.78467262e-01f,-4.07832712e-02f,-7.09271848e-01f,+4.74971496e-02f,-7.01971829e-01f,
        -3.60521302e-02f,-6.94885731e-01f,+9.51925479e-03f,-3.93821895e-02f,+4.89137657e-02f,
        -2.19820663e-02f,-7.53106892e-01f,+8.12450409e-01f,-7.21417189e-01f,-7.46386766e-01f,
        -2.05837917e-02f,+8.34818836e-03f,+2.73629818e-02f,-1.23942867e-02f,+3.35763805e-02f,
        -1.82686374e-02f,-2.45493799e-02f,-2.51519401e-03f,-1.48776406e-02f,+3.29046473e-02f,
        +2.53659487e-03f,-2.57264208e-02f,-1.19555481e-02f,+5.07080555e-03f,+1.23540759e-02f,
        +1.40079595e-02f,-2.05001049e-02f,-2.78447587e-02f,-4.60850857e-02f,-4.25177030e-02f,
        +1.06585419e+00f,-8.69791746e-01f,+1.08182847e+00f,+3.83786671e-02f,-1.43463239e-02f,
        +1.10643172e+00f,+3.62811889e-03f,-9.79281068e-01f,+7.81753287e-03f,-9.34044540e-01f,
        -4.73114103e-03f,-9.28387165e-01f,-4.16084342e-02f,+1.56591460e-02f,+4.14604582e-02f,
        -5.02260141e-02f,-9.62241530e-01f,+1.06513739e+00f,-9.63749826e-01f,-9.76438522e-01f,
        -3.96598369e-01f,+5.46195984e-01f,-4.68151271e-01f,-4.01077159e-02f,-3.32065001e-02f,
        -4.47421581e-01f,-3.45606841e-02f,+6.26636505e-01f,-2.49604043e-02f,+5.99369526e-01f,
        -2.23807823e-02f,+5.80478489e-01f,+2.34274212e-02f,+2.38910764e-02f,-3.26194167e-02f,
        +9.83998179e-03f,+6.05702698e-01f,-4.68541026e-01f,+6.37316167e-01f,+6.54859424e-01f,
        +1.77616119e+00f,-1.66435099e+00f,+1.78821325e+00f,+4.73709442e-02f,-2.82974243e-02f,
        +1.83681500e+00f,-3.80005091e-02f,-1.63867235e+00f,-4.31464277e-02f,-1.72424376e+00f,
        +9.02254507e-03f,-1.66256642e+00f,+2.02010944e-03f,+4.13754247e-02f,+2.71961726e-02f,
        +4.45673289e-03f,-1.70053434e+00f,+1.82932460e+00f,-1.72847569e+00f,-1.69302690e+00f,
        +1.12990129e+00f,-9.90832210e-01f,+1.14038658e+00f,-8.91583040e-03f,-7.50046968e-03f,
        +1.18846822e+00f,-4.77159545e-02f,-1.04001462e+00f,+2.85845827e-02f,-1.02210748e+00f,
        +4.84795012e-02f,-1.06511986e+00f,-2.27511171e-02f,+2.48458516e-03f,-1.18895397e-02f,
        -4.20935750e-02f,-1.01999795e+00f,+1.18724024e+00f,-1.05071354e+00f,-9.94895995e-01f,
        +2.57234685e-02f,-4.58918698e-02f,-3.75527628e-02f,+4.29569148e-02f,-2.94137727e-02f,
        -4.86089587e-02f,+3.96998972e-03f,+1.49745680e-02f,+4.51897494e-02f,+4.50989716e-02f,
        +4.76892479e-02f,+2.85195820e-02f,+1.29909627e-02f,+2.50298716e-02f,-4.90359217e-03f,
        +3.41553614e-03f,-3.58113535e-02f,+1.25962608e-02f,-4.34868447e-02f,+3.77137549e-02f,
        +2.02922314e-01f,+1.38928577e-01f,+2.25945815e-01f,-4.85238098e-02f,-2.30752472e-02f,
        +1.41946957e-01f,+8.13155621e-03f,+1.16304874e-01f,-3.18641923e-02f,+9.73559916e-02f,
        -4.68863249e-02f,+1.52455986e-01f,-1.33612175e-02f,+3.02363615e-02f,-4.20724750e-02f,
        +1.30685400e-02f,+1.64476052e-01f,+1.96527377e-01f,+1.32092267e-01f,+1.19974121e-01f,
        +6.61640942e-01f,-3.55341852e-01f,+6.37425780e-01f,+2.00060867e-02f,-3.22879702e-02f,
        +6.00427747e-01f,-9.27764643e-03f,-3.61444890e-01f,-1.09636551e-02f,-3.42013955e-01f,
        -1.19641796e-02f,-4.41914141e-01f,+1.93036476e-03f,-2.66199373e-02f,-1.75905451e-02f,
        +3.44001167e-02f,-4.27433521e-01f,+6.42621577e-01f,-3.90010208e-01f,-3.67320925e-01f,
        +9.14639413e-01f,-7.61388302e-01f,+9.03136432e-01f,-3.21783312e-02f,-3.56589332e-02f,
        +8.52368236e-01f,-8.95810872e-03f,-7.56954312e-01f,-7.70175550e-03f,-7.92674363e-01f,
        -3.81845348e-02f,-7.92820036e-01f,-4.69163954e-02f,-5.10256886e-02f,-4.29488532e-02f,
        -4.96749245e-02f,-7.44225383e-01f,+9.31214452e-01f,-7.60567367e-01f,-7.92179465e-01f,
        -3.93839896e-01f,+5.93696475e-01f,-3.55380267e-01f,-4.13213484e-02f,+7.41857290e-03f,
        -4.00234133e-01f,-1.17573887e-02f,+5.96965134e-01f,+4.32186611e-02f,+6.14825189e-01f,
        +2.19235905e-02f,+5.44224858e-01f,-7.38622574e-03f,-5.54922186e-02f,+2.93644108e-02f,
        -3.87400761e-02f,+5.15622795e-01f,-3.83491814e-01f,+5.98149955e-01f,+5.90536416e-01f,
        }; 
        k2c_tensor dense_69_kernel = {&dense_69_kernel_array[0],2,400,{20,20, 1, 1, 1}}; 
        float dense_69_bias_array[20] = {
        +3.63068700e-01f,-1.31568015e-01f,+3.57771635e-01f,+0.00000000e+00f,+0.00000000e+00f,
        +3.77913207e-01f,-8.59138556e-03f,-1.27643049e-01f,-1.21768913e-03f,-1.08335465e-01f,
        +0.00000000e+00f,-1.32023335e-01f,-2.94946507e-03f,-6.34667045e-03f,+0.00000000e+00f,
        -2.31411913e-03f,-1.27542943e-01f,+3.68214726e-01f,-1.20084248e-01f,-1.07094616e-01f,
        }; 
        k2c_tensor dense_69_bias = {&dense_69_bias_array[0],1,20,{20, 1, 1, 1, 1}}; 
        float dense_69_fwork[420] = {0}; 

        
        float dense_70_kernel_array[20] = {
        -1.87414479e+00f,+2.29306459e+00f,-1.73712051e+00f,+1.49234772e-01f,-1.46947861e-01f,
        -1.74225116e+00f,-4.25239176e-01f,+2.17575288e+00f,+3.13818362e-03f,+2.04557562e+00f,
        +1.94336593e-01f,+2.18858910e+00f,-4.71287400e-01f,+4.29412037e-01f,+1.01463735e-01f,
        -7.23239966e-03f,+2.20640707e+00f,-1.66779339e+00f,+2.01018310e+00f,+1.94010377e+00f,
        }; 
        k2c_tensor dense_70_kernel = {&dense_70_kernel_array[0],2,20,{20, 1, 1, 1, 1}}; 
        float dense_70_bias_array[1] = {
        -2.99396485e-01f,}; 
        k2c_tensor dense_70_bias = {&dense_70_bias_array[0],1,1,{1,1,1,1,1}}; 
        float dense_70_fwork[40] = {0}; 

        
        k2c_dense(&dense_68_1_output,dense_68_input_1_input,&dense_68_kernel, 
            &dense_68_bias,k2c_relu,dense_68_fwork); 
        k2c_dense(&dense_69_1_output,&dense_68_1_output,&dense_69_kernel, 
            &dense_69_bias,k2c_relu,dense_69_fwork); 
        k2c_dense(dense_70_1_output,&dense_69_1_output,&dense_70_kernel, 
            &dense_70_bias,k2c_sigmoid,dense_70_fwork); 

    */
   return;

 } 


void MLPModel::keras2c_model_Round0000001_10Mbps(const k2c_tensor* dense_8_input_input, k2c_tensor* dense_11_output) { 

cout << "MLPModel Round0000001_10Mbps \n";


float dense_8_output_array[20] = {0}; 
k2c_tensor dense_8_output = {&dense_8_output_array[0],1,20,{20, 1, 1, 1, 1}}; 
float dense_8_kernel_array[60] = {
+1.87684335e-02f,+7.30951177e-03f,-1.19027225e-02f,-2.19195485e-02f,+5.23680486e-02f,
-1.24470480e-02f,+1.30388096e-01f,-4.63084579e-02f,-3.59946415e-02f,-4.00490277e-02f,
+2.91437078e-02f,+1.73241422e-02f,+1.36259943e-03f,-1.97762772e-02f,+2.34081708e-02f,
-4.35828138e-03f,+1.36496667e-02f,+9.68231112e-02f,-3.22492942e-02f,-2.65927520e-02f,
-2.97760367e-02f,-5.62302321e-02f,-3.54672708e-02f,-2.70450469e-02f,+1.01629928e-01f,
-4.40510996e-02f,+1.38424844e-01f,+8.74643400e-03f,-2.39367392e-02f,+6.33672625e-03f,
-1.02023343e-02f,-5.51726893e-02f,-3.29418108e-03f,-5.78525886e-02f,-6.27298877e-02f,
-4.31339145e-02f,-4.85381261e-02f,+8.12049806e-02f,-1.85505059e-02f,-2.41556298e-02f,
-4.98680845e-02f,+4.19183344e-01f,+3.98912668e-01f,-4.51318994e-02f,-3.61809909e-01f,
-2.90459748e-02f,-3.48174900e-01f,+4.39421445e-01f,+8.43649358e-03f,-4.78895791e-02f,
-3.33705060e-02f,+4.14887100e-01f,-5.96426800e-03f,+1.38012208e-02f,+4.26093966e-01f,
+4.32867974e-01f,+4.33941722e-01f,+4.54548985e-01f,+4.01649028e-01f,+4.05484527e-01f,
}; 
k2c_tensor dense_8_kernel = {&dense_8_kernel_array[0],2,60,{ 3,20, 1, 1, 1}}; 
float dense_8_bias_array[20] = {
+0.00000000e+00f,-1.17395602e-01f,-1.06771730e-01f,+0.00000000e+00f,+3.51193517e-01f,
+0.00000000e+00f,+3.74919921e-01f,-1.15619846e-01f,-5.61793894e-03f,+0.00000000e+00f,
-8.71608499e-03f,-1.18699968e-01f,+0.00000000e+00f,-9.88851953e-03f,-1.21420942e-01f,
-1.23540893e-01f,-1.21097639e-01f,+2.19857112e-01f,-1.09931111e-01f,-1.12591483e-01f,
}; 
k2c_tensor dense_8_bias = {&dense_8_bias_array[0],1,20,{20, 1, 1, 1, 1}}; 
float dense_8_fwork[63] = {0}; 

 
float dense_9_output_array[20] = {0}; 
k2c_tensor dense_9_output = {&dense_9_output_array[0],1,20,{20, 1, 1, 1, 1}}; 
float dense_9_kernel_array[400] = {
-2.07997318e-02f,+2.11398676e-03f,-3.95909920e-02f,-1.12311617e-02f,-4.89550605e-02f,
-4.60897461e-02f,-2.50761509e-02f,+3.31394747e-03f,-3.97330411e-02f,-4.70110439e-02f,
-2.10305806e-02f,-4.94502895e-02f,+3.01057957e-02f,+3.35441343e-02f,+3.15003470e-03f,
-2.62459274e-02f,-1.73066035e-02f,-3.92807834e-02f,+3.87576558e-02f,-4.15874943e-02f,
-4.78315890e-01f,-4.29494023e-01f,+4.55948144e-01f,+4.56314296e-01f,-4.23973888e-01f,
+2.02366710e-02f,+5.04570842e-01f,+4.66621518e-01f,-1.31861791e-02f,+6.58845901e-03f,
+4.34578359e-01f,+4.45699096e-01f,+4.66351420e-01f,-4.93199646e-01f,+1.48571551e-01f,
-7.58091360e-03f,+4.93277639e-01f,+4.46362376e-01f,-4.18592244e-04f,+4.70765769e-01f,
-3.98258746e-01f,-3.46472830e-01f,+4.15213555e-01f,+4.42928106e-01f,-3.29684228e-01f,
+2.26269830e-02f,+4.14929479e-01f,+4.42311376e-01f,+8.44663382e-03f,-6.30420446e-03f,
+4.41658676e-01f,+4.27772522e-01f,+4.52743769e-01f,-3.49136353e-01f,+2.24632502e-01f,
-2.39528287e-02f,+4.17311937e-01f,+4.50995505e-01f,-7.70837069e-03f,+4.64324594e-01f,
-4.20392044e-02f,+3.99127938e-02f,-9.94253159e-03f,-4.78497520e-02f,-3.92560586e-02f,
+3.98209430e-02f,+4.54262532e-02f,+1.58658959e-02f,-1.69306993e-03f,+3.79833095e-02f,
-8.84265825e-03f,-4.80648763e-02f,+2.58597247e-02f,+3.92559916e-03f,+9.25927237e-03f,
+3.07430364e-02f,-4.06873450e-02f,+2.22776867e-02f,-3.74537483e-02f,-3.71948592e-02f,
+5.78128397e-01f,+5.27619720e-01f,-3.92341137e-01f,-3.69927466e-01f,+6.11797214e-01f,
+1.91061758e-02f,-3.59885812e-01f,-3.40997249e-01f,-1.70750991e-02f,+7.48253986e-03f,
-4.14192080e-01f,-3.81747723e-01f,-4.07746315e-01f,+5.78459322e-01f,+6.89308941e-01f,
-2.90931873e-02f,-3.44781429e-01f,+2.26868093e-02f,+8.43664259e-03f,-3.89421672e-01f,
-2.78953444e-02f,-3.61994877e-02f,+7.33723491e-03f,+3.04002501e-02f,-1.18518099e-02f,
-2.35159397e-02f,+4.17848565e-02f,-4.16453257e-02f,-2.97624990e-03f,+3.30504291e-02f,
-3.07758898e-03f,-2.03188509e-03f,-1.86400525e-02f,+2.60592215e-02f,-4.09504883e-02f,
-6.72397763e-03f,-1.05064884e-02f,-1.47730000e-02f,-2.55620480e-03f,+8.02163035e-03f,
+5.92777908e-01f,+5.74360013e-01f,-3.18535030e-01f,-2.55375922e-01f,+5.88489234e-01f,
-2.77116895e-02f,-3.35553944e-01f,-3.12207103e-01f,-4.23444510e-02f,-3.98097858e-02f,
-3.57424408e-01f,-3.46544474e-01f,-3.21281880e-01f,+5.87611794e-01f,+6.13420904e-01f,
+4.68546040e-02f,-2.93421239e-01f,+2.36144140e-02f,-7.67953321e-03f,-3.59770298e-01f,
-3.02840799e-01f,-3.39325458e-01f,+4.17518646e-01f,+3.88574243e-01f,-3.23866576e-01f,
-4.52543087e-02f,+4.61602956e-01f,+3.70616108e-01f,-4.57548499e-02f,-2.99474597e-02f,
+3.58090609e-01f,+4.58739758e-01f,+3.94603819e-01f,-2.95343399e-01f,+2.08709091e-01f,
-4.64703031e-02f,+4.32546377e-01f,+4.40285057e-01f,-4.41133864e-02f,+3.88453156e-01f,
-4.00907267e-03f,+4.07941267e-03f,+1.86681803e-02f,-4.32558991e-02f,-9.66190174e-03f,
-7.35169696e-03f,+2.80552395e-02f,-1.81577783e-02f,-1.22606531e-02f,+3.23537327e-02f,
+3.45531702e-02f,-2.16152053e-02f,+2.75369063e-02f,+2.41162665e-02f,+3.39570753e-02f,
-1.60590559e-03f,+3.54064889e-02f,-3.05758715e-02f,-3.30089480e-02f,-4.59995866e-02f,
-2.98631545e-02f,+4.97524813e-03f,+1.96889304e-02f,-7.89237022e-03f,+1.73561089e-02f,
-1.90663468e-02f,-4.69111688e-02f,+2.23412849e-02f,-3.96430492e-02f,-2.35500466e-02f,
+4.54093106e-02f,-1.33926049e-02f,+2.09145062e-02f,-4.44892794e-03f,+4.53710295e-02f,
-4.94025722e-02f,+2.86886580e-02f,-7.16536120e-03f,-2.00564396e-02f,-1.58614516e-02f,
+3.47033367e-02f,+4.66202721e-02f,+3.58585529e-02f,+2.24267133e-02f,-4.33926582e-02f,
-1.60368904e-02f,+2.70231813e-02f,+3.00639495e-02f,-1.34143457e-02f,+8.90361145e-03f,
-4.44010384e-02f,+8.29049561e-04f,+3.88151444e-02f,+2.22673789e-02f,-7.26913288e-03f,
+4.19855453e-02f,+2.98430994e-02f,+4.10228521e-02f,-3.10050379e-02f,-2.33721621e-02f,
-4.89788353e-01f,-4.05326962e-01f,+4.82973665e-01f,+4.47649986e-01f,-4.92763072e-01f,
-5.08440891e-03f,+4.73964185e-01f,+4.89445627e-01f,+4.53397073e-02f,-3.59347090e-02f,
+4.76588935e-01f,+4.70269024e-01f,+4.57298607e-01f,-5.16826034e-01f,+1.48217663e-01f,
+2.22743191e-02f,+4.38918263e-01f,+4.61424857e-01f,+3.47278267e-03f,+4.31680024e-01f,
+3.02721746e-02f,+4.94194031e-03f,-3.06962859e-02f,+1.23623610e-02f,-6.49170950e-03f,
+1.68654434e-02f,-1.15624294e-02f,-1.40155554e-02f,+2.29483731e-02f,-1.74326785e-02f,
+3.45824398e-02f,+3.23491432e-02f,+5.19902632e-03f,+1.67293064e-02f,+3.23179476e-02f,
+3.11825536e-02f,+1.85782351e-02f,+4.61826958e-02f,+1.40478462e-03f,+4.32672240e-02f,
+8.73188395e-03f,-3.46647613e-02f,-2.32824264e-03f,+1.46104936e-02f,-4.81074937e-02f,
+2.40032636e-02f,-4.02406156e-02f,+8.65335576e-03f,+9.10252333e-03f,+3.54293846e-02f,
-3.78606319e-02f,+4.62494865e-02f,-9.21689533e-03f,+1.66066233e-02f,-2.44909413e-02f,
-9.27618891e-03f,-3.27288359e-02f,-2.68911812e-02f,+3.76958959e-02f,-2.30211094e-02f,
-4.29096580e-01f,-4.46282506e-01f,+4.17817622e-01f,+4.49970961e-01f,-4.29690987e-01f,
+3.13991308e-02f,+4.43791598e-01f,+4.93755609e-01f,-6.45952299e-03f,-2.40544677e-02f,
+4.84630883e-01f,+4.10648823e-01f,+4.37087059e-01f,-5.01055241e-01f,+1.26289487e-01f,
-3.96545753e-02f,+3.94483417e-01f,+4.62514848e-01f,+3.19804437e-02f,+4.65772182e-01f,
-4.69246477e-01f,-4.66678053e-01f,+4.59220022e-01f,+4.62048084e-01f,-4.61564481e-01f,
-9.73457005e-03f,+4.93877083e-01f,+5.06586552e-01f,+2.37543024e-02f,-2.57339124e-02f,
+4.61706758e-01f,+4.18330222e-01f,+4.98019457e-01f,-5.11650383e-01f,+1.16587684e-01f,
+1.40240081e-02f,+4.47549582e-01f,+4.17759806e-01f,+9.63123888e-03f,+4.17575419e-01f,
-3.95205557e-01f,-3.92184496e-01f,+4.59205240e-01f,+4.14923400e-01f,-4.01386917e-01f,
+2.86447741e-02f,+4.81011927e-01f,+4.26434845e-01f,-1.91381574e-02f,+3.90626229e-02f,
+4.62831140e-01f,+4.36947048e-01f,+4.68016177e-01f,-3.84325624e-01f,+1.78796336e-01f,
-3.75507027e-02f,+4.40885127e-01f,+4.18906897e-01f,-4.55434248e-03f,+3.91507983e-01f,
+2.45986149e-01f,+2.67668575e-01f,+3.42269421e-01f,+3.49918008e-01f,+2.09211305e-01f,
-4.36246656e-02f,+2.66615450e-01f,+3.20029497e-01f,-4.92639318e-02f,-4.37165387e-02f,
+3.02895159e-01f,+2.80788988e-01f,+2.78215706e-01f,+2.43776396e-01f,+5.98020375e-01f,
-4.78476696e-02f,+3.26323062e-01f,+5.44635832e-01f,-4.32212353e-02f,+3.10831189e-01f,
-4.52437550e-01f,-3.68769586e-01f,+4.37530071e-01f,+4.42323059e-01f,-3.76806378e-01f,
-1.27123185e-02f,+4.51513618e-01f,+4.89243299e-01f,-4.99448180e-02f,-1.00942627e-02f,
+4.48920488e-01f,+4.85773295e-01f,+4.79163170e-01f,-3.99744034e-01f,+1.73845530e-01f,
+4.53795418e-02f,+4.48038906e-01f,+4.28390592e-01f,-4.18107025e-02f,+4.83164936e-01f,
-4.04048711e-01f,-4.54496980e-01f,+4.24635440e-01f,+4.41484094e-01f,-4.10117954e-01f,
+3.47751342e-02f,+5.11986971e-01f,+4.50456917e-01f,-4.37890291e-02f,+2.45258920e-02f,
+4.49807554e-01f,+4.61316556e-01f,+5.00111759e-01f,-4.82092977e-01f,+2.13274345e-01f,
+4.97115813e-02f,+4.20610398e-01f,+4.12545711e-01f,+9.38416645e-03f,+4.84007031e-01f,
}; 
k2c_tensor dense_9_kernel = {&dense_9_kernel_array[0],2,400,{20,20, 1, 1, 1}}; 
float dense_9_bias_array[20] = {
+4.60050017e-01f,+4.72429544e-01f,+3.68773080e-02f,+3.58002968e-02f,+4.88000095e-01f,
-1.77178427e-03f,-1.68154649e-02f,-3.58025134e-02f,+0.00000000e+00f,+0.00000000e+00f,
+1.06508788e-02f,+1.81934983e-02f,+2.77520507e-03f,+4.59080189e-01f,+7.13847339e-01f,
-2.12299847e-03f,+3.76371965e-02f,+3.60549867e-01f,+0.00000000e+00f,+1.47840278e-02f,
}; 
k2c_tensor dense_9_bias = {&dense_9_bias_array[0],1,20,{20, 1, 1, 1, 1}}; 
float dense_9_fwork[420] = {0}; 

 
float dense_10_output_array[20] = {0}; 
k2c_tensor dense_10_output = {&dense_10_output_array[0],1,20,{20, 1, 1, 1, 1}}; 
float dense_10_kernel_array[400] = {
-4.52464819e-02f,+3.32543105e-02f,-4.79375720e-02f,+3.33958454e-02f,-3.47817093e-01f,
+7.68535852e-01f,-2.94616789e-01f,+2.46972479e-02f,-1.56618878e-02f,+7.24169374e-01f,
-3.48078132e-01f,-4.31666598e-02f,-2.11247019e-02f,-3.49671066e-01f,-3.61650623e-02f,
-2.95205623e-01f,+3.28431353e-02f,+8.03577602e-01f,-2.29716543e-02f,+3.40365601e-04f,
+2.70482041e-02f,+9.73622408e-03f,-3.83444205e-02f,+4.67443094e-03f,-2.27614045e-01f,
+7.45228291e-01f,-2.67234653e-01f,-1.75380222e-02f,+3.24478373e-02f,+6.73864126e-01f,
-2.63999850e-01f,+3.02374363e-04f,-9.66669805e-03f,-2.53054917e-01f,+2.35989038e-02f,
-3.02540839e-01f,+4.64400230e-03f,+6.87552094e-01f,-4.39321995e-03f,-1.15959533e-02f,
-5.54077700e-03f,+3.28748710e-02f,-1.61075220e-02f,-2.72855312e-02f,+4.46633875e-01f,
-1.99485078e-01f,+4.65925664e-01f,+1.24908909e-02f,+1.16491299e-02f,-2.13939965e-01f,
+4.99543518e-01f,+2.25138664e-02f,+9.79563035e-03f,+4.04055774e-01f,-2.58337427e-02f,
+4.72656488e-01f,+5.83858415e-03f,-2.49302298e-01f,-1.77371874e-02f,+6.12540357e-03f,
-3.09250355e-02f,+1.23739094e-02f,-4.44433093e-02f,-2.45372150e-02f,+4.70149338e-01f,
-1.70677304e-01f,+4.55464691e-01f,-3.40815932e-02f,-9.68755502e-03f,-2.11955577e-01f,
+4.34118092e-01f,-5.03513850e-02f,+1.01596974e-02f,+4.50463027e-01f,+1.17207819e-03f,
+4.74774867e-01f,-3.98542210e-02f,-1.32319614e-01f,-3.41104046e-02f,+1.84813961e-02f,
+2.59703398e-03f,-4.67660725e-02f,-3.71271260e-02f,-4.99876998e-02f,-2.24032432e-01f,
+7.42709637e-01f,-3.28437209e-01f,-2.54218932e-02f,-3.36814895e-02f,+7.54323423e-01f,
-3.06300968e-01f,+1.61877815e-02f,+1.21358261e-02f,-2.76858360e-01f,+4.35943417e-02f,
-2.44794086e-01f,+2.17884611e-02f,+7.08172500e-01f,+1.26036443e-02f,+2.16728318e-02f,
+1.08627453e-02f,-3.50028612e-02f,+3.29962410e-02f,-9.71842930e-03f,+1.01902680e-02f,
+5.03721740e-03f,-3.31792086e-02f,-4.30999286e-02f,-4.98894602e-03f,-1.61149725e-02f,
-2.18521245e-03f,-1.05175227e-02f,-4.74994779e-02f,+2.83647459e-02f,-1.90041903e-02f,
-4.69006896e-02f,-2.57634409e-02f,-5.13181351e-02f,-4.77489084e-03f,+1.81494933e-02f,
-2.43770722e-02f,-3.89513001e-02f,-3.84475216e-02f,+4.97426809e-05f,+4.38221723e-01f,
-4.31586117e-01f,+4.68327403e-01f,-3.36719044e-02f,-3.98259722e-02f,-4.93464470e-01f,
+4.96327013e-01f,+1.95424864e-03f,-3.67500782e-02f,+4.38619703e-01f,-3.86114269e-02f,
+4.18477267e-01f,-1.43978223e-02f,-5.18352270e-01f,+1.06037036e-02f,+8.24419968e-03f,
+3.20429243e-02f,+3.32949730e-03f,-4.73926179e-02f,-2.22540870e-02f,+4.03392732e-01f,
-4.91733998e-01f,+5.04985154e-01f,+8.56548548e-03f,-1.45718837e-02f,-4.95725662e-01f,
+4.52468693e-01f,+3.03586423e-02f,+4.75772992e-02f,+4.88175601e-01f,+2.23753788e-02f,
+4.16545004e-01f,+3.84821743e-03f,-4.59924579e-01f,-3.00397519e-02f,-1.61149143e-03f,
+1.69720501e-03f,+4.30408828e-02f,+1.24667771e-02f,-4.45968620e-02f,+2.87493356e-02f,
+2.03254707e-02f,-4.01614532e-02f,+3.76243331e-02f,+3.09499018e-02f,+4.50899713e-02f,
+1.93210505e-02f,+4.88717891e-02f,-3.40847969e-02f,-2.54267808e-02f,+1.05357394e-02f,
+1.37544759e-02f,+5.72817400e-03f,-3.49819660e-03f,+3.82297114e-03f,-1.43990889e-02f,
+3.10468338e-02f,+1.90838687e-02f,-1.83997266e-02f,+3.44801210e-02f,+9.52682644e-03f,
-2.54981648e-02f,+3.93453576e-02f,+6.74210489e-04f,+1.23430267e-02f,-1.86020955e-02f,
+3.34243886e-02f,-1.34746805e-02f,+5.83305955e-05f,-1.89370867e-02f,+2.84535326e-02f,
-2.41820104e-02f,+3.89845408e-02f,+4.11571525e-02f,-8.78576189e-03f,-4.46391813e-02f,
-3.92107368e-02f,+2.86220629e-02f,-2.11881474e-03f,-1.78517811e-02f,+4.51473981e-01f,
-4.41712618e-01f,+4.74716783e-01f,-7.16156885e-03f,+1.78997256e-02f,-3.62801462e-01f,
+5.25258482e-01f,+4.13258420e-03f,-6.06801780e-03f,+4.74264413e-01f,-3.65074389e-02f,
+4.45033669e-01f,+1.16434805e-02f,-4.12662804e-01f,-3.84570286e-03f,+3.67008969e-02f,
-9.12763923e-03f,-8.01192038e-03f,-2.21304297e-02f,-3.90951037e-02f,+4.41385567e-01f,
-3.30105066e-01f,+4.80797261e-01f,+9.53348726e-03f,-7.95889366e-03f,-3.11917067e-01f,
+5.29479444e-01f,+2.99728047e-02f,-4.94336374e-02f,+4.83189642e-01f,+4.09619398e-02f,
+4.08486754e-01f,-1.51848688e-03f,-3.94736975e-01f,-3.10315490e-02f,-6.22514226e-02f,
+1.48873366e-02f,-1.17073429e-03f,+3.09961177e-02f,+1.29739735e-02f,+4.58060354e-01f,
-4.36599284e-01f,+4.12638068e-01f,-3.68607864e-02f,+1.79211460e-02f,-4.01351064e-01f,
+4.63269651e-01f,-3.27911857e-03f,+5.34044812e-04f,+4.18342263e-01f,-3.56759094e-02f,
+4.82971102e-01f,-3.03255375e-02f,-3.64902496e-01f,-5.69045544e-04f,-1.20951319e-02f,
-4.98518124e-02f,-1.14028016e-02f,-3.80415916e-02f,-3.08179148e-02f,-3.22015375e-01f,
+7.69302607e-01f,-3.71402770e-01f,-3.45943570e-02f,+2.38756966e-02f,+7.14663446e-01f,
-3.47682595e-01f,-3.73849161e-02f,-2.61636786e-02f,-3.60003680e-01f,-3.19524370e-02f,
-2.88168728e-01f,-4.06592041e-02f,+7.47334838e-01f,-2.45743040e-02f,-3.16780359e-02f,
+3.39372195e-02f,-4.92441654e-02f,-4.25442308e-03f,+2.27905810e-04f,+1.45924523e-01f,
+3.88020784e-01f,+2.01738983e-01f,+2.73702294e-03f,+5.74245304e-03f,+4.40019637e-01f,
+1.89465567e-01f,+3.71023268e-03f,-5.61363623e-03f,+2.04384401e-01f,-8.95360857e-03f,
+1.61807582e-01f,-3.05135977e-02f,+4.28083986e-01f,-3.69371288e-02f,-5.03573148e-03f,
-3.62658389e-02f,-1.11614577e-02f,-3.50121483e-02f,-2.52202507e-02f,-7.02657551e-03f,
-5.84746385e-03f,-8.68105888e-03f,+1.98253244e-03f,-3.19636017e-02f,+7.08706211e-03f,
+3.46402414e-02f,-4.01656702e-03f,+3.67040522e-02f,+4.47996706e-03f,+3.66427638e-02f,
+2.41666920e-02f,-1.57457367e-02f,-1.99500751e-02f,-3.10782325e-02f,+6.97717816e-03f,
+1.84793137e-02f,-1.41059663e-02f,-1.04409344e-02f,+2.87754647e-02f,+4.48523849e-01f,
-1.65282801e-01f,+4.54820156e-01f,-3.73620279e-02f,+1.19798230e-02f,-2.09096745e-01f,
+5.07560015e-01f,+3.78125571e-02f,-2.66235173e-02f,+4.15416032e-01f,+4.22947370e-02f,
+4.74823147e-01f,-1.88945755e-02f,-1.99606225e-01f,+2.00085379e-02f,-4.30642143e-02f,
-3.51288319e-02f,-2.93349996e-02f,-1.53582804e-02f,+3.53921317e-02f,+3.80300343e-01f,
+2.64092714e-01f,+4.48612154e-01f,-3.34908143e-02f,-1.20936083e-02f,+3.01419318e-01f,
+3.98882359e-01f,-4.90521304e-02f,+8.09965748e-03f,+4.53654557e-01f,-3.93535234e-02f,
+3.91398370e-01f,-2.88223326e-02f,+3.12905818e-01f,-3.27971466e-02f,+2.60505732e-02f,
-2.44124532e-02f,+9.18877125e-03f,+1.13625042e-02f,+2.42921226e-02f,+7.02531263e-03f,
-7.32547045e-03f,-2.56330967e-02f,-8.52227211e-04f,+9.34289768e-03f,-2.09488627e-02f,
-8.60921293e-03f,-4.41869870e-02f,-3.63306999e-02f,-1.03544481e-02f,+2.35266611e-03f,
-2.34988816e-02f,+1.80656947e-02f,-4.26940992e-03f,+2.50246413e-02f,-3.14501673e-02f,
+3.25205065e-02f,+2.01035030e-02f,+2.31714137e-02f,-2.87852641e-02f,+4.75860924e-01f,
-4.09943700e-01f,+4.92737353e-01f,+2.49918811e-02f,-4.87246737e-02f,-3.29398155e-01f,
+5.15005469e-01f,-1.04495054e-02f,-2.46400125e-02f,+4.12037104e-01f,-2.53538843e-02f,
+4.62232620e-01f,-3.18128802e-02f,-3.43871564e-01f,+1.71065442e-02f,-4.55215527e-03f,
}; 
k2c_tensor dense_10_kernel = {&dense_10_kernel_array[0],2,400,{20,20, 1, 1, 1}}; 
float dense_10_bias_array[20] = {
+0.00000000e+00f,-3.21467407e-03f,+0.00000000e+00f,-5.99608757e-04f,+1.37421250e-01f,
+5.12679875e-01f,+1.27177671e-01f,+0.00000000e+00f,-8.52017011e-03f,+4.83623564e-01f,
+1.47513673e-01f,-2.88637285e-03f,-7.50623760e-04f,+1.29037201e-01f,-2.77402112e-03f,
+1.18259490e-01f,-1.16911307e-02f,+4.86780494e-01f,+0.00000000e+00f,-4.26225411e-03f,
}; 
k2c_tensor dense_10_bias = {&dense_10_bias_array[0],1,20,{20, 1, 1, 1, 1}}; 
float dense_10_fwork[420] = {0}; 

 
float dense_11_kernel_array[20] = {
+1.07557178e-02f,-4.38132852e-01f,-3.83244336e-01f,+2.59884953e-01f,+9.78776515e-01f,
-9.09332991e-01f,+7.36359179e-01f,-4.05656219e-01f,+8.79327804e-02f,-1.03436089e+00f,
+5.92334330e-01f,-4.11327571e-01f,+4.97163087e-01f,+8.83306026e-01f,+1.85716555e-01f,
+9.40753698e-01f,+7.64593929e-02f,-1.00505114e+00f,+3.90879154e-01f,-3.23440194e-01f,
}; 
k2c_tensor dense_11_kernel = {&dense_11_kernel_array[0],2,20,{20, 1, 1, 1, 1}}; 
float dense_11_bias_array[1] = {
-4.03438747e-01f,}; 
k2c_tensor dense_11_bias = {&dense_11_bias_array[0],1,1,{1,1,1,1,1}}; 
float dense_11_fwork[40] = {0}; 

 
k2c_dense(&dense_8_output,dense_8_input_input,&dense_8_kernel, 
	&dense_8_bias,k2c_relu,dense_8_fwork); 
k2c_dense(&dense_9_output,&dense_8_output,&dense_9_kernel, 
	&dense_9_bias,k2c_relu,dense_9_fwork); 
k2c_dense(&dense_10_output,&dense_9_output,&dense_10_kernel, 
	&dense_10_bias,k2c_relu,dense_10_fwork); 
k2c_dense(dense_11_output,&dense_10_output,&dense_11_kernel, 
	&dense_11_bias,k2c_sigmoid,dense_11_fwork); 

 } 


/*
void MLPModel::keras2c_model_Round0000003_500Mbps(const k2c_tensor*dense_8_input_input, k2c_tensor* dense_11_output) { 

cout << "MLPModel Round0000003_500Mbps \n";

float dense_8_output_array[20] = {0}; 
k2c_tensor dense_8_output = {&dense_8_output_array[0],1,20,{20, 1, 1, 1, 1}}; 
float dense_8_kernel_array[60] = {
-2.83578597e-03f,-1.27459359e+00f,-6.38872609e-02f,-8.03552940e-03f,-2.68835668e-02f,
-8.11623223e-03f,-1.67227089e-02f,-4.96465228e-02f,+2.13525128e-02f,-1.77142117e-02f,
-1.15462169e-02f,-1.04078487e-01f,+1.82904359e-02f,-9.61979479e-02f,-3.94484177e-02f,
-1.29758382e+00f,-4.03523445e-03f,-7.30020255e-02f,-9.23176557e-02f,+7.91547913e-03f,
-5.76154552e-02f,-4.73068357e-02f,+6.22215867e-02f,-9.87272337e-03f,-4.08240408e-03f,
-3.75802908e-03f,+2.05190852e-02f,-4.13889997e-02f,+5.42312581e-03f,-1.34573709e-02f,
+3.03883888e-02f,+1.14762771e-03f,-5.47401123e-02f,+7.27586588e-03f,-5.72096556e-04f,
-1.58494022e-02f,+9.57451016e-03f,-1.10725639e-02f,+1.26138525e-02f,-3.61624137e-02f,
+2.31624275e-01f,-5.77136204e-02f,-1.45248652e-01f,-1.37720220e-02f,-2.07263958e-02f,
+2.38064378e-01f,+2.17681661e-01f,-2.13259216e-02f,+1.73527509e-01f,+2.04411209e-01f,
-4.04260531e-02f,-9.04346704e-02f,+1.89468682e-01f,-1.05979875e-01f,-2.42854487e-02f,
-8.24915320e-02f,-4.44706678e-02f,-9.66729447e-02f,-1.16850361e-01f,+1.97027937e-01f,
}; 
k2c_tensor dense_8_kernel = {&dense_8_kernel_array[0],2,60,{ 3,20, 1, 1, 1}}; 
float dense_8_bias_array[20] = {
-1.00660585e-01f,+7.90759474e-02f,+1.33339778e-01f,+0.00000000e+00f,+0.00000000e+00f,
-9.40752029e-02f,-1.32022783e-01f,+0.00000000e+00f,-9.54926908e-02f,-1.12423107e-01f,
+0.00000000e+00f,+1.60522074e-01f,-9.72051248e-02f,+1.59037530e-01f,+0.00000000e+00f,
+9.44385380e-02f,+0.00000000e+00f,+1.47983596e-01f,+1.50633484e-01f,-1.11920886e-01f,
}; 
k2c_tensor dense_8_bias = {&dense_8_bias_array[0],1,20,{20, 1, 1, 1, 1}}; 
float dense_8_fwork[63] = {0}; 

 
float dense_9_output_array[20] = {0}; 
k2c_tensor dense_9_output = {&dense_9_output_array[0],1,20,{20, 1, 1, 1, 1}}; 
float dense_9_kernel_array[400] = {
-2.06865203e-02f,-2.72607237e-01f,+3.35387915e-01f,-4.72035669e-02f,+4.44258034e-01f,
+4.99992400e-01f,-3.20128173e-01f,+2.88223326e-01f,+3.99612486e-01f,+2.81834137e-02f,
-3.15961957e-01f,+3.94493081e-02f,-2.80853301e-01f,+3.37148570e-02f,-1.26517937e-03f,
+3.02042156e-01f,+3.29461187e-01f,-3.14337254e-01f,-3.77160199e-02f,-2.71444529e-01f,
+3.62817533e-02f,-1.43767744e-01f,-8.51780415e-01f,-4.34496887e-02f,-2.80775398e-01f,
-1.20716408e-01f,-7.17515722e-02f,-8.54490340e-01f,+4.25608218e-01f,-8.61627329e-03f,
-3.34484354e-02f,+4.47063707e-02f,-2.69480869e-02f,+7.37289339e-03f,-3.47635746e-02f,
-8.77663970e-01f,-4.56353039e-01f,+4.47731614e-02f,-3.65449414e-02f,-7.87587389e-02f,
-4.91591692e-02f,+3.52873474e-01f,-3.80596630e-02f,+4.06811275e-02f,-4.63552862e-01f,
-3.98014098e-01f,+2.86651909e-01f,-8.76231957e-03f,-5.27460635e-01f,+2.60613877e-02f,
+2.83918530e-01f,-2.48385668e-02f,+3.34213078e-01f,+2.23048218e-02f,+2.10993774e-02f,
-6.14613779e-02f,-1.81355745e-01f,+2.34865084e-01f,+3.82071733e-03f,+2.67480522e-01f,
+3.55863459e-02f,+4.74321283e-02f,+4.12237681e-02f,-7.94025511e-03f,-3.17292437e-02f,
+7.38203526e-03f,+4.46203984e-02f,+4.07906882e-02f,-4.40420769e-02f,+2.30495594e-02f,
-4.44101356e-02f,+1.27963535e-02f,-3.83568890e-02f,-3.03733591e-02f,-2.27556713e-02f,
+3.37547101e-02f,-3.34692225e-02f,-1.52417272e-03f,+4.08774354e-02f,-2.94232126e-02f,
-2.04000715e-02f,-6.04271889e-04f,+3.08738984e-02f,-4.97152917e-02f,-3.20887715e-02f,
+3.61174606e-02f,+8.67345184e-03f,-4.64434996e-02f,-2.43113190e-03f,-4.46929000e-02f,
+2.28399076e-02f,-6.49737194e-03f,-1.30382776e-02f,-1.02543719e-02f,-9.12389904e-03f,
+8.63724947e-03f,-4.36981097e-02f,-3.79371047e-02f,+1.26639344e-02f,-3.72252576e-02f,
-3.79560478e-02f,-1.82299972e-01f,+3.06410789e-01f,-3.83774154e-02f,+4.10723925e-01f,
+4.35681701e-01f,-2.66901493e-01f,+2.78602272e-01f,+3.84923458e-01f,-1.78339146e-02f,
-1.99507341e-01f,-3.52052078e-02f,-1.83456630e-01f,-1.57163255e-02f,-3.18167098e-02f,
+2.95949101e-01f,+3.04209143e-01f,-2.76205927e-01f,+7.80018419e-03f,-1.71179444e-01f,
-2.37094052e-02f,-7.01471567e-01f,+4.59837824e-01f,+3.52257751e-02f,+9.14720833e-01f,
+8.72548938e-01f,-6.88753068e-01f,+5.03423274e-01f,+9.06789362e-01f,-1.81227047e-02f,
-7.31368363e-01f,+1.65125616e-02f,-6.64061964e-01f,+1.07252114e-02f,-2.53166091e-02f,
+4.55555618e-01f,+5.26385248e-01f,-6.99417889e-01f,-3.57236862e-02f,-6.39945447e-01f,
+3.42905559e-02f,-9.95471328e-03f,-1.89817548e-02f,+3.44790332e-02f,+4.61885072e-02f,
-4.13098708e-02f,-4.81265448e-02f,+1.99035294e-02f,+2.23336853e-02f,-4.61521856e-02f,
-2.12114807e-02f,-2.92241219e-02f,-1.33926272e-02f,+2.67576091e-02f,-4.23454158e-02f,
-1.58908740e-02f,+2.90613435e-02f,-2.41769906e-02f,-3.47092636e-02f,-1.13973729e-02f,
-3.30327749e-02f,-3.49737108e-01f,+3.01049948e-01f,-2.65837908e-02f,+5.09533823e-01f,
+5.23690641e-01f,-3.31421256e-01f,+2.62828857e-01f,+6.07151926e-01f,-4.13006507e-02f,
-3.70375872e-01f,-4.93201017e-02f,-3.33013147e-01f,-2.24397071e-02f,+7.36689568e-03f,
+2.40732118e-01f,+2.83945382e-01f,-3.35070193e-01f,-2.63885986e-02f,-3.39468628e-01f,
-1.58464313e-02f,-4.97394383e-01f,+4.44926471e-01f,-1.50363334e-02f,+7.46368766e-01f,
+7.52580523e-01f,-6.01582050e-01f,+4.19926286e-01f,+6.41393661e-01f,+2.85439119e-02f,
-5.43840408e-01f,-4.24987189e-02f,-5.32108247e-01f,-1.96110960e-02f,+2.62192003e-02f,
+3.88914227e-01f,+4.61517751e-01f,-5.39043665e-01f,+9.21765715e-03f,-4.98947322e-01f,
-1.00199133e-03f,+2.69588567e-02f,-2.69645341e-02f,+3.88649814e-02f,-5.77569008e-03f,
-2.14561075e-03f,-4.77815792e-03f,+2.97490843e-02f,+4.00757529e-02f,+2.57195570e-02f,
-2.40739472e-02f,-4.42765355e-02f,+1.01915598e-02f,-1.31774545e-02f,-3.69924791e-02f,
-4.67067473e-02f,+4.95759957e-02f,+6.48726150e-03f,+3.26046608e-02f,-3.40601578e-02f,
-2.73068305e-02f,+2.28478685e-01f,-5.83400838e-02f,-4.08007726e-02f,-1.72628969e-01f,
-1.53414026e-01f,+1.64246872e-01f,-1.96228214e-02f,-3.63443226e-01f,-1.24483975e-02f,
+1.80597037e-01f,-3.97919044e-02f,+1.73734799e-01f,-3.14366706e-02f,-4.57279943e-02f,
-7.72881284e-02f,-7.87581578e-02f,+1.48148254e-01f,-5.02730533e-03f,+1.78610548e-01f,
+4.08851169e-02f,-3.79295439e-01f,+3.56849521e-01f,+1.22569874e-03f,+5.75989425e-01f,
+5.90896785e-01f,-4.71263945e-01f,+3.60035032e-01f,+4.81656700e-01f,-1.81944929e-02f,
-4.81913865e-01f,-8.20647553e-03f,-3.87600183e-01f,-4.61571924e-02f,+4.01797630e-02f,
+3.40617120e-01f,+3.33380073e-01f,-4.24092829e-01f,+2.82338373e-02f,-3.64300638e-01f,
+3.01738270e-02f,+2.66752243e-01f,-5.10927588e-02f,+8.28535482e-03f,-2.43943736e-01f,
-2.82840252e-01f,+2.06680655e-01f,-8.49313289e-02f,-3.76275510e-01f,+1.87573042e-02f,
+1.68097317e-01f,+1.25404634e-02f,+2.46607631e-01f,-2.94507742e-02f,-4.70466986e-02f,
-6.71778694e-02f,-1.24811031e-01f,+1.27050474e-01f,-2.14004405e-02f,+2.30718300e-01f,
-1.04776248e-02f,+4.19003852e-02f,-4.42762375e-02f,-2.44768392e-02f,-3.77329476e-02f,
-4.02401090e-02f,-1.61624327e-02f,+1.40587352e-02f,-3.85861024e-02f,+4.93333600e-02f,
+4.55625989e-02f,-5.56181744e-03f,-1.57358162e-02f,+9.36913490e-03f,+8.26688856e-03f,
-1.85142830e-03f,-1.42805949e-02f,-2.04078797e-02f,-2.94737350e-02f,+1.14528760e-02f,
-4.41858284e-02f,-1.15989022e-01f,-6.70353174e-01f,-1.26431100e-02f,-3.07364106e-01f,
-1.97129726e-01f,-3.24401706e-02f,-6.99336350e-01f,+6.38572097e-01f,+3.21407132e-02f,
-6.01212941e-02f,-4.82144728e-02f,-6.61156625e-02f,-1.36874318e-02f,+3.65170091e-03f,
-6.92001045e-01f,-2.57754356e-01f,-1.02333715e-02f,-2.56457087e-02f,-2.77652424e-02f,
+1.82870366e-02f,+1.40313543e-02f,-1.12408623e-02f,-4.68904376e-02f,-4.76122163e-02f,
-6.14850596e-03f,-2.91363597e-02f,-2.93180831e-02f,+9.31047276e-03f,+2.02858783e-02f,
-1.20927803e-02f,-4.53094617e-02f,+2.11587660e-02f,+4.88704778e-02f,+3.29795219e-02f,
-2.52364278e-02f,-8.56286287e-03f,-3.32740694e-03f,-1.19372830e-02f,-3.40725183e-02f,
-2.77198087e-02f,+1.83303088e-01f,-2.78465096e-02f,+2.37780474e-02f,-2.54278123e-01f,
-2.18133971e-01f,+1.50727838e-01f,-6.68743029e-02f,-3.62020940e-01f,-2.21277792e-02f,
+1.54366195e-01f,-3.43939550e-02f,+1.47984445e-01f,-3.38140503e-02f,+2.76944675e-02f,
-1.22153042e-02f,-1.14332430e-01f,+1.28486097e-01f,-2.27523204e-02f,+2.00314775e-01f,
-1.97484493e-02f,+2.35274255e-01f,-9.72818956e-02f,-1.41500011e-02f,-2.88363576e-01f,
-2.76640445e-01f,+2.26157501e-01f,-5.32628521e-02f,-3.88397634e-01f,-1.05568487e-02f,
+1.80683538e-01f,-4.20354381e-02f,+2.31332377e-01f,-3.07649374e-02f,-2.79122479e-02f,
-6.71441928e-02f,-9.19331759e-02f,+1.81880176e-01f,+2.05830596e-02f,+2.37504989e-01f,
-3.67718339e-02f,-5.44227540e-01f,+4.11623865e-01f,-3.65431421e-02f,+7.74683118e-01f,
+8.07619095e-01f,-6.66361332e-01f,+4.23667699e-01f,+6.66705549e-01f,+1.87671818e-02f,
-6.03417397e-01f,+7.80950859e-03f,-5.86700618e-01f,+1.35778263e-03f,-2.30447296e-02f,
+3.90313566e-01f,+4.99884188e-01f,-6.22936785e-01f,-4.70857285e-02f,-6.18628442e-01f,
}; 
k2c_tensor dense_9_kernel = {&dense_9_kernel_array[0],2,400,{20,20, 1, 1, 1}}; 
float dense_9_bias_array[20] = {
+0.00000000e+00f,+1.75591692e-01f,-5.11896349e-02f,+0.00000000e+00f,-9.47278365e-02f,
-9.54171196e-02f,+1.48769006e-01f,-4.65778224e-02f,-7.62268156e-02f,-1.19350257e-03f,
+1.44512922e-01f,+0.00000000e+00f,+1.79612562e-01f,+0.00000000e+00f,+0.00000000e+00f,
-4.18479778e-02f,-7.34350607e-02f,+1.44070819e-01f,+0.00000000e+00f,+1.77915275e-01f,
}; 
k2c_tensor dense_9_bias = {&dense_9_bias_array[0],1,20,{20, 1, 1, 1, 1}}; 
float dense_9_fwork[420] = {0}; 

 
float dense_10_output_array[20] = {0}; 
k2c_tensor dense_10_output = {&dense_10_output_array[0],1,20,{20, 1, 1, 1, 1}}; 
float dense_10_kernel_array[400] = {
+9.34618711e-03f,+7.20363855e-03f,+2.38251723e-02f,-1.36837140e-02f,+2.30498202e-02f,
-4.93070744e-02f,+1.73440687e-02f,+2.24173404e-02f,-4.59302068e-02f,+1.25393905e-02f,
-8.20888206e-03f,+3.13641094e-02f,+3.34446505e-03f,+9.72677022e-04f,-3.91317718e-02f,
+2.22342052e-02f,-1.00487471e-03f,+1.14517808e-02f,-4.22913320e-02f,+4.29873727e-02f,
-1.60573013e-02f,+4.36412960e-01f,+4.36507702e-01f,+1.00483930e+00f,+4.51402038e-01f,
+3.62190276e-01f,+9.16742682e-01f,+4.08593625e-01f,-2.53397822e-02f,-9.84992180e-03f,
-2.97197849e-02f,-1.36421993e-03f,+3.67571712e-01f,+4.19789106e-01f,-4.43541631e-02f,
+4.72055852e-01f,+4.71671015e-01f,-4.24513742e-02f,+4.69749093e-01f,+2.99030170e-02f,
-2.12127697e-02f,-6.64274633e-01f,-6.56270742e-01f,+1.06002927e-01f,-6.85094655e-01f,
-5.84138393e-01f,+3.04603636e-01f,-6.58590078e-01f,+2.70290636e-02f,+2.44568083e-02f,
-5.22264615e-02f,+3.43796127e-02f,-6.45013988e-01f,-6.45180523e-01f,+3.76635678e-02f,
-6.28043473e-01f,-6.91210449e-01f,+3.62469926e-02f,-6.47634745e-01f,-2.79447027e-02f,
-4.25626896e-02f,-6.70696422e-03f,+2.45579146e-02f,-3.16798687e-04f,-1.57266259e-02f,
-3.02219521e-02f,-1.32328272e-02f,+4.82278503e-02f,+3.70941497e-02f,+4.08584587e-02f,
-1.73593760e-02f,+2.65524872e-02f,-4.12760973e-02f,+2.54162587e-02f,+3.15114520e-02f,
+1.94772370e-02f,-3.33776847e-02f,+3.47336046e-02f,+4.52733040e-03f,-4.27950621e-02f,
-3.66875157e-02f,-2.58130050e+00f,-2.54833102e+00f,-2.29822373e+00f,-2.56427002e+00f,
-2.56789994e+00f,-1.69783890e+00f,-2.55787373e+00f,-2.82962322e-02f,+1.75513104e-02f,
+3.35624218e-02f,+4.77094576e-03f,-2.46462345e+00f,-2.54241872e+00f,-1.03771063e-02f,
-2.61355567e+00f,-2.57155013e+00f,-4.98603545e-02f,-2.60766673e+00f,-4.53428142e-02f,
+7.66335800e-03f,-2.20705700e+00f,-2.16027570e+00f,-2.16500306e+00f,-2.25228715e+00f,
-2.22476935e+00f,-1.68918908e+00f,-2.26873684e+00f,+4.84300889e-02f,+8.35504942e-03f,
+2.55105980e-02f,+3.94223966e-02f,-2.20979738e+00f,-2.16633105e+00f,+7.79453898e-03f,
-2.18428063e+00f,-2.19115067e+00f,+2.71946825e-02f,-2.26458097e+00f,-5.78856561e-04f,
-1.16256364e-02f,+4.62664515e-01f,+4.49510217e-01f,+1.04030240e+00f,+4.60789263e-01f,
+4.47376847e-01f,+1.09260583e+00f,+4.87676889e-01f,+1.81383230e-02f,+8.30767769e-03f,
+2.72894781e-02f,-1.12574324e-02f,+4.58131075e-01f,+4.12364304e-01f,+3.52208689e-03f,
+4.32060540e-01f,+5.00161350e-01f,+4.63513546e-02f,+4.62910593e-01f,+1.07634952e-02f,
-4.61970940e-02f,-7.44679332e-01f,-7.29509413e-01f,+7.48199597e-02f,-6.85373187e-01f,
-6.77345693e-01f,+3.99339855e-01f,-7.37655580e-01f,-3.60734835e-02f,-1.87047794e-02f,
+1.52815916e-02f,-4.99589220e-02f,-6.53823495e-01f,-6.43125594e-01f,-2.10850015e-02f,
-6.95870519e-01f,-6.81339979e-01f,-1.10068163e-02f,-7.42468178e-01f,+2.35929657e-02f,
+3.71708721e-03f,-2.96218348e+00f,-2.94502711e+00f,-3.87342286e+00f,-2.98621297e+00f,
-2.88402176e+00f,-3.11212587e+00f,-2.98962259e+00f,-1.08480081e-02f,+2.14326475e-02f,
+2.99160127e-02f,-1.15300417e-02f,-2.88432860e+00f,-2.90975070e+00f,-2.18442697e-02f,
-2.99357319e+00f,-2.96089077e+00f,-4.19580825e-02f,-2.93933582e+00f,+1.23018017e-02f,
+3.86145599e-02f,-2.90629584e-02f,+2.18643863e-02f,-4.35263403e-02f,-4.71016057e-02f,
-2.80913599e-02f,+4.94516306e-02f,-2.38495599e-02f,-4.56745997e-02f,+2.22436525e-02f,
+1.38193704e-02f,-2.27822904e-02f,-1.05210170e-02f,+4.53541540e-02f,+1.91174448e-04f,
+1.38365198e-02f,-1.20178415e-02f,-7.62455538e-03f,-3.10310125e-02f,-2.10790280e-02f,
+3.64514440e-03f,+4.66931134e-01f,+4.83856767e-01f,+1.09549701e+00f,+4.71374393e-01f,
+4.55564439e-01f,+9.89674807e-01f,+4.90855008e-01f,+6.74181059e-03f,+9.47925448e-03f,
+3.56764309e-02f,-2.00502165e-02f,+4.07255173e-01f,+4.88225490e-01f,+1.59622151e-02f,
+4.74828154e-01f,+4.49255228e-01f,-4.91006151e-02f,+4.18802470e-01f,-5.23614250e-02f,
+2.64171399e-02f,-4.68474627e-03f,-4.92463224e-02f,+3.40482257e-02f,-2.83661019e-02f,
-1.08502880e-02f,-3.98782268e-02f,-1.78305618e-02f,+3.26799415e-02f,-9.67184454e-03f,
+2.09276564e-02f,-1.54472478e-02f,-9.68344137e-03f,+1.08897686e-02f,+3.82487513e-02f,
+3.60393040e-02f,-4.44542244e-03f,+4.52440046e-02f,-4.67731468e-02f,+6.22173399e-03f,
-4.82271984e-03f,+4.59673315e-01f,+5.05379319e-01f,+9.82563376e-01f,+5.10852516e-01f,
+4.46842521e-01f,+9.46849167e-01f,+4.98063713e-01f,-2.02956554e-02f,-4.34869118e-02f,
+3.48378764e-03f,+3.27513255e-02f,+4.34853375e-01f,+4.75828767e-01f,-3.52260955e-02f,
+4.63471264e-01f,+4.60697770e-01f,-3.02333031e-02f,+4.35089529e-01f,+3.88677381e-02f,
-2.48435140e-02f,-4.98090051e-02f,-2.78091785e-02f,+1.14170201e-02f,+3.94256227e-02f,
+4.09444422e-03f,-2.49295589e-02f,-2.84885652e-02f,-2.48945244e-02f,-1.36987194e-02f,
+2.73106806e-02f,+3.20158713e-02f,+3.11449803e-02f,+3.22265737e-02f,-1.01814270e-02f,
-5.35450876e-04f,+1.00831166e-02f,+3.43061946e-02f,+3.20335142e-02f,+9.98958200e-03f,
-2.70645861e-02f,-3.13035399e-03f,+1.01893023e-03f,+2.40775459e-02f,-2.45858561e-02f,
-3.85320671e-02f,-9.40899923e-03f,-1.71703920e-02f,-2.73944736e-02f,-4.31551225e-02f,
+2.18075253e-02f,-3.90494093e-02f,-4.23157811e-02f,-4.62327860e-02f,+1.34329833e-02f,
-1.58729069e-02f,+4.40057367e-03f,-4.69424725e-02f,-2.45397221e-02f,-4.59113605e-02f,
-2.39420533e-02f,-6.91497326e-01f,-6.94334328e-01f,+1.70648560e-01f,-6.96203589e-01f,
-6.15781069e-01f,+4.04140949e-01f,-6.95603967e-01f,-1.91743020e-02f,-4.89340760e-02f,
-2.81560160e-02f,-1.01015680e-02f,-6.37109220e-01f,-6.32148206e-01f,-2.12729685e-02f,
-7.16030359e-01f,-6.97294593e-01f,-4.60257977e-02f,-6.48926437e-01f,-3.68484110e-02f,
-2.35733744e-02f,-7.45793879e-01f,-7.05571711e-01f,-1.36628926e-01f,-7.46384919e-01f,
-6.70061231e-01f,+2.92900085e-01f,-7.75509119e-01f,-3.40137631e-02f,-3.92485633e-02f,
-2.40775142e-02f,-4.91231084e-02f,-6.87799931e-01f,-7.65644133e-01f,+3.02565712e-02f,
-7.88363099e-01f,-7.23612428e-01f,+2.38732677e-02f,-7.97487617e-01f,+1.12905325e-02f,
+2.45954841e-03f,+4.75564301e-01f,+4.54585522e-01f,+1.06339312e+00f,+4.74521279e-01f,
+3.94827127e-01f,+9.90876675e-01f,+4.85891819e-01f,+3.97424586e-02f,-3.59015018e-02f,
+4.43458445e-02f,-4.30898555e-02f,+3.93208951e-01f,+4.82358515e-01f,-5.10113128e-03f,
+4.41499382e-01f,+4.87635076e-01f,+4.33480293e-02f,+4.66030061e-01f,-5.92649123e-03f,
+2.35975906e-03f,-4.22658436e-02f,-1.79510117e-02f,-3.35959420e-02f,-1.19520426e-02f,
+9.84858349e-03f,+1.16712339e-02f,-1.56019814e-02f,-1.81579217e-02f,-2.21149996e-03f,
-7.32346624e-03f,-4.70125340e-02f,-4.50071692e-02f,+3.24543566e-03f,-2.23626383e-02f,
+9.72716883e-03f,+2.70560645e-02f,+3.60643864e-03f,+1.16518140e-02f,+2.00390853e-02f,
-2.20004674e-02f,+4.77735043e-01f,+4.71903980e-01f,+9.28044975e-01f,+4.72552031e-01f,
+4.58828449e-01f,+9.81407285e-01f,+4.75596249e-01f,-4.50389646e-02f,-1.66263524e-02f,
-2.76859477e-02f,-4.87093814e-02f,+4.52652961e-01f,+4.41497892e-01f,-3.09842676e-02f,
+4.66509640e-01f,+4.45399970e-01f,-4.14969539e-03f,+4.99510705e-01f,-9.91713535e-03f,
}; 
k2c_tensor dense_10_kernel = {&dense_10_kernel_array[0],2,400,{20,20, 1, 1, 1}}; 
float dense_10_bias_array[20] = {
+0.00000000e+00f,+1.88227713e-01f,+1.78682759e-01f,+7.12542176e-01f,+1.81761518e-01f,
+1.88398719e-01f,+8.06710243e-01f,+1.87216461e-01f,+0.00000000e+00f,-4.73324023e-03f,
-9.20822565e-03f,+0.00000000e+00f,+1.90346792e-01f,+1.78810179e-01f,-7.06404308e-03f,
+1.85946167e-01f,+1.82402566e-01f,-8.52254161e-04f,+1.89313039e-01f,-5.03520248e-03f,
}; 
k2c_tensor dense_10_bias = {&dense_10_bias_array[0],1,20,{20, 1, 1, 1, 1}}; 
float dense_10_fwork[420] = {0}; 

 
float dense_11_kernel_array[20] = {
-4.49108541e-01f,-1.81233323e+00f,-1.87582254e+00f,+1.52237213e+00f,-1.99345875e+00f,
-1.64301872e+00f,+1.33012402e+00f,-1.81680751e+00f,+6.71521425e-02f,-2.89723724e-01f,
-5.23936033e-01f,+3.93794715e-01f,-1.77290630e+00f,-1.83709705e+00f,-3.21161389e-01f,
-1.94572592e+00f,-1.80835998e+00f,+2.12719515e-01f,-1.98119450e+00f,+2.88167328e-01f,
}; 
k2c_tensor dense_11_kernel = {&dense_11_kernel_array[0],2,20,{20, 1, 1, 1, 1}}; 
float dense_11_bias_array[1] = {
+7.22154856e-01f,}; 
k2c_tensor dense_11_bias = {&dense_11_bias_array[0],1,1,{1,1,1,1,1}}; 
float dense_11_fwork[40] = {0}; 

 
k2c_dense(&dense_8_output,dense_8_input_input,&dense_8_kernel, 
	&dense_8_bias,k2c_relu,dense_8_fwork); 
k2c_dense(&dense_9_output,&dense_8_output,&dense_9_kernel, 
	&dense_9_bias,k2c_relu,dense_9_fwork); 
k2c_dense(&dense_10_output,&dense_9_output,&dense_10_kernel, 
	&dense_10_bias,k2c_relu,dense_10_fwork); 
k2c_dense(dense_11_output,&dense_10_output,&dense_11_kernel, 
	&dense_11_bias,k2c_sigmoid,dense_11_fwork); 

 } 

 */


void MLPModel::keras2c_model_Round_REC_100Mbps(const k2c_tensor* input_layer_2_input, k2c_tensor* dense_11_output) 
{ 

//char c;
std::cout <<"MLPModel::keras2c_model_Round_REC_100Mbps\n";
//std::cin >> c;

float dense_8_output_array[20] = {0}; 
k2c_tensor dense_8_output = {&dense_8_output_array[0],1,20,{20, 1, 1, 1, 1}}; 
float dense_8_kernel_array[60] = {
-2.18900532e-01f,-3.60853732e-01f,-1.86681539e-01f,+3.83605242e-01f,-1.04611129e-01f,
+3.09795797e-01f,+2.64219880e-01f,+1.76328599e-01f,+2.12268773e-02f,-1.30124062e-01f,
-1.96505450e-02f,-6.58826530e-02f,-1.58556998e-01f,-5.00444114e-01f,+4.55064714e-01f,
+5.00666142e-01f,+3.36474448e-01f,-7.58028626e-02f,+1.93952292e-01f,-1.90943033e-02f,
+1.61243320e-01f,-4.29873586e-01f,+2.17567116e-01f,+3.27401459e-01f,+1.20349467e-01f,
-6.53325766e-02f,-4.79572751e-02f,-3.62042755e-01f,+1.41715601e-01f,+2.57278234e-01f,
-3.30337465e-01f,+5.52278697e-01f,-1.03029482e-01f,-1.07665926e-01f,+3.01383529e-02f,
+5.03537714e-01f,+7.81779438e-02f,+5.64934015e-02f,+5.55636823e-01f,-1.69735432e-01f,
-2.85861790e-01f,+7.88547099e-01f,+5.13580143e-01f,-4.60303247e-01f,-3.10046196e-01f,
-3.10010761e-01f,-1.71665862e-01f,-3.45811129e-01f,+6.03041410e-01f,-2.09463969e-01f,
+5.24056852e-01f,+6.19622409e-01f,+2.90418744e-01f,-1.83427751e-01f,+2.91776389e-01f,
-2.04176039e-01f,+1.21774852e-01f,-4.05092388e-01f,-4.48127240e-01f,+5.50630271e-01f,
}; 
k2c_tensor dense_8_kernel = {&dense_8_kernel_array[0],2,60,{ 3,20, 1, 1, 1}}; 
float dense_8_bias_array[20] = {
+0.00000000e+00f,-1.69888243e-01f,-3.29862624e-01f,+1.88910984e-03f,+0.00000000e+00f,
+2.99981117e-01f,+3.01692992e-01f,+0.00000000e+00f,-3.00772876e-01f,-1.04573555e-02f,
-2.14272484e-01f,-2.48600826e-01f,+4.24722522e-01f,+0.00000000e+00f,-2.21916631e-01f,
-2.81619132e-01f,-1.54832259e-01f,+0.00000000e+00f,-6.03663549e-02f,+4.44404393e-01f,
}; 
k2c_tensor dense_8_bias = {&dense_8_bias_array[0],1,20,{20, 1, 1, 1, 1}}; 
float dense_8_fwork[63] = {0}; 

 
float dense_9_output_array[20] = {0}; 
k2c_tensor dense_9_output = {&dense_9_output_array[0],1,20,{20, 1, 1, 1, 1}}; 
float dense_9_kernel_array[400] = {
-3.45653027e-01f,-1.01119459e-01f,-8.18944573e-02f,-3.12924445e-01f,+2.20391512e-01f,
+1.48023486e-01f,+2.41497815e-01f,-9.08532739e-03f,+2.53126919e-01f,-3.72821867e-01f,
+1.33327007e-01f,+2.35736787e-01f,+1.07285082e-02f,-8.07508528e-02f,-1.68328583e-01f,
+1.44090474e-01f,+3.56817305e-01f,+2.29214907e-01f,+2.86837637e-01f,-3.18646729e-02f,
+1.97388637e+00f,-2.15281457e-01f,+8.12326193e-01f,+1.90845311e+00f,-3.54267061e-01f,
-9.86156166e-02f,+1.04913783e+00f,+6.71972334e-01f,-1.66270241e-01f,+7.25996256e-01f,
-1.42665529e+00f,-9.50603104e+00f,+3.04538906e-02f,+2.41670847e-01f,-1.42688900e-01f,
+1.58650231e+00f,+4.24317360e-01f,-5.67563474e-01f,-3.20667207e-01f,-1.02325872e-01f,
-1.60095319e-01f,-9.98522043e-02f,+3.72774899e-01f,-6.72314912e-02f,-9.95348394e-02f,
-6.81700289e-01f,+2.77085304e-01f,+4.37624961e-01f,-5.09138644e-01f,+4.55656826e-01f,
+3.25742632e-01f,+1.38777101e+00f,-2.11625293e-01f,-3.32428694e-01f,-1.43626201e+00f,
-2.46560052e-01f,+7.75965214e-01f,-4.55440611e-01f,-6.51561260e-01f,-3.78470898e-01f,
+7.57316202e-02f,-2.90439129e-01f,+2.18672752e-01f,+3.71888846e-01f,+1.02747858e-01f,
+4.32782680e-01f,+2.04005003e-01f,-3.99946123e-01f,+4.55009341e-01f,+2.19411761e-01f,
-2.12317109e-02f,+1.37393132e-01f,+3.70010078e-01f,-3.19947213e-01f,+1.28277290e+00f,
-1.99735895e-01f,-2.73509473e-01f,+1.09783582e-01f,-3.53397764e-02f,+1.13303937e-01f,
-3.61297965e-01f,+2.33347416e-01f,-1.80334985e-01f,+1.52707279e-01f,+3.42780352e-03f,
+6.32608831e-02f,+2.41898894e-02f,+2.99580514e-01f,-1.71603024e-01f,-2.52655447e-01f,
+1.59068882e-01f,-3.72246057e-01f,+3.53626609e-02f,-3.33298713e-01f,-3.26777995e-01f,
+1.39842451e-01f,-4.16137278e-02f,+2.14447379e-02f,+1.57558978e-01f,+1.15108192e-02f,
-4.18554485e-01f,-2.94618845e-01f,-1.61004663e-01f,-4.23028886e-01f,-1.45695895e-01f,
+5.78829408e-01f,-7.62721077e-02f,-2.38895789e-01f,+5.62731445e-01f,-3.37247074e-01f,
-1.14559315e-01f,-3.16819668e-01f,-1.51217133e-01f,+1.08675301e-01f,+1.81240663e-01f,
-1.88092366e-01f,-4.54637647e-01f,+4.71696436e-01f,+6.81480408e-01f,+2.95215219e-01f,
-3.93363416e-01f,-2.72443056e-01f,-5.05630560e-02f,-1.47675261e-01f,-2.20544636e-02f,
+5.69233954e-01f,+1.99050345e-02f,-5.07011116e-01f,+5.47253847e-01f,+8.45417902e-02f,
+2.16812506e-01f,+3.63847762e-01f,+1.77516818e-01f,-3.82934868e-01f,+2.42565811e-01f,
+2.46147975e-01f,-3.63379657e-01f,+4.93382066e-01f,+2.71745741e-01f,+6.01676367e-02f,
+1.90751195e-01f,-3.23619902e-01f,-3.36107850e-01f,+6.35264516e-02f,+7.31054246e-02f,
+1.60569966e-01f,+2.16999233e-01f,-1.58733994e-01f,+2.83240199e-01f,-3.27821791e-01f,
+3.02019298e-01f,-2.59487629e-01f,+1.99249387e-03f,+2.66158104e-01f,-3.69277000e-02f,
-2.66685247e-01f,-1.10017359e-02f,-1.63782820e-01f,+1.98666513e-01f,-1.60807669e-02f,
-2.50490452e-03f,-9.71474051e-02f,+4.35325444e-01f,+5.26583374e-01f,-2.08428606e-01f,
-5.54924369e-01f,+5.36279798e-01f,+5.29675424e-01f,-4.32843976e-02f,+5.04801452e-01f,
+3.93196642e-01f,+2.58417130e-01f,+1.54760838e-01f,-2.14841366e-01f,-7.05333531e-01f,
+2.29198948e-01f,+2.70253301e-01f,-2.74177343e-01f,-3.25155020e-01f,-2.31014356e-01f,
-8.74655321e-03f,-1.50551498e-02f,+4.05012537e-03f,-3.05317372e-01f,+3.33922565e-01f,
-5.84077239e-02f,+9.25113782e-02f,+1.23815224e-01f,-2.61290461e-01f,-3.39814574e-02f,
+3.12435925e-01f,-3.34582061e-01f,-1.53675377e-02f,+2.50941098e-01f,+9.56868827e-02f,
+3.42468053e-01f,-1.81605309e-01f,+3.77389908e-01f,+1.03944466e-01f,-1.31824255e-01f,
+3.07409573e+00f,+5.09924293e-02f,+2.06522703e+00f,+2.12006521e+00f,+1.11015826e-01f,
-1.25939751e+00f,+1.57126606e+00f,+9.45638120e-01f,-6.52047992e-01f,+1.70849931e+00f,
-1.67662585e+00f,-8.78150082e+00f,-1.94573581e-01f,+1.78484619e-01f,-1.02330387e+00f,
+2.40813088e+00f,+1.50945747e+00f,-1.19746113e+00f,-4.08502936e-01f,+4.93896306e-02f,
+4.96285766e-01f,+2.60388494e-01f,+4.60518807e-01f,+1.93384454e-01f,+9.14428830e-02f,
-2.29091316e-01f,+4.59416509e-01f,+2.08219051e-01f,-3.40524584e-01f,+3.13008636e-01f,
+4.48306315e-02f,+6.19813144e-01f,-2.71022320e-04f,-2.22021654e-01f,-2.83210844e-01f,
+5.33028781e-01f,+7.47353971e-01f,-2.04276964e-01f,-1.50319301e-02f,+8.81002471e-02f,
+3.55604053e-01f,-3.23846787e-01f,+3.93226355e-01f,+2.62950212e-01f,-1.52533144e-01f,
+5.19790530e-01f,-1.06570132e-01f,+2.36443639e-01f,+4.73927110e-01f,-2.32362464e-01f,
+3.95923853e-01f,+8.71104524e-02f,-2.44330332e-01f,-1.75553471e-01f,+4.27157015e-01f,
-1.22133344e-01f,-1.36472806e-01f,+6.18516020e-02f,+4.63955015e-01f,-3.11751962e-02f,
+2.86535382e-01f,-2.14937776e-01f,-3.63653332e-01f,+5.08892834e-02f,-3.06337893e-01f,
-2.79976726e-01f,+1.37663662e-01f,-1.48103088e-01f,-3.46856952e-01f,+1.74942017e-02f,
-3.08071375e-01f,+2.54826903e-01f,-2.86110193e-01f,+1.23642087e-02f,-2.52584159e-01f,
+2.58778512e-01f,-1.68527305e-01f,-3.71584356e-01f,-1.59253478e-02f,-3.68390977e-01f,
+5.71174204e-01f,-3.35887432e-01f,+7.48670876e-01f,+4.77622837e-01f,+1.62589073e-01f,
-7.41951108e-01f,+2.23864496e-01f,+7.27365494e-01f,-9.37571824e-02f,+7.04029322e-01f,
+3.16594422e-01f,+6.48463845e-01f,+5.87154031e-02f,+2.67756879e-01f,-6.50010884e-01f,
+1.02041423e-01f,+7.84667432e-01f,-1.21301256e-01f,-2.53412277e-01f,+3.25618386e-01f,
-7.73143992e-02f,-9.91111696e-02f,+1.96635932e-01f,-7.51116797e-02f,-3.29565614e-01f,
-5.70892632e-01f,+6.56544492e-02f,+4.52797920e-01f,-3.06021553e-02f,+3.92216951e-01f,
-3.28873321e-02f,+3.86387944e-01f,-3.65155160e-01f,-2.16886401e-03f,-8.53095055e-01f,
+4.55494374e-01f,+7.25487530e-01f,-1.03882633e-01f,-2.52791315e-01f,-3.72172832e-01f,
+1.45732418e-01f,-2.86809921e-01f,-7.87951872e-02f,+2.01210767e-01f,+1.91050470e-01f,
-4.39492464e-01f,+1.02161705e-01f,+5.50804995e-02f,-3.82897824e-01f,-1.90387905e-01f,
-1.34568065e-01f,+4.63648260e-01f,+2.32268453e-01f,-3.32511693e-01f,-6.16004944e-01f,
-4.61818762e-02f,+6.62043914e-02f,-2.01151967e-01f,-4.56396222e-01f,-1.10985488e-01f,
-3.66748184e-01f,-1.92257628e-01f,+1.07228428e-01f,+1.58270657e-01f,+3.58603239e-01f,
+1.29146397e-01f,-1.96689814e-01f,+1.43493414e-01f,-2.67210662e-01f,+1.18349552e-01f,
+1.53464735e-01f,+2.47288525e-01f,+1.83485985e-01f,+1.18007362e-01f,+2.34700263e-01f,
+3.07816505e-01f,-1.15103036e-01f,-4.28923666e-02f,+1.19754136e-01f,+8.69409740e-02f,
-1.88691482e-01f,-3.43448818e-01f,+5.12144029e-01f,-1.42356291e-01f,+3.03828239e-01f,
+3.68486583e-01f,+5.24086654e-01f,-4.89543229e-01f,+1.84493795e-01f,+1.95482820e-01f,
-8.05927292e-02f,+7.74645954e-02f,-3.03155065e-01f,+1.57330632e-01f,+1.13065970e+00f,
-1.85870603e-01f,-1.32359400e-01f,-1.94888860e-01f,-2.08817959e-01f,-1.17060803e-01f,
+4.92511898e-01f,+1.95688546e-01f,-3.46080735e-02f,+5.83409011e-01f,-2.81142235e-01f,
+4.40791339e-01f,-1.92510813e-01f,+7.87339061e-02f,+4.73640025e-01f,+2.22810313e-01f,
-2.08882555e-01f,-1.33785397e-01f,-2.79606640e-01f,-1.02329105e-01f,+8.51534382e-02f,
+9.02187172e-03f,+1.33679286e-01f,+1.65830895e-01f,+5.20527959e-01f,+2.61332700e-03f,
}; 
k2c_tensor dense_9_kernel = {&dense_9_kernel_array[0],2,400,{20,20, 1, 1, 1}}; 
float dense_9_bias_array[20] = {
-8.77105258e-03f,+0.00000000e+00f,-6.92047626e-02f,+2.91614383e-02f,+0.00000000e+00f,
+4.51415956e-01f,-2.17311859e-01f,-3.34164560e-01f,+3.87395173e-01f,-1.45280063e-01f,
+1.26061767e-01f,-1.01512730e-01f,+0.00000000e+00f,+0.00000000e+00f,+4.11359727e-01f,
-2.64062919e-02f,-2.17553303e-01f,+2.83333153e-01f,+4.43007946e-01f,-7.53845945e-02f,
}; 
k2c_tensor dense_9_bias = {&dense_9_bias_array[0],1,20,{20, 1, 1, 1, 1}}; 
float dense_9_fwork[420] = {0}; 

 
float dense_10_output_array[20] = {0}; 
k2c_tensor dense_10_output = {&dense_10_output_array[0],1,20,{20, 1, 1, 1, 1}}; 
float dense_10_kernel_array[400] = {
+7.27262914e-01f,-2.22641259e-01f,+1.31601095e-01f,+7.09189996e-02f,+2.16131285e-01f,
-3.03361654e-01f,-4.13047135e-01f,-3.22383493e-01f,-2.43187919e-01f,-3.30157429e-01f,
-6.21969402e-02f,-2.89837897e-01f,+1.48749769e-01f,+1.40905797e-01f,+5.16078532e-01f,
-3.54091257e-01f,-1.78598925e-01f,-5.31818345e-02f,-2.05982164e-01f,+2.03754231e-02f,
+7.09806085e-02f,-3.07264715e-01f,-1.60661116e-01f,-2.56047904e-01f,-1.09796941e-01f,
+1.99781299e-01f,+9.10722315e-02f,-3.45780551e-01f,+3.80813777e-02f,+1.82800353e-01f,
+1.11511856e-01f,-3.67573053e-01f,-2.23264456e-01f,-1.44275993e-01f,-1.72786355e-01f,
-1.65567696e-02f,-3.15756112e-01f,-1.74757332e-01f,+3.52351844e-01f,+1.56649888e-01f,
+5.08132100e-01f,-2.63309419e-01f,-8.40238631e-02f,+5.01002312e-01f,+8.05509508e-01f,
-5.13554156e-01f,-5.70905171e-02f,-1.57316148e-01f,+1.48552909e-01f,-1.72796592e-01f,
+1.01648480e-01f,-5.37715554e-02f,+1.76934659e-01f,-2.83134222e-01f,+6.08135343e-01f,
+1.80454254e-01f,-1.02499619e-01f,-8.79209518e-01f,-2.17636019e-01f,-2.69931883e-01f,
+6.17006421e-01f,-2.33630717e-01f,-2.58030295e-01f,-1.34075925e-01f,+8.62481117e-01f,
+7.10609779e-02f,+2.67616749e-01f,-7.02609196e-02f,+1.98835552e-01f,-1.55397043e-01f,
-2.97250092e-01f,-2.89969116e-01f,+6.61833227e-01f,+3.15170527e-01f,+7.31243014e-01f,
+1.93598494e-01f,-5.79270832e-02f,-4.22893107e-01f,-2.52963126e-01f,-8.34095627e-02f,
+2.02728629e-01f,-3.37738752e-01f,+5.24866581e-02f,-8.25126767e-02f,+2.17001200e-01f,
+1.14385664e-01f,-5.71339130e-02f,-1.57157391e-01f,+2.33376205e-01f,-1.69195190e-01f,
+2.20879912e-01f,-1.76107332e-01f,-2.75346488e-01f,+3.03504288e-01f,-4.51162457e-02f,
-3.11425626e-02f,-7.12605119e-02f,+9.58140194e-02f,+4.45133746e-02f,-1.95624232e-02f,
+3.63280386e-01f,+3.25181186e-01f,+1.20684850e+00f,-1.15351319e+00f,+5.57086766e-01f,
+9.99411643e-01f,-3.85620862e-01f,+1.24506943e-01f,-3.44213933e-01f,+1.17110014e-01f,
-2.56425649e-01f,-3.30468148e-01f,+5.91239274e-01f,-3.41550559e-01f,+5.51073074e-01f,
-4.05700028e-01f,-6.02183156e-02f,+9.56380188e-01f,-5.09133041e-02f,-3.68465662e-01f,
-7.33578131e-02f,-4.31438982e-02f,-1.07846963e+00f,+5.82014740e-01f,+6.85761571e-01f,
-9.65654612e-01f,-6.98534846e-02f,-1.41298816e-01f,-3.57397825e-01f,-1.77330270e-01f,
-3.81097227e-01f,-3.26953530e-02f,+5.18311083e-01f,-2.74378836e-01f,-8.07213336e-02f,
+2.42464706e-01f,-1.91786394e-01f,-8.43809783e-01f,+1.37728155e-01f,-4.12955463e-01f,
+1.98274702e-01f,-1.49215311e-01f,-6.49263382e-01f,+1.25107312e+00f,-3.34795237e-01f,
-4.76734787e-01f,+1.19216248e-01f,-2.20459759e-01f,-1.78431943e-02f,+2.13929355e-01f,
-2.13870421e-01f,-1.52485073e-02f,-1.31810054e-01f,-1.72986165e-01f,-2.57197857e-01f,
+2.49357700e-01f,+7.43162856e-02f,-8.79350483e-01f,-3.42602968e-01f,-6.59668073e-02f,
+5.32567382e-01f,-1.37325823e-01f,+7.00872764e-02f,-2.20800608e-01f,+5.46624839e-01f,
+2.33879551e-01f,+2.03998789e-01f,-7.70613477e-02f,+3.21149290e-01f,-8.27900469e-02f,
-1.08978540e-01f,-2.48330653e-01f,+2.05233231e-01f,-2.33552262e-01f,+2.58117586e-01f,
-3.21553737e-01f,+3.01449895e-01f,+6.38286412e-01f,-2.71160305e-01f,+3.82013708e-01f,
+3.58861059e-01f,+1.80976570e-01f,-6.21989787e-01f,+6.46665037e-01f,+4.91337389e-01f,
-4.84399945e-01f,-4.69613284e-01f,+1.87011674e-01f,+2.52976827e-02f,+4.33888733e-02f,
-2.27754906e-01f,-2.38214344e-01f,+5.07320046e-01f,-2.17754290e-01f,+3.24532568e-01f,
+1.71455309e-01f,-9.28534195e-02f,-1.08550155e+00f,+9.80520546e-02f,-1.45656601e-01f,
-4.41868633e-01f,-2.12212756e-01f,+2.01735392e-01f,+1.99527726e-01f,-5.30839026e-01f,
+2.52289891e-01f,+6.67789340e-01f,-2.28155464e-01f,+6.68772459e-01f,-3.78070712e-01f,
+8.41771215e-02f,+2.36897409e-01f,-3.77014399e-01f,+1.19224854e-01f,-4.06902254e-01f,
-1.95975900e-02f,+8.07586730e-01f,+6.66237026e-02f,-1.13596320e-01f,+1.82546273e-01f,
-6.23270869e-01f,-1.34782255e-01f,+1.39166087e-01f,+1.19789386e+00f,-5.37403047e-01f,
+2.29623795e-01f,+5.78120470e-01f,-3.31964105e-01f,+7.16396689e-01f,-1.00706995e-01f,
-2.98846185e-01f,+1.41910851e-01f,-5.82961857e-01f,+3.08564395e-01f,-8.55123699e-01f,
-2.98011988e-01f,+7.46485770e-01f,+1.22700214e-01f,-3.05043042e-01f,+8.79430711e-01f,
-1.98467612e-01f,+3.02806854e-01f,-1.17373466e-01f,+1.77291572e-01f,+6.08212054e-02f,
+7.04247355e-02f,+2.27553248e-02f,-8.84993970e-02f,+2.24594593e-01f,+3.05092692e-01f,
+3.66245210e-01f,-3.71455729e-01f,+1.54563308e-01f,-1.34694576e-03f,-2.48633236e-01f,
-3.84933621e-01f,-2.21057639e-01f,-3.73868048e-02f,-3.34216923e-01f,-1.22660249e-01f,
+3.76148462e-01f,+1.94455028e-01f,+1.38848305e-01f,-1.80592239e-02f,-3.07623535e-01f,
-1.50694579e-01f,+2.84620523e-02f,+1.91160083e-01f,+1.80519104e-01f,+2.33460844e-01f,
-1.25141680e-01f,+3.00594211e-01f,+5.10256886e-02f,-2.85157710e-01f,+3.30350578e-01f,
+3.70687485e-01f,-3.73905212e-01f,+3.43619347e-01f,+3.35933328e-01f,-4.12189960e-02f,
-4.19530153e+00f,+3.77913296e-01f,+4.62298822e+00f,-4.51178759e-01f,-4.20701075e+00f,
+4.58398724e+00f,+4.11468458e+00f,+2.73964137e-01f,+4.47414255e+00f,-1.77478462e-01f,
+8.87709036e-02f,-8.16360116e-03f,-4.11937428e+00f,+2.40527064e-01f,-3.87230968e+00f,
+9.37180966e-02f,+4.17931509e+00f,+4.55143595e+00f,+7.46958852e-02f,+4.22699261e+00f,
+8.31897795e-01f,-6.99985027e-03f,-3.54059994e-01f,+1.41032726e-01f,+5.06021321e-01f,
-3.72197747e-01f,-3.59646022e-01f,-2.40236089e-01f,-3.48350227e-01f,-2.31537297e-01f,
+5.93660176e-02f,-1.11084253e-01f,+2.61510730e-01f,-2.59581149e-01f,+7.49934852e-01f,
+7.34524429e-02f,-1.26108110e-01f,-5.60777009e-01f,+2.65980601e-01f,-1.52887627e-01f,
+1.59906626e-01f,+4.06873822e-02f,-6.38845444e-01f,+9.86532032e-01f,-1.16271429e-01f,
-7.01014102e-01f,+1.52289271e-01f,-2.19552338e-01f,+2.46806473e-01f,-2.46811673e-01f,
+3.83173168e-01f,-1.31616116e-01f,+3.16873163e-01f,-2.68140018e-01f,+3.17835689e-01f,
+2.84997642e-01f,+2.36815289e-01f,-8.63714814e-01f,-3.71600062e-01f,-2.38393843e-01f,
+3.93493801e-01f,-1.98677182e-03f,+9.60773468e-01f,-4.88796890e-01f,+5.73556684e-02f,
+4.27440912e-01f,-2.31748238e-01f,-3.32045615e-01f,-2.54522145e-01f,-2.87182420e-01f,
+3.60907376e-01f,-1.32564902e-01f,+2.69075245e-01f,+3.69128913e-01f,-1.03101097e-01f,
-1.50840476e-01f,+1.36012793e-01f,+6.69237494e-01f,+3.66566539e-01f,+2.35170424e-01f,
+2.33961105e-01f,-3.07198048e-01f,+7.48666823e-01f,-5.42004049e-01f,+3.76900993e-02f,
+5.16882956e-01f,+3.70682895e-01f,+1.86916694e-01f,-2.45940208e-01f,-1.23039395e-01f,
+1.75561711e-01f,+1.47322834e-01f,+5.45742214e-01f,-2.45587490e-02f,+1.05933733e-01f,
-3.11570585e-01f,-2.61698008e-01f,+5.67372918e-01f,+2.86207795e-01f,+2.72333622e-01f,
+2.24212766e-01f,-3.78606200e-01f,-2.73581445e-01f,-4.55804020e-02f,+1.71453997e-01f,
-1.06190637e-01f,-1.66458681e-01f,+2.26482395e-02f,-1.29702836e-01f,-5.11154234e-02f,
-2.56577641e-01f,+3.40071201e-01f,+2.06090242e-01f,+1.44743145e-01f,+1.65832485e-03f,
+1.81438208e-01f,-2.71899253e-01f,+1.73533142e-01f,-2.72891819e-01f,-3.07469040e-01f,
}; 
k2c_tensor dense_10_kernel = {&dense_10_kernel_array[0],2,400,{20,20, 1, 1, 1}}; 
float dense_10_bias_array[20] = {
+1.29648641e-01f,+0.00000000e+00f,+4.35240924e-01f,-1.12739027e-01f,+1.43671393e-01f,
+3.41263294e-01f,+7.41635486e-02f,-7.04706460e-02f,+6.39334023e-02f,+0.00000000e+00f,
-4.70989995e-04f,+0.00000000e+00f,+1.69431791e-01f,-5.00097685e-03f,+1.96582779e-01f,
-2.71639973e-02f,+7.41354823e-02f,+2.99944043e-01f,+0.00000000e+00f,+1.19831152e-01f,
}; 
k2c_tensor dense_10_bias = {&dense_10_bias_array[0],1,20,{20, 1, 1, 1, 1}}; 
float dense_10_fwork[420] = {0}; 

 
//float dense_11_output_array[1] = {0}; 
//k2c_tensor dense_11_output = {&dense_11_output_array[0],1,1,{1,1,1,1,1}}; 
float dense_11_kernel_array[20] = {
+8.90492737e-01f,-2.11780190e-01f,-4.07247400e+00f,-1.61327684e+00f,+7.09078193e-01f,
-3.71524739e+00f,-1.07522607e+00f,+1.71231821e-01f,-1.15284061e+00f,-1.37124270e-01f,
+3.11498225e-01f,+3.25699151e-01f,+1.18316734e+00f,+3.58713657e-01f,+1.27340937e+00f,
-1.72082424e-01f,-8.59549761e-01f,-6.62309790e+00f,-4.46184069e-01f,-4.32596177e-01f,
}; 
k2c_tensor dense_11_kernel = {&dense_11_kernel_array[0],2,20,{20, 1, 1, 1, 1}}; 
float dense_11_bias_array[1] = {
+1.41641721e-01f,}; 
k2c_tensor dense_11_bias = {&dense_11_bias_array[0],1,1,{1,1,1,1,1}}; 
float dense_11_fwork[40] = {0}; 

 
k2c_dense(&dense_8_output,input_layer_2_input,&dense_8_kernel, 
	&dense_8_bias,k2c_relu,dense_8_fwork); 
k2c_dense(&dense_9_output,&dense_8_output,&dense_9_kernel, 
	&dense_9_bias,k2c_relu,dense_9_fwork); 
k2c_dense(&dense_10_output,&dense_9_output,&dense_10_kernel, 
	&dense_10_bias,k2c_relu,dense_10_fwork); 
k2c_dense(dense_11_output,&dense_10_output,&dense_11_kernel, 
	&dense_11_bias,k2c_sigmoid,dense_11_fwork); 

 } 
 

void MLPModel::keras2c_model_Round_COMPLEXITY(const k2c_tensor* input_layer_2_input, k2c_tensor* keras_tensor_48_output) { 

    cout << "MLP_ACK_SND_RTT_Model_Round_COMPLEXITY\n";

    float dense_8_output_array[20] = {0}; 
    k2c_tensor dense_8_output = {&dense_8_output_array[0],1,20,{20, 1, 1, 1, 1}}; 
    float dense_8_kernel_array[60] = {
    -2.18900532e-01f,-3.60853732e-01f,-1.86681539e-01f,+3.83605242e-01f,-1.04611129e-01f,
    +3.09795797e-01f,+2.64219880e-01f,+1.76328599e-01f,+2.12268773e-02f,-1.30124062e-01f,
    -1.96505450e-02f,-6.58826530e-02f,-1.58556998e-01f,-5.00444114e-01f,+4.55064714e-01f,
    +5.00666142e-01f,+3.36474448e-01f,-7.58028626e-02f,+1.93952292e-01f,-1.90943033e-02f,
    +1.61243320e-01f,-4.29873586e-01f,+2.17567116e-01f,+3.27401459e-01f,+1.20349467e-01f,
    -6.53325766e-02f,-4.79572751e-02f,-3.62042755e-01f,+1.41715601e-01f,+2.57278234e-01f,
    -3.30337465e-01f,+5.52278697e-01f,-1.03029482e-01f,-1.07665926e-01f,+3.01383529e-02f,
    +5.03537714e-01f,+7.81779438e-02f,+5.64934015e-02f,+5.55636823e-01f,-1.69735432e-01f,
    -2.85861790e-01f,+7.88547099e-01f,+5.13580143e-01f,-4.60303247e-01f,-3.10046196e-01f,
    -3.10010761e-01f,-1.71665862e-01f,-3.45811129e-01f,+6.03041410e-01f,-2.09463969e-01f,
    +5.24056852e-01f,+6.19622409e-01f,+2.90418744e-01f,-1.83427751e-01f,+2.91776389e-01f,
    -2.04176039e-01f,+1.21774852e-01f,-4.05092388e-01f,-4.48127240e-01f,+5.50630271e-01f,
    }; 
    k2c_tensor dense_8_kernel = {&dense_8_kernel_array[0],2,60,{ 3,20, 1, 1, 1}}; 
    float dense_8_bias_array[20] = {
    +0.00000000e+00f,-1.69888243e-01f,-3.29862624e-01f,+1.88910984e-03f,+0.00000000e+00f,
    +2.99981117e-01f,+3.01692992e-01f,+0.00000000e+00f,-3.00772876e-01f,-1.04573555e-02f,
    -2.14272484e-01f,-2.48600826e-01f,+4.24722522e-01f,+0.00000000e+00f,-2.21916631e-01f,
    -2.81619132e-01f,-1.54832259e-01f,+0.00000000e+00f,-6.03663549e-02f,+4.44404393e-01f,
    }; 
    k2c_tensor dense_8_bias = {&dense_8_bias_array[0],1,20,{20, 1, 1, 1, 1}}; 
    float dense_8_fwork[63] = {0}; 

    
    float dense_9_output_array[20] = {0}; 
    k2c_tensor dense_9_output = {&dense_9_output_array[0],1,20,{20, 1, 1, 1, 1}}; 
    float dense_9_kernel_array[400] = {
    -3.45653027e-01f,-1.01119459e-01f,-8.18944573e-02f,-3.12924445e-01f,+2.20391512e-01f,
    +1.48023486e-01f,+2.41497815e-01f,-9.08532739e-03f,+2.53126919e-01f,-3.72821867e-01f,
    +1.33327007e-01f,+2.35736787e-01f,+1.07285082e-02f,-8.07508528e-02f,-1.68328583e-01f,
    +1.44090474e-01f,+3.56817305e-01f,+2.29214907e-01f,+2.86837637e-01f,-3.18646729e-02f,
    +1.97388637e+00f,-2.15281457e-01f,+8.12326193e-01f,+1.90845311e+00f,-3.54267061e-01f,
    -9.86156166e-02f,+1.04913783e+00f,+6.71972334e-01f,-1.66270241e-01f,+7.25996256e-01f,
    -1.42665529e+00f,-9.50603104e+00f,+3.04538906e-02f,+2.41670847e-01f,-1.42688900e-01f,
    +1.58650231e+00f,+4.24317360e-01f,-5.67563474e-01f,-3.20667207e-01f,-1.02325872e-01f,
    -1.60095319e-01f,-9.98522043e-02f,+3.72774899e-01f,-6.72314912e-02f,-9.95348394e-02f,
    -6.81700289e-01f,+2.77085304e-01f,+4.37624961e-01f,-5.09138644e-01f,+4.55656826e-01f,
    +3.25742632e-01f,+1.38777101e+00f,-2.11625293e-01f,-3.32428694e-01f,-1.43626201e+00f,
    -2.46560052e-01f,+7.75965214e-01f,-4.55440611e-01f,-6.51561260e-01f,-3.78470898e-01f,
    +7.57316202e-02f,-2.90439129e-01f,+2.18672752e-01f,+3.71888846e-01f,+1.02747858e-01f,
    +4.32782680e-01f,+2.04005003e-01f,-3.99946123e-01f,+4.55009341e-01f,+2.19411761e-01f,
    -2.12317109e-02f,+1.37393132e-01f,+3.70010078e-01f,-3.19947213e-01f,+1.28277290e+00f,
    -1.99735895e-01f,-2.73509473e-01f,+1.09783582e-01f,-3.53397764e-02f,+1.13303937e-01f,
    -3.61297965e-01f,+2.33347416e-01f,-1.80334985e-01f,+1.52707279e-01f,+3.42780352e-03f,
    +6.32608831e-02f,+2.41898894e-02f,+2.99580514e-01f,-1.71603024e-01f,-2.52655447e-01f,
    +1.59068882e-01f,-3.72246057e-01f,+3.53626609e-02f,-3.33298713e-01f,-3.26777995e-01f,
    +1.39842451e-01f,-4.16137278e-02f,+2.14447379e-02f,+1.57558978e-01f,+1.15108192e-02f,
    -4.18554485e-01f,-2.94618845e-01f,-1.61004663e-01f,-4.23028886e-01f,-1.45695895e-01f,
    +5.78829408e-01f,-7.62721077e-02f,-2.38895789e-01f,+5.62731445e-01f,-3.37247074e-01f,
    -1.14559315e-01f,-3.16819668e-01f,-1.51217133e-01f,+1.08675301e-01f,+1.81240663e-01f,
    -1.88092366e-01f,-4.54637647e-01f,+4.71696436e-01f,+6.81480408e-01f,+2.95215219e-01f,
    -3.93363416e-01f,-2.72443056e-01f,-5.05630560e-02f,-1.47675261e-01f,-2.20544636e-02f,
    +5.69233954e-01f,+1.99050345e-02f,-5.07011116e-01f,+5.47253847e-01f,+8.45417902e-02f,
    +2.16812506e-01f,+3.63847762e-01f,+1.77516818e-01f,-3.82934868e-01f,+2.42565811e-01f,
    +2.46147975e-01f,-3.63379657e-01f,+4.93382066e-01f,+2.71745741e-01f,+6.01676367e-02f,
    +1.90751195e-01f,-3.23619902e-01f,-3.36107850e-01f,+6.35264516e-02f,+7.31054246e-02f,
    +1.60569966e-01f,+2.16999233e-01f,-1.58733994e-01f,+2.83240199e-01f,-3.27821791e-01f,
    +3.02019298e-01f,-2.59487629e-01f,+1.99249387e-03f,+2.66158104e-01f,-3.69277000e-02f,
    -2.66685247e-01f,-1.10017359e-02f,-1.63782820e-01f,+1.98666513e-01f,-1.60807669e-02f,
    -2.50490452e-03f,-9.71474051e-02f,+4.35325444e-01f,+5.26583374e-01f,-2.08428606e-01f,
    -5.54924369e-01f,+5.36279798e-01f,+5.29675424e-01f,-4.32843976e-02f,+5.04801452e-01f,
    +3.93196642e-01f,+2.58417130e-01f,+1.54760838e-01f,-2.14841366e-01f,-7.05333531e-01f,
    +2.29198948e-01f,+2.70253301e-01f,-2.74177343e-01f,-3.25155020e-01f,-2.31014356e-01f,
    -8.74655321e-03f,-1.50551498e-02f,+4.05012537e-03f,-3.05317372e-01f,+3.33922565e-01f,
    -5.84077239e-02f,+9.25113782e-02f,+1.23815224e-01f,-2.61290461e-01f,-3.39814574e-02f,
    +3.12435925e-01f,-3.34582061e-01f,-1.53675377e-02f,+2.50941098e-01f,+9.56868827e-02f,
    +3.42468053e-01f,-1.81605309e-01f,+3.77389908e-01f,+1.03944466e-01f,-1.31824255e-01f,
    +3.07409573e+00f,+5.09924293e-02f,+2.06522703e+00f,+2.12006521e+00f,+1.11015826e-01f,
    -1.25939751e+00f,+1.57126606e+00f,+9.45638120e-01f,-6.52047992e-01f,+1.70849931e+00f,
    -1.67662585e+00f,-8.78150082e+00f,-1.94573581e-01f,+1.78484619e-01f,-1.02330387e+00f,
    +2.40813088e+00f,+1.50945747e+00f,-1.19746113e+00f,-4.08502936e-01f,+4.93896306e-02f,
    +4.96285766e-01f,+2.60388494e-01f,+4.60518807e-01f,+1.93384454e-01f,+9.14428830e-02f,
    -2.29091316e-01f,+4.59416509e-01f,+2.08219051e-01f,-3.40524584e-01f,+3.13008636e-01f,
    +4.48306315e-02f,+6.19813144e-01f,-2.71022320e-04f,-2.22021654e-01f,-2.83210844e-01f,
    +5.33028781e-01f,+7.47353971e-01f,-2.04276964e-01f,-1.50319301e-02f,+8.81002471e-02f,
    +3.55604053e-01f,-3.23846787e-01f,+3.93226355e-01f,+2.62950212e-01f,-1.52533144e-01f,
    +5.19790530e-01f,-1.06570132e-01f,+2.36443639e-01f,+4.73927110e-01f,-2.32362464e-01f,
    +3.95923853e-01f,+8.71104524e-02f,-2.44330332e-01f,-1.75553471e-01f,+4.27157015e-01f,
    -1.22133344e-01f,-1.36472806e-01f,+6.18516020e-02f,+4.63955015e-01f,-3.11751962e-02f,
    +2.86535382e-01f,-2.14937776e-01f,-3.63653332e-01f,+5.08892834e-02f,-3.06337893e-01f,
    -2.79976726e-01f,+1.37663662e-01f,-1.48103088e-01f,-3.46856952e-01f,+1.74942017e-02f,
    -3.08071375e-01f,+2.54826903e-01f,-2.86110193e-01f,+1.23642087e-02f,-2.52584159e-01f,
    +2.58778512e-01f,-1.68527305e-01f,-3.71584356e-01f,-1.59253478e-02f,-3.68390977e-01f,
    +5.71174204e-01f,-3.35887432e-01f,+7.48670876e-01f,+4.77622837e-01f,+1.62589073e-01f,
    -7.41951108e-01f,+2.23864496e-01f,+7.27365494e-01f,-9.37571824e-02f,+7.04029322e-01f,
    +3.16594422e-01f,+6.48463845e-01f,+5.87154031e-02f,+2.67756879e-01f,-6.50010884e-01f,
    +1.02041423e-01f,+7.84667432e-01f,-1.21301256e-01f,-2.53412277e-01f,+3.25618386e-01f,
    -7.73143992e-02f,-9.91111696e-02f,+1.96635932e-01f,-7.51116797e-02f,-3.29565614e-01f,
    -5.70892632e-01f,+6.56544492e-02f,+4.52797920e-01f,-3.06021553e-02f,+3.92216951e-01f,
    -3.28873321e-02f,+3.86387944e-01f,-3.65155160e-01f,-2.16886401e-03f,-8.53095055e-01f,
    +4.55494374e-01f,+7.25487530e-01f,-1.03882633e-01f,-2.52791315e-01f,-3.72172832e-01f,
    +1.45732418e-01f,-2.86809921e-01f,-7.87951872e-02f,+2.01210767e-01f,+1.91050470e-01f,
    -4.39492464e-01f,+1.02161705e-01f,+5.50804995e-02f,-3.82897824e-01f,-1.90387905e-01f,
    -1.34568065e-01f,+4.63648260e-01f,+2.32268453e-01f,-3.32511693e-01f,-6.16004944e-01f,
    -4.61818762e-02f,+6.62043914e-02f,-2.01151967e-01f,-4.56396222e-01f,-1.10985488e-01f,
    -3.66748184e-01f,-1.92257628e-01f,+1.07228428e-01f,+1.58270657e-01f,+3.58603239e-01f,
    +1.29146397e-01f,-1.96689814e-01f,+1.43493414e-01f,-2.67210662e-01f,+1.18349552e-01f,
    +1.53464735e-01f,+2.47288525e-01f,+1.83485985e-01f,+1.18007362e-01f,+2.34700263e-01f,
    +3.07816505e-01f,-1.15103036e-01f,-4.28923666e-02f,+1.19754136e-01f,+8.69409740e-02f,
    -1.88691482e-01f,-3.43448818e-01f,+5.12144029e-01f,-1.42356291e-01f,+3.03828239e-01f,
    +3.68486583e-01f,+5.24086654e-01f,-4.89543229e-01f,+1.84493795e-01f,+1.95482820e-01f,
    -8.05927292e-02f,+7.74645954e-02f,-3.03155065e-01f,+1.57330632e-01f,+1.13065970e+00f,
    -1.85870603e-01f,-1.32359400e-01f,-1.94888860e-01f,-2.08817959e-01f,-1.17060803e-01f,
    +4.92511898e-01f,+1.95688546e-01f,-3.46080735e-02f,+5.83409011e-01f,-2.81142235e-01f,
    +4.40791339e-01f,-1.92510813e-01f,+7.87339061e-02f,+4.73640025e-01f,+2.22810313e-01f,
    -2.08882555e-01f,-1.33785397e-01f,-2.79606640e-01f,-1.02329105e-01f,+8.51534382e-02f,
    +9.02187172e-03f,+1.33679286e-01f,+1.65830895e-01f,+5.20527959e-01f,+2.61332700e-03f,
    }; 
    k2c_tensor dense_9_kernel = {&dense_9_kernel_array[0],2,400,{20,20, 1, 1, 1}}; 
    float dense_9_bias_array[20] = {
    -8.77105258e-03f,+0.00000000e+00f,-6.92047626e-02f,+2.91614383e-02f,+0.00000000e+00f,
    +4.51415956e-01f,-2.17311859e-01f,-3.34164560e-01f,+3.87395173e-01f,-1.45280063e-01f,
    +1.26061767e-01f,-1.01512730e-01f,+0.00000000e+00f,+0.00000000e+00f,+4.11359727e-01f,
    -2.64062919e-02f,-2.17553303e-01f,+2.83333153e-01f,+4.43007946e-01f,-7.53845945e-02f,
    }; 
    k2c_tensor dense_9_bias = {&dense_9_bias_array[0],1,20,{20, 1, 1, 1, 1}}; 
    float dense_9_fwork[420] = {0}; 

    
    float dense_10_output_array[20] = {0}; 
    k2c_tensor dense_10_output = {&dense_10_output_array[0],1,20,{20, 1, 1, 1, 1}}; 
    float dense_10_kernel_array[400] = {
    +7.27262914e-01f,-2.22641259e-01f,+1.31601095e-01f,+7.09189996e-02f,+2.16131285e-01f,
    -3.03361654e-01f,-4.13047135e-01f,-3.22383493e-01f,-2.43187919e-01f,-3.30157429e-01f,
    -6.21969402e-02f,-2.89837897e-01f,+1.48749769e-01f,+1.40905797e-01f,+5.16078532e-01f,
    -3.54091257e-01f,-1.78598925e-01f,-5.31818345e-02f,-2.05982164e-01f,+2.03754231e-02f,
    +7.09806085e-02f,-3.07264715e-01f,-1.60661116e-01f,-2.56047904e-01f,-1.09796941e-01f,
    +1.99781299e-01f,+9.10722315e-02f,-3.45780551e-01f,+3.80813777e-02f,+1.82800353e-01f,
    +1.11511856e-01f,-3.67573053e-01f,-2.23264456e-01f,-1.44275993e-01f,-1.72786355e-01f,
    -1.65567696e-02f,-3.15756112e-01f,-1.74757332e-01f,+3.52351844e-01f,+1.56649888e-01f,
    +5.08132100e-01f,-2.63309419e-01f,-8.40238631e-02f,+5.01002312e-01f,+8.05509508e-01f,
    -5.13554156e-01f,-5.70905171e-02f,-1.57316148e-01f,+1.48552909e-01f,-1.72796592e-01f,
    +1.01648480e-01f,-5.37715554e-02f,+1.76934659e-01f,-2.83134222e-01f,+6.08135343e-01f,
    +1.80454254e-01f,-1.02499619e-01f,-8.79209518e-01f,-2.17636019e-01f,-2.69931883e-01f,
    +6.17006421e-01f,-2.33630717e-01f,-2.58030295e-01f,-1.34075925e-01f,+8.62481117e-01f,
    +7.10609779e-02f,+2.67616749e-01f,-7.02609196e-02f,+1.98835552e-01f,-1.55397043e-01f,
    -2.97250092e-01f,-2.89969116e-01f,+6.61833227e-01f,+3.15170527e-01f,+7.31243014e-01f,
    +1.93598494e-01f,-5.79270832e-02f,-4.22893107e-01f,-2.52963126e-01f,-8.34095627e-02f,
    +2.02728629e-01f,-3.37738752e-01f,+5.24866581e-02f,-8.25126767e-02f,+2.17001200e-01f,
    +1.14385664e-01f,-5.71339130e-02f,-1.57157391e-01f,+2.33376205e-01f,-1.69195190e-01f,
    +2.20879912e-01f,-1.76107332e-01f,-2.75346488e-01f,+3.03504288e-01f,-4.51162457e-02f,
    -3.11425626e-02f,-7.12605119e-02f,+9.58140194e-02f,+4.45133746e-02f,-1.95624232e-02f,
    +3.63280386e-01f,+3.25181186e-01f,+1.20684850e+00f,-1.15351319e+00f,+5.57086766e-01f,
    +9.99411643e-01f,-3.85620862e-01f,+1.24506943e-01f,-3.44213933e-01f,+1.17110014e-01f,
    -2.56425649e-01f,-3.30468148e-01f,+5.91239274e-01f,-3.41550559e-01f,+5.51073074e-01f,
    -4.05700028e-01f,-6.02183156e-02f,+9.56380188e-01f,-5.09133041e-02f,-3.68465662e-01f,
    -7.33578131e-02f,-4.31438982e-02f,-1.07846963e+00f,+5.82014740e-01f,+6.85761571e-01f,
    -9.65654612e-01f,-6.98534846e-02f,-1.41298816e-01f,-3.57397825e-01f,-1.77330270e-01f,
    -3.81097227e-01f,-3.26953530e-02f,+5.18311083e-01f,-2.74378836e-01f,-8.07213336e-02f,
    +2.42464706e-01f,-1.91786394e-01f,-8.43809783e-01f,+1.37728155e-01f,-4.12955463e-01f,
    +1.98274702e-01f,-1.49215311e-01f,-6.49263382e-01f,+1.25107312e+00f,-3.34795237e-01f,
    -4.76734787e-01f,+1.19216248e-01f,-2.20459759e-01f,-1.78431943e-02f,+2.13929355e-01f,
    -2.13870421e-01f,-1.52485073e-02f,-1.31810054e-01f,-1.72986165e-01f,-2.57197857e-01f,
    +2.49357700e-01f,+7.43162856e-02f,-8.79350483e-01f,-3.42602968e-01f,-6.59668073e-02f,
    +5.32567382e-01f,-1.37325823e-01f,+7.00872764e-02f,-2.20800608e-01f,+5.46624839e-01f,
    +2.33879551e-01f,+2.03998789e-01f,-7.70613477e-02f,+3.21149290e-01f,-8.27900469e-02f,
    -1.08978540e-01f,-2.48330653e-01f,+2.05233231e-01f,-2.33552262e-01f,+2.58117586e-01f,
    -3.21553737e-01f,+3.01449895e-01f,+6.38286412e-01f,-2.71160305e-01f,+3.82013708e-01f,
    +3.58861059e-01f,+1.80976570e-01f,-6.21989787e-01f,+6.46665037e-01f,+4.91337389e-01f,
    -4.84399945e-01f,-4.69613284e-01f,+1.87011674e-01f,+2.52976827e-02f,+4.33888733e-02f,
    -2.27754906e-01f,-2.38214344e-01f,+5.07320046e-01f,-2.17754290e-01f,+3.24532568e-01f,
    +1.71455309e-01f,-9.28534195e-02f,-1.08550155e+00f,+9.80520546e-02f,-1.45656601e-01f,
    -4.41868633e-01f,-2.12212756e-01f,+2.01735392e-01f,+1.99527726e-01f,-5.30839026e-01f,
    +2.52289891e-01f,+6.67789340e-01f,-2.28155464e-01f,+6.68772459e-01f,-3.78070712e-01f,
    +8.41771215e-02f,+2.36897409e-01f,-3.77014399e-01f,+1.19224854e-01f,-4.06902254e-01f,
    -1.95975900e-02f,+8.07586730e-01f,+6.66237026e-02f,-1.13596320e-01f,+1.82546273e-01f,
    -6.23270869e-01f,-1.34782255e-01f,+1.39166087e-01f,+1.19789386e+00f,-5.37403047e-01f,
    +2.29623795e-01f,+5.78120470e-01f,-3.31964105e-01f,+7.16396689e-01f,-1.00706995e-01f,
    -2.98846185e-01f,+1.41910851e-01f,-5.82961857e-01f,+3.08564395e-01f,-8.55123699e-01f,
    -2.98011988e-01f,+7.46485770e-01f,+1.22700214e-01f,-3.05043042e-01f,+8.79430711e-01f,
    -1.98467612e-01f,+3.02806854e-01f,-1.17373466e-01f,+1.77291572e-01f,+6.08212054e-02f,
    +7.04247355e-02f,+2.27553248e-02f,-8.84993970e-02f,+2.24594593e-01f,+3.05092692e-01f,
    +3.66245210e-01f,-3.71455729e-01f,+1.54563308e-01f,-1.34694576e-03f,-2.48633236e-01f,
    -3.84933621e-01f,-2.21057639e-01f,-3.73868048e-02f,-3.34216923e-01f,-1.22660249e-01f,
    +3.76148462e-01f,+1.94455028e-01f,+1.38848305e-01f,-1.80592239e-02f,-3.07623535e-01f,
    -1.50694579e-01f,+2.84620523e-02f,+1.91160083e-01f,+1.80519104e-01f,+2.33460844e-01f,
    -1.25141680e-01f,+3.00594211e-01f,+5.10256886e-02f,-2.85157710e-01f,+3.30350578e-01f,
    +3.70687485e-01f,-3.73905212e-01f,+3.43619347e-01f,+3.35933328e-01f,-4.12189960e-02f,
    -4.19530153e+00f,+3.77913296e-01f,+4.62298822e+00f,-4.51178759e-01f,-4.20701075e+00f,
    +4.58398724e+00f,+4.11468458e+00f,+2.73964137e-01f,+4.47414255e+00f,-1.77478462e-01f,
    +8.87709036e-02f,-8.16360116e-03f,-4.11937428e+00f,+2.40527064e-01f,-3.87230968e+00f,
    +9.37180966e-02f,+4.17931509e+00f,+4.55143595e+00f,+7.46958852e-02f,+4.22699261e+00f,
    +8.31897795e-01f,-6.99985027e-03f,-3.54059994e-01f,+1.41032726e-01f,+5.06021321e-01f,
    -3.72197747e-01f,-3.59646022e-01f,-2.40236089e-01f,-3.48350227e-01f,-2.31537297e-01f,
    +5.93660176e-02f,-1.11084253e-01f,+2.61510730e-01f,-2.59581149e-01f,+7.49934852e-01f,
    +7.34524429e-02f,-1.26108110e-01f,-5.60777009e-01f,+2.65980601e-01f,-1.52887627e-01f,
    +1.59906626e-01f,+4.06873822e-02f,-6.38845444e-01f,+9.86532032e-01f,-1.16271429e-01f,
    -7.01014102e-01f,+1.52289271e-01f,-2.19552338e-01f,+2.46806473e-01f,-2.46811673e-01f,
    +3.83173168e-01f,-1.31616116e-01f,+3.16873163e-01f,-2.68140018e-01f,+3.17835689e-01f,
    +2.84997642e-01f,+2.36815289e-01f,-8.63714814e-01f,-3.71600062e-01f,-2.38393843e-01f,
    +3.93493801e-01f,-1.98677182e-03f,+9.60773468e-01f,-4.88796890e-01f,+5.73556684e-02f,
    +4.27440912e-01f,-2.31748238e-01f,-3.32045615e-01f,-2.54522145e-01f,-2.87182420e-01f,
    +3.60907376e-01f,-1.32564902e-01f,+2.69075245e-01f,+3.69128913e-01f,-1.03101097e-01f,
    -1.50840476e-01f,+1.36012793e-01f,+6.69237494e-01f,+3.66566539e-01f,+2.35170424e-01f,
    +2.33961105e-01f,-3.07198048e-01f,+7.48666823e-01f,-5.42004049e-01f,+3.76900993e-02f,
    +5.16882956e-01f,+3.70682895e-01f,+1.86916694e-01f,-2.45940208e-01f,-1.23039395e-01f,
    +1.75561711e-01f,+1.47322834e-01f,+5.45742214e-01f,-2.45587490e-02f,+1.05933733e-01f,
    -3.11570585e-01f,-2.61698008e-01f,+5.67372918e-01f,+2.86207795e-01f,+2.72333622e-01f,
    +2.24212766e-01f,-3.78606200e-01f,-2.73581445e-01f,-4.55804020e-02f,+1.71453997e-01f,
    -1.06190637e-01f,-1.66458681e-01f,+2.26482395e-02f,-1.29702836e-01f,-5.11154234e-02f,
    -2.56577641e-01f,+3.40071201e-01f,+2.06090242e-01f,+1.44743145e-01f,+1.65832485e-03f,
    +1.81438208e-01f,-2.71899253e-01f,+1.73533142e-01f,-2.72891819e-01f,-3.07469040e-01f,
    }; 
    k2c_tensor dense_10_kernel = {&dense_10_kernel_array[0],2,400,{20,20, 1, 1, 1}}; 
    float dense_10_bias_array[20] = {
    +1.29648641e-01f,+0.00000000e+00f,+4.35240924e-01f,-1.12739027e-01f,+1.43671393e-01f,
    +3.41263294e-01f,+7.41635486e-02f,-7.04706460e-02f,+6.39334023e-02f,+0.00000000e+00f,
    -4.70989995e-04f,+0.00000000e+00f,+1.69431791e-01f,-5.00097685e-03f,+1.96582779e-01f,
    -2.71639973e-02f,+7.41354823e-02f,+2.99944043e-01f,+0.00000000e+00f,+1.19831152e-01f,
    }; 
    k2c_tensor dense_10_bias = {&dense_10_bias_array[0],1,20,{20, 1, 1, 1, 1}}; 
    float dense_10_fwork[420] = {0}; 

    
    float dense_11_output_array[1] = {0}; 
    k2c_tensor dense_11_output = {&dense_11_output_array[0],1,1,{1,1,1,1,1}}; 
    float dense_11_kernel_array[20] = {
    +8.90492737e-01f,-2.11780190e-01f,-4.07247400e+00f,-1.61327684e+00f,+7.09078193e-01f,
    -3.71524739e+00f,-1.07522607e+00f,+1.71231821e-01f,-1.15284061e+00f,-1.37124270e-01f,
    +3.11498225e-01f,+3.25699151e-01f,+1.18316734e+00f,+3.58713657e-01f,+1.27340937e+00f,
    -1.72082424e-01f,-8.59549761e-01f,-6.62309790e+00f,-4.46184069e-01f,-4.32596177e-01f,
    }; 
    k2c_tensor dense_11_kernel = {&dense_11_kernel_array[0],2,20,{20, 1, 1, 1, 1}}; 
    float dense_11_bias_array[1] = {
    +1.41641721e-01f,}; 
    k2c_tensor dense_11_bias = {&dense_11_bias_array[0],1,1,{1,1,1,1,1}}; 
    float dense_11_fwork[40] = {0}; 

    
    k2c_dense(&dense_8_output,input_layer_2_input,&dense_8_kernel, 
        &dense_8_bias,k2c_relu,dense_8_fwork); 
    k2c_dense(&dense_9_output,&dense_8_output,&dense_9_kernel, 
        &dense_9_bias,k2c_relu,dense_9_fwork); 
    k2c_dense(&dense_10_output,&dense_9_output,&dense_10_kernel, 
        &dense_10_bias,k2c_relu,dense_10_fwork); 
    k2c_dense(keras_tensor_48_output,&dense_10_output,&dense_11_kernel, 
        &dense_11_bias,k2c_sigmoid,dense_11_fwork); 
}


void MLPModel:: keras2c_model_initialize() { 

    cout << "Inicializando o Modleo MLP" <<  endl;

} 

void MLPModel::keras2c_model_terminate() { 

    cout << "Finalizando o Modleo MLP" << endl;

} 

