#include <math.h> 
#include <string.h> 
#include <iostream>
#include "./keras2c/Model/include/k2c_include.h" 
#include "./keras2c/Model/include/k2c_tensor_include.h" 
#include "./keras2c/MLP_3000_epocas_ACK_RTT/keras2c_model_MLP_ACK_RTT.h"


 using namespace std;

void MLP_ACK_RTTModel::keras2c_model_Round0000001_10Mbps(const k2c_tensor* dense_20_input_input, k2c_tensor* dense_23_output) { 

cout << "MLP_ACK_RTTModel Round0000001_10Mbps\n";

float dense_20_output_array[20] = {0}; 
k2c_tensor dense_20_output = {&dense_20_output_array[0],1,20,{20, 1, 1, 1, 1}}; 
float dense_20_kernel_array[40] = {
-5.31962961e-02f,+6.52163383e-03f,-4.12002951e-02f,-5.11090383e-02f,-1.27661824e-02f,
-5.54132126e-02f,+1.17577381e-01f,-2.80517582e-02f,-4.24284860e-03f,+7.10463803e-03f,
-1.77084096e-02f,-4.26809452e-02f,+1.09508887e-01f,-2.98259258e-02f,-6.44679144e-02f,
+1.51039027e-02f,-9.75512620e-03f,-6.04767241e-02f,+9.67807770e-02f,+3.30317765e-04f,
+4.18908268e-01f,-2.12993547e-02f,+4.07798231e-01f,+4.04487848e-01f,-2.52408981e-02f,
+4.37417120e-01f,-3.85978401e-01f,-3.29568386e-02f,-2.30763201e-02f,-2.05634423e-02f,
+4.48036790e-01f,-2.76715290e-02f,-3.41727883e-01f,-4.61834930e-02f,+4.21152443e-01f,
-4.81502190e-02f,+4.52404439e-01f,+4.25522983e-01f,-3.75756711e-01f,-2.73555275e-02f,
}; 
k2c_tensor dense_20_kernel = {&dense_20_kernel_array[0],2,40,{ 2,20, 1, 1, 1}}; 
float dense_20_bias_array[20] = {
-1.11241266e-01f,-1.05392840e-03f,-1.07437842e-01f,-1.11406989e-01f,+0.00000000e+00f,
-8.50771219e-02f,+2.92137891e-01f,+0.00000000e+00f,+0.00000000e+00f,-1.48335472e-03f,
-1.03589639e-01f,+0.00000000e+00f,+2.65615225e-01f,+0.00000000e+00f,-9.93568227e-02f,
+0.00000000e+00f,-8.07470232e-02f,-1.12174347e-01f,+2.70832807e-01f,+0.00000000e+00f,
}; 
k2c_tensor dense_20_bias = {&dense_20_bias_array[0],1,20,{20, 1, 1, 1, 1}}; 
float dense_20_fwork[42] = {0}; 

 
float dense_21_output_array[20] = {0}; 
k2c_tensor dense_21_output = {&dense_21_output_array[0],1,20,{20, 1, 1, 1, 1}}; 
float dense_21_kernel_array[400] = {
+5.27482390e-01f,-3.00788470e-02f,-3.52099895e-01f,-8.31806660e-03f,-3.83949548e-01f,
-4.11562890e-01f,-1.13285184e-02f,-1.33662559e-02f,+4.95365798e-01f,+5.00417471e-01f,
+4.54344422e-01f,-2.80799754e-02f,+4.94004548e-01f,-3.48782569e-01f,+5.38233638e-01f,
+4.56329852e-01f,+4.83820528e-01f,+1.63083170e-02f,-3.02481234e-01f,+5.90218902e-01f,
+3.84338610e-02f,-4.86802831e-02f,-2.23930124e-02f,+3.10344137e-02f,-2.12741271e-02f,
-1.45513117e-02f,-9.03221220e-03f,-1.44436248e-02f,-4.54140194e-02f,+7.36607797e-03f,
-4.70941216e-02f,+1.11408234e-02f,+4.29487713e-02f,-2.57716458e-02f,-6.86799455e-03f,
+2.85874289e-02f,+2.23120563e-02f,-1.77273899e-03f,+1.49295591e-02f,+1.23544550e-02f,
+5.31888664e-01f,+3.91559117e-02f,-3.58732939e-01f,+1.27865961e-02f,-3.96934569e-01f,
-3.55819255e-01f,+3.22448052e-02f,-9.81279998e-04f,+4.92448330e-01f,+4.57312465e-01f,
+4.89329845e-01f,-1.57966018e-02f,+5.12099266e-01f,-3.26355696e-01f,+5.38087964e-01f,
+5.27330101e-01f,+4.42171156e-01f,-3.85859311e-02f,-3.12356412e-01f,+5.78085363e-01f,
+5.01827896e-01f,-2.72367150e-02f,-3.94205064e-01f,+4.47061658e-03f,-3.89016509e-01f,
-4.15004849e-01f,+2.33376883e-02f,-9.01506096e-03f,+5.09606600e-01f,+5.38313031e-01f,
+4.68901694e-01f,-4.95260730e-02f,+5.24768054e-01f,-3.67549121e-01f,+5.24979651e-01f,
+4.72104490e-01f,+5.10986865e-01f,-6.82528503e-03f,-3.24062198e-01f,+5.27134955e-01f,
+3.11797969e-02f,-2.71034371e-02f,+1.22587085e-02f,-1.04750395e-02f,+1.73237361e-02f,
+3.83986272e-02f,-4.17785719e-03f,+3.99341844e-02f,+4.98177446e-02f,+3.76572274e-02f,
+1.97680704e-02f,-3.23496014e-03f,+3.53037752e-02f,-3.65674496e-02f,-3.48278657e-02f,
-3.49652171e-02f,-4.10707816e-02f,-4.53095809e-02f,+4.04071808e-03f,+5.98333031e-03f,
+5.18614292e-01f,+1.20097771e-02f,-2.52434522e-01f,-3.47756175e-03f,-2.78889924e-01f,
-2.46602073e-01f,-3.40544954e-02f,-3.60112712e-02f,+4.82220262e-01f,+4.85584021e-01f,
+4.55321819e-01f,-8.88823345e-03f,+5.19111812e-01f,-2.70794332e-01f,+4.51402664e-01f,
+5.03959119e-01f,+4.81569737e-01f,-1.02409804e-02f,-2.50666618e-01f,+5.00963449e-01f,
-4.46063459e-01f,-3.29708606e-02f,+4.99622107e-01f,+1.00284320e-04f,+5.55831730e-01f,
+5.38716555e-01f,-2.03937534e-02f,+1.58467051e-02f,-4.19048339e-01f,-4.30799037e-01f,
-3.94258022e-01f,-4.92437594e-02f,-3.85091186e-01f,+5.24677336e-01f,-3.43128830e-01f,
-3.96426439e-01f,-4.08667654e-01f,-5.04581742e-02f,+5.08765161e-01f,-3.16351473e-01f,
-3.96045819e-02f,+7.10737705e-03f,-3.72784212e-03f,-7.79449940e-04f,+2.45467089e-02f,
-2.10345276e-02f,-7.70365074e-03f,-3.36166769e-02f,+1.34145282e-02f,-4.65731621e-02f,
-3.31347734e-02f,-8.61882046e-03f,+2.12156810e-02f,-3.11716329e-02f,-9.52802971e-03f,
+3.14795859e-02f,+4.99426611e-02f,-4.94938157e-02f,+2.42615454e-02f,-3.95394452e-02f,
+2.12259330e-02f,+2.59691589e-02f,-1.11328252e-02f,-4.53464501e-02f,+3.37871350e-02f,
+1.15625858e-02f,-2.57387012e-03f,-3.85612249e-03f,+1.91331170e-02f,-3.00376769e-02f,
-9.67865065e-03f,+3.06000598e-02f,-4.91841808e-02f,-4.34052832e-02f,+1.61333717e-02f,
-4.40114401e-02f,-1.75361410e-02f,+3.28334309e-02f,-4.87207659e-02f,-2.81874072e-02f,
+1.08443871e-02f,+3.07457484e-02f,+4.00970690e-02f,-2.39783768e-02f,-4.55672294e-02f,
+2.21638288e-02f,+3.99368070e-02f,+1.83309577e-02f,-1.75527018e-02f,+4.72638272e-02f,
-3.51104848e-02f,+4.61646169e-03f,+2.63017640e-02f,+2.16133781e-02f,+1.26796132e-02f,
+2.39084885e-02f,-2.07359847e-02f,-2.07382198e-02f,-8.81990045e-03f,+4.50834706e-02f,
+4.25716668e-01f,+1.86538212e-02f,-2.66811222e-01f,-1.69088896e-02f,-2.48458505e-01f,
-2.60326892e-01f,-3.64782922e-02f,-3.17545868e-02f,+4.68930066e-01f,+4.57195371e-01f,
+4.62609351e-01f,+3.08012851e-02f,+4.27437633e-01f,-2.81642854e-01f,+4.59576398e-01f,
+4.99999613e-01f,+4.37070757e-01f,-2.44027451e-02f,-2.71561921e-01f,+4.71955568e-01f,
+2.53665708e-02f,-3.69922742e-02f,-4.51424122e-02f,+1.01464018e-02f,+4.38475646e-02f,
+4.64606546e-02f,+1.02791563e-02f,-2.11338047e-02f,-1.92641020e-02f,-1.27272494e-02f,
-4.22067530e-02f,-1.71686187e-02f,-2.23893411e-02f,-1.46611780e-03f,-2.67840270e-02f,
+7.96137005e-03f,+3.12364735e-02f,+2.21230052e-02f,-1.89291593e-02f,+3.50066684e-02f,
-3.63876015e-01f,+1.44797110e-03f,+4.79639381e-01f,-2.79996302e-02f,+4.69728291e-01f,
+5.06325185e-01f,-1.23484060e-03f,-5.02513489e-03f,-3.77909839e-01f,-3.60255986e-01f,
-4.10321325e-01f,-3.76467817e-02f,-3.33697081e-01f,+5.19598544e-01f,-3.69908094e-01f,
-3.92244518e-01f,-3.37533772e-01f,-6.21823408e-03f,+4.93264914e-01f,-2.33563021e-01f,
+1.49907917e-03f,-3.24620493e-02f,+3.35160978e-02f,+3.37249525e-02f,-3.65907550e-02f,
+4.31957133e-02f,-1.92755107e-02f,+2.08470859e-02f,-3.14330235e-02f,-1.34451501e-02f,
+3.38221528e-02f,-4.83499281e-02f,-6.14074618e-03f,+1.25472285e-02f,+9.30377096e-03f,
-4.66449633e-02f,-4.17963415e-03f,+2.39807479e-02f,-1.50381811e-02f,-2.03251243e-02f,
+5.38302958e-01f,+5.15788281e-03f,-2.87246197e-01f,+3.31413448e-02f,-3.59495103e-01f,
-3.66555274e-01f,-2.71117929e-02f,-2.71949489e-02f,+4.75167125e-01f,+4.89797533e-01f,
+4.35744673e-01f,+4.15510647e-02f,+4.91084337e-01f,-3.16253275e-01f,+5.49621999e-01f,
+5.44625223e-01f,+5.02217114e-01f,+1.87483672e-02f,-3.17968965e-01f,+5.64710557e-01f,
-2.47973204e-02f,+1.30345263e-02f,+2.85183452e-02f,+1.49730705e-02f,+7.72303343e-03f,
-3.39793563e-02f,-1.98857430e-02f,-7.73880631e-03f,+4.96336482e-02f,-2.69326568e-02f,
+3.56398858e-02f,+3.82994451e-02f,+2.33883299e-02f,+4.80060093e-02f,-4.22184467e-02f,
-3.32437158e-02f,+4.75324430e-02f,+1.89210065e-02f,+4.48066704e-02f,+4.24246863e-03f,
+4.27604645e-01f,-2.66658980e-02f,-2.48713583e-01f,-7.07192929e-04f,-2.13578597e-01f,
-2.06869036e-01f,+2.16779374e-02f,-2.53947861e-02f,+4.58315372e-01f,+4.26409245e-01f,
+4.69734639e-01f,-1.24959350e-02f,+4.82174903e-01f,-1.67715654e-01f,+4.93382156e-01f,
+4.74944115e-01f,+4.33252692e-01f,+4.17011268e-02f,-2.54520923e-01f,+5.32063782e-01f,
+5.19750059e-01f,-3.71635482e-02f,-3.62979740e-01f,-8.16843100e-03f,-3.94887120e-01f,
-4.06523794e-01f,+3.30017880e-03f,-4.05516736e-02f,+5.13743579e-01f,+4.56886947e-01f,
+4.98463035e-01f,-2.63633728e-02f,+4.75054741e-01f,-3.46193165e-01f,+5.10561228e-01f,
+4.80677336e-01f,+4.63978767e-01f,+4.86469222e-03f,-3.00334543e-01f,+5.93775094e-01f,
-4.71627235e-01f,+4.21512686e-02f,+5.15267670e-01f,+3.69651173e-03f,+5.20967484e-01f,
+5.68752885e-01f,-2.59132739e-02f,+2.11167261e-02f,-4.03812081e-01f,-4.02044147e-01f,
-4.55235422e-01f,-2.16809865e-02f,-4.21620280e-01f,+5.32794058e-01f,-4.18060094e-01f,
-4.40640837e-01f,-4.66015667e-01f,+5.99617464e-03f,+5.33293009e-01f,-3.88529599e-01f,
+5.78757375e-03f,-1.36350021e-02f,-1.73852220e-02f,+7.13725016e-03f,-5.40303066e-03f,
+1.04691274e-02f,-2.62696873e-02f,+3.58776785e-02f,+4.44225185e-02f,-5.71252033e-03f,
-2.90778875e-02f,-9.47781652e-03f,+3.58345173e-02f,-8.29609483e-03f,+2.22870372e-02f,
+4.37183268e-02f,+4.04503010e-02f,-3.89303938e-02f,-3.81649025e-02f,+1.50597207e-02f,
}; 
k2c_tensor dense_21_kernel = {&dense_21_kernel_array[0],2,400,{20,20, 1, 1, 1}}; 
float dense_21_bias_array[20] = {
+1.23557791e-01f,-1.91125111e-03f,+3.67749929e-01f,-2.22983654e-03f,+3.71716529e-01f,
+3.68473053e-01f,+0.00000000e+00f,-8.85431375e-03f,+8.79274681e-02f,+7.26257786e-02f,
+9.89116505e-02f,+0.00000000e+00f,+1.52166903e-01f,+3.62952769e-01f,+1.42383054e-01f,
+1.62946895e-01f,+8.65608230e-02f,-2.07162579e-03f,+3.60803276e-01f,+2.48655409e-01f,
}; 
k2c_tensor dense_21_bias = {&dense_21_bias_array[0],1,20,{20, 1, 1, 1, 1}}; 
float dense_21_fwork[420] = {0}; 

 
float dense_22_output_array[20] = {0}; 
k2c_tensor dense_22_output = {&dense_22_output_array[0],1,20,{20, 1, 1, 1, 1}}; 
float dense_22_kernel_array[400] = {
+5.88692486e-01f,+8.26321356e-03f,+5.96793413e-01f,-1.14178628e-01f,+3.73014846e-05f,
+5.94889343e-01f,-8.11875537e-02f,+3.38434689e-02f,-1.54726848e-01f,+2.02314276e-02f,
-1.32375181e-01f,-4.75018844e-02f,-8.25649723e-02f,+1.57952942e-02f,+1.76597983e-01f,
-1.37565568e-01f,-3.89812365e-02f,-2.15384327e-02f,-1.47446886e-01f,-3.80415134e-02f,
-2.69094091e-02f,+4.39167023e-04f,+2.52265744e-02f,+1.06343376e-02f,+2.92484500e-02f,
-7.92189268e-04f,-1.93309877e-02f,-1.02709644e-02f,-1.59093156e-03f,-3.65140140e-02f,
-2.30612103e-02f,-1.93719026e-02f,-1.64718088e-02f,+4.11355160e-02f,-1.16779692e-02f,
+1.22188395e-02f,-1.57387741e-02f,-7.23183155e-04f,+4.05775495e-02f,-1.95540916e-02f,
-4.21946168e-01f,-2.52411515e-02f,-3.92365366e-01f,+5.16430140e-01f,-3.05673592e-02f,
-3.67502451e-01f,+5.71378469e-01f,-1.71819925e-02f,+5.97879291e-01f,+1.00846607e-02f,
+5.63019216e-01f,-3.88777964e-02f,+5.52736342e-01f,+1.05053894e-02f,-7.12486878e-02f,
+6.58185124e-01f,-4.64497693e-02f,-4.94260564e-02f,+5.89432240e-01f,-5.87897897e-02f,
-2.30033882e-02f,+3.26216482e-02f,+2.06839964e-02f,+4.34891023e-02f,-3.90086994e-02f,
-1.44709256e-02f,+2.87299231e-03f,-2.31093764e-02f,+1.09628411e-02f,+1.69798844e-02f,
-5.44633716e-03f,-4.84127291e-02f,-4.71814908e-02f,-1.82587020e-02f,+2.89022438e-02f,
+3.69804874e-02f,+3.91348712e-02f,+4.80671562e-02f,+1.98313463e-02f,-3.69294658e-02f,
-3.71554166e-01f,+3.78927737e-02f,-4.27953124e-01f,+4.99549806e-01f,+1.89872980e-02f,
-4.19972420e-01f,+5.32591283e-01f,-1.00684986e-02f,+5.93779504e-01f,-2.35252455e-02f,
+5.04966974e-01f,-3.26474719e-02f,+5.53336620e-01f,-1.42246708e-02f,-6.73457012e-02f,
+5.95536232e-01f,+3.40932161e-02f,+2.45089587e-02f,+5.42920768e-01f,+1.89591385e-02f,
-4.14159924e-01f,+1.71019754e-03f,-4.12444264e-01f,+4.52304453e-01f,+2.23004371e-02f,
-3.83356363e-01f,+6.11923099e-01f,-3.21341157e-02f,+5.68918884e-01f,+1.73589941e-02f,
+4.79266912e-01f,+1.20476708e-02f,+5.67402363e-01f,-4.98997681e-02f,-1.23732068e-01f,
+5.93793869e-01f,-4.31979410e-02f,+1.64361205e-02f,+5.63413143e-01f,+2.51481589e-02f,
-2.79515982e-03f,-1.99760552e-02f,+3.95412110e-02f,+3.60167660e-02f,+3.40618230e-02f,
-3.11891921e-02f,-3.98894399e-03f,+1.77299045e-02f,-2.32670791e-02f,-3.34404111e-02f,
-1.09051093e-02f,-2.26756930e-02f,+1.17089525e-02f,+1.75364725e-02f,-4.37767990e-02f,
-4.01281230e-02f,-1.74421668e-02f,-1.21950507e-02f,-2.41846200e-02f,-2.11668145e-02f,
+2.38148663e-02f,+3.87884043e-02f,-9.72701143e-03f,+1.85568463e-02f,-7.44746998e-03f,
+1.22141484e-02f,+3.54197272e-03f,-1.34968646e-02f,-2.94259638e-02f,-3.19883563e-02f,
+4.76217940e-02f,-2.03159582e-02f,-2.19459031e-02f,-4.31545153e-02f,+4.92716543e-02f,
+1.27201946e-02f,-2.38479376e-02f,-3.89322564e-02f,-4.80012037e-02f,+8.07244703e-03f,
+6.32442355e-01f,+1.65964905e-02f,+6.06541693e-01f,-1.30696759e-01f,+1.12970825e-02f,
+5.95804870e-01f,-1.82694927e-01f,-4.66021784e-02f,-1.55084446e-01f,+3.12297363e-02f,
-1.40715703e-01f,+5.64131793e-03f,-1.56953633e-01f,-1.54351816e-02f,+1.93834007e-01f,
-1.30105734e-01f,-3.96582969e-02f,-3.87397707e-02f,-2.05960006e-01f,-3.60046588e-02f,
+5.81365228e-01f,+1.75894946e-02f,+5.70432603e-01f,-1.53133020e-01f,-3.04868817e-02f,
+5.96175253e-01f,-1.62953243e-01f,-9.00515169e-03f,-1.51997641e-01f,-1.38466517e-02f,
-1.49420768e-01f,-2.31336933e-02f,-1.87758744e-01f,+1.30712651e-02f,+1.54306978e-01f,
-2.22885534e-01f,-4.95738760e-02f,-1.27056809e-02f,-1.46637619e-01f,-3.17050815e-02f,
+6.01687551e-01f,-4.43496220e-02f,+6.47790611e-01f,-1.19322225e-01f,-3.33888046e-02f,
+5.57734430e-01f,-1.76241279e-01f,-4.32746299e-02f,-1.67779401e-01f,-1.65969972e-02f,
-1.60197616e-01f,+2.58586966e-02f,-1.19594157e-01f,+1.44154690e-02f,+1.88018233e-01f,
-1.46529809e-01f,-3.65061127e-02f,-1.58672240e-02f,-1.97659701e-01f,+3.20487916e-02f,
-2.16431860e-02f,+2.73845308e-02f,+1.73495673e-02f,+1.38247274e-02f,+1.32819451e-02f,
+3.93373258e-02f,-4.63146567e-02f,-3.30076218e-02f,-3.96986827e-02f,-4.73176129e-02f,
-1.65423527e-02f,-3.87953147e-02f,+4.15374525e-02f,-4.10943255e-02f,+1.57697536e-02f,
-3.58278975e-02f,+4.82465066e-02f,-1.99114922e-02f,+1.72432549e-02f,+1.45444535e-02f,
+6.35888219e-01f,+2.52599381e-02f,+6.36500239e-01f,-5.61816059e-02f,-3.13610770e-02f,
+6.22718036e-01f,-1.24496803e-01f,-6.31875917e-03f,-7.36314282e-02f,+1.43140256e-02f,
-3.14206406e-02f,+3.88852209e-02f,-1.19639263e-01f,+2.58183815e-02f,+2.03341976e-01f,
-8.75354856e-02f,+1.32640917e-02f,-3.08540221e-02f,-5.61357625e-02f,+9.81462933e-03f,
-3.63261908e-01f,+2.43965583e-03f,-3.51549655e-01f,+5.48942983e-01f,-5.84499678e-03f,
-3.84093910e-01f,+5.36051333e-01f,+4.76816632e-02f,+5.74730217e-01f,+1.80784483e-02f,
+5.76079547e-01f,-3.97540629e-02f,+5.34005344e-01f,-1.31826513e-02f,-5.25916331e-02f,
+5.85270107e-01f,-9.81178135e-03f,+5.91490278e-03f,+5.97495437e-01f,+3.11452951e-02f,
+5.39222836e-01f,+2.01691464e-02f,+6.31730556e-01f,-1.06437676e-01f,-1.61793232e-02f,
+6.39417827e-01f,-5.08859344e-02f,-8.80561769e-04f,-1.13448367e-01f,-3.28555815e-02f,
-8.26845542e-02f,-4.12163399e-02f,-4.60848249e-02f,-3.24576870e-02f,+1.74723044e-01f,
-6.70629218e-02f,+1.91853233e-02f,-4.47922871e-02f,-8.27272013e-02f,+1.96372177e-02f,
+5.96168339e-01f,-3.51403505e-02f,+5.95568657e-01f,-7.14333206e-02f,-1.42381415e-02f,
+6.06293321e-01f,-1.07137814e-01f,-7.27332756e-03f,-2.10428387e-02f,-3.26658525e-02f,
-7.39689842e-02f,+1.82525758e-02f,-5.11472635e-02f,-4.50606234e-02f,+1.29671991e-01f,
-1.15080982e-01f,-1.07608689e-03f,+1.90796889e-02f,-9.38636363e-02f,+2.83455607e-02f,
+6.47404850e-01f,-2.80817095e-02f,+5.72562873e-01f,-1.73232615e-01f,-1.17547540e-02f,
+5.77468038e-01f,-1.48689583e-01f,-1.99176911e-02f,-1.85583293e-01f,-3.09227258e-02f,
-1.56540930e-01f,-1.02290930e-02f,-1.27818242e-01f,-4.72929254e-02f,+2.14623079e-01f,
-2.16618150e-01f,-4.66772467e-02f,-3.25225526e-03f,-1.32380009e-01f,-2.18310822e-02f,
+3.50181162e-02f,-1.67251322e-02f,-4.41721566e-02f,+4.13619652e-02f,+2.78479718e-02f,
+4.72195476e-04f,+1.41215324e-03f,+4.68117259e-02f,+4.70102020e-02f,+1.83469220e-03f,
-9.65119526e-03f,+2.85018645e-02f,+5.62770711e-03f,+8.67494196e-03f,-4.66361865e-02f,
+3.18122730e-02f,-2.35950109e-02f,+1.58216022e-02f,-2.58900486e-02f,-2.21187193e-02f,
-3.51423204e-01f,-1.92790292e-02f,-3.61495078e-01f,+5.55204630e-01f,-4.79356805e-03f,
-3.36398274e-01f,+5.35470307e-01f,-1.73787698e-02f,+4.86254215e-01f,-1.37779880e-02f,
+5.64717829e-01f,+1.89870112e-02f,+5.51659107e-01f,+3.60570811e-02f,-2.82690767e-02f,
+5.93486011e-01f,-1.30049102e-02f,+7.77942501e-03f,+5.87953091e-01f,-1.96036641e-02f,
+5.69936216e-01f,-5.67358453e-03f,+6.05155587e-01f,+2.14149859e-02f,-2.94921026e-02f,
+6.26098573e-01f,+4.93761748e-02f,+7.63129443e-04f,+5.44693246e-02f,-6.20173849e-03f,
+2.86826491e-03f,+1.39689613e-02f,-1.33211100e-02f,+3.35790031e-02f,+1.38597414e-01f,
+7.13427039e-03f,-3.37680173e-03f,-8.20738263e-03f,+2.73618717e-02f,-3.16244289e-02f,
}; 
k2c_tensor dense_22_kernel = {&dense_22_kernel_array[0],2,400,{20,20, 1, 1, 1}}; 
float dense_22_bias_array[20] = {
+3.03448647e-01f,-1.93532708e-03f,+3.01729858e-01f,+3.32475215e-01f,-4.35400568e-03f,
+2.97819436e-01f,+3.45187604e-01f,+0.00000000e+00f,+3.30285221e-01f,-6.78671803e-03f,
+3.31592768e-01f,-4.82763484e-04f,+3.17307621e-01f,+0.00000000e+00f,+6.13915659e-02f,
+3.89381737e-01f,-1.06741115e-03f,-5.63944224e-03f,+3.61785799e-01f,-3.19344574e-03f,
}; 
k2c_tensor dense_22_bias = {&dense_22_bias_array[0],1,20,{20, 1, 1, 1, 1}}; 
float dense_22_fwork[420] = {0}; 

 
float dense_23_kernel_array[20] = {
+9.31093037e-01f,+4.09064889e-01f,+9.16101456e-01f,-9.05001938e-01f,+3.13418984e-01f,
+8.54048967e-01f,-7.93545723e-01f,+1.35343015e-01f,-8.86928082e-01f,+4.02415156e-01f,
-1.02190542e+00f,-4.43327069e-01f,-1.12957585e+00f,+3.66559863e-01f,+2.93003470e-01f,
-6.28153443e-01f,+4.15214986e-01f,+5.78806438e-02f,-6.99938416e-01f,+1.73234984e-01f,
}; 
k2c_tensor dense_23_kernel = {&dense_23_kernel_array[0],2,20,{20, 1, 1, 1, 1}}; 
float dense_23_bias_array[1] = {
+7.49433637e-02f,}; 
k2c_tensor dense_23_bias = {&dense_23_bias_array[0],1,1,{1,1,1,1,1}}; 
float dense_23_fwork[40] = {0}; 

 
k2c_dense(&dense_20_output,dense_20_input_input,&dense_20_kernel, 
	&dense_20_bias,k2c_relu,dense_20_fwork); 
k2c_dense(&dense_21_output,&dense_20_output,&dense_21_kernel, 
	&dense_21_bias,k2c_relu,dense_21_fwork); 
k2c_dense(&dense_22_output,&dense_21_output,&dense_22_kernel, 
	&dense_22_bias,k2c_relu,dense_22_fwork); 
k2c_dense(dense_23_output,&dense_22_output,&dense_23_kernel, 
	&dense_23_bias,k2c_sigmoid,dense_23_fwork); 

 } 



void MLP_ACK_RTTModel::keras2c_model_Round0000002_100Mbps(const k2c_tensor* dense_24_input_input, k2c_tensor* dense_27_output) { 

cout << "MLP_ACK_RTTModel Round0000002_100Mbps\n";

float dense_24_output_array[20] = {0}; 
k2c_tensor dense_24_output = {&dense_24_output_array[0],1,20,{20, 1, 1, 1, 1}}; 
float dense_24_kernel_array[40] = {
+1.35247469e-01f,-4.69218977e-02f,+7.39813223e-02f,+4.53399904e-02f,-4.40303348e-02f,
+7.02562630e-02f,+5.47269657e-02f,-2.44377390e-01f,-2.91898251e-02f,-9.24764574e-02f,
+7.02285841e-02f,+1.29766360e-01f,-3.35547924e-02f,+3.95442173e-02f,+1.50602177e-01f,
-1.36239529e-02f,+7.57293776e-03f,-2.71236837e-01f,-3.15805018e-01f,-5.89677840e-02f,
+3.03225279e-01f,-2.57162210e-02f,-2.16831595e-01f,-1.93897888e-01f,-3.07438858e-02f,
+3.60562265e-01f,-2.18747944e-01f,+3.62220317e-01f,-2.38709580e-02f,-2.23201782e-01f,
-2.06921130e-01f,+2.86160201e-01f,-8.36111605e-04f,+3.21204364e-01f,+3.23763549e-01f,
-1.35408044e-02f,-4.19700034e-02f,+3.71546775e-01f,+3.54775250e-01f,+3.34117323e-01f,
}; 
k2c_tensor dense_24_kernel = {&dense_24_kernel_array[0],2,40,{ 2,20, 1, 1, 1}}; 
float dense_24_bias_array[20] = {
-1.67326525e-01f,+0.00000000e+00f,+2.47005716e-01f,+2.35304266e-01f,+0.00000000e+00f,
-8.55304748e-02f,+2.43855253e-01f,-9.60484967e-02f,+0.00000000e+00f,+2.64606625e-01f,
+2.56864369e-01f,-1.48956224e-01f,+0.00000000e+00f,-1.52854756e-01f,-1.17432237e-01f,
+0.00000000e+00f,+0.00000000e+00f,-8.12843964e-02f,-2.63994467e-02f,-1.20230511e-01f,
}; 
k2c_tensor dense_24_bias = {&dense_24_bias_array[0],1,20,{20, 1, 1, 1, 1}}; 
float dense_24_fwork[42] = {0}; 

 
float dense_25_output_array[20] = {0}; 
k2c_tensor dense_25_output = {&dense_25_output_array[0],1,20,{20, 1, 1, 1, 1}}; 
float dense_25_kernel_array[400] = {
+3.35725211e-02f,+2.58789092e-01f,-2.90606972e-02f,+5.55479527e-01f,-1.40716434e-02f,
+4.99737024e-01f,-8.28193426e-01f,-3.45660418e-01f,+4.67623800e-01f,-2.84807771e-01f,
+1.46064796e-02f,+4.67776954e-01f,-1.94140390e-01f,+4.65364039e-01f,+5.26544929e-01f,
-8.02728534e-01f,+4.35821146e-01f,-2.19148070e-01f,+4.43259716e-01f,-1.99170753e-01f,
-1.47026777e-03f,+3.69513072e-02f,+2.87581719e-02f,+2.71750428e-02f,-4.82014790e-02f,
+1.15239620e-02f,-2.60088686e-02f,+4.96550836e-02f,+2.86352672e-02f,-3.90825272e-02f,
-4.24457192e-02f,+3.32389735e-02f,+1.59436502e-02f,-2.57623196e-02f,-1.89174172e-02f,
-1.41161680e-02f,+4.92465496e-03f,-2.10805777e-02f,+2.37070210e-02f,-3.77464667e-02f,
-2.23888159e-02f,-4.69548583e-01f,-4.18101326e-02f,-3.58209580e-01f,+1.42407678e-02f,
-4.40248013e-01f,+8.73574521e-03f,+5.26479423e-01f,-4.23503846e-01f,+5.27340710e-01f,
-4.44363803e-04f,-3.67809504e-01f,+5.53991258e-01f,-4.48518127e-01f,-3.88665766e-01f,
-4.83695045e-02f,-4.22884166e-01f,+5.49354255e-01f,-4.32774514e-01f,+4.85101163e-01f,
-1.40487067e-02f,-5.07608473e-01f,+9.54042748e-03f,-3.59365731e-01f,+3.79433371e-02f,
-4.23994958e-01f,+1.65718049e-01f,+5.10155916e-01f,-4.05196011e-01f,+4.64614570e-01f,
+6.58667088e-03f,-3.57329160e-01f,+4.78182852e-01f,-3.75411063e-01f,-4.25056338e-01f,
+1.73559874e-01f,-3.83297533e-01f,+5.47061920e-01f,-3.86189312e-01f,+5.37541866e-01f,
-2.70864721e-02f,+1.58737786e-02f,+3.72072496e-02f,+6.30879402e-03f,+1.24309435e-02f,
-3.97377498e-02f,-2.42738482e-02f,+3.62034887e-03f,-3.41456011e-03f,-2.39638928e-02f,
-2.22422611e-02f,-3.14460024e-02f,-6.26243278e-03f,+3.70258726e-02f,-4.66142967e-03f,
+4.33228053e-02f,+4.14876826e-02f,+2.50743702e-03f,-4.36745584e-04f,-2.95176394e-02f,
-2.79610753e-02f,+3.22474241e-01f,-2.49435306e-02f,+3.61285120e-01f,-2.33158600e-02f,
+4.12080228e-01f,-1.09985583e-01f,-1.00755528e-01f,+3.58756632e-01f,-1.04457237e-01f,
-4.96021397e-02f,+4.19793129e-01f,-5.82654551e-02f,+3.50802273e-01f,+4.52969491e-01f,
-1.76990822e-01f,+3.66552621e-01f,-8.89384374e-02f,+4.00734633e-01f,-5.86655028e-02f,
-4.28064242e-02f,-5.13781488e-01f,+5.23922592e-03f,-4.30755019e-01f,+1.44830607e-02f,
-4.21062857e-01f,+9.29977894e-02f,+5.46631157e-01f,-4.73308146e-01f,+4.95606542e-01f,
-4.41947468e-02f,-4.30884004e-01f,+5.59528530e-01f,-4.15370196e-01f,-4.42438245e-01f,
+1.08650945e-01f,-4.62545425e-01f,+5.31257808e-01f,-4.55908597e-01f,+5.27611196e-01f,
-1.10784769e-02f,+7.00881958e-01f,+1.63692720e-02f,+4.23829049e-01f,-2.22249981e-02f,
+5.47715545e-01f,+2.28419089e+00f,-5.57135284e-01f,+5.63514650e-01f,-5.56043088e-01f,
-4.93628904e-03f,+4.28002983e-01f,-5.64150810e-01f,+5.23360252e-01f,+4.04926151e-01f,
+2.26327062e+00f,+5.76838493e-01f,-6.60910189e-01f,+4.97849762e-01f,-6.45849407e-01f,
+6.79067522e-03f,+4.14400212e-02f,-2.58863922e-02f,+2.88011096e-02f,+4.78172414e-02f,
-9.99921560e-03f,+1.54526867e-02f,-1.42258406e-02f,+4.92783897e-02f,+2.24909820e-02f,
+1.30679943e-02f,+2.55600922e-02f,-4.79760878e-02f,+3.69247533e-02f,-4.78833914e-03f,
+1.06621981e-02f,+1.65173896e-02f,-4.42469604e-02f,+3.58568467e-02f,-1.30939484e-03f,
-1.80834308e-02f,-8.37305367e-01f,-1.86000578e-02f,-8.56694221e-01f,-2.91084535e-02f,
-9.15469646e-01f,+1.14146781e+00f,+9.64151323e-01f,-8.58082175e-01f,+9.55852032e-01f,
+1.73573568e-03f,-9.07178760e-01f,+8.62633944e-01f,-8.34483564e-01f,-9.17878389e-01f,
+1.05826974e+00f,-8.46498966e-01f,+9.54246044e-01f,-8.48334134e-01f,+9.64187980e-01f,
+3.27360667e-02f,-5.16844928e-01f,+9.31503624e-03f,-3.94586504e-01f,-4.63829190e-03f,
-4.22325283e-01f,+5.92246801e-02f,+4.59700435e-01f,-3.75778407e-01f,+5.54196239e-01f,
+2.93759257e-03f,-3.38642657e-01f,+5.10295808e-01f,-3.68168861e-01f,-3.24624270e-01f,
+6.99227601e-02f,-3.46865237e-01f,+5.60077488e-01f,-3.91270906e-01f,+5.42176247e-01f,
-4.54830006e-03f,+3.27379882e-01f,-3.56084108e-02f,+4.94426191e-01f,-2.41504796e-02f,
+4.41997677e-01f,-7.14964628e-01f,-1.87942848e-01f,+3.88717175e-01f,-2.03204960e-01f,
-3.75643373e-02f,+4.84133303e-01f,-2.21583769e-01f,+3.94066811e-01f,+4.60454792e-01f,
-7.44486511e-01f,+3.95216465e-01f,-1.73032969e-01f,+3.99087965e-01f,-2.18262658e-01f,
+3.35137509e-02f,-2.12394949e-02f,-1.44204013e-02f,-4.68103290e-02f,-4.67567705e-02f,
+2.16647498e-02f,-3.17565687e-02f,-2.86589991e-02f,+3.44030373e-02f,-2.45251656e-02f,
+3.49787511e-02f,+3.23171951e-02f,-4.67766412e-02f,+2.63125561e-02f,-1.44009702e-02f,
-2.64904033e-02f,-2.84055118e-02f,+2.10804082e-02f,+2.32525803e-02f,-4.25976515e-03f,
-1.62102208e-02f,+2.91769028e-01f,-4.01422977e-02f,+4.94177818e-01f,+4.87626679e-02f,
+4.76923883e-01f,-3.14687371e-01f,-2.85028160e-01f,+3.89375180e-01f,-2.55665183e-01f,
-4.13043015e-02f,+4.89196986e-01f,-2.52351612e-01f,+4.27589536e-01f,+5.22958159e-01f,
-3.24289918e-01f,+4.17059273e-01f,-1.83028191e-01f,+4.73904222e-01f,-2.18419358e-01f,
-8.22395086e-03f,+3.22333902e-01f,+2.47553736e-03f,+4.45359647e-01f,-2.76784655e-02f,
+4.20483917e-01f,-5.20409465e-01f,-1.36506349e-01f,+4.29429770e-01f,-1.49366185e-01f,
-3.98805253e-02f,+4.27655190e-01f,-6.91104680e-02f,+3.36627603e-01f,+4.95365053e-01f,
-5.60270429e-01f,+3.72146040e-01f,-1.10958800e-01f,+4.44703668e-01f,-8.26479420e-02f,
-9.44590569e-03f,-3.99715826e-03f,+3.10040601e-02f,-8.24349001e-03f,-2.78959423e-03f,
+3.41687910e-02f,+4.83702458e-02f,-4.53367345e-02f,-1.10621378e-03f,+1.72994174e-02f,
-3.73206735e-02f,-2.71366965e-02f,-5.63174486e-03f,-8.19909573e-03f,+6.16999716e-03f,
-3.51295471e-02f,-5.82183525e-03f,+1.41614117e-02f,-2.90745255e-02f,+9.60848480e-03f,
+2.25525163e-02f,+1.74052007e-02f,+3.44417132e-02f,+3.83598842e-02f,+4.20990475e-02f,
-4.46277633e-02f,-1.88912507e-02f,+1.40461586e-02f,+6.52616099e-03f,-2.05603000e-02f,
+3.39307673e-02f,+4.32024710e-02f,+3.71724032e-02f,-3.68609056e-02f,+3.41998227e-02f,
-6.16797060e-03f,+3.82818468e-02f,+7.80642033e-04f,+2.10628770e-02f,+3.63629498e-02f,
-3.25442702e-02f,+6.55371189e-01f,-3.28264721e-02f,+3.61206770e-01f,-4.97207306e-02f,
+3.74133825e-01f,+2.07610297e+00f,-4.30847049e-01f,+4.85283107e-01f,-4.82248098e-01f,
-4.76455092e-02f,+3.78738940e-01f,-4.80367303e-01f,+5.00887454e-01f,+3.85439128e-01f,
+2.15700483e+00f,+5.04338801e-01f,-4.94645178e-01f,+3.89011770e-01f,-5.14307916e-01f,
-1.37625113e-02f,+6.32772386e-01f,-3.07599064e-02f,+3.86388451e-01f,-1.37804039e-02f,
+3.53955418e-01f,+2.50356317e+00f,-3.16670448e-01f,+4.14333612e-01f,-3.67507398e-01f,
+1.60876848e-02f,+3.53265524e-01f,-4.66242164e-01f,+4.00409311e-01f,+3.17255825e-01f,
+2.44563460e+00f,+3.97475362e-01f,-4.37258661e-01f,+3.66165251e-01f,-4.34989005e-01f,
-3.46833356e-02f,+4.04696345e-01f,-3.69883291e-02f,+4.36682850e-01f,-3.93941514e-02f,
+4.10008729e-01f,+2.12559894e-01f,-2.14595690e-01f,+4.15045023e-01f,-1.81156605e-01f,
+3.14434804e-02f,+4.46944565e-01f,-1.47358611e-01f,+4.37455624e-01f,+3.71697932e-01f,
+2.92488933e-01f,+3.68054122e-01f,-2.53646284e-01f,+4.47200537e-01f,-2.27516830e-01f,
}; 
k2c_tensor dense_25_kernel = {&dense_25_kernel_array[0],2,400,{20,20, 1, 1, 1}}; 
float dense_25_bias_array[20] = {
+0.00000000e+00f,-3.52524817e-02f,+0.00000000e+00f,-6.22572675e-02f,+0.00000000e+00f,
-3.72005180e-02f,+5.81877053e-01f,+3.00168753e-01f,-5.61801158e-02f,+2.93869734e-01f,
+0.00000000e+00f,-5.33586890e-02f,+2.88659364e-01f,-5.41636646e-02f,-5.34585416e-02f,
+6.11142933e-01f,-4.87706587e-02f,+3.03492308e-01f,-4.87876572e-02f,+2.96883166e-01f,
}; 
k2c_tensor dense_25_bias = {&dense_25_bias_array[0],1,20,{20, 1, 1, 1, 1}}; 
float dense_25_fwork[420] = {0}; 

 
float dense_26_output_array[20] = {0}; 
k2c_tensor dense_26_output = {&dense_26_output_array[0],1,20,{20, 1, 1, 1, 1}}; 
float dense_26_kernel_array[400] = {
-3.45623977e-02f,-1.63454786e-02f,-2.86688693e-02f,+3.16887759e-02f,+1.34690516e-02f,
-2.02382207e-02f,-9.59452242e-03f,+4.29649614e-02f,+3.65324654e-02f,-2.14717388e-02f,
+3.52358334e-02f,+9.77792591e-03f,-2.16752887e-02f,-4.05743346e-02f,-4.38212156e-02f,
-2.01094896e-04f,+4.31520082e-02f,-1.76580921e-02f,+4.62793224e-02f,-1.62202716e-02f,
+3.67232680e-01f,+2.50365824e-01f,-4.93644089e-01f,-2.49950454e-01f,-3.06035608e-01f,
+2.96285599e-01f,-4.59221713e-02f,-5.25338314e-02f,-2.28121039e-02f,-1.89504512e-02f,
+1.05602913e-01f,-5.04936457e-01f,-5.64021707e-01f,-5.12333751e-01f,-4.91617545e-02f,
-3.31099741e-02f,+2.61898845e-01f,-5.02305984e-01f,+1.31167769e-01f,+1.93841886e-02f,
-4.27180193e-02f,+2.10143439e-02f,-2.15078834e-02f,+2.29996555e-02f,+2.30061151e-02f,
+4.70864773e-03f,-3.30945477e-02f,-4.40963507e-02f,-3.43745500e-02f,+2.03203410e-04f,
-3.47208977e-03f,+1.01870671e-02f,-2.74786353e-02f,-1.54803284e-02f,-4.53945175e-02f,
+3.22257541e-02f,-3.19991857e-02f,-6.25663996e-03f,+3.01115252e-02f,+2.95843817e-02f,
+1.76416010e-01f,+3.93453278e-02f,-6.39826834e-01f,-7.00739324e-01f,-1.96979225e-01f,
+1.48235306e-01f,+4.37726043e-02f,+4.08885814e-02f,-1.86188705e-02f,+1.39692286e-02f,
+2.75666397e-02f,-6.27143562e-01f,-5.78175247e-01f,-6.52000189e-01f,-6.98275166e-03f,
-1.14335876e-03f,+1.20160826e-01f,-7.37840831e-01f,+8.31150115e-02f,+1.56822987e-02f,
-2.88636573e-02f,-5.25549799e-03f,+2.56023891e-02f,+6.80790097e-03f,-4.29331437e-02f,
-4.52058427e-02f,-2.70530712e-02f,+4.06104065e-02f,+2.15310939e-02f,-2.46770028e-02f,
+1.59900263e-03f,-2.39777695e-02f,-3.71044762e-02f,-1.88156012e-02f,+5.61751053e-03f,
+4.82117198e-02f,-3.34982425e-02f,+2.28630789e-02f,+4.71055545e-02f,-4.07948382e-02f,
+2.00889975e-01f,+1.25655293e-01f,-6.13415837e-01f,-6.12941504e-01f,-1.81711882e-01f,
+1.40618786e-01f,-4.43468094e-02f,-3.62152308e-02f,-4.20888178e-02f,-2.59909984e-02f,
+6.07348653e-03f,-6.19232297e-01f,-6.17967010e-01f,-5.99476755e-01f,-4.12226059e-02f,
-4.07926552e-02f,+7.81664625e-02f,-5.66505969e-01f,+1.14431545e-01f,-3.22189704e-02f,
+6.52193844e-01f,+9.76410806e-01f,+4.03153360e-01f,+5.55676162e-01f,+4.26315695e-01f,
+6.25982761e-01f,-4.20884043e-03f,-3.74900065e-02f,-2.22346317e-02f,-3.41510773e-03f,
+4.03891392e-02f,+4.68593568e-01f,+4.24395263e-01f,+4.61400539e-01f,-4.10115197e-02f,
+1.68932229e-02f,+9.86048162e-01f,+4.01014268e-01f,+9.86141682e-01f,+9.08706989e-03f,
-7.40157306e-01f,-3.76247764e-01f,+3.59353751e-01f,+4.36047971e-01f,+4.03450161e-01f,
-6.01474345e-01f,-5.41736931e-03f,-4.37786803e-02f,-1.18700154e-02f,-3.80798206e-02f,
-1.51848331e-01f,+3.04447740e-01f,+3.32993090e-01f,+5.53926647e-01f,+1.57711972e-02f,
+1.11492975e-02f,-3.61137748e-01f,+5.80835104e-01f,-1.69967160e-01f,-4.45104279e-02f,
+2.59898335e-01f,+1.23590991e-01f,-5.97218752e-01f,-5.68951726e-01f,-2.02691048e-01f,
+2.38353536e-01f,+1.14430785e-02f,-2.99002440e-03f,-1.39527321e-02f,-4.68263924e-02f,
+7.09512681e-02f,-5.90724885e-01f,-5.78440964e-01f,-6.88740671e-01f,-2.60846056e-02f,
-3.79176922e-02f,+9.08483863e-02f,-7.41191924e-01f,+1.37784451e-01f,-6.95825042e-03f,
-7.34603584e-01f,-4.02576476e-01f,+3.89743775e-01f,+3.70847940e-01f,+3.90199721e-01f,
-6.20211184e-01f,+1.96177252e-02f,+4.10856567e-02f,+4.11279835e-02f,-4.03268784e-02f,
-1.55686840e-01f,+3.60480517e-01f,+3.60474825e-01f,+5.01490712e-01f,+3.42560932e-02f,
-5.83767295e-02f,-4.27307993e-01f,+5.92936456e-01f,-2.60807723e-01f,-2.96662468e-02f,
+3.35028209e-02f,-3.52280512e-02f,+2.82234661e-02f,+2.22370774e-03f,+1.38066150e-02f,
+4.92725484e-02f,-2.62032822e-03f,+3.04207914e-02f,+1.42045505e-02f,-4.45734039e-02f,
-3.33466753e-02f,+1.31090991e-02f,+1.67712457e-02f,+9.39452648e-03f,-8.23272392e-03f,
+4.29378040e-02f,-2.24040039e-02f,-1.25342831e-02f,-3.26956399e-02f,+3.49047072e-02f,
+1.40789524e-01f,+1.51078880e-01f,-5.76418817e-01f,-6.72692060e-01f,-1.28077000e-01f,
+1.23423256e-01f,+1.12791657e-02f,-2.70790122e-02f,-3.72662060e-02f,+8.06042086e-03f,
+3.62701491e-02f,-6.72215819e-01f,-6.75045967e-01f,-7.38558948e-01f,-3.48009244e-02f,
+3.27813737e-02f,+1.24357395e-01f,-7.90388823e-01f,+7.86782354e-02f,+2.63784323e-02f,
-7.71716356e-01f,-4.95749176e-01f,+3.85425895e-01f,+3.11959088e-01f,+3.98552388e-01f,
-6.72040224e-01f,+3.39658968e-02f,-3.08476295e-02f,-2.12637335e-03f,+1.05803506e-02f,
-1.45814538e-01f,+2.62752831e-01f,+2.98232704e-01f,+4.47729558e-01f,+4.32793461e-02f,
-5.18800505e-02f,-4.90308583e-01f,+5.40807366e-01f,-3.06325406e-01f,+2.02939250e-02f,
+2.49691814e-01f,+1.44409746e-01f,-5.87069273e-01f,-5.52358270e-01f,-1.93447828e-01f,
+2.45387778e-01f,+1.75929181e-02f,+2.61379518e-02f,-1.66974068e-02f,+4.86999042e-02f,
+3.22289877e-02f,-6.13666236e-01f,-6.08608425e-01f,-6.39172733e-01f,-4.55451244e-03f,
-2.39356384e-02f,+1.59799024e-01f,-7.46208906e-01f,+1.57454699e-01f,-5.67356460e-02f,
+1.50133833e-01f,+2.77981628e-02f,-6.47860467e-01f,-7.26537406e-01f,-1.76728785e-01f,
+1.73655942e-01f,-4.49646488e-02f,+3.98972370e-02f,-1.92038305e-02f,-8.23515095e-03f,
+7.90041685e-03f,-6.79823518e-01f,-6.53526545e-01f,-7.33859599e-01f,+4.65581566e-02f,
+4.60845418e-02f,+8.84756446e-02f,-6.88659489e-01f,+9.03728828e-02f,+3.45917679e-02f,
+7.58300424e-01f,+1.06314147e+00f,+4.43386286e-01f,+7.76550949e-01f,+5.04397273e-01f,
+7.25390971e-01f,-3.12950015e-02f,+2.15199329e-02f,-2.98908353e-02f,-4.69247960e-02f,
+5.19299358e-02f,+5.31989336e-01f,+4.91683275e-01f,+4.45214301e-01f,-3.01533621e-02f,
+7.21310358e-03f,+1.04952979e+00f,+3.54719728e-01f,+1.11220253e+00f,-4.72752117e-02f,
+2.49872848e-01f,+1.88827127e-01f,-6.38148606e-01f,-5.46369255e-01f,-1.48307845e-01f,
+2.34551728e-01f,-3.39814648e-02f,+1.16611812e-02f,+3.83863486e-02f,-9.71002504e-03f,
+2.82013081e-02f,-5.66559196e-01f,-6.49255514e-01f,-7.41773427e-01f,+8.80023278e-03f,
+1.64536003e-03f,+1.22000568e-01f,-7.57654667e-01f,+1.56613067e-01f,+1.75434668e-02f,
-7.60776818e-01f,-4.98488247e-01f,+3.27447265e-01f,+3.05820018e-01f,+3.16829383e-01f,
-7.12310612e-01f,-2.82860287e-02f,-1.84280183e-02f,-4.24689427e-02f,-4.89276871e-02f,
-8.82826596e-02f,+3.10578763e-01f,+3.25867027e-01f,+4.72251356e-01f,+1.02055306e-03f,
+2.28355695e-02f,-5.08848429e-01f,+5.62588334e-01f,-3.29703659e-01f,+1.00497501e-02f,
+2.10592911e-01f,+1.48847371e-01f,-6.06484950e-01f,-6.35338664e-01f,-1.53143719e-01f,
+1.46173522e-01f,-2.23032478e-02f,-2.89842319e-02f,-8.74299929e-03f,+3.29859257e-02f,
+4.94274311e-02f,-6.22248590e-01f,-6.00393236e-01f,-6.78378999e-01f,+7.28266640e-03f,
-4.28776741e-02f,+1.01873524e-01f,-7.64367700e-01f,+1.48313537e-01f,-8.91814765e-04f,
-7.60292232e-01f,-4.69011039e-01f,+3.18557590e-01f,+2.85091132e-01f,+3.29202533e-01f,
-7.46401787e-01f,-3.16462740e-02f,+2.23841872e-02f,+2.48526409e-03f,+2.23943945e-02f,
-1.65978119e-01f,+2.94750482e-01f,+3.83814156e-01f,+5.24587870e-01f,-1.87283903e-02f,
+9.22087487e-03f,-4.48254555e-01f,+5.55831373e-01f,-3.31454128e-01f,+1.33044051e-03f,
}; 
k2c_tensor dense_26_kernel = {&dense_26_kernel_array[0],2,400,{20,20, 1, 1, 1}}; 
float dense_26_bias_array[20] = {
+7.00938515e-03f,+1.96835950e-01f,+1.75084636e-01f,+4.04129535e-01f,+1.87300757e-01f,
+4.18970436e-02f,+0.00000000e+00f,-3.75828543e-03f,+0.00000000e+00f,-6.00350846e-04f,
-2.24477220e-02f,+1.48322746e-01f,+1.64572746e-01f,+2.01620743e-01f,-1.61304325e-02f,
-6.94874022e-03f,+2.03986973e-01f,+2.10872680e-01f,+2.91729897e-01f,-5.49241016e-03f,
}; 
k2c_tensor dense_26_bias = {&dense_26_bias_array[0],1,20,{20, 1, 1, 1, 1}}; 
float dense_26_fwork[420] = {0}; 

 
float dense_27_kernel_array[20] = {
+1.10393679e+00f,+7.33704746e-01f,-2.43643999e+00f,-4.63260317e+00f,+7.59413183e-01f,
+9.02388275e-01f,-4.09730077e-01f,-3.92177820e-01f,+3.35932851e-01f,-2.07625702e-01f,
+1.78986239e+00f,-2.92014480e+00f,-2.70356393e+00f,-2.38660693e+00f,+4.07317048e-03f,
+3.81146818e-01f,+6.93108559e-01f,-3.87890100e+00f,+5.89457095e-01f,-4.92514484e-02f,
}; 
k2c_tensor dense_27_kernel = {&dense_27_kernel_array[0],2,20,{20, 1, 1, 1, 1}}; 
float dense_27_bias_array[1] = {
-1.89925190e-02f,}; 
k2c_tensor dense_27_bias = {&dense_27_bias_array[0],1,1,{1,1,1,1,1}}; 
float dense_27_fwork[40] = {0}; 

 
k2c_dense(&dense_24_output,dense_24_input_input,&dense_24_kernel, 
	&dense_24_bias,k2c_relu,dense_24_fwork); 
k2c_dense(&dense_25_output,&dense_24_output,&dense_25_kernel, 
	&dense_25_bias,k2c_relu,dense_25_fwork); 
k2c_dense(&dense_26_output,&dense_25_output,&dense_26_kernel, 
	&dense_26_bias,k2c_relu,dense_26_fwork); 
k2c_dense(dense_27_output,&dense_26_output,&dense_27_kernel, 
	&dense_27_bias,k2c_sigmoid,dense_27_fwork); 

}

void MLP_ACK_RTTModel::keras2c_model_Round0000003_500Mbps(const k2c_tensor* dense_20_input_1_input, k2c_tensor* dense_23_1_output) { 

cout << "MLP_ACK_RTTModel Round0000003_500Mbps\n";

float dense_20_output_array[20] = {0}; 
k2c_tensor dense_20_output = {&dense_20_output_array[0],1,20,{20, 1, 1, 1, 1}}; 
float dense_20_kernel_array[40] = {
-2.19217524e-01f,-2.55042799e-02f,+2.53156163e-02f,-1.38950276e+00f,-1.10906353e-02f,
-3.77690680e-02f,-5.67914024e-02f,-1.26347626e-02f,+2.59945542e-03f,-3.64954844e-02f,
-5.07860705e-02f,+4.01742831e-02f,-1.08716357e+00f,-2.09566373e-02f,-3.57977152e-02f,
-5.83148375e-03f,+1.74242072e-02f,-1.95847183e-01f,-7.34329224e-04f,-5.50588220e-03f,
+2.83307731e-01f,-5.36668301e-03f,+1.43457502e-01f,-9.30141732e-02f,+1.90778524e-01f,
+2.14908391e-01f,+1.87604502e-01f,+2.23723620e-01f,-3.25915441e-02f,+2.36179441e-01f,
-8.72337148e-02f,+1.91359878e-01f,-1.03110664e-01f,+1.93602353e-01f,-3.09923887e-02f,
+1.84275508e-01f,+1.68465465e-01f,-7.57970661e-02f,-3.00846938e-02f,-1.08635053e-02f,
}; 
k2c_tensor dense_20_kernel = {&dense_20_kernel_array[0],2,40,{ 2,20, 1, 1, 1}}; 
float dense_20_bias_array[20] = {
-2.03120634e-02f,+0.00000000e+00f,-1.05493143e-01f,+1.00204930e-01f,-1.21993728e-01f,
-9.28819850e-02f,-1.09148353e-01f,-9.70752984e-02f,+0.00000000e+00f,-1.06287889e-01f,
+1.86558932e-01f,-1.36118129e-01f,+1.15118794e-01f,-1.13185525e-01f,+0.00000000e+00f,
-1.21803671e-01f,-1.26208857e-01f,+1.61580160e-01f,+0.00000000e+00f,+0.00000000e+00f,
}; 
k2c_tensor dense_20_bias = {&dense_20_bias_array[0],1,20,{20, 1, 1, 1, 1}}; 
float dense_20_fwork[42] = {0}; 

 
float dense_21_output_array[20] = {0}; 
k2c_tensor dense_21_output = {&dense_21_output_array[0],1,20,{20, 1, 1, 1, 1}}; 
float dense_21_kernel_array[400] = {
+4.01694700e-02f,-4.80342470e-02f,+1.99862897e-01f,-4.14422750e-02f,-1.29546756e-02f,
+2.37820297e-03f,-1.03128232e-01f,+1.95655823e-01f,+1.61228418e-01f,+6.17899418e-01f,
+1.40937880e-01f,-5.24486676e-02f,+8.10824335e-04f,+1.76788315e-01f,+1.81009680e-01f,
+1.94412023e-01f,-3.30873355e-02f,+3.12668681e-02f,+8.95335019e-01f,-9.86580849e-02f,
-1.19649544e-02f,-2.99568307e-02f,-4.57132123e-02f,+1.53288506e-02f,+2.49207877e-02f,
-3.44307646e-02f,-3.76140587e-02f,+2.19261087e-02f,-1.34020932e-02f,+4.17234637e-02f,
-1.89688560e-02f,+2.01859809e-02f,+1.81684606e-02f,-4.53015566e-02f,-1.94124114e-02f,
-1.38096884e-03f,+4.30263318e-02f,-4.49275747e-02f,+2.41328031e-04f,+2.90860273e-02f,
+9.96936928e-04f,-3.89779098e-02f,+8.09579909e-01f,+2.09497251e-02f,-2.81161256e-02f,
-3.86674292e-02f,-1.02857184e+00f,+7.94387877e-01f,+8.31181288e-01f,-1.24499965e+00f,
+1.12617576e+00f,-8.50755453e-01f,+2.75469460e-02f,+8.00009191e-01f,+9.27527487e-01f,
+7.93231785e-01f,-4.19894941e-02f,-1.72477644e-02f,-2.78119183e+00f,-9.68418837e-01f,
+4.32875343e-02f,-4.17321138e-02f,-8.94420266e-01f,+2.65329964e-02f,+8.91084597e-03f,
+4.41524051e-02f,-2.94817299e-01f,-8.12593877e-01f,-8.94687355e-01f,+2.34644532e+00f,
-6.90521359e-01f,-2.20681056e-01f,-2.91872770e-04f,-8.28840971e-01f,-8.67210567e-01f,
-8.30186546e-01f,+1.85240433e-03f,+2.70770937e-02f,-3.25579429e+00f,-2.51091033e-01f,
-3.64891514e-02f,-9.83900484e-03f,+6.95607007e-01f,-1.60264000e-02f,+4.46783081e-02f,
+4.01362777e-05f,-4.94078994e-01f,+7.08745122e-01f,+6.12682581e-01f,+4.30230170e-01f,
+7.37171292e-01f,-5.52327931e-01f,+1.75161250e-02f,+7.17812002e-01f,+6.84902191e-01f,
+7.00048029e-01f,+2.21599601e-02f,-1.45939840e-02f,-1.71227193e+00f,-5.36515236e-01f,
-5.19902781e-02f,-4.87811305e-02f,+3.56871188e-01f,+4.65270393e-02f,+2.66978554e-02f,
-6.41586632e-03f,-2.95772046e-01f,+3.51937413e-01f,+3.58200133e-01f,+4.07343507e-01f,
+3.65578800e-01f,-2.27183506e-01f,-2.29427218e-02f,+3.04542631e-01f,+3.47069532e-01f,
+3.64235818e-01f,+1.60826482e-02f,-3.14153060e-02f,+3.21076244e-01f,-2.35880673e-01f,
+4.79139127e-02f,+7.93848420e-04f,+6.78853929e-01f,+6.82500750e-03f,-3.98503989e-02f,
-2.04063579e-03f,-8.54012489e-01f,+7.79178798e-01f,+7.10937858e-01f,+7.87241518e-01f,
+7.65039623e-01f,-7.61308193e-01f,-7.26394728e-03f,+7.80985117e-01f,+7.22225189e-01f,
+7.85880446e-01f,-1.97357535e-02f,+9.63362772e-03f,+1.17024112e+00f,-8.71424913e-01f,
-4.66814190e-02f,-2.94366367e-02f,+3.25581044e-01f,-4.81919199e-03f,-4.39968407e-02f,
-1.51306391e-02f,-2.74438202e-01f,+3.74881059e-01f,+3.48769039e-01f,+2.79421657e-01f,
+3.71102512e-01f,-1.12925917e-01f,-2.17665788e-02f,+3.65308940e-01f,+3.66776288e-01f,
+3.48342478e-01f,-1.55192614e-02f,-2.30792128e-02f,+8.96326452e-02f,-2.12570429e-01f,
-2.11539119e-03f,-3.60060483e-04f,+2.51740851e-02f,+2.15983056e-02f,-1.55833587e-02f,
-1.42062902e-02f,+2.38740481e-02f,-3.02532315e-02f,+4.20722030e-02f,-4.54179309e-02f,
+3.74117978e-02f,+2.28614919e-02f,-2.33133882e-03f,+3.80053259e-02f,+2.37952359e-02f,
+1.40859373e-02f,+3.12964953e-02f,-6.75756857e-03f,-2.48161685e-02f,-2.21052170e-02f,
-3.51121314e-02f,+2.27320357e-03f,+3.31312418e-01f,-3.31610329e-02f,+4.59367335e-02f,
-1.95760615e-02f,-2.08126932e-01f,+3.24343652e-01f,+3.32443416e-01f,+3.53816241e-01f,
+3.49259466e-01f,-1.96375117e-01f,+3.12859938e-03f,+3.64353001e-01f,+3.28624666e-01f,
+3.41132551e-01f,+1.41140856e-02f,+9.57006682e-03f,+9.98182688e-03f,-2.52316982e-01f,
-1.01380190e-02f,+3.64708453e-02f,-1.92665890e-01f,-1.66164152e-02f,+1.74518600e-02f,
-3.94905582e-02f,+1.69332728e-01f,-2.20805109e-01f,-1.81796953e-01f,+3.91860932e-01f,
-2.32606053e-01f,+3.35963458e-01f,-7.87782669e-03f,-2.43908539e-01f,-2.36755282e-01f,
-1.84999540e-01f,+6.41027838e-03f,-4.76813689e-02f,+2.26820374e+00f,+2.20661357e-01f,
+5.30032720e-03f,-1.15658473e-02f,+8.22776198e-01f,+4.94577736e-03f,-3.62377688e-02f,
-3.49118002e-02f,-7.14589715e-01f,+8.02758515e-01f,+9.33836222e-01f,-7.77806163e-01f,
+9.97512460e-01f,-5.51312447e-01f,-2.26840973e-02f,+7.64911354e-01f,+8.94059718e-01f,
+8.35770726e-01f,-4.70374599e-02f,-3.93384742e-03f,-1.80190921e+00f,-7.57084429e-01f,
-3.15648094e-02f,+4.79728058e-02f,-3.81952465e-01f,-4.45906073e-03f,-2.88951118e-02f,
+2.71612443e-02f,-5.93314767e-01f,-3.74169946e-01f,-4.36166376e-01f,+2.39359903e+00f,
-2.21693456e-01f,-5.33106089e-01f,+2.43543126e-02f,-3.65922064e-01f,-3.47213984e-01f,
-3.56782794e-01f,-3.32525000e-02f,-2.87114736e-03f,-3.85296082e+00f,-6.04915082e-01f,
-1.63193587e-02f,-3.77243906e-02f,+8.65673840e-01f,-4.93602864e-02f,-4.67796326e-02f,
-2.01326497e-02f,-9.98693764e-01f,+9.19140220e-01f,+8.49028230e-01f,+4.34960812e-01f,
+8.85071695e-01f,-9.30963159e-01f,-1.89329032e-02f,+9.05447185e-01f,+8.85814726e-01f,
+8.49301040e-01f,+4.62934114e-02f,-1.50495833e-02f,-1.05353725e+00f,-9.75471735e-01f,
+3.83917205e-02f,+1.23536587e-03f,-1.55748241e-02f,+1.41840316e-02f,-1.55045018e-02f,
-1.36192925e-02f,+2.28709243e-02f,+2.11195238e-02f,-8.24940205e-03f,-2.01504230e-02f,
-1.68126710e-02f,-3.21498401e-02f,+1.19154938e-02f,+1.72655098e-02f,+3.06231417e-02f,
-6.50315359e-03f,-9.74051654e-05f,+1.87962689e-02f,+1.97507441e-04f,-4.01135460e-02f,
+3.90213393e-02f,+3.60197462e-02f,+9.38393176e-01f,-1.76543593e-02f,-8.61717202e-03f,
-7.42010027e-03f,-7.83521235e-01f,+9.34242129e-01f,+9.21712458e-01f,+4.34261054e-01f,
+1.07588136e+00f,-8.27437043e-01f,-1.47936493e-03f,+9.44935322e-01f,+9.78300333e-01f,
+9.21873629e-01f,-3.79627831e-02f,-4.46744710e-02f,-2.26897836e+00f,-8.55261028e-01f,
-3.42061892e-02f,-4.54890430e-02f,+1.32555282e+00f,-3.93471718e-02f,+6.28264248e-03f,
-1.85518377e-02f,-1.51586735e+00f,+1.43027902e+00f,+1.41349411e+00f,-6.25137866e-01f,
+1.65462017e+00f,-1.69557047e+00f,+1.45827569e-02f,+1.41127992e+00f,+1.56688201e+00f,
+1.44818795e+00f,-4.03836370e-02f,-4.61164415e-02f,-3.91926122e+00f,-1.48547578e+00f,
+4.36527990e-02f,+2.49048974e-02f,-1.94816902e-01f,+1.74678452e-02f,+1.00284042e-02f,
-2.86495443e-02f,+1.76478952e-01f,-2.05969408e-01f,-2.80979216e-01f,+6.79875135e-01f,
-3.13769370e-01f,+2.60366797e-01f,-3.14080268e-02f,-1.60059109e-01f,-2.38632530e-01f,
-2.20469296e-01f,-4.28266898e-02f,+2.66146995e-02f,+2.54930949e+00f,+1.30546838e-01f,
-3.21338996e-02f,-6.70228153e-03f,-3.10702324e-02f,-4.47006114e-02f,+1.54934078e-03f,
+1.94055960e-03f,-2.26115342e-02f,+1.80328824e-02f,-3.35249305e-02f,-2.04031356e-02f,
+1.25863813e-02f,-4.12491560e-02f,-4.12356965e-02f,+3.11039351e-02f,-8.35664198e-03f,
+1.76852383e-02f,+2.91739777e-03f,-4.89781015e-02f,+3.37426700e-02f,-1.56664141e-02f,
+3.82198431e-02f,-2.76778582e-02f,+2.02138536e-02f,-1.25279799e-02f,-4.00878303e-02f,
-2.20711585e-02f,-7.93436915e-03f,-2.91166548e-02f,-1.13835223e-02f,-7.15408474e-03f,
+3.75520475e-02f,+3.65174748e-02f,-1.48965046e-03f,-4.96456996e-02f,+2.79368646e-02f,
+2.20225789e-02f,+1.82520263e-02f,+2.99086459e-02f,+3.65336798e-02f,+3.99639867e-02f,
}; 
k2c_tensor dense_21_kernel = {&dense_21_kernel_array[0],2,400,{20,20, 1, 1, 1}}; 
float dense_21_bias_array[20] = {
-4.96085454e-03f,-1.77960226e-03f,-8.98799226e-02f,+0.00000000e+00f,-1.52719719e-03f,
+0.00000000e+00f,+1.52441487e-01f,-9.18588340e-02f,-7.42229372e-02f,-4.94643021e-03f,
-1.03769265e-01f,+3.16187203e-01f,+0.00000000e+00f,-8.77396166e-02f,-7.81386495e-02f,
-9.27493349e-02f,+0.00000000e+00f,-2.91131414e-03f,+1.12992895e+00f,+1.46330625e-01f,
}; 
k2c_tensor dense_21_bias = {&dense_21_bias_array[0],1,20,{20, 1, 1, 1, 1}}; 
float dense_21_fwork[420] = {0}; 

 
float dense_22_output_array[20] = {0}; 
k2c_tensor dense_22_output = {&dense_22_output_array[0],1,20,{20, 1, 1, 1, 1}}; 
float dense_22_kernel_array[400] = {
-5.75892860e-03f,+7.06781074e-03f,-2.09126016e-03f,+4.08370122e-02f,+3.46564539e-02f,
+1.51837356e-02f,-2.99928673e-02f,-3.65263596e-02f,+2.76663993e-02f,+1.61983408e-02f,
-4.73159999e-02f,-1.18821431e-02f,-8.14392511e-03f,+4.88621294e-02f,+1.02064498e-02f,
-3.70242670e-02f,-3.97931561e-02f,-2.43141185e-02f,-6.17070124e-03f,-2.30582952e-02f,
-3.76952179e-02f,-4.88693714e-02f,+1.67741198e-02f,-1.45224305e-02f,+3.27402465e-02f,
-2.92890668e-02f,+2.68143862e-02f,+2.74009015e-02f,-5.26247993e-02f,-1.03784502e-02f,
-1.60149485e-02f,+1.57030001e-02f,-2.60270126e-02f,+5.02775516e-03f,-2.97445022e-02f,
+3.68966423e-02f,-1.14235394e-02f,-8.29665735e-03f,+2.22073309e-02f,-5.51031902e-03f,
-1.19040096e+00f,-2.15302352e-02f,-1.24660707e+00f,-1.45095313e+00f,-3.73479575e-02f,
-1.83079354e-02f,-1.40367568e+00f,-1.23621225e+00f,-1.17493486e+00f,-1.15619612e+00f,
-1.26681161e+00f,-1.30140460e+00f,-1.08848453e+00f,-1.38782191e+00f,+5.28793596e-02f,
-1.37467182e+00f,-2.04865355e-02f,-1.46365538e-02f,+2.84000617e-02f,+1.01091405e-02f,
+3.99262644e-02f,-2.54066586e-02f,-4.96101752e-02f,+2.89670266e-02f,-2.08202135e-02f,
-1.08124986e-02f,+2.34126337e-02f,+3.16000469e-02f,-4.64088582e-02f,-4.13961411e-02f,
-3.77278551e-02f,+2.13042758e-02f,+9.25880671e-03f,-2.41100676e-02f,-1.41900070e-02f,
-3.22438031e-02f,-3.58227603e-02f,-3.10872439e-02f,-4.09437530e-02f,+3.14471833e-02f,
-5.07072471e-02f,-4.22947779e-02f,+4.46659699e-02f,-1.92973185e-02f,+2.25577876e-02f,
+9.26506519e-03f,+5.47961555e-02f,+2.67180689e-02f,-1.06737828e-02f,+1.39889047e-02f,
+3.12265642e-02f,-2.79157180e-02f,+1.11857476e-02f,+5.88608813e-03f,+8.82915407e-03f,
+6.15293486e-03f,+1.16845593e-02f,-2.67991070e-02f,-2.71021258e-02f,+2.20363066e-02f,
-6.33193180e-03f,+2.99634598e-02f,+2.14685686e-02f,-3.62028964e-02f,-2.77805328e-02f,
+2.41480768e-04f,-3.14909220e-03f,-1.20691657e-02f,+9.72404331e-03f,+4.36822660e-02f,
+5.25709242e-03f,-2.77842637e-02f,+4.43217196e-02f,+2.72598155e-02f,+3.84588502e-02f,
-1.88327320e-02f,+3.45455147e-02f,+1.70256607e-02f,-4.90860231e-02f,+3.64586152e-02f,
+6.53962433e-01f,-1.94351673e-02f,+7.21119881e-01f,-3.38380814e-01f,+3.80441174e-02f,
-4.30862606e-02f,-1.12863563e-01f,+5.60940981e-01f,+6.10028982e-01f,-3.66792351e-01f,
-1.16316721e-01f,+6.84512556e-01f,+6.58499360e-01f,+7.45059133e-01f,+9.56090242e-02f,
+6.79957807e-01f,+7.39617040e-03f,+2.98738144e-02f,-2.28748918e-02f,-3.51587422e-02f,
-1.18690324e+00f,-2.38600131e-02f,-1.18349564e+00f,-1.62504745e+00f,-4.87951227e-02f,
+4.59706448e-02f,-1.51896608e+00f,-1.21299100e+00f,-1.16220236e+00f,-1.22077262e+00f,
-1.12449026e+00f,-1.34612489e+00f,-1.12869966e+00f,-1.38573956e+00f,+7.94032440e-02f,
-1.45218611e+00f,+1.06943268e-02f,-1.33176893e-03f,-1.94682032e-02f,+1.64404772e-02f,
-1.16077662e+00f,-6.42225891e-03f,-1.10848010e+00f,-1.37726939e+00f,+6.27916539e-04f,
-3.92383896e-02f,-1.35654676e+00f,-1.23966241e+00f,-1.16656899e+00f,-1.10450637e+00f,
-1.32523084e+00f,-1.41345239e+00f,-1.06161571e+00f,-1.43661237e+00f,+9.41777527e-02f,
-1.43909144e+00f,+2.68540531e-02f,-4.23888937e-02f,+2.21045665e-03f,-6.13582656e-02f,
-1.79778084e-01f,-2.83780228e-02f,-3.65949094e-01f,-1.47032619e-01f,-4.74201553e-02f,
+6.31787628e-03f,-2.23388374e-01f,+1.78278685e-01f,-1.69562861e-01f,-1.12267928e-02f,
+2.62842447e-01f,+9.72469822e-02f,-1.22588366e-01f,+1.25172332e-01f,+1.54567286e-01f,
+1.12706862e-01f,-2.88908482e-02f,-4.58058380e-02f,-5.55415079e-03f,+1.53864520e-02f,
-1.15444827e+00f,+8.63140821e-03f,-9.27673161e-01f,-2.04945993e+00f,+1.23340627e-02f,
+1.58856262e-03f,-1.91808093e+00f,-1.48258018e+00f,-1.03721440e+00f,-1.64452362e+00f,
-3.99863791e+00f,-1.63964033e+00f,-1.06244206e+00f,-1.68098068e+00f,+2.14255955e-02f,
-1.69116068e+00f,-4.29127412e-03f,+3.14595588e-02f,-4.32843715e-02f,+8.28670990e-03f,
+6.35618567e-01f,-6.71767071e-03f,+5.66489398e-01f,+7.25804448e-01f,-3.92970927e-02f,
-2.46685240e-02f,+9.41127658e-01f,+5.78221679e-01f,+5.95669985e-01f,+6.76415861e-01f,
+6.94136396e-02f,+6.54577017e-01f,+6.98553801e-01f,+6.85980082e-01f,+1.37569085e-01f,
+6.70599163e-01f,-2.54205856e-02f,-1.37082562e-02f,-2.67148297e-02f,-4.99574374e-03f,
-2.71057971e-02f,+2.75116079e-02f,+3.63383554e-02f,-5.21979481e-03f,+4.61030714e-02f,
+4.46351878e-02f,+2.70305984e-02f,+2.74935625e-02f,-2.61171814e-02f,-4.20397893e-02f,
-7.88657740e-03f,-1.19340047e-02f,-3.72461230e-03f,+2.40677632e-02f,+1.38879307e-02f,
+9.68438387e-03f,+4.46770303e-02f,+4.63196747e-02f,-3.00850756e-02f,+5.23884222e-03f,
-1.14811873e+00f,-4.94908355e-02f,-1.24746168e+00f,-1.53272033e+00f,+3.84588614e-02f,
+3.51908021e-02f,-1.47312140e+00f,-1.27664983e+00f,-1.12375748e+00f,-1.24428082e+00f,
-1.12448287e+00f,-1.37392569e+00f,-1.11684310e+00f,-1.42369604e+00f,+6.97491318e-02f,
-1.41840458e+00f,+2.80205719e-02f,-4.49356437e-02f,+4.28415276e-02f,-1.00454511e-02f,
-1.18457139e+00f,-2.82560233e-02f,-1.09164214e+00f,-1.68328536e+00f,+1.07539864e-02f,
-3.29373479e-02f,-1.60230887e+00f,-1.31283593e+00f,-1.17142487e+00f,-1.36016476e+00f,
-1.25492394e+00f,-1.41536617e+00f,-1.10976207e+00f,-1.47806430e+00f,+3.13822888e-02f,
-1.49225307e+00f,-1.31538101e-02f,-2.67279278e-02f,-5.00924550e-02f,+2.06823070e-02f,
-1.20359170e+00f,-4.08264771e-02f,-1.19558942e+00f,-1.57772362e+00f,+4.72334865e-03f,
-2.09824871e-02f,-1.44714129e+00f,-1.21675670e+00f,-1.11075556e+00f,-1.20729208e+00f,
-1.20457757e+00f,-1.31963348e+00f,-1.07547283e+00f,-1.38772118e+00f,+2.98498664e-02f,
-1.34322691e+00f,-3.06187943e-02f,-3.82876396e-03f,-9.49724764e-03f,+2.37043016e-02f,
-4.23840992e-02f,-1.83788426e-02f,-4.76582311e-02f,-6.02787733e-03f,+3.61119397e-02f,
-7.84067065e-03f,+4.84919883e-02f,-3.62313278e-02f,-4.24791574e-02f,-3.61883417e-02f,
-2.33839396e-02f,+1.67653710e-03f,+1.89488195e-02f,+2.61523761e-02f,-4.03215773e-02f,
-4.19340841e-02f,-4.00909670e-02f,+3.92941274e-02f,+2.07102038e-02f,-2.54488476e-02f,
-3.20258811e-02f,+3.19913775e-03f,-3.04489937e-02f,-5.07769175e-02f,-3.12954038e-02f,
+2.32186206e-02f,-3.03860549e-02f,+6.14068843e-03f,-2.30593774e-02f,+3.75660658e-02f,
-4.76268679e-03f,+1.55769335e-02f,+4.88165878e-02f,-3.53344604e-02f,-1.68149211e-02f,
-2.68980060e-02f,+4.21868227e-02f,-1.08681805e-02f,-3.22939157e-02f,+1.15628820e-02f,
+5.07166944e-02f,-3.49246264e-02f,+9.12970304e-03f,+7.49052823e-01f,-2.24014446e-02f,
-1.85777545e-02f,+6.51497185e-01f,+2.30394125e-01f,+5.76543398e-02f,+7.15793729e-01f,
+1.01423234e-01f,+2.92121828e-01f,+8.33563656e-02f,+2.99439281e-01f,+1.57913134e-01f,
+3.06298018e-01f,-3.03769242e-02f,-6.74199313e-04f,+6.67848997e-03f,-1.21316565e-02f,
+5.89859784e-01f,-4.83260639e-02f,+6.66438639e-01f,-2.71511585e-01f,-2.54792925e-02f,
+5.07725403e-03f,-5.25409393e-02f,+5.71149886e-01f,+4.62878406e-01f,-2.99696386e-01f,
-1.28246933e-01f,+6.67330027e-01f,+6.11398160e-01f,+7.07756817e-01f,+9.27624628e-02f,
+7.26831913e-01f,+7.51123577e-03f,-2.78715380e-02f,-2.30677258e-02f,-2.16897540e-02f,
}; 
k2c_tensor dense_22_kernel = {&dense_22_kernel_array[0],2,400,{20,20, 1, 1, 1}}; 
float dense_22_bias_array[20] = {
+2.98740119e-01f,+0.00000000e+00f,+3.29164356e-01f,+4.84568208e-01f,-9.83175356e-04f,
-1.15309400e-03f,+5.05222738e-01f,+2.24800318e-01f,+2.82062024e-01f,+4.49478000e-01f,
+7.92205036e-02f,+2.05330074e-01f,+3.45964342e-01f,+2.10264295e-01f,+1.12362623e-01f,
+2.09150627e-01f,-6.19725557e-04f,+0.00000000e+00f,-5.79593517e-03f,-7.34430458e-03f,
}; 
k2c_tensor dense_22_bias = {&dense_22_bias_array[0],1,20,{20, 1, 1, 1, 1}}; 
float dense_22_fwork[420] = {0}; 

 
float dense_23_kernel_array[20] = {
-1.77004194e+00f,+1.73503697e-01f,-1.57508934e+00f,+1.45406854e+00f,+1.33167207e-01f,
+1.94696054e-01f,+1.33683872e+00f,-1.89231336e+00f,-1.47990823e+00f,+9.96710896e-01f,
-2.22478247e+00f,-1.74744296e+00f,-1.74796891e+00f,-1.78423727e+00f,+4.44523484e-01f,
-2.13231254e+00f,-3.57736764e-03f,+5.48833609e-03f,-5.18146396e-01f,-3.65510792e-01f,
}; 
k2c_tensor dense_23_kernel = {&dense_23_kernel_array[0],2,20,{20, 1, 1, 1, 1}}; 
float dense_23_bias_array[1] = {
+5.16066670e-01f,}; 
k2c_tensor dense_23_bias = {&dense_23_bias_array[0],1,1,{1,1,1,1,1}}; 
float dense_23_fwork[40] = {0}; 

 
k2c_dense(&dense_20_output,dense_20_input_1_input,&dense_20_kernel, 
	&dense_20_bias,k2c_relu,dense_20_fwork); 
k2c_dense(&dense_21_output,&dense_20_output,&dense_21_kernel, 
	&dense_21_bias,k2c_relu,dense_21_fwork); 
k2c_dense(&dense_22_output,&dense_21_output,&dense_22_kernel, 
	&dense_22_bias,k2c_relu,dense_22_fwork); 
k2c_dense(dense_23_1_output,&dense_22_output,&dense_23_kernel, 
	&dense_23_bias,k2c_sigmoid,dense_23_fwork); 

 } 


















//_Round0000004_1000Mbps















void MLP_ACK_RTTModel::keras2c_model_Round0000004_1000Mbps(const k2c_tensor* dense_36_input_input, k2c_tensor* dense_39_output) { 

cout <<  "MLP_ACK_RTTModel Round0000004_1000Mbps\n";

float dense_36_output_array[20] = {0}; 
k2c_tensor dense_36_output = {&dense_36_output_array[0],1,20,{20, 1, 1, 1, 1}}; 
float dense_36_kernel_array[40] = {
-4.76197861e-02f,-4.47294898e-02f,-2.90999413e-02f,+4.50104065e-02f,+3.03808041e-03f,
-3.95947807e-02f,+5.66684920e-03f,+1.76586211e-04f,+1.47345336e-02f,-2.08425652e-02f,
+3.94126847e-02f,+1.50351590e-02f,+1.68018006e-02f,-1.21969804e-02f,-1.47973802e-02f,
+3.33713973e-03f,+5.42291924e-02f,-3.03691179e-02f,+1.71194260e-03f,+5.68438172e-02f,
-2.14372519e-02f,-1.52303606e-01f,-1.60164461e-02f,-1.68904752e-01f,+1.78701982e-01f,
+1.05482538e-03f,+2.03211546e-01f,-4.89408970e-02f,+1.94575697e-01f,-4.51675914e-02f,
+2.09066644e-01f,+1.77217409e-01f,-4.62302938e-02f,-4.66281176e-03f,+1.88681766e-01f,
+1.88472390e-01f,+1.92683831e-01f,+2.14494169e-01f,+1.86146230e-01f,+1.87563330e-01f,
}; 
k2c_tensor dense_36_kernel = {&dense_36_kernel_array[0],2,40,{ 2,20, 1, 1, 1}}; 
float dense_36_bias_array[20] = {
+0.00000000e+00f,+1.28184363e-01f,+0.00000000e+00f,+1.34872407e-01f,-1.10381328e-01f,
-5.05148841e-04f,-1.18540362e-01f,+0.00000000e+00f,-1.13811016e-01f,+0.00000000e+00f,
-1.08983301e-01f,-1.12913944e-01f,+0.00000000e+00f,+0.00000000e+00f,-1.15238264e-01f,
-1.20868966e-01f,-1.12328961e-01f,-1.13048673e-01f,-1.18021175e-01f,-1.07922383e-01f,
}; 
k2c_tensor dense_36_bias = {&dense_36_bias_array[0],1,20,{20, 1, 1, 1, 1}}; 
float dense_36_fwork[42] = {0}; 

 
float dense_37_output_array[20] = {0}; 
k2c_tensor dense_37_output = {&dense_37_output_array[0],1,20,{20, 1, 1, 1, 1}}; 
float dense_37_kernel_array[400] = {
+4.87529114e-03f,+3.26764919e-02f,-3.86520252e-02f,-3.32126617e-02f,+2.77415179e-02f,
+1.35745443e-02f,-6.01901859e-03f,-3.42125520e-02f,-1.04192607e-02f,+8.98893923e-03f,
-1.18379109e-02f,-2.16019880e-02f,+4.53425571e-03f,+1.54582374e-02f,-1.37276649e-02f,
+4.06879224e-02f,+9.65153053e-03f,-8.18642229e-03f,-3.01569346e-02f,+3.06182988e-02f,
-1.20316520e-02f,+1.58725698e-02f,+5.05571440e-03f,+1.29316933e-02f,-4.47603464e-02f,
-1.13004959e+00f,-1.12906229e+00f,-2.74120644e-03f,-1.10429764e+00f,-8.55953097e-02f,
-1.08834994e+00f,-3.51589434e-02f,+1.10320187e+00f,-4.60364595e-02f,+2.13742293e-02f,
-1.13980401e+00f,+1.13918078e+00f,+3.34518701e-02f,+3.37437876e-02f,-1.12982535e+00f,
-1.24178305e-02f,+3.46207283e-02f,+1.92745775e-03f,+4.17270921e-02f,+2.55512632e-02f,
+3.91233079e-02f,-4.93564457e-03f,+8.28504562e-06f,-2.54497658e-02f,-3.16999182e-02f,
-2.45622881e-02f,+1.64602064e-02f,-3.49148139e-02f,-2.50643138e-02f,-5.79720736e-03f,
-9.12133604e-03f,+3.12647484e-02f,+4.30294313e-02f,+3.32094915e-02f,-6.20564073e-03f,
-2.79877186e-02f,-4.60535921e-02f,+2.06822790e-02f,+2.16504000e-02f,-2.94766668e-02f,
-8.57767463e-01f,-8.96320462e-01f,-4.60427217e-02f,-8.48686695e-01f,-9.80798483e-01f,
-8.08043897e-01f,-3.84739861e-02f,+1.39131892e+00f,+1.49107836e-02f,-1.45160072e-02f,
-8.35161388e-01f,+1.20535374e+00f,-4.38918173e-02f,+3.21437605e-02f,-8.76788497e-01f,
-4.32570465e-02f,-4.46503758e-02f,-4.05080914e-02f,+9.20821261e-03f,+1.67610161e-02f,
+3.47646743e-01f,+3.45670968e-01f,+1.53314415e-02f,+3.64392668e-01f,+3.74028623e-01f,
+3.78986865e-01f,-6.89320639e-03f,-4.85039592e-01f,+1.20369196e-02f,+4.82107513e-02f,
+3.49902600e-01f,-4.47680056e-01f,-5.06365858e-02f,-8.48520920e-03f,+3.80733013e-01f,
+1.52531378e-02f,-3.54285613e-02f,-1.46842226e-02f,+3.35020944e-02f,-2.97150500e-02f,
+4.94095944e-02f,+3.79750505e-02f,-1.91609133e-02f,+6.34080358e-03f,+4.29445790e-04f,
-2.22963449e-02f,+2.23704614e-02f,-1.50623489e-02f,+3.09148096e-02f,+1.54950358e-02f,
+2.32042628e-03f,-3.65477689e-02f,-1.83959175e-02f,-7.85747916e-03f,-1.08060772e-02f,
-2.64378320e-02f,+8.83429870e-03f,+4.11271714e-02f,-9.43194237e-03f,+2.88777612e-02f,
+3.19560707e-01f,+3.01134318e-01f,-3.52657423e-03f,+3.39167088e-01f,+3.06187809e-01f,
+3.57785970e-01f,-3.49187627e-02f,-3.90089482e-01f,-2.01031808e-02f,-9.00942087e-03f,
+3.47332716e-01f,-4.07689393e-01f,-3.90683971e-02f,-4.07890901e-02f,+3.10322374e-01f,
+1.12622976e-03f,+3.16174068e-02f,+4.17764112e-03f,+3.07573117e-02f,-7.94472545e-03f,
+5.57191670e-05f,-3.89231667e-02f,+5.22531569e-04f,-9.73593444e-04f,-4.64869663e-03f,
-3.47582698e-02f,-4.36576270e-02f,-1.43832192e-02f,+9.81665775e-03f,+7.05895573e-03f,
+1.46210194e-04f,-1.02530606e-02f,-3.04406174e-02f,-7.34149292e-03f,-1.14718080e-02f,
-6.98418543e-03f,-1.94254331e-02f,-2.42052805e-02f,+1.67532507e-02f,+3.50120701e-02f,
+2.89110154e-01f,+3.16204250e-01f,+2.08872650e-02f,+3.44251305e-01f,+3.26467246e-01f,
+3.62478435e-01f,-2.53091212e-02f,-4.39491868e-01f,+2.77721770e-02f,+8.10798258e-03f,
+3.19310784e-01f,-3.64939719e-01f,+4.20032768e-03f,-8.26557726e-03f,+3.52866292e-01f,
+1.59926899e-02f,+4.73778732e-02f,+4.69316579e-02f,+2.49465145e-02f,-1.42235272e-02f,
+2.83889510e-02f,-3.00969370e-02f,-2.04478391e-02f,+3.25445868e-02f,+2.02820636e-02f,
+4.94278558e-02f,-4.47076336e-02f,+3.80017795e-02f,+3.49087641e-03f,-1.73953287e-02f,
-2.53331549e-02f,-1.82814375e-02f,+4.15362455e-02f,+3.51703651e-02f,-1.07984617e-03f,
-4.74981181e-02f,+2.29940331e-03f,-8.46678019e-03f,-1.47477072e-03f,-3.97174582e-02f,
+2.92454362e-01f,+2.99021035e-01f,+2.67480277e-02f,+2.24727914e-01f,+3.13706487e-01f,
+2.52235204e-01f,+1.52916797e-02f,-3.04423898e-01f,-3.63551490e-02f,+3.82817872e-02f,
+2.69448519e-01f,-2.65588433e-01f,+1.62807363e-03f,-3.26147564e-02f,+2.72354066e-01f,
+6.18187338e-03f,-2.65841130e-02f,-3.26208696e-02f,-4.20871265e-02f,-8.77894461e-04f,
+4.01490718e-01f,+3.96577209e-01f,+2.97778118e-02f,+3.97516161e-01f,+4.01016444e-01f,
+3.70998353e-01f,+1.63780935e-02f,-5.38701653e-01f,-1.93942916e-02f,-1.28965750e-02f,
+4.28573459e-01f,-5.32612503e-01f,-2.11627893e-02f,-1.83286294e-02f,+4.04066414e-01f,
+3.94083299e-02f,+6.57140091e-03f,+4.76442315e-02f,+4.82728332e-03f,-1.09219067e-02f,
-1.46314278e-02f,-1.25995167e-02f,-3.35618742e-02f,-1.56940334e-02f,+1.09438188e-02f,
-4.19660099e-02f,-3.40128168e-02f,+3.48127224e-02f,+8.48434120e-03f,-3.04177403e-02f,
+3.62532847e-02f,-1.71867609e-02f,+3.55377235e-02f,-2.15230826e-02f,+1.54531002e-03f,
-3.40277106e-02f,-2.85890698e-02f,+2.53367759e-02f,+4.93083708e-02f,-5.87811321e-03f,
+4.55507748e-02f,-3.87394428e-03f,+4.37687375e-02f,+2.62283348e-02f,-4.47348841e-02f,
+1.07248910e-02f,+2.59237997e-02f,+3.19300927e-02f,-8.68432596e-03f,+1.26302242e-04f,
-1.74489841e-02f,+2.41646431e-02f,+3.02854925e-03f,+1.29688047e-02f,-6.98972493e-04f,
+2.84910835e-02f,-2.89437473e-02f,+1.15946904e-02f,-3.06856702e-03f,+2.94237845e-02f,
+3.66579980e-01f,+3.25343400e-01f,+3.42977196e-02f,+3.88059556e-01f,+3.60838413e-01f,
+3.82720768e-01f,-3.74166258e-02f,-5.48235238e-01f,-2.90429834e-02f,+1.07788332e-02f,
+3.93250465e-01f,-4.95219648e-01f,-3.72023471e-02f,+3.23130526e-02f,+3.94499868e-01f,
+8.06758553e-03f,+4.11417633e-02f,-4.15461287e-02f,+3.46398056e-02f,-3.08843851e-02f,
+4.19943094e-01f,+3.93117011e-01f,-3.71005982e-02f,+4.47729766e-01f,+3.59374434e-01f,
+4.37392592e-01f,-1.46764144e-02f,-5.99331439e-01f,-2.48792525e-02f,-4.95196469e-02f,
+4.03024554e-01f,-5.75475812e-01f,+4.35664617e-02f,-2.43412498e-02f,+4.15313542e-01f,
+9.27606970e-03f,+5.67399571e-03f,+3.37718800e-03f,-3.44216265e-02f,-3.26853283e-02f,
+3.13077211e-01f,+3.33648652e-01f,-3.60781141e-02f,+3.29805285e-01f,+2.55840331e-01f,
+3.11739653e-01f,-2.99854036e-02f,-3.12270701e-01f,-1.81550607e-02f,-1.66656598e-02f,
+2.94898063e-01f,-3.82821709e-01f,-5.11450600e-03f,+7.04228878e-03f,+3.23384464e-01f,
-3.03322077e-03f,-4.18448932e-02f,+5.15962765e-03f,+5.54055581e-03f,-1.81100480e-02f,
+2.80131251e-01f,+2.96092153e-01f,+2.74354890e-02f,+2.96481729e-01f,+4.08355892e-01f,
+2.86102086e-01f,-2.86209341e-02f,-3.66372287e-01f,-1.08195767e-02f,-2.08132025e-02f,
+3.17225963e-01f,-3.71705890e-01f,+2.60143913e-02f,+8.99819285e-03f,+3.03352922e-01f,
-4.46984060e-02f,+1.90804880e-02f,-7.35022873e-03f,-6.54866872e-03f,-1.85539834e-02f,
+4.38588738e-01f,+4.60640281e-01f,+9.83516686e-04f,+3.86858612e-01f,+4.35396910e-01f,
+4.40596193e-01f,+2.07862891e-02f,-6.40490830e-01f,+4.96094264e-02f,+1.66699551e-02f,
+3.95149976e-01f,-5.85231304e-01f,+2.83889845e-02f,-4.94240634e-02f,+4.32464480e-01f,
-4.21696790e-02f,+1.86491502e-03f,+7.09795952e-03f,-2.62619630e-02f,-4.48524132e-02f,
+2.61981159e-01f,+2.70174444e-01f,-2.10081413e-02f,+3.13616961e-01f,+2.58151442e-01f,
+2.76416749e-01f,+2.32708342e-02f,-3.17606002e-01f,+1.12757795e-02f,-4.83317748e-02f,
+2.88672388e-01f,-2.94945836e-01f,+6.66135177e-03f,-4.17364761e-03f,+3.08696389e-01f,
}; 
k2c_tensor dense_37_kernel = {&dense_37_kernel_array[0],2,400,{20,20, 1, 1, 1}}; 
float dense_37_bias_array[20] = {
+0.00000000e+00f,-8.57332197e-04f,+0.00000000e+00f,-6.00899453e-04f,+0.00000000e+00f,
-9.16258991e-02f,-9.21028182e-02f,-4.09536529e-03f,-9.47001874e-02f,+3.88311259e-02f,
-9.54592302e-02f,+0.00000000e+00f,+1.46898136e-01f,+0.00000000e+00f,+0.00000000e+00f,
-9.39891040e-02f,+1.45363152e-01f,-1.38470659e-03f,+0.00000000e+00f,-9.60165709e-02f,
}; 
k2c_tensor dense_37_bias = {&dense_37_bias_array[0],1,20,{20, 1, 1, 1, 1}}; 
float dense_37_fwork[420] = {0}; 

 
float dense_38_output_array[20] = {0}; 
k2c_tensor dense_38_output = {&dense_38_output_array[0],1,20,{20, 1, 1, 1, 1}}; 
float dense_38_kernel_array[400] = {
-4.51085344e-02f,+4.84114885e-03f,-1.05250962e-02f,-2.99207810e-02f,-1.66329965e-02f,
-4.55261581e-02f,-1.35835037e-02f,+9.35308635e-05f,-3.28798667e-02f,-2.93038022e-02f,
+4.56750393e-04f,+3.00897285e-03f,+1.46161802e-02f,+2.60795616e-02f,-4.91420999e-02f,
-2.11347695e-02f,+1.05561018e-02f,-1.29698291e-02f,-4.28313725e-02f,-3.94945517e-02f,
-4.56567891e-02f,-6.71384949e-03f,+3.86467986e-02f,+9.88924690e-03f,+2.67946124e-02f,
+1.73330568e-02f,+1.09946355e-02f,-8.42599943e-03f,+7.67161697e-03f,+1.19497376e-02f,
+4.36901934e-02f,-1.09700691e-02f,+1.85318813e-02f,-3.77829745e-02f,-2.44811568e-02f,
-4.29270454e-02f,-2.69336458e-02f,+4.46134582e-02f,-5.48433047e-03f,+1.86951589e-02f,
-7.23837689e-03f,+2.75149196e-03f,-9.29870456e-03f,-3.72888669e-02f,+1.81780197e-02f,
-1.46492347e-02f,-4.18347120e-03f,-3.37418541e-02f,-2.43406296e-02f,-6.61058351e-03f,
+4.37403806e-02f,+1.12999082e-02f,-3.27261686e-02f,+2.59366147e-02f,-9.00556892e-03f,
-4.09902558e-02f,+3.04504968e-02f,+1.05015188e-03f,-8.53252411e-03f,-3.43055353e-02f,
+1.14632770e-03f,+2.69031394e-02f,-2.85607707e-02f,+3.18114907e-02f,+1.49121964e-02f,
-4.68473695e-02f,+5.83821535e-03f,-4.08165082e-02f,-1.82250142e-02f,+1.50901526e-02f,
-1.44726746e-02f,+3.64417844e-02f,-1.15342150e-02f,+5.14996890e-03f,-3.20789814e-02f,
-2.45264415e-02f,-4.60110344e-02f,-1.95576437e-02f,-1.44841000e-02f,-1.34330690e-02f,
-3.71319428e-02f,-8.31544399e-03f,-3.10002323e-02f,-9.33996588e-03f,-4.82223518e-02f,
+8.48639011e-03f,+5.41137531e-03f,+1.36653669e-02f,+1.46557726e-02f,-1.32012479e-02f,
-2.37420946e-03f,-7.21807405e-03f,-1.29109621e-03f,+2.24028341e-02f,+9.10148770e-03f,
+3.51039283e-02f,-2.70664822e-02f,-3.41203362e-02f,+3.32528390e-02f,-4.84389067e-02f,
-3.11885234e-02f,+2.61289589e-02f,+1.85374869e-03f,-1.70891285e+00f,+1.63325444e-02f,
-1.84627995e-02f,+1.55514814e-02f,+1.33963004e-01f,-2.10589413e-02f,-1.67585242e+00f,
+1.87470645e-01f,-1.62594223e+00f,-1.68519604e+00f,+1.77081957e-01f,+8.51296633e-02f,
-1.67907465e+00f,+2.06288576e-01f,+2.16737986e-01f,+1.90570801e-01f,-1.79388928e+00f,
+1.71438567e-02f,+4.48730849e-02f,+2.82055140e-02f,-1.82203841e+00f,-4.02403623e-02f,
-3.01453453e-02f,+2.58166716e-03f,+2.58744597e-01f,-1.14878900e-02f,-1.72740722e+00f,
+2.79177874e-01f,-1.69505119e+00f,-1.72879195e+00f,+2.17612892e-01f,+1.18225977e-01f,
-1.71311057e+00f,+2.06540689e-01f,+2.49462008e-01f,+2.45213062e-01f,-1.87896192e+00f,
-2.34004147e-02f,+4.88882512e-02f,+2.70126481e-02f,-1.20814154e-02f,-2.08792090e-02f,
+2.54772976e-03f,+4.00835015e-02f,-3.17018069e-02f,+2.27385275e-02f,+1.22278305e-02f,
-2.10751270e-04f,+4.00724299e-02f,+2.30765250e-02f,-1.48353614e-02f,-1.63261946e-02f,
+1.46617116e-02f,-2.56034173e-02f,+2.49392539e-02f,-3.16897035e-03f,+1.61239505e-02f,
+1.04465261e-02f,-3.28159728e-03f,-4.23448347e-02f,-1.80637133e+00f,+2.50281114e-02f,
-6.74267812e-03f,-1.86502226e-02f,+2.62166828e-01f,+2.75434889e-02f,-1.65399802e+00f,
+2.33268201e-01f,-1.68359518e+00f,-1.64684737e+00f,+2.35044211e-01f,+7.13517144e-02f,
-1.69641757e+00f,+2.09648103e-01f,+2.56279349e-01f,+1.63915351e-01f,-1.84390187e+00f,
-2.95113400e-03f,-3.46705765e-02f,-4.19534277e-03f,+1.50905892e-01f,-3.71985659e-02f,
+3.07992883e-02f,+1.02745509e-02f,+6.99018717e-01f,-4.28631194e-02f,+2.32169181e-01f,
+6.92995071e-01f,+2.77137578e-01f,+1.99384660e-01f,+6.89044535e-01f,+5.40470421e-01f,
+1.99501276e-01f,+6.88082159e-01f,+7.32850552e-01f,+6.59986615e-01f,+8.58337730e-02f,
-4.33866866e-02f,-1.39025785e-02f,+1.45916250e-02f,-1.78066075e+00f,-8.97717662e-03f,
-2.07919981e-02f,-2.01620217e-02f,+1.95970282e-01f,-3.65518034e-04f,-1.69636881e+00f,
+1.47326082e-01f,-1.62567663e+00f,-1.69551897e+00f,+1.68556765e-01f,+9.38480124e-02f,
-1.74480557e+00f,+1.79734454e-01f,+2.11729780e-01f,+2.06695274e-01f,-1.84950304e+00f,
+2.25453265e-02f,+3.79010104e-02f,+3.11848037e-02f,-6.80219382e-04f,-1.25147030e-03f,
-3.97402048e-02f,+1.97442621e-03f,+3.16983722e-02f,+1.65413134e-02f,+1.58987902e-02f,
+1.43774189e-02f,+3.35722603e-02f,-3.68062146e-02f,+8.83251429e-03f,-3.93639207e-02f,
-2.28865389e-02f,+3.39365117e-02f,+1.59715526e-02f,-3.00206076e-02f,-4.29393165e-02f,
-2.19799038e-02f,+4.87422720e-02f,-4.64099124e-02f,-1.20109642e+00f,-3.41174826e-02f,
-4.38901000e-02f,-2.78907754e-02f,-2.32052875e+00f,-1.15191936e-03f,-1.39177048e+00f,
-2.35061336e+00f,-1.52911818e+00f,-1.37747669e+00f,-2.29984999e+00f,-2.08195138e+00f,
-1.46079910e+00f,-2.30004621e+00f,-2.38544083e+00f,-2.28504944e+00f,-9.97773051e-01f,
+4.77905758e-02f,+8.89662653e-03f,-2.12885141e-02f,+4.85255755e-02f,+1.38033666e-02f,
+1.45705082e-02f,-3.31005007e-02f,-4.37716618e-02f,-6.69788197e-03f,+2.33426206e-02f,
+4.30696718e-02f,-2.47930773e-02f,-3.70778330e-02f,+3.34204920e-02f,+1.68596394e-02f,
+4.33807634e-02f,+3.40551250e-02f,+2.93254852e-05f,-1.57622583e-02f,-1.38776079e-02f,
-3.29856947e-03f,+3.76692899e-02f,+6.95357472e-03f,+4.36033122e-02f,+2.60730833e-03f,
-1.11356154e-02f,-4.55741175e-02f,+4.78858985e-02f,+2.84745730e-02f,-4.88408320e-02f,
+1.03843808e-02f,-3.60513106e-02f,+2.66955979e-02f,-1.67055838e-02f,+5.95875829e-03f,
+4.56081070e-02f,+2.89290026e-03f,-2.24411022e-02f,+5.88345528e-03f,-4.68398258e-03f,
+4.52823564e-03f,+5.27029205e-03f,-4.27005515e-02f,-1.43551517e+00f,+2.94379815e-02f,
-1.19849360e-02f,-3.80096585e-02f,+2.38737427e-02f,-2.58473158e-02f,-1.34997237e+00f,
-4.75375615e-02f,-1.32616627e+00f,-1.30168653e+00f,+2.64608976e-03f,-1.33515120e-01f,
-1.29864514e+00f,+2.99888873e-03f,+6.32801130e-02f,-2.78377291e-02f,-1.44452238e+00f,
-2.79766805e-02f,-3.99178192e-02f,+2.07176860e-02f,-1.02195442e+00f,+1.81563236e-02f,
+4.90482477e-03f,+6.25916198e-03f,-2.45556045e+00f,-4.73855734e-02f,-1.18884635e+00f,
-2.40324521e+00f,-1.24183536e+00f,-1.19326925e+00f,-2.39300585e+00f,-2.06933713e+00f,
-1.17460263e+00f,-2.41100740e+00f,-2.52793384e+00f,-2.45048141e+00f,-7.80343711e-01f,
-6.36057928e-03f,-1.69962738e-03f,-1.92146935e-02f,+4.65663671e-02f,+3.15274075e-02f,
-1.39461979e-02f,-3.85957956e-02f,-4.47505666e-03f,-5.84359095e-03f,+4.72263843e-02f,
-4.82933223e-02f,+3.71010266e-02f,-4.14989814e-02f,-4.33331467e-02f,+3.70060541e-02f,
+4.79917116e-02f,-5.80630777e-03f,-5.25779137e-03f,+1.38249993e-02f,-3.44451889e-02f,
+4.77856398e-03f,+3.78894247e-02f,+4.91925217e-02f,-9.84064490e-03f,+3.89867090e-02f,
+2.43272446e-02f,+3.55928428e-02f,-6.46327808e-03f,-3.74724045e-02f,-3.53624821e-02f,
+9.30153206e-03f,-4.03251424e-02f,+9.01271030e-03f,-4.11537066e-02f,+8.52826983e-03f,
+3.10463645e-02f,+1.21478662e-02f,-9.13463905e-03f,-2.17399746e-03f,+4.23453338e-02f,
-3.90083566e-02f,-1.28058866e-02f,+2.20993403e-02f,-1.33077943e+00f,+3.63834500e-02f,
+1.59672890e-02f,-1.34162363e-02f,-2.67852899e-02f,+2.60900706e-04f,-1.29918003e+00f,
+1.36059942e-02f,-1.22799945e+00f,-1.27022469e+00f,-2.94873696e-02f,-1.50909230e-01f,
-1.22966385e+00f,+1.17265377e-02f,+5.25716394e-02f,+1.54364097e-03f,-1.41958690e+00f,
}; 
k2c_tensor dense_38_kernel = {&dense_38_kernel_array[0],2,400,{20,20, 1, 1, 1}}; 
float dense_38_bias_array[20] = {
+0.00000000e+00f,-6.53315044e-04f,-5.55741834e-04f,+2.82288045e-01f,-3.50700365e-03f,
-5.33072045e-03f,-3.15540284e-03f,+9.40513462e-02f,+0.00000000e+00f,+2.54069775e-01f,
+9.42416862e-02f,+2.39892766e-01f,+2.57153243e-01f,+9.24473032e-02f,+9.26546752e-02f,
+2.58160979e-01f,+9.30412114e-02f,+9.45366472e-02f,+9.76878628e-02f,+3.03384781e-01f,
}; 
k2c_tensor dense_38_bias = {&dense_38_bias_array[0],1,20,{20, 1, 1, 1, 1}}; 
float dense_38_fwork[420] = {0}; 

 
float dense_39_kernel_array[20] = {
+3.53646994e-01f,-5.27336359e-01f,-3.93860877e-01f,-2.06757092e+00f,-1.82237491e-01f,
-8.14546540e-04f,+2.21364990e-01f,+1.63267589e+00f,+4.15266454e-01f,-2.09412670e+00f,
+1.41152358e+00f,-1.69162011e+00f,-2.18112612e+00f,+1.82803500e+00f,+1.44991970e+00f,
-1.68953037e+00f,+1.72512317e+00f,+1.43885565e+00f,+1.84388852e+00f,-2.08192921e+00f,
}; 
k2c_tensor dense_39_kernel = {&dense_39_kernel_array[0],2,20,{20, 1, 1, 1, 1}}; 
float dense_39_bias_array[1] = {
+2.98788981e-03f,}; 
k2c_tensor dense_39_bias = {&dense_39_bias_array[0],1,1,{1,1,1,1,1}}; 
float dense_39_fwork[40] = {0}; 

 
k2c_dense(&dense_36_output,dense_36_input_input,&dense_36_kernel, 
	&dense_36_bias,k2c_relu,dense_36_fwork); 
k2c_dense(&dense_37_output,&dense_36_output,&dense_37_kernel, 
	&dense_37_bias,k2c_relu,dense_37_fwork); 
k2c_dense(&dense_38_output,&dense_37_output,&dense_38_kernel, 
	&dense_38_bias,k2c_relu,dense_38_fwork); 
k2c_dense(dense_39_output,&dense_38_output,&dense_39_kernel, 
	&dense_39_bias,k2c_sigmoid,dense_39_fwork); 

 } 


void MLP_ACK_RTTModel::keras2c_model_Round_COMPLEXITY(const k2c_tensor* input_layer_5_input, k2c_tensor* keras_tensor_56_output) { 

cout << "MLP_ACK_RTT_Model_Round_COMPLEXITY\n";

float dense_20_output_array[20] = {0}; 
k2c_tensor dense_20_output = {&dense_20_output_array[0],1,20,{20, 1, 1, 1, 1}}; 
float dense_20_kernel_array[40] = {
-3.72674376e-01f,+4.28670794e-01f,-8.15246880e-01f,+3.89185429e-01f,-2.48574287e-01f,
-3.24418247e-02f,+3.87535006e-01f,-2.44403561e-03f,-2.68281907e-01f,+2.49674678e-01f,
+1.86224818e-01f,+2.25256473e-01f,-2.12872624e-01f,-3.61624271e-01f,+2.36495823e-01f,
+4.12842453e-01f,+5.79520822e-01f,+4.13550526e-01f,+2.17898443e-01f,-1.42820969e-01f,
+6.03131294e-01f,-1.60227790e-01f,+1.35098413e-01f,+4.71869171e-01f,+6.60719812e-01f,
-2.82010615e-01f,+4.88112986e-01f,+2.28660643e-01f,-2.50347108e-01f,-4.83959913e-02f,
+5.82554400e-01f,-2.31344745e-01f,+2.39914015e-01f,+4.52571929e-01f,-2.10658848e-01f,
-5.08509800e-02f,-1.81909371e-02f,-8.19364786e-02f,-3.71162593e-01f,+5.24699688e-01f,
}; 
k2c_tensor dense_20_kernel = {&dense_20_kernel_array[0],2,40,{ 2,20, 1, 1, 1}}; 
float dense_20_bias_array[20] = {
-4.56760973e-02f,-6.19047172e-02f,+3.08859944e-01f,-2.15828568e-01f,-3.22744131e-01f,
+0.00000000e+00f,-1.56444043e-01f,+3.23634386e-01f,+0.00000000e+00f,+2.95776725e-01f,
-2.60917485e-01f,+1.88226894e-01f,+4.04247999e-01f,-1.53541297e-01f,+1.39407739e-01f,
-1.40421614e-01f,-1.90489709e-01f,-9.76433456e-02f,-1.25015834e-02f,-2.78731495e-01f,
}; 
k2c_tensor dense_20_bias = {&dense_20_bias_array[0],1,20,{20, 1, 1, 1, 1}}; 
float dense_20_fwork[42] = {0}; 

 
float dense_21_output_array[20] = {0}; 
k2c_tensor dense_21_output = {&dense_21_output_array[0],1,20,{20, 1, 1, 1, 1}}; 
float dense_21_kernel_array[400] = {
+3.51753324e-01f,+8.43174011e-03f,+1.47281975e-01f,-1.10311925e-01f,-1.07233025e-01f,
+1.62028834e-01f,-2.84298956e-01f,-6.61953911e-02f,+1.12206988e-01f,-1.86390087e-01f,
+9.97713953e-02f,+3.80302787e-01f,-2.05153421e-01f,+8.81861746e-02f,-5.80853447e-02f,
-9.13182274e-02f,+2.67024159e-01f,+4.65305924e-01f,-1.65221035e-01f,+1.43679857e-01f,
-1.41912904e-02f,+2.16062099e-01f,+5.04620448e-02f,+4.09137011e-02f,-3.93646693e+00f,
-1.86327890e-01f,+3.04208040e-01f,-4.91979390e-01f,+1.06703669e-01f,-1.02985404e-01f,
+3.08723867e-01f,+2.50963748e-01f,+2.83058643e-01f,-3.23776603e-01f,-4.12336402e-02f,
-3.74146312e-01f,-1.82612434e-01f,+1.13469191e-01f,+3.11828196e-01f,-9.01428461e-02f,
-3.02505612e-01f,+6.32141292e-01f,+1.56154200e-01f,+3.82400692e-01f,+1.82741269e-01f,
-3.23316157e-01f,+7.94798255e-01f,+5.76573253e-01f,+8.64811003e-01f,+3.00591230e-01f,
+4.15816456e-01f,+6.68328583e-01f,+1.50781870e-01f,-2.40052998e-01f,+3.84748787e-01f,
+9.60263491e-01f,-3.76866043e-01f,-2.89719671e-01f,+4.85076278e-01f,-3.69842649e-01f,
+1.46926075e-01f,+2.93756008e-01f,+1.77062556e-01f,-2.33248800e-01f,-7.10115373e-01f,
-6.86325133e-02f,+2.61518359e-01f,-1.56527832e-02f,+2.96030372e-01f,+1.48630023e-01f,
-1.48053080e-01f,+1.99484810e-01f,-2.34680250e-01f,-3.77774209e-01f,-5.16893156e-03f,
-4.13976014e-01f,-3.21183622e-01f,+3.70729923e-01f,-2.82905757e-01f,-9.80378389e-02f,
-7.72320032e-01f,+6.44584119e-01f,-5.54386675e-01f,-2.07816675e-01f,-4.01505947e-01f,
-8.77559721e-01f,+7.50139892e-01f,-2.74195820e-01f,+4.70384300e-01f,-5.66725969e-01f,
+1.09445024e+00f,-4.56932813e-01f,-6.26421273e-02f,-1.42579973e-02f,+4.95665044e-01f,
-5.19761801e-01f,-1.99276224e-01f,-7.41037428e-01f,+3.39882344e-01f,+3.71427715e-01f,
-2.04725713e-01f,+1.02980375e-01f,-3.63205671e-01f,+2.94186532e-01f,+3.82621109e-01f,
+1.08105659e-01f,+2.64198959e-01f,-2.82638431e-01f,-3.31281275e-01f,+3.56844246e-01f,
-2.78477341e-01f,+1.08997852e-01f,-1.81171209e-01f,+3.27426016e-01f,+2.93340981e-01f,
+2.30609477e-02f,+6.42574131e-02f,-4.23367620e-02f,-3.89336944e-02f,+1.51747704e-01f,
+8.62023458e-02f,+4.04348135e-01f,+5.52040398e-01f,+6.36694729e-02f,-1.22172907e-01f,
+3.34664851e-01f,+3.67955595e-01f,-5.84989071e-01f,+2.21392348e-01f,+3.91938180e-01f,
+3.03037744e-02f,+4.82993841e-01f,-8.94028246e-02f,+8.50932598e-02f,-9.86569300e-02f,
-5.35423905e-02f,+2.10156977e-01f,+2.07706522e-02f,-3.81930709e-01f,+1.65384531e-01f,
+5.94586097e-02f,-3.04908156e-01f,-1.43335424e-02f,-1.67082474e-01f,+2.79982209e-01f,
+3.08082104e-01f,+1.21935206e-02f,+5.29049933e-02f,-1.46897644e-01f,+4.74524975e-01f,
+9.92231667e-02f,+6.19263470e-01f,-7.99723268e-02f,-1.48582965e-01f,-1.76084623e-01f,
-2.18808223e-02f,-1.17259800e-01f,-1.36985019e-01f,+2.71093488e-01f,-2.73529440e-01f,
+8.85201693e-02f,-8.88119638e-02f,+6.34998083e-03f,+1.88545048e-01f,+6.14668429e-02f,
+8.76415670e-02f,+7.38651156e-02f,-1.29081517e-01f,+3.29047143e-01f,-1.31114125e-02f,
+2.43304074e-01f,+3.63514841e-01f,-2.55514801e-01f,+1.83892429e-01f,+2.49631584e-01f,
-3.75179023e-01f,+3.66424322e-01f,+8.39585066e-03f,-6.38889670e-02f,-3.39258194e-01f,
-5.11804633e-02f,+2.97241330e-01f,+3.95343184e-01f,-8.32780600e-02f,+3.53664160e-01f,
-1.30210891e-01f,-1.76424786e-01f,+5.50240755e-01f,+4.23254997e-01f,+2.30307057e-01f,
+3.99778992e-01f,-2.32916877e-01f,-3.82827938e-01f,-2.65898705e-02f,+2.03670949e-01f,
+2.75145233e-01f,-1.35444969e-01f,+1.77691773e-01f,+1.69035003e-01f,-3.49968970e-01f,
+4.26992811e-02f,+7.42306039e-02f,-1.50594845e-01f,+1.75222278e-01f,-6.35544419e-01f,
+2.29075417e-01f,-1.75996616e-01f,-4.49714184e-01f,+1.59212183e-02f,+3.80270422e-01f,
-1.91379353e-01f,+3.26322615e-01f,-3.86438757e-01f,-2.94774085e-01f,+1.18827693e-01f,
-5.57095766e-01f,-9.24611986e-02f,+4.23831046e-01f,+2.50144988e-01f,-2.86220998e-01f,
-8.68937746e-02f,+2.64609396e-01f,+1.74659252e-01f,+1.48296356e-03f,+3.06316108e-01f,
+1.76431298e-01f,+9.04431641e-02f,+1.17047355e-01f,+7.41218477e-02f,-2.75795549e-01f,
+4.17845756e-01f,+4.66615297e-02f,+8.87607038e-02f,+2.85749316e-01f,+3.54570597e-01f,
+6.51754737e-01f,-1.93382308e-01f,+2.91184317e-02f,+4.70476955e-01f,+1.76331341e-01f,
+1.31921992e-01f,-2.32490122e-01f,+6.81616485e-01f,-1.42093286e-01f,+3.35161865e-01f,
+4.27300662e-01f,-7.77276680e-02f,+3.69522125e-01f,+3.84178340e-01f,+1.17059343e-01f,
-3.23410451e-01f,+1.50514185e-01f,+3.10644329e-01f,-3.12467009e-01f,+1.98972315e-01f,
-1.11947171e-01f,-3.60199213e-02f,-4.11161333e-02f,+1.96542978e-01f,+2.64485359e-01f,
+4.22288847e+00f,-3.44177032e+00f,+4.68619251e+00f,+3.79204810e-01f,-1.59978855e+00f,
+4.56417561e+00f,-3.82498336e+00f,-2.91519833e+00f,-4.26259565e+00f,+4.37838745e+00f,
-4.11729717e+00f,+4.03406811e+00f,+3.44242156e-01f,-2.31123164e-01f,-4.25803328e+00f,
-1.23008966e+00f,-2.66414434e-01f,+4.51061916e+00f,-4.08840609e+00f,+6.06794655e-02f,
-1.51587259e-02f,-3.38287920e-01f,-3.91329616e-01f,+1.39009178e-01f,+4.36707556e-01f,
-9.51263085e-02f,+1.94306538e-01f,+1.56888232e-01f,-1.76861137e-02f,-4.38362986e-01f,
+1.39566183e-01f,-3.77250314e-01f,+3.20221841e-01f,+3.69961262e-02f,-2.25838378e-01f,
+4.74433631e-01f,-2.32908353e-01f,-5.36263362e-02f,+3.52208883e-01f,+1.35345876e-01f,
+1.09411299e-01f,+7.20145926e-03f,-4.56775606e-01f,-3.31402063e-01f,-3.54412508e+00f,
-2.43221968e-01f,-3.76880318e-02f,+3.55657078e-02f,-1.33947924e-01f,-1.61161646e-01f,
+4.53004837e-01f,+1.17910333e-01f,+2.93975055e-01f,+4.33232188e-02f,+5.77283144e-01f,
-1.49329051e-01f,-9.09462869e-02f,+2.61927675e-02f,+6.04281127e-01f,-1.06346607e-03f,
-1.39861003e-01f,+2.63362706e-01f,+2.55578399e-01f,+2.05445230e-01f,-9.10924375e-01f,
-4.78352070e-01f,+5.94521016e-02f,-4.81774718e-01f,-1.23524092e-01f,-1.23143703e-01f,
+9.22801495e-02f,-1.32438630e-01f,+2.07254767e-01f,-2.30690643e-01f,+3.41321588e-01f,
-2.69628346e-01f,+8.07831585e-02f,-4.03788775e-01f,+2.08759774e-02f,+1.63722336e-01f,
-8.91784802e-02f,+1.22465447e-01f,-6.67917207e-02f,-3.50844055e-01f,-4.09184664e-01f,
+1.12787589e-01f,-5.64045049e-02f,-3.38603705e-01f,+4.91648674e-01f,-1.97643444e-01f,
+2.49539897e-01f,+1.00916564e-01f,-2.10762471e-01f,-3.06976706e-01f,+9.95199680e-02f,
-5.99691980e-02f,+1.94567144e-01f,-3.47553819e-01f,-2.49339461e-01f,+5.26334941e-02f,
+5.07454872e-02f,+5.47755957e-02f,+2.43596300e-01f,+1.10855341e-01f,+1.35768592e-01f,
+1.11556202e-02f,-6.43343180e-02f,-4.82970476e-02f,+1.87177896e-01f,-8.28372166e-02f,
-2.74470836e-01f,-3.81283134e-01f,+2.35465944e-01f,-3.57228935e-01f,-3.03768575e-01f,
+6.27859961e-03f,+2.61499286e-01f,-3.37163687e-01f,-2.32923239e-01f,+2.56539285e-02f,
-1.81598365e-01f,+7.90785253e-01f,-1.22998267e-01f,-2.28735551e-01f,-7.72499263e-01f,
-5.81705153e-01f,+3.04275870e-01f,-7.06478179e-01f,+5.57114303e-01f,-3.73470306e-01f,
+4.17992145e-01f,-6.59748852e-01f,-1.01233214e-01f,+3.68827760e-01f,+7.44415939e-01f,
-8.55432868e-01f,+6.26657605e-02f,-1.13758184e-01f,+3.85667890e-01f,+5.58644533e-04f,
}; 
k2c_tensor dense_21_kernel = {&dense_21_kernel_array[0],2,400,{20,20, 1, 1, 1}}; 
float dense_21_bias_array[20] = {
+2.59828568e-02f,-1.01951525e-01f,+1.13095269e-01f,+0.00000000e+00f,+3.42367142e-01f,
-5.16742393e-02f,+3.18931974e-02f,+2.97198623e-01f,+1.44950241e-01f,+4.65105474e-03f,
+3.35218683e-02f,+1.50707498e-01f,-8.10936041e-11f,+0.00000000e+00f,+1.82630159e-02f,
+3.35968912e-01f,+0.00000000e+00f,+3.51657197e-02f,+1.83036495e-02f,+0.00000000e+00f,
}; 
k2c_tensor dense_21_bias = {&dense_21_bias_array[0],1,20,{20, 1, 1, 1, 1}}; 
float dense_21_fwork[420] = {0}; 

 
float dense_22_output_array[20] = {0}; 
k2c_tensor dense_22_output = {&dense_22_output_array[0],1,20,{20, 1, 1, 1, 1}}; 
float dense_22_kernel_array[400] = {
+2.38414377e-01f,+2.75575072e-01f,+7.75886536e-01f,+8.35034370e-01f,+6.51861250e-01f,
-7.39611447e-01f,-5.88916719e-01f,+3.23283881e-01f,-4.45723414e-01f,-3.23502392e-01f,
-6.94447994e-01f,-2.66420782e-01f,+6.28070533e-02f,+6.42367840e-01f,+3.38848174e-01f,
-4.96026069e-01f,-4.66336012e-02f,-1.94878235e-01f,-1.16441399e-01f,-4.09165621e-01f,
-3.85271013e-01f,-5.42381763e-01f,-6.25262320e-01f,-1.97732627e-01f,-1.98639661e-01f,
+3.80601168e-01f,+6.83803439e-01f,-2.82199830e-01f,+4.25747931e-01f,+6.14135504e-01f,
+6.89062536e-01f,+2.45255217e-01f,+1.39651299e-01f,-6.31841183e-01f,-7.24096596e-02f,
+4.81349677e-01f,+2.37629265e-01f,+7.67320275e-01f,+3.10100794e-01f,+2.72691846e-01f,
+7.07258821e-01f,+6.77687287e-01f,+5.24002910e-01f,+5.48370481e-01f,+3.85708809e-01f,
+8.14227983e-02f,-9.36711580e-02f,+7.80498743e-01f,-9.38239098e-02f,-2.47721881e-01f,
-5.06647862e-02f,+4.07987200e-02f,-3.72183710e-01f,+5.92000663e-01f,+2.18255877e-01f,
+8.72714520e-02f,+2.37091646e-01f,-2.71391690e-01f,-1.23961389e-01f,-5.54260135e-01f,
+2.87123144e-01f,+3.08313012e-01f,-7.17723370e-03f,+2.92440057e-01f,-2.02911705e-01f,
-2.53459901e-01f,-6.14008307e-03f,-7.89934397e-03f,+1.83931112e-01f,+3.44210327e-01f,
-2.16201067e-01f,-3.10091108e-01f,+3.61928463e-01f,-2.63166130e-01f,+3.75772119e-01f,
+2.61959732e-02f,-1.42748252e-01f,+3.69470119e-02f,+8.01371634e-02f,+3.70789468e-02f,
-3.19264603e+00f,-3.28592229e+00f,-3.20494223e+00f,-3.36359334e+00f,-3.19409394e+00f,
+3.35995722e+00f,+3.14509082e+00f,-3.04225421e+00f,+3.18664908e+00f,+3.48198891e+00f,
+3.44664693e+00f,-1.65670022e-01f,-1.69719309e-01f,-3.33527374e+00f,+2.34151304e-01f,
+3.69126368e+00f,-2.67904937e-01f,+3.85790014e+00f,-1.05623305e-01f,+3.46984863e+00f,
+7.20191419e-01f,+5.57077169e-01f,+6.03026390e-01f,+4.78750557e-01f,+7.51907945e-01f,
-7.04423189e-01f,-6.16836190e-01f,+2.73657084e-01f,-2.31342927e-01f,-4.59091812e-01f,
-7.89093792e-01f,-1.65109396e-01f,+1.90403104e-01f,+5.85451186e-01f,-3.04880977e-01f,
-4.58526462e-01f,-3.00670058e-01f,-5.20510077e-01f,-3.09183508e-01f,-3.89972538e-01f,
-3.28716278e-01f,-6.12790763e-01f,-6.88743532e-01f,-1.98233634e-01f,-5.04761219e-01f,
+2.98660576e-01f,+5.33996105e-01f,-6.24184132e-01f,+6.53652012e-01f,+5.67805886e-01f,
+5.89076042e-01f,+5.58762848e-02f,+2.13297248e-01f,-6.06599867e-01f,+2.46165276e-01f,
+5.37141263e-01f,-2.21747383e-01f,+9.13803041e-01f,-2.09487364e-01f,+3.84820580e-01f,
-3.75471187e+00f,-3.63480306e+00f,-3.01288915e+00f,-3.77659202e+00f,-3.54211998e+00f,
+3.73958516e+00f,+3.28209972e+00f,-3.33532238e+00f,+3.47096992e+00f,+3.53483486e+00f,
+3.71628118e+00f,+1.77788541e-01f,-2.03541189e-01f,-3.07468891e+00f,-9.30824876e-03f,
+3.73159742e+00f,+2.02459097e-01f,+3.59959888e+00f,+3.02886844e-01f,+3.61702394e+00f,
-1.12603866e-01f,+1.45825639e-01f,+1.56029820e-01f,-1.22521132e-01f,+6.23825416e-02f,
+3.56555104e-01f,+4.24091816e-01f,-2.09032372e-01f,+4.68275808e-02f,+2.56808609e-01f,
+6.79832280e-01f,+1.03822395e-01f,+2.05032170e-01f,+1.20641463e-01f,-3.15814376e-01f,
+3.02284837e-01f,-1.55889302e-01f,+5.71080267e-01f,-3.12455297e-02f,+7.03494668e-01f,
+6.85125470e-01f,+1.96616977e-01f,+5.61217666e-01f,+6.42617226e-01f,+3.48498404e-01f,
-4.86188740e-01f,-2.97833532e-01f,+5.26969314e-01f,-2.98896551e-01f,-1.57124117e-01f,
+5.80764674e-02f,-1.44050688e-01f,-2.01302513e-01f,-1.22334257e-01f,-2.75455892e-01f,
-2.73030758e-01f,-1.27705811e-02f,-6.33955300e-02f,+1.35570467e-02f,-4.26260263e-01f,
-5.09696364e-01f,+1.94966517e-04f,-5.44368029e-02f,-4.09824075e-03f,-5.73684216e-01f,
+1.99572995e-01f,+3.34453225e-01f,-2.33564206e-04f,+4.05176073e-01f,+5.71533382e-01f,
+5.31980097e-01f,+1.17619988e-02f,+2.52141953e-01f,-8.57219025e-02f,+2.36225426e-01f,
+7.20867813e-01f,+7.79075995e-02f,+6.08070493e-01f,+1.81877494e-01f,+2.53225923e-01f,
+5.39500058e-01f,+3.49418670e-01f,+3.76254976e-01f,+4.26293522e-01f,+4.09391642e-01f,
+2.12815896e-01f,+2.85519868e-01f,+1.99617535e-01f,+8.62664729e-02f,+1.17838427e-01f,
-2.96224564e-01f,-2.74412721e-01f,-1.69501111e-01f,+5.95920682e-01f,-6.08367920e-02f,
-1.86131060e-01f,-1.07015155e-01f,-1.22893818e-01f,-3.05752575e-01f,+3.20849031e-01f,
+3.57685685e-02f,+2.29771435e-01f,-1.90662280e-01f,+1.26274884e-01f,+2.65130937e-01f,
+6.75976872e-02f,+6.99293315e-02f,+2.76232958e-01f,-1.22772604e-01f,-3.65773529e-01f,
+1.46664619e-01f,+1.18196845e-01f,-2.05773756e-01f,+2.09996402e-01f,-2.69818068e-01f,
+2.96270847e-03f,-2.00122237e-01f,-2.79968053e-01f,+2.00753629e-01f,-3.24967235e-01f,
-1.18189365e-01f,+3.23834300e-01f,-2.03874618e-01f,-3.24350476e-01f,-1.18823171e-01f,
-2.15932176e-01f,+3.61561775e-01f,-3.59191507e-01f,-1.73609182e-01f,+3.65142941e-01f,
+3.48786116e-01f,+2.32383847e-01f,+2.94049323e-01f,-2.92478502e-02f,-2.84290075e-01f,
+2.13582039e-01f,-2.99824566e-01f,-2.73436308e-02f,-3.12537998e-01f,+2.58854032e-03f,
-5.25979877e-01f,-5.83939075e-01f,-6.17585063e-01f,-3.83826911e-01f,-3.30393285e-01f,
+5.68443358e-01f,+2.32611164e-01f,-6.19562149e-01f,+4.57421243e-01f,+3.32117289e-01f,
+2.72364855e-01f,-1.21202819e-01f,+1.57838583e-01f,-2.75443375e-01f,-2.75490075e-01f,
+6.05968952e-01f,+1.07262865e-01f,+8.02775264e-01f,-1.73160970e-01f,+5.02073884e-01f,
-6.83486748e+00f,-6.96983194e+00f,-7.19437790e+00f,-6.89882088e+00f,-6.56649160e+00f,
+7.02237558e+00f,+7.19442654e+00f,-7.01509047e+00f,+7.37844038e+00f,+6.72128868e+00f,
+6.73320675e+00f,-4.18361872e-01f,-3.60020071e-01f,-7.19865370e+00f,-2.71134794e-01f,
+7.23948431e+00f,+2.85594732e-01f,+6.74707699e+00f,-7.71727860e-02f,+7.37974262e+00f,
+3.50566924e-01f,+2.07761347e-01f,-2.84550935e-01f,+2.07442343e-01f,-4.87825871e-02f,
+3.79006922e-01f,+5.54440022e-02f,+2.64369130e-01f,-1.17777824e-01f,-8.34098458e-02f,
-9.92981791e-02f,+7.47985542e-02f,+3.54058921e-01f,+1.05968297e-01f,-2.71028519e-01f,
-3.78731579e-01f,+7.25708008e-02f,+5.49972653e-02f,-2.90541172e-01f,+6.75737858e-04f,
+6.28882170e-01f,+6.94233537e-01f,+5.65123975e-01f,+2.02666923e-01f,+1.76871255e-01f,
-8.55051652e-02f,-4.45222229e-01f,+4.29891407e-01f,-5.48343584e-02f,-2.28260994e-01f,
-1.54728785e-01f,-1.10613875e-01f,-2.40305915e-01f,+8.79062936e-02f,+1.61167145e-01f,
-1.14639007e-01f,+1.72862664e-01f,-5.04252672e-01f,+2.15242863e-01f,-2.45392412e-01f,
-3.14834386e-01f,-3.49876970e-01f,-3.38138789e-01f,+1.58330306e-01f,-6.00581989e-02f,
+4.60389674e-01f,+2.97815591e-01f,-3.01123977e-01f,+4.51647818e-01f,+4.35041636e-01f,
+4.72268075e-01f,+1.13735534e-01f,-3.78679603e-01f,-1.93160474e-01f,-8.74555707e-02f,
+4.40754145e-01f,-1.61400869e-01f,+4.66633230e-01f,+1.56415105e-02f,+4.22592551e-01f,
+3.53749633e-01f,-1.60375789e-01f,-1.40466824e-01f,-2.91343689e-01f,-3.72572273e-01f,
-1.14631623e-01f,-2.20354378e-01f,+3.27859402e-01f,+2.43262410e-01f,+2.46932566e-01f,
-2.11024627e-01f,-2.53370613e-01f,-2.25973770e-01f,-8.06152821e-05f,-1.68586582e-01f,
-2.34258160e-01f,+1.19869411e-01f,-2.58782029e-01f,+3.25305641e-01f,-3.87129009e-01f,
}; 
k2c_tensor dense_22_kernel = {&dense_22_kernel_array[0],2,400,{20,20, 1, 1, 1}}; 
float dense_22_bias_array[20] = {
+8.73519331e-02f,+1.75147504e-01f,+5.96751645e-02f,+1.75403357e-02f,+1.91544890e-01f,
+4.12259065e-02f,+5.74821085e-02f,+2.59351283e-01f,+7.18262419e-02f,+4.43720333e-02f,
+7.94634670e-02f,-4.68073562e-02f,+0.00000000e+00f,+9.92082506e-02f,+0.00000000e+00f,
+4.91449796e-02f,-3.77541892e-02f,+8.12040195e-02f,+0.00000000e+00f,+9.64848548e-02f,
}; 
k2c_tensor dense_22_bias = {&dense_22_bias_array[0],1,20,{20, 1, 1, 1, 1}}; 
float dense_22_fwork[420] = {0}; 

 
float dense_23_output_array[1] = {0}; 
k2c_tensor dense_23_output = {&dense_23_output_array[0],1,1,{1,1,1,1,1}}; 
float dense_23_kernel_array[20] = {
+7.51213074e-01f,+1.39825809e+00f,+1.08959794e+00f,+7.20035553e-01f,+1.33240652e+00f,
-1.30957532e+00f,-1.27709997e+00f,+1.33246839e+00f,-1.21953452e+00f,-1.31237566e+00f,
-1.17203581e+00f,+2.81661719e-01f,-4.39247757e-01f,+1.26247013e+00f,-4.93441522e-01f,
-1.25563121e+00f,+2.15377226e-01f,-9.77809489e-01f,+3.76069069e-01f,-1.17162192e+00f,
}; 
k2c_tensor dense_23_kernel = {&dense_23_kernel_array[0],2,20,{20, 1, 1, 1, 1}}; 
float dense_23_bias_array[1] = {
+4.89019081e-02f,}; 
k2c_tensor dense_23_bias = {&dense_23_bias_array[0],1,1,{1,1,1,1,1}}; 
float dense_23_fwork[40] = {0}; 

 
k2c_dense(&dense_20_output,input_layer_5_input,&dense_20_kernel, 
	&dense_20_bias,k2c_relu,dense_20_fwork); 
k2c_dense(&dense_21_output,&dense_20_output,&dense_21_kernel, 
	&dense_21_bias,k2c_relu,dense_21_fwork); 
k2c_dense(&dense_22_output,&dense_21_output,&dense_22_kernel, 
	&dense_22_bias,k2c_relu,dense_22_fwork); 
k2c_dense(keras_tensor_56_output,&dense_22_output,&dense_23_kernel, 
	&dense_23_bias,k2c_sigmoid,dense_23_fwork); 

 } 




void MLP_ACK_RTTModel::keras2c_model_initialize() { 
    
    cout << "Iniciando Modelo MLP_ACK_RTT" << endl;

} 




void MLP_ACK_RTTModel::keras2c_model_terminate() { 
    
    cout << "Terminando Modelo MLP_ACK_RTT" << endl;

} 

