#include <math.h> 
#include <string.h> 
#include <iostream>
#include "./keras2c/Model/include/k2c_include.h" 
#include "./keras2c/Model/include/k2c_tensor_include.h" 
#include "./keras2c/CNN_3000_epocas_SND_RTT/keras2c_model_CNN_SND_RTT.h"


 

 using namespace std;



void CNN_SND_RTTModel::keras2c_model_Round0000002_100Mbps(const k2c_tensor* conv2d_8_input_input, k2c_tensor* dense_69_output) { 

cout << "CNN_SND_RTTModel Round0000002_100Mbps\n";

size_t conv2d_8_stride[2] = {1,1}; 
size_t conv2d_8_dilation[2] = {1,1}; 
float conv2d_8_output_array[96] = {0}; 
k2c_tensor conv2d_8_output = {&conv2d_8_output_array[0],3,96,{ 3, 2,16, 1, 1}}; 
float conv2d_8_kernel_array[16] = {
+5.96569538e-01f,-3.19310933e-01f,+8.58873665e-01f,+3.47910672e-02f,+4.56045032e-01f,
+1.96058047e+00f,-2.47606784e-01f,+3.58271778e-01f,-1.10329717e-01f,+4.11790133e-01f,
-5.51707625e-01f,+4.58574414e-01f,+3.90417129e-01f,+6.83533490e-01f,+2.96697021e-01f,
-3.48641247e-01f,}; 
k2c_tensor conv2d_8_kernel = {&conv2d_8_kernel_array[0],4,16,{ 1, 1, 1,16, 1}}; 
float conv2d_8_bias_array[16] = {
-2.91642308e-01f,+0.00000000e+00f,+4.34846163e-01f,+3.08413893e-01f,-1.93135843e-01f,
+1.95164636e-01f,+0.00000000e+00f,-1.09124042e-01f,+0.00000000e+00f,-1.68103069e-01f,
+0.00000000e+00f,-2.01216355e-01f,-1.43580809e-01f,-2.59827822e-01f,+3.12862009e-01f,
+0.00000000e+00f,}; 
k2c_tensor conv2d_8_bias = {&conv2d_8_bias_array[0],1,16,{16, 1, 1, 1, 1}}; 

 
size_t max_pooling2d_8_stride[2] = {1,2}; 
size_t max_pooling2d_8_pool_size[2] = {1,2}; 
float max_pooling2d_8_output_array[48] = {0}; 
k2c_tensor max_pooling2d_8_output = {&max_pooling2d_8_output_array[0],3,48,{ 3, 1,16, 1, 1}}; 
float max_pooling2d_8_padded_input_array[96] = {0}; 
k2c_tensor max_pooling2d_8_padded_input = {&max_pooling2d_8_padded_input_array[0],3,96,{ 3, 2,16, 1, 1}}; 
size_t max_pooling2d_8_pad[4] = {0,0,0,0}; 
float max_pooling2d_8_fill = -HUGE_VALF; 


float flatten_8_output_array[48] = {0}; 
k2c_tensor flatten_8_output = {&flatten_8_output_array[0],1,48,{48, 1, 1, 1, 1}}; 
float dense_68_output_array[64] = {0}; 
k2c_tensor dense_68_output = {&dense_68_output_array[0],1,64,{64, 1, 1, 1, 1}}; 
float dense_68_kernel_array[3072] = {
-1.71601892e-01f,-1.11803822e-01f,+3.61289680e-01f,+3.71676266e-01f,-8.96421894e-02f,
+1.13013342e-01f,+2.03351617e-01f,+3.48728001e-01f,-2.94826269e-01f,-1.11170821e-01f,
-9.03289840e-02f,+3.67904991e-01f,-2.90797442e-01f,-1.34451285e-01f,+4.43806171e-01f,
+7.11333752e-03f,+3.79970372e-01f,-4.59680408e-02f,+7.06600249e-02f,+1.95515946e-01f,
+3.73616666e-01f,+4.84440356e-01f,-2.33541310e-01f,-8.88714045e-02f,-6.55157790e-02f,
+2.57805288e-02f,-1.59565926e-01f,-1.18277036e-01f,-4.17159438e-01f,+5.37652373e-01f,
+4.91556048e-01f,-5.11387825e-01f,-2.23997295e-01f,-4.88816142e-01f,+9.89597812e-02f,
+4.56812292e-01f,-2.54999876e-01f,+1.35154098e-01f,-1.33753836e-01f,+2.61628032e-01f,
-4.45511431e-01f,+5.04623234e-01f,-1.98857218e-01f,-4.70641971e-01f,+4.67267722e-01f,
-1.19600944e-01f,+4.85336632e-02f,+2.69391775e-01f,+5.69688454e-02f,-2.99067199e-01f,
+4.82515454e-01f,-4.13104296e-01f,+1.96049139e-01f,+1.08813196e-01f,+3.06673110e-01f,
+1.87762737e-01f,-4.63993341e-01f,+4.46554810e-01f,-6.92272931e-02f,-3.18764538e-01f,
+4.88075048e-01f,-2.52545178e-01f,-4.79549915e-01f,+4.04096916e-02f,-7.86812603e-03f,
+1.51993006e-01f,-5.60754836e-02f,-2.06456274e-01f,-1.57538593e-01f,-1.93853155e-01f,
+6.07376993e-02f,-5.05478531e-02f,-2.19520286e-01f,-1.86947480e-01f,-2.19632193e-01f,
-1.50967598e-01f,+1.21902734e-01f,-1.49050921e-01f,+1.01140827e-01f,-3.33138704e-02f,
+1.47771776e-01f,+8.32135379e-02f,+1.24613494e-01f,+1.47599876e-01f,-4.70197648e-02f,
-1.76412851e-01f,-5.52095622e-02f,-1.01306990e-01f,-3.58969867e-02f,+6.89120889e-02f,
-1.98824883e-01f,-2.22852468e-01f,+3.02466154e-02f,+2.68411636e-03f,-2.02209383e-01f,
+2.08878279e-01f,-1.98197067e-02f,+1.61806494e-02f,-2.16964692e-01f,+4.47134376e-02f,
+3.08538675e-02f,+1.16086602e-01f,-2.13456213e-01f,-1.12703308e-01f,+1.82487398e-01f,
+8.09713900e-02f,+2.82736123e-02f,+1.28071725e-01f,-4.52149510e-02f,+7.62719214e-02f,
-2.05463752e-01f,-1.75018802e-01f,-2.16473013e-01f,-1.84845492e-01f,+2.30617851e-01f,
+1.33739710e-02f,-1.71389356e-01f,-1.16746910e-01f,+1.81428671e-01f,-8.20107609e-02f,
-1.57670140e-01f,+7.51585066e-02f,-4.55074757e-02f,-1.02475435e-01f,+6.89177215e-03f,
+9.71747935e-03f,-8.29150379e-02f,+1.94324523e-01f,-7.28968978e-02f,+3.86721492e-02f,
-1.52952224e-01f,+1.31876275e-01f,-4.25299630e-02f,-1.13428861e-01f,-1.19858310e-01f,
-8.55432898e-02f,+9.09898356e-02f,-1.30125687e-01f,+2.50461191e-01f,+3.08784377e-02f,
+1.26593530e-01f,-1.97461158e-01f,-1.85423195e-02f,-1.08650103e-01f,-1.89431712e-01f,
-5.19273579e-02f,-1.31096691e-01f,+4.64369416e-01f,+5.45372665e-01f,+1.88270018e-01f,
+1.79503232e-01f,-1.91806689e-01f,+2.21377134e-01f,-1.36218458e-01f,+2.49729097e-01f,
+2.25954622e-01f,+1.00435503e-01f,-3.03758401e-02f,+1.91373140e-01f,+2.54369676e-01f,
-9.84486639e-02f,-1.23201229e-01f,-2.27186959e-02f,-1.68763086e-01f,+1.24862723e-01f,
-1.02870002e-01f,-2.06480063e-02f,+1.08476818e-01f,-2.26903092e-02f,+2.40169093e-01f,
-6.75113499e-02f,+2.32614100e-01f,-2.53534671e-02f,-1.05459407e-01f,-5.55148013e-02f,
-7.37672150e-02f,-1.28933549e-01f,+7.40651861e-02f,+6.06785202e-03f,+7.36687984e-03f,
-6.98922276e-02f,-1.18931420e-01f,+1.66728795e-01f,+2.60171536e-02f,+1.38917118e-01f,
+2.25298986e-01f,-1.38123825e-01f,-7.96948448e-02f,+2.03542575e-01f,-1.49490967e-01f,
+1.06212452e-01f,-1.67447165e-01f,+5.12429886e-02f,-2.25448892e-01f,-3.61601889e-01f,
-3.27576131e-01f,-5.29953763e-02f,-3.52903008e-02f,-1.99137166e-01f,-6.82603121e-02f,
+3.87244821e-01f,+1.48489058e-01f,+3.88165832e-01f,-3.39540094e-01f,+2.02452783e-02f,
-1.86932832e-01f,-9.22122672e-02f,+1.62433684e-01f,-2.99279075e-02f,-1.49114290e-02f,
+1.30192399e-01f,+3.59540194e-01f,+5.11776745e-01f,-3.51088233e-02f,+9.57498550e-02f,
+3.87237966e-02f,+3.11585188e-01f,+1.32190913e-01f,+2.87606984e-01f,+1.10912189e-01f,
+4.28249657e-01f,-3.63036036e-01f,-3.41320336e-01f,+2.68650562e-01f,-3.55491638e-02f,
+4.24746096e-01f,-2.10881084e-01f,-1.59851655e-01f,+4.28523600e-01f,+1.32116318e-01f,
+3.87728542e-01f,-1.16888203e-01f,+3.47037166e-01f,-3.01690072e-01f,+1.95826188e-01f,
+3.41222078e-01f,-2.64211893e-01f,-1.04974218e-01f,-1.49036646e-01f,-1.45453423e-01f,
-2.37872601e-01f,+4.43189383e-01f,-9.53731909e-02f,+4.25334305e-01f,-1.09190494e-01f,
+1.09230712e-01f,-2.24041820e-01f,-8.28712359e-02f,+5.79644702e-02f,-2.70485997e-01f,
-3.92512381e-02f,+1.96512967e-01f,-1.18713900e-01f,+8.66871700e-02f,+1.88218668e-01f,
+5.86910285e-02f,-1.51004478e-01f,+9.00163949e-02f,+4.25191969e-01f,+1.69814914e-01f,
+1.97282568e-01f,+2.63339490e-01f,+1.39056861e-01f,+4.73321289e-01f,-3.75574172e-01f,
+2.16108590e-01f,-3.61485511e-01f,+5.78490198e-01f,-5.65106690e-01f,-1.02463156e-01f,
+4.87255454e-01f,+1.82966292e-01f,+1.69274732e-01f,-1.73829257e-01f,-9.12557542e-02f,
+1.13291554e-01f,+3.97030026e-01f,+1.56214237e-01f,-1.43846437e-01f,+2.06707180e-01f,
-1.56609684e-01f,-2.01019630e-01f,-5.21643877e-01f,-9.39465910e-02f,-5.49073935e-01f,
+5.42520404e-01f,+5.34212887e-01f,-5.84636092e-01f,+1.91653609e-01f,-4.43279952e-01f,
+9.70114172e-02f,+3.83683652e-01f,-2.83169955e-01f,-5.43588549e-02f,-3.87303770e-01f,
+4.63431925e-01f,-2.31655285e-01f,+5.92015922e-01f,-4.52471018e-01f,-5.74099422e-01f,
+5.68088174e-01f,+1.31100595e-01f,+3.52443129e-01f,+5.36088705e-01f,+3.94792497e-01f,
-2.16253519e-01f,+4.21993881e-01f,-2.67472893e-01f,+9.25984606e-02f,+8.07591975e-02f,
+3.34668607e-01f,-3.94033603e-02f,-2.02535048e-01f,+5.53833127e-01f,-1.57012820e-01f,
-3.46377850e-01f,+5.42559028e-01f,-4.65273112e-01f,-1.28291398e-01f,-1.30792623e-02f,
+3.37707661e-02f,-4.02885824e-02f,+3.10719937e-01f,+2.94626355e-01f,-1.18846200e-01f,
-6.88006133e-02f,-1.52659684e-01f,+2.96224058e-01f,-5.10968119e-02f,-1.92129508e-01f,
+1.06201842e-01f,+9.12915356e-03f,+1.05008990e-01f,-8.03711042e-02f,+3.04930478e-01f,
+6.39789402e-02f,+2.00866804e-01f,+9.97914970e-02f,-7.80109167e-02f,+4.03790146e-01f,
+3.71145725e-01f,+1.43900171e-01f,+2.08099023e-01f,-1.78083837e-01f,-1.25968680e-01f,
-1.65045992e-01f,-6.61457703e-02f,-2.00340077e-01f,-1.62505791e-01f,-1.31661788e-01f,
+1.59190148e-02f,+1.18462361e-01f,-1.44659430e-02f,+1.73578918e-01f,-7.45148361e-02f,
-1.26831420e-02f,+8.03943723e-02f,-6.53233081e-02f,+6.78745061e-02f,+1.80292964e-01f,
+1.70443520e-01f,+4.41176184e-02f,+4.72325683e-02f,+2.11415082e-01f,+2.62129366e-01f,
-3.14310938e-02f,+1.84590772e-01f,-5.75773083e-02f,-1.30689010e-01f,+1.44752339e-01f,
+2.34681129e-01f,-1.15285199e-02f,-1.07065029e-01f,-2.38251358e-01f,-7.70406723e-02f,
+1.05145080e-02f,+4.48731519e-02f,-5.73995374e-02f,+9.94036198e-02f,+1.37472972e-01f,
+1.57447517e-01f,-1.65706724e-01f,-3.02440841e-02f,+1.07398100e-01f,-2.38625854e-02f,
+2.28079349e-01f,+7.86097050e-02f,+2.11902589e-01f,-1.66578978e-01f,-1.63524359e-01f,
-2.15006411e-01f,-9.80624408e-02f,-2.11843640e-01f,-1.47649795e-02f,-7.02718049e-02f,
+1.87699676e-01f,-1.21709041e-01f,-1.36240989e-01f,-6.55874610e-03f,+1.17294371e-01f,
+6.11372888e-02f,+7.69269466e-02f,+6.58182502e-02f,+1.58495426e-01f,-5.29114008e-02f,
+9.98244286e-02f,+1.17516965e-02f,+7.65433311e-02f,+1.74090743e-01f,-1.48077220e-01f,
-2.17600301e-01f,-1.24900118e-01f,+1.30304545e-02f,-4.46130633e-02f,-2.69898176e-02f,
+1.70728803e-01f,+1.13731146e-01f,+1.99992508e-01f,-1.94374353e-01f,-1.71935275e-01f,
-1.58627033e-01f,-1.22513667e-01f,-1.88368946e-01f,-1.91218764e-01f,+1.12485170e-01f,
-8.78626555e-02f,-1.28321320e-01f,+4.78598475e-03f,-2.23955795e-01f,+1.85923010e-01f,
+1.70182049e-01f,+8.44367743e-02f,-3.68463993e-03f,+1.67465776e-01f,+2.18026817e-01f,
+6.53320849e-02f,+1.22622609e-01f,+8.78689587e-02f,-7.70285726e-03f,-3.84732187e-02f,
+2.02365488e-01f,-1.61241665e-01f,-1.20287962e-01f,-5.69978207e-02f,-8.14131200e-02f,
+1.23408347e-01f,-8.54160041e-02f,+1.89069331e-01f,+9.14543644e-02f,+3.63576114e-02f,
+7.20033050e-01f,+5.41688085e-01f,-2.11519778e-01f,+5.98017752e-01f,+1.16300255e-01f,
+3.15701455e-01f,-2.51308560e-01f,+3.36850286e-02f,-1.90283343e-01f,+3.58880043e-01f,
-5.80316544e-01f,-1.07291676e-01f,+6.20301664e-01f,-6.16611391e-02f,+3.59933674e-01f,
+1.59639433e-01f,+2.18918949e-01f,-5.37553094e-02f,+1.43143674e-02f,+4.73819137e-01f,
-3.41425054e-02f,+1.84491664e-01f,-4.78430599e-01f,+1.40645027e-01f,-5.14083147e-01f,
-2.17270419e-01f,-3.63564581e-01f,+5.64086020e-01f,+5.58299720e-01f,-5.08658469e-01f,
+2.03491062e-01f,-4.39858764e-01f,-2.06920236e-01f,+6.62730277e-01f,-3.64738315e-01f,
-1.75943956e-01f,-5.36965966e-01f,+4.95170593e-01f,+3.69225629e-02f,+4.77072418e-01f,
-6.10138297e-01f,-6.84903204e-01f,+3.46430212e-01f,+9.53058898e-02f,+6.14231527e-01f,
+6.64142072e-01f,+3.37451726e-01f,-5.75397313e-01f,+4.68210071e-01f,-7.00513959e-01f,
+1.69872075e-01f,+1.27375841e-01f,+3.03253442e-01f,-1.09509649e-02f,-5.42963624e-01f,
+5.28203189e-01f,+2.02413112e-01f,-1.39629021e-01f,+5.69207668e-01f,-5.55845380e-01f,
-2.90167004e-01f,-1.01220980e-01f,+1.96852475e-01f,+1.82853937e-01f,-1.66792318e-01f,
+1.90321207e-02f,+1.39926374e-01f,-2.21438125e-01f,+1.82632715e-01f,+1.93228096e-01f,
+2.20588148e-02f,-1.85481593e-01f,+2.26979792e-01f,+1.29275262e-01f,+1.07985377e-01f,
+8.37860405e-02f,+1.72343910e-01f,-1.22915506e-01f,+2.23550797e-02f,-7.39024729e-02f,
+1.47511691e-01f,+1.55596972e-01f,+2.87572742e-02f,+2.12372512e-01f,-2.22799271e-01f,
+2.23308057e-01f,+2.82792747e-02f,+1.76759183e-01f,+2.17892170e-01f,-2.04479069e-01f,
-1.52789086e-01f,+1.96137846e-01f,-1.64545178e-02f,-7.51430988e-02f,+2.06149608e-01f,
+2.18968511e-01f,-6.26371503e-02f,-1.56672657e-01f,-2.02807635e-02f,+2.12429583e-01f,
+1.62460357e-02f,+3.19163501e-02f,-1.81176811e-01f,+3.43107581e-02f,+1.24191552e-01f,
-2.77480930e-02f,-6.14115447e-02f,+5.67570627e-02f,-1.50108129e-01f,+1.49149656e-01f,
-1.41454935e-02f,-2.24598408e-01f,+1.18386894e-01f,-1.04455695e-01f,-6.17952347e-02f,
-2.11161911e-01f,-1.80393592e-01f,+1.25159144e-01f,-1.31426513e-01f,+9.94310975e-02f,
-1.16926812e-01f,+9.30951834e-02f,+1.41178161e-01f,+4.45100367e-02f,+6.27676547e-02f,
+1.66012317e-01f,-3.98909822e-02f,+4.60404158e-02f,+5.18396735e-01f,+5.54894090e-01f,
+1.73050970e-01f,+5.65116942e-01f,-1.80454463e-01f,+5.30438006e-01f,-1.03277124e-01f,
+2.09056944e-01f,-1.93142056e-01f,+6.88572407e-01f,-5.25867462e-01f,-1.32670239e-01f,
+3.44318241e-01f,-8.00462961e-02f,+4.23649579e-01f,+6.29510134e-02f,+1.29155129e-01f,
+2.90023208e-01f,+6.67301044e-02f,+4.86467272e-01f,-2.06509918e-01f,+1.28008693e-01f,
-3.35982919e-01f,-2.24629700e-01f,-3.31692725e-01f,-2.07548201e-01f,-6.39874101e-01f,
+4.20804530e-01f,+5.54500997e-01f,-2.57664382e-01f,-1.88584104e-01f,-6.04881108e-01f,
+4.99536656e-02f,+4.20353055e-01f,-5.14368713e-01f,-6.02596402e-02f,-1.64742455e-01f,
+5.27808726e-01f,-2.52378613e-01f,+2.69480348e-01f,-1.74068406e-01f,-6.31856918e-01f,
+4.32458073e-01f,+1.21617764e-01f,+2.74916232e-01f,+1.61057070e-01f,+1.66238531e-01f,
-5.83191693e-01f,+2.76537091e-01f,-3.46580476e-01f,+9.05914679e-02f,+1.32076085e-01f,
+3.33664417e-01f,-1.27237365e-01f,-4.61444676e-01f,+6.23345673e-01f,+7.79373646e-02f,
-1.94501027e-01f,+3.79554212e-01f,-4.35327142e-01f,-4.45143461e-01f,+5.78000396e-02f,
+6.90975785e-03f,-2.25947365e-01f,+8.86315107e-02f,+2.21507877e-01f,-6.94591254e-02f,
-2.24770188e-01f,+1.32208079e-01f,-2.13726655e-01f,-4.86285836e-02f,-2.18560711e-01f,
+5.13429344e-02f,-9.40635800e-03f,-1.46406770e-01f,-7.25653768e-03f,+1.87630355e-01f,
+2.08786279e-01f,+6.82905018e-02f,-1.96848214e-01f,+1.59324706e-03f,-2.11012140e-01f,
-6.50731027e-02f,+1.18192554e-01f,-2.86300778e-02f,-1.32580623e-01f,+9.88442898e-02f,
-1.90404147e-01f,+3.46757174e-02f,+1.54069662e-01f,+1.51063293e-01f,+6.11886680e-02f,
-1.38376176e-01f,+1.34460866e-01f,-4.28228080e-02f,-1.39741629e-01f,+1.29161030e-01f,
+7.10558891e-02f,+1.88774049e-01f,-9.88028944e-02f,+1.34347260e-01f,+1.57093823e-01f,
-1.66083157e-01f,+2.27788389e-01f,-1.21364087e-01f,-2.71852165e-02f,-1.95750415e-01f,
+8.56219530e-02f,+1.63076609e-01f,-5.20083308e-02f,+7.77378082e-02f,-8.48122984e-02f,
+2.27148265e-01f,+1.91071481e-01f,-3.47581804e-02f,+1.92610323e-02f,-9.94710475e-02f,
+1.34240031e-01f,+2.01912522e-02f,-1.18842050e-01f,-8.92058164e-02f,-1.30100995e-02f,
-6.79402053e-02f,+3.18720341e-02f,+2.23647058e-02f,+5.65975308e-02f,-4.56938855e-02f,
+1.66812181e-01f,+5.20744085e-01f,+4.81337667e-01f,-1.17267050e-01f,+2.71317273e-01f,
-1.00090250e-01f,+1.24366030e-01f,-8.43802765e-02f,-8.45909119e-04f,-5.79577863e-01f,
+5.58565676e-01f,-2.60417134e-01f,-1.59575477e-01f,+1.45412222e-01f,+7.93311596e-02f,
+2.60225505e-01f,-9.61529016e-02f,-5.43858856e-02f,-6.02179319e-02f,+4.31767032e-02f,
+3.16569209e-01f,-1.05871528e-01f,+9.31833684e-02f,-3.69817972e-01f,+4.80279624e-02f,
-4.86111313e-01f,-5.19779623e-01f,-5.05758405e-01f,+3.63767356e-01f,+3.88791740e-01f,
-3.52838606e-01f,+2.16839552e-01f,-3.02403182e-01f,-1.80141494e-01f,+5.00528634e-01f,
-3.57769787e-01f,-4.91866916e-02f,-4.87301528e-01f,+2.17052102e-01f,-3.84862810e-01f,
+1.99044958e-01f,-1.17526442e-01f,-5.78411996e-01f,+2.68835038e-01f,+2.12447196e-01f,
+4.95228559e-01f,+3.44242454e-01f,+5.14382899e-01f,-2.28518903e-01f,+3.13663214e-01f,
-4.01476502e-01f,-1.61681771e-01f,-5.09339124e-02f,+4.21578407e-01f,+2.17372805e-01f,
-4.32276934e-01f,+3.70238185e-01f,-3.99290025e-02f,-5.54434717e-01f,+4.26542729e-01f,
-3.27410698e-01f,-5.08470178e-01f,-1.82486773e-01f,-5.37219690e-03f,+4.53832448e-02f,
+7.05244958e-01f,+2.58494705e-01f,+5.67122996e-02f,+6.28452063e-01f,+1.59503728e-01f,
+3.55269641e-01f,-4.74997550e-01f,+1.51436925e-01f,-4.06488061e-01f,+6.38754010e-01f,
-6.19404972e-01f,-8.61712545e-02f,+5.77340543e-01f,-1.43592313e-01f,+2.96160877e-01f,
+7.31237680e-02f,+2.96001434e-02f,-2.35858820e-02f,+1.58796251e-01f,+5.30856311e-01f,
-1.67069554e-01f,-1.84753060e-01f,-5.54918766e-01f,+8.42313766e-02f,-2.62343824e-01f,
-5.60449243e-01f,-6.73259974e-01f,+4.49604511e-01f,+5.23036182e-01f,-3.33535433e-01f,
+1.45734698e-01f,-2.92956859e-01f,+1.86411753e-01f,+6.24912560e-01f,-4.75665122e-01f,
-2.27164984e-01f,-4.85592544e-01f,+6.10468328e-01f,-1.18977897e-01f,+2.53115505e-01f,
-5.41627049e-01f,-5.24176836e-01f,+2.13357359e-01f,-1.09826386e-01f,+5.69665968e-01f,
+2.77821541e-01f,+2.79371798e-01f,-5.71046114e-01f,+3.30653340e-01f,-6.68008268e-01f,
+1.25027105e-01f,-1.05853140e-01f,+4.20733333e-01f,+1.73945516e-01f,-5.57218492e-01f,
+2.18174383e-01f,-3.42835933e-02f,-4.62514341e-01f,+6.43256009e-01f,-4.79137033e-01f,
-5.19350469e-01f,+1.01876721e-01f,-2.29270235e-01f,+9.63393450e-02f,+2.87942082e-01f,
+1.83903158e-01f,-9.70280170e-02f,+2.94450879e-01f,+2.69095600e-03f,+3.42789859e-01f,
-8.23498219e-02f,+1.62585199e-01f,-2.14529529e-01f,+1.47401422e-01f,-5.93221746e-02f,
+6.29717782e-02f,+2.64721364e-01f,+2.19393969e-02f,+2.93708622e-01f,+3.36643718e-02f,
+7.09653497e-02f,+1.69290259e-01f,+4.39031929e-01f,+3.54076087e-01f,-2.10390255e-01f,
+5.69427907e-02f,-3.89297694e-01f,+3.86042893e-02f,-2.30817750e-01f,-1.82229623e-01f,
+3.64466361e-03f,+2.26249397e-01f,+3.73171926e-01f,-3.48521978e-01f,-7.40503669e-02f,
-3.46972585e-01f,-1.64295688e-01f,+2.03943044e-01f,-1.30181327e-01f,-1.01026997e-01f,
-7.68574253e-02f,+2.44652957e-01f,-2.28852987e-01f,+4.13299888e-01f,+4.90573905e-02f,
-3.73449594e-01f,+1.67716697e-01f,-2.31718168e-01f,+1.33816853e-01f,+3.14589679e-01f,
+4.26695317e-01f,-3.11977081e-02f,+2.27653995e-01f,-1.74842790e-01f,-2.30840206e-01f,
-2.00323954e-01f,+2.97507316e-01f,+2.57537305e-01f,+2.95472071e-02f,+4.21482146e-01f,
+1.62369430e-01f,+4.58476692e-02f,-1.74106229e-02f,-1.25612482e-01f,-2.43872464e-01f,
-1.50231376e-01f,-7.47716054e-02f,-6.14400059e-02f,+1.11400791e-01f,-1.38681665e-01f,
+4.01180498e-02f,+5.65374903e-02f,-5.13509810e-02f,-1.61321163e-01f,+2.91774243e-01f,
-1.08748108e-01f,+3.42510790e-02f,+1.10689364e-01f,+1.83870234e-02f,-1.91378742e-01f,
-6.31050095e-02f,+1.41476989e-02f,+1.09710015e-01f,+1.50210261e-01f,-1.75731555e-01f,
+3.98994327e-01f,+3.17919850e-01f,-1.25366561e-02f,-5.54667376e-02f,+1.34128332e-03f,
+3.35441455e-02f,+4.67266738e-02f,+2.14295581e-01f,+3.24265718e-01f,+2.22315446e-01f,
+1.56068012e-01f,+1.87512308e-01f,+2.16849059e-01f,-5.55522442e-02f,-1.26299933e-01f,
-1.07669547e-01f,+9.19368342e-02f,+3.12431693e-01f,+1.43593699e-01f,+2.10949555e-01f,
-2.95874923e-01f,+1.02758370e-01f,-4.02081199e-02f,+1.23110645e-01f,-2.59990282e-02f,
+1.87812865e-01f,+2.06590131e-01f,-1.39999881e-01f,-1.70959383e-01f,-3.86931449e-02f,
-1.15337886e-01f,+3.63392942e-02f,+9.45626870e-02f,+8.10626149e-02f,-1.34756565e-01f,
+3.80080403e-03f,+1.49284706e-01f,-1.25745520e-01f,+2.68952418e-02f,+7.48535097e-02f,
+1.92701489e-01f,-1.39112547e-01f,+2.86511302e-01f,+2.14689389e-01f,-8.67580101e-02f,
-1.23738177e-01f,-2.00839564e-01f,-1.48064196e-01f,-9.35957432e-02f,-1.09307319e-02f,
+4.06179726e-02f,+9.19909775e-03f,+7.32381344e-02f,-8.75725001e-02f,-4.80960011e-02f,
-1.78094164e-01f,+1.94464475e-01f,-1.81208923e-01f,-1.39027342e-01f,-1.96139395e-01f,
+6.59419596e-02f,+2.07248598e-01f,+9.53172445e-02f,+5.88855147e-02f,+9.09926891e-02f,
+2.22765267e-01f,-1.50621712e-01f,+1.71979487e-01f,+1.33318692e-01f,+6.39634728e-02f,
+1.92055345e-01f,-1.22394912e-01f,+2.08162963e-02f,+3.17714512e-02f,-1.28890961e-01f,
-1.69428259e-01f,-1.70682520e-01f,-1.86637849e-01f,+1.30062103e-01f,+9.66809690e-03f,
-1.70959085e-02f,-8.97017419e-02f,-1.13692082e-01f,+1.65141225e-01f,+1.72358632e-01f,
+1.28920197e-01f,+1.78854853e-01f,-3.97052914e-02f,+1.11362845e-01f,+2.14016646e-01f,
-4.60558236e-02f,-1.94236338e-01f,+6.47830665e-02f,+1.91851288e-01f,+2.79721916e-02f,
+1.62371367e-01f,-1.08726151e-01f,-1.28527522e-01f,+1.05756134e-01f,-9.88027155e-02f,
+2.73756981e-02f,-1.68528169e-01f,+7.76640475e-02f,+1.78198397e-01f,-2.11530477e-01f,
-5.03171831e-02f,-1.54163271e-01f,+3.84199619e-02f,+1.65712267e-01f,-1.06110781e-01f,
-2.93464214e-02f,+3.73063803e-01f,+5.37278771e-01f,+2.03080788e-01f,+3.69651049e-01f,
+3.52980793e-02f,+5.98783433e-01f,-5.86262167e-01f,-1.72039121e-02f,-6.81859732e-01f,
+4.31317121e-01f,-3.24583530e-01f,+9.84160677e-02f,+6.53635621e-01f,-2.28937238e-01f,
+4.14830118e-01f,+1.59375906e-01f,+1.12588793e-01f,+5.04956186e-01f,+2.72803545e-01f,
+5.86556911e-01f,-1.22748137e-01f,+6.57412708e-02f,-5.56460381e-01f,+7.17977881e-02f,
-4.08571959e-01f,-5.53034067e-01f,-5.58128655e-01f,+4.40279663e-01f,+4.31589305e-01f,
-5.58618546e-01f,-1.20431110e-01f,-6.91480935e-01f,+2.03677356e-01f,+4.39919055e-01f,
-6.44301116e-01f,-1.09937750e-01f,-3.85915130e-01f,+1.89439312e-01f,+3.27617943e-01f,
+2.78732836e-01f,-5.85051894e-01f,-2.92350769e-01f,+5.85121572e-01f,+5.57277426e-02f,
+2.88765550e-01f,+6.16930008e-01f,+2.19227090e-01f,-4.17862773e-01f,+5.57495534e-01f,
-2.11018309e-01f,+5.95687702e-03f,+8.60948209e-03f,+2.69270778e-01f,-4.99198250e-02f,
-6.37163937e-01f,+6.63953125e-01f,+1.28866911e-01f,-6.40167415e-01f,+3.10820222e-01f,
-5.04390717e-01f,-4.44088221e-01f,-1.07620142e-01f,-1.24897964e-01f,+9.38662589e-02f,
+1.36752188e-01f,-1.87128097e-01f,+4.12795544e-02f,-8.42765272e-02f,-9.88597870e-02f,
-9.08582807e-02f,+6.12213314e-02f,+9.41275954e-02f,+7.07379878e-02f,+1.20522708e-01f,
-1.31048739e-01f,+1.08792543e-01f,-5.72544783e-02f,-1.24431118e-01f,+1.82321370e-01f,
-1.50306553e-01f,+1.23925090e-01f,+4.25106287e-02f,+1.95525646e-01f,-1.28747433e-01f,
+6.47087395e-02f,-1.87278911e-01f,-7.29596615e-02f,+4.37955260e-02f,+8.25416744e-02f,
+7.39163160e-02f,-5.21024615e-02f,+1.57170236e-01f,-3.77376229e-02f,-2.20913142e-02f,
+1.66471034e-01f,-1.76303476e-01f,-1.97519630e-01f,+4.54465449e-02f,+2.11255550e-01f,
+9.73369479e-02f,+1.44389927e-01f,-2.12926894e-01f,-6.68037087e-02f,-7.41773993e-02f,
+7.91490078e-04f,+8.58496726e-02f,-2.19665200e-01f,-1.16444893e-01f,-4.59273160e-03f,
+3.55865359e-02f,+8.92469287e-02f,-1.27789825e-02f,+1.68306768e-01f,+5.11868596e-02f,
+2.13589311e-01f,+1.90547019e-01f,-9.66104120e-02f,+4.51708436e-02f,-1.88144460e-01f,
+2.23309547e-01f,-9.37755406e-03f,-2.06258610e-01f,+2.11425811e-01f,-4.41844612e-02f,
+2.73829997e-02f,+1.20416820e-01f,+1.26065716e-01f,+6.96366429e-02f,-1.04230918e-01f,
-2.62209475e-02f,-1.31344259e-01f,+2.19755068e-01f,+2.11965114e-01f,+1.90487310e-01f,
-1.49698243e-01f,-5.14922589e-02f,-1.34596199e-01f,+9.21498463e-02f,-1.13472296e-02f,
-8.05637166e-02f,+1.02129586e-01f,-1.74832225e-01f,-4.48306426e-02f,+2.75987796e-02f,
+1.79638356e-01f,+4.42446053e-01f,+7.07042634e-01f,+1.57240048e-01f,-3.83834839e-02f,
-1.00144386e-01f,-1.81707352e-01f,-1.50505722e-01f,-1.07821580e-02f,-1.85013175e-01f,
+2.12849006e-01f,-4.87075783e-02f,-1.43126383e-01f,-1.46428168e-01f,-1.32887274e-01f,
+4.00974043e-03f,+1.31975248e-01f,+1.55342236e-01f,-9.30145159e-02f,+6.95274472e-02f,
-2.00071275e-01f,+1.35155976e-01f,-1.51847284e-02f,+7.77970329e-02f,+2.50366658e-01f,
+2.35705018e-01f,+2.34534338e-01f,+1.57223955e-01f,+1.72640964e-01f,+1.31823391e-01f,
+1.02357998e-01f,-4.47985865e-02f,+8.93798470e-02f,+2.33278647e-01f,+9.09966752e-02f,
-2.41000522e-02f,+1.62298650e-01f,-9.51449051e-02f,+1.79687589e-01f,+1.70486748e-01f,
+5.95004857e-02f,+2.02225707e-02f,+2.51666039e-01f,-1.50915951e-01f,+6.40274733e-02f,
-1.48474723e-01f,-2.16798440e-01f,-1.04662403e-01f,-2.77112722e-01f,-3.55312228e-01f,
+4.68975902e-02f,-1.67700276e-01f,-1.01024672e-01f,-3.95447373e-01f,+2.95277774e-01f,
-6.96530938e-02f,+4.26016927e-01f,-7.80527964e-02f,+4.65885043e-01f,+6.64028600e-02f,
-3.89441639e-01f,-9.97142941e-02f,+2.80994195e-02f,-7.77214542e-02f,-7.53725469e-02f,
+3.95970106e-01f,+5.80694318e-01f,-2.01682076e-01f,-1.04675181e-01f,-9.40773934e-02f,
+3.12479973e-01f,-8.78453851e-02f,+3.90797257e-01f,+2.51443595e-01f,+5.29394932e-02f,
-2.19880119e-01f,-3.39392066e-01f,+6.00004904e-02f,-1.87962741e-01f,+1.10982262e-01f,
+2.19260246e-01f,-2.64805406e-01f,+1.66634783e-01f,+6.67939484e-02f,+1.09190382e-01f,
-2.00140044e-01f,+2.42460579e-01f,-3.87666076e-01f,+3.95314217e-01f,+1.54069051e-01f,
-3.55191886e-01f,+3.07900086e-02f,-4.27539855e-01f,-5.22292219e-02f,-3.78043860e-01f,
+1.74568996e-01f,-2.33944207e-01f,+2.46920660e-01f,-1.45914242e-01f,+1.34420037e-01f,
-3.72154206e-01f,+1.40892878e-01f,+4.79227781e-01f,-4.81073670e-02f,-1.62482500e-01f,
+3.64547998e-01f,-3.25184852e-01f,+2.50594467e-01f,+2.21417949e-01f,+2.50388794e-02f,
+5.47083206e-02f,-1.67419702e-01f,+7.01862752e-01f,+4.44346815e-01f,-1.60532966e-01f,
+5.42132318e-01f,+2.56742537e-02f,+5.09769559e-01f,-2.93772489e-01f,+1.51634872e-01f,
-4.43610787e-01f,+7.10825384e-01f,-6.86809599e-01f,+2.82242429e-02f,+3.84617060e-01f,
+3.33361030e-02f,+5.66950500e-01f,+1.89822316e-01f,-5.68610728e-02f,+3.43023896e-01f,
+3.59110951e-01f,+6.80492103e-01f,-1.62184685e-01f,+1.29917860e-01f,-4.55313742e-01f,
+1.14553064e-01f,-5.44080436e-01f,-5.07957816e-01f,-5.97133040e-01f,+4.60610181e-01f,
+5.77332973e-01f,-2.83050060e-01f,-2.41255313e-02f,-3.73576134e-01f,-1.88650623e-01f,
+5.19726694e-01f,-5.87778389e-01f,+2.11621702e-01f,-4.45075929e-01f,+3.70555043e-01f,
+4.36491609e-01f,+6.13966763e-01f,-4.36415195e-01f,-6.61421776e-01f,+4.23801839e-01f,
-6.34508505e-02f,+2.44965911e-01f,+4.55780625e-01f,+6.93253040e-01f,-6.20722711e-01f,
+4.05428857e-01f,-1.62214041e-01f,+1.08597636e-01f,+1.25132561e-01f,+4.00226295e-01f,
-8.89694393e-02f,-6.37600660e-01f,+3.50413740e-01f,-3.90439779e-02f,-4.06033546e-01f,
+6.75670922e-01f,-6.74876869e-01f,-5.66332757e-01f,-1.41586617e-01f,+5.73032349e-02f,
+9.87701118e-03f,+2.73354113e-01f,+3.51404548e-01f,+3.04379016e-02f,+2.52125502e-01f,
-2.23482057e-01f,+7.89195374e-02f,+1.48985878e-01f,-1.61542356e-01f,-1.19735248e-01f,
+3.68930325e-02f,+1.61312148e-01f,-1.63437575e-01f,+1.94887668e-01f,-8.62220079e-02f,
+3.04704636e-01f,-1.60768434e-01f,-1.88695461e-01f,+6.12121761e-01f,+6.98503077e-01f,
+1.63053926e-02f,-3.76188979e-02f,+5.00950217e-02f,+1.56349130e-02f,-1.06980264e-01f,
-2.40930408e-01f,-4.02680896e-02f,+3.00210994e-02f,+1.42783359e-01f,+2.85546869e-01f,
-2.28513211e-01f,-1.58762068e-01f,-1.34618089e-01f,-6.38703331e-02f,+1.22264273e-01f,
+9.25823525e-02f,+9.09164548e-03f,-7.66870528e-02f,+2.11416930e-01f,+3.73127788e-01f,
-1.03753410e-01f,-9.28796902e-02f,-3.87302786e-02f,-2.86401007e-02f,+8.79382491e-02f,
+2.27325559e-01f,+3.28397244e-01f,+1.40308633e-01f,-2.29511000e-02f,+2.62798131e-01f,
-1.56379551e-01f,+5.61631024e-02f,+1.17430156e-02f,+3.24707210e-01f,+2.13230535e-01f,
+2.59196926e-02f,-3.23267244e-02f,-3.84839773e-02f,+4.61173169e-02f,+2.30398700e-01f,
-2.52474934e-01f,-1.95567399e-01f,-7.49781206e-02f,+1.58860743e-01f,-7.64241815e-02f,
-1.81957543e-01f,-8.44240785e-02f,-1.81871623e-01f,-1.65808126e-01f,+1.91167444e-01f,
+2.00377584e-01f,+1.83077157e-01f,-1.26511410e-01f,-1.34814501e-01f,+7.77818561e-02f,
-6.21211380e-02f,+1.44749403e-01f,-1.89890832e-01f,-1.97834074e-01f,-2.05571800e-01f,
+2.30012149e-01f,-5.42396009e-02f,+2.95546353e-02f,-9.57727730e-02f,+1.23620033e-01f,
+1.10198051e-01f,-2.20483229e-01f,+4.91217971e-02f,-7.61065483e-02f,-1.46485239e-01f,
-1.89954460e-01f,-1.89752489e-01f,-1.08959794e-01f,+4.92349267e-04f,-3.71284038e-02f,
+1.60294890e-01f,+2.27539241e-01f,-1.57778472e-01f,-1.44845858e-01f,+8.29377770e-02f,
+5.20741940e-03f,-2.25620076e-01f,-1.39828324e-01f,+1.75186664e-01f,+2.12270528e-01f,
+8.14900398e-02f,-7.31035918e-02f,-1.17627911e-01f,+1.72511846e-01f,-1.92833260e-01f,
-5.78311980e-02f,-8.99098814e-03f,+7.23102689e-02f,+2.10752577e-01f,-7.26876706e-02f,
-5.37762344e-02f,+5.58939874e-02f,+2.24453121e-01f,+1.13566607e-01f,-1.69265732e-01f,
-1.20816506e-01f,-6.86756372e-02f,+1.52863413e-02f,-1.17874362e-01f,+9.97139513e-02f,
-1.25088185e-01f,+8.22537839e-02f,+6.02525957e-02f,-1.27912015e-01f,+7.67464697e-01f,
+5.16104400e-01f,+1.65276647e-01f,+5.68240762e-01f,+1.75898761e-01f,+5.73314667e-01f,
-4.45030093e-01f,-8.52876455e-02f,-7.00807035e-01f,+8.76604438e-01f,-4.59034503e-01f,
+7.94672817e-02f,+7.50258565e-01f,-1.62732825e-01f,+4.67846870e-01f,-1.43052265e-02f,
-1.35619342e-01f,+2.58891523e-01f,+5.89250177e-02f,+5.23070335e-01f,+2.28979364e-02f,
-1.66497409e-01f,-5.91619730e-01f,-2.04485133e-01f,-4.46193874e-01f,-9.33301985e-01f,
-5.21549046e-01f,+8.03060472e-01f,+7.17265785e-01f,-6.39498115e-01f,-4.76046503e-02f,
-8.73262167e-01f,-1.82057038e-01f,+4.95849848e-01f,-5.51121652e-01f,+4.75426912e-02f,
-7.60060549e-01f,+6.14839792e-01f,+1.76089972e-01f,+7.95477271e-01f,-4.73980129e-01f,
-8.01722944e-01f,+7.67892241e-01f,+1.09370612e-03f,+6.78795695e-01f,+6.48930967e-01f,
+8.05597723e-01f,-7.50143528e-01f,+3.70603472e-01f,-3.00469339e-01f,+9.64299291e-02f,
-2.32396275e-02f,+6.20958984e-01f,+1.27739832e-01f,-8.10765326e-01f,+7.56142914e-01f,
+2.96661556e-02f,-3.76773298e-01f,+5.89590073e-01f,-9.28438604e-01f,-6.12191260e-01f,
+8.67899656e-02f,+1.32735789e-01f,-9.42348242e-02f,-9.75832790e-02f,-5.40895611e-02f,
+2.01792359e-01f,-1.46610618e-01f,-7.66620785e-02f,+2.23975599e-01f,+3.35925817e-02f,
+2.42668390e-03f,+2.03903168e-01f,-1.66559115e-01f,+7.94737041e-03f,-1.50296077e-01f,
+1.41060084e-01f,+2.05006063e-01f,-6.26962036e-02f,-2.03458890e-01f,-1.69654444e-01f,
+1.93390727e-01f,+1.62164778e-01f,-1.35669008e-01f,+1.72621489e-01f,+1.32831037e-01f,
-6.44301176e-02f,+1.53797001e-01f,-5.70722669e-02f,+1.96144789e-01f,+7.68414736e-02f,
-2.15175748e-02f,-5.18794656e-02f,+2.19906181e-01f,+2.02816427e-02f,+1.83237284e-01f,
+1.73791319e-01f,+2.46332288e-02f,+1.63458586e-02f,-8.37632120e-02f,+5.81145287e-03f,
+1.85287118e-01f,+1.01222783e-01f,+1.14342034e-01f,-6.67253435e-02f,+1.56889319e-01f,
-9.70721841e-02f,-1.68337941e-01f,-2.03889817e-01f,-7.10535347e-02f,+2.02090234e-01f,
+1.47140473e-01f,-2.27239534e-01f,+8.35169852e-02f,-2.41621137e-02f,+5.82309067e-03f,
-2.04308331e-01f,+1.64989591e-01f,+1.54045999e-01f,-7.32627958e-02f,-1.85799599e-02f,
+1.77442074e-01f,+6.23882115e-02f,-5.81360906e-02f,-2.20283136e-01f,-1.82046935e-01f,
+1.24233440e-04f,+1.00599438e-01f,+7.46976078e-01f,+7.19452381e-01f,-2.30531320e-01f,
+4.91790891e-01f,-3.83854210e-02f,+3.07414114e-01f,-6.65833354e-01f,-1.94633394e-01f,
-7.41934597e-01f,+8.77380729e-01f,-4.17553425e-01f,-5.27624823e-02f,+6.54258013e-01f,
-2.09092870e-01f,+6.26737773e-01f,-5.60858175e-02f,+9.76336598e-02f,+1.88150242e-01f,
+2.53124058e-01f,+3.71412694e-01f,+3.44712660e-02f,+4.57175076e-02f,-8.22306812e-01f,
-8.61475021e-02f,-3.96978557e-01f,-7.91365266e-01f,-3.58558565e-01f,+5.16071558e-01f,
+3.68742228e-01f,-4.98118609e-01f,-1.12442568e-01f,-6.02879345e-01f,-7.03753158e-02f,
+6.04583502e-01f,-6.63555086e-01f,-8.07819366e-02f,-8.10437381e-01f,+6.84297442e-01f,
+4.76685390e-02f,+3.62243623e-01f,-2.88048476e-01f,-7.10155904e-01f,+4.08602238e-01f,
-1.59444436e-01f,+6.80412173e-01f,+4.82963800e-01f,+6.46899164e-01f,-5.87205291e-01f,
+6.96092069e-01f,-1.47878826e-01f,-2.19266489e-01f,-1.11675195e-01f,+5.82159638e-01f,
+6.55524433e-03f,-3.58113974e-01f,+4.01124895e-01f,+2.55132914e-02f,-3.94588441e-01f,
+5.31085074e-01f,-9.41970170e-01f,-7.36832201e-01f,+1.76812321e-01f,+1.53511554e-01f,
+1.14711523e-01f,+2.03100413e-01f,+1.35704279e-01f,+7.66579211e-02f,+1.47880495e-01f,
+2.16765821e-01f,-7.74360150e-02f,-1.89523205e-01f,-2.23684192e-01f,-1.78159997e-01f,
-1.07784778e-01f,-2.07069144e-01f,-2.03129888e-01f,+1.87605262e-01f,-1.22379810e-02f,
+5.61975539e-02f,+2.08129436e-01f,-1.84100240e-01f,-1.64686307e-01f,+9.92954671e-02f,
+1.92704916e-01f,+1.74921900e-02f,-1.54972911e-01f,-5.39513826e-02f,-2.19724908e-01f,
-2.29860619e-01f,+1.97317392e-01f,-7.06698895e-02f,-4.38087732e-02f,+2.29514122e-01f,
+1.72749162e-01f,+1.61191225e-02f,-6.15817755e-02f,-2.84900814e-02f,-1.36660367e-01f,
+1.09574378e-01f,+1.53397918e-01f,+1.34514838e-01f,+1.88844413e-01f,-1.99028611e-01f,
+2.24792153e-01f,+1.08716756e-01f,+5.55203855e-03f,+2.58670747e-03f,-1.28276169e-01f,
+1.16853029e-01f,+2.21157074e-03f,-1.46082729e-01f,+1.96210355e-01f,-1.27984315e-01f,
+1.81506485e-01f,-5.07226586e-03f,+4.91961241e-02f,-2.15083942e-01f,-3.75861526e-02f,
-2.06095219e-01f,-2.24740729e-01f,-7.58156180e-02f,+1.43502086e-01f,+1.37477577e-01f,
-2.26338223e-01f,+3.29586864e-03f,-2.12629229e-01f,-1.58082768e-01f,-9.40966457e-02f,
+5.37547648e-01f,+3.82236570e-01f,-1.45355389e-01f,+6.13665521e-01f,+1.41401112e-01f,
+4.40668344e-01f,-6.41987860e-01f,-9.60578024e-02f,-8.04856956e-01f,+4.56573695e-01f,
-5.88397801e-01f,+2.12438270e-01f,+4.94486481e-01f,+1.23950094e-01f,+6.42701268e-01f,
+1.17203156e-02f,+1.39764756e-01f,+3.83105427e-01f,+4.53985363e-01f,+5.18308938e-01f,
+2.17550904e-01f,-2.56586820e-02f,-3.65058541e-01f,-1.13823034e-01f,-4.82056886e-01f,
-4.50707704e-01f,-3.17580551e-01f,+7.16026783e-01f,+2.96148390e-01f,-4.23175156e-01f,
-8.51138234e-02f,-7.76911914e-01f,-9.65253264e-02f,+2.89923698e-01f,-3.49159896e-01f,
-1.21543713e-01f,-6.91652596e-01f,+6.54320300e-01f,+7.60350302e-02f,+3.56857449e-01f,
-2.52274483e-01f,-5.62423646e-01f,+5.45460165e-01f,-3.85523662e-02f,+2.95404702e-01f,
+5.04923999e-01f,+2.36428723e-01f,-4.99313831e-01f,+6.01029932e-01f,-1.26995325e-01f,
-2.82297265e-02f,+2.14791745e-01f,+6.67251766e-01f,+1.17427878e-01f,-3.40101689e-01f,
+6.01784647e-01f,-1.81548461e-01f,-3.43979269e-01f,+6.80090845e-01f,-6.49758875e-01f,
-8.73695672e-01f,+1.74752071e-01f,+4.07375023e-02f,-9.94243026e-02f,+6.95031822e-01f,
+6.23527467e-01f,+7.08398521e-02f,+4.62600261e-01f,+1.65774912e-01f,+7.32629418e-01f,
-6.48457289e-01f,+8.63975585e-02f,-6.37385368e-01f,+8.26346695e-01f,-4.26245004e-01f,
+9.36609972e-03f,+7.34600067e-01f,-2.02716947e-01f,+5.78063428e-01f,+1.20171055e-03f,
-2.04833001e-01f,+9.36065093e-02f,+4.20900822e-01f,+3.09708714e-01f,-1.40625119e-01f,
+1.61365479e-01f,-5.58072925e-01f,-2.77737975e-02f,-4.54489589e-01f,-8.67210865e-01f,
-6.58695042e-01f,+6.51428521e-01f,+5.21518946e-01f,-6.66383803e-01f,+1.72925591e-01f,
-6.69800341e-01f,-5.83559684e-02f,+3.83161128e-01f,-6.03864789e-01f,+1.39841884e-02f,
-8.75499845e-01f,+5.14846802e-01f,+2.18261391e-01f,+6.17976665e-01f,-7.58110106e-01f,
-7.91251302e-01f,+4.41781551e-01f,-9.91761088e-02f,+3.08704734e-01f,+4.47400212e-01f,
+6.45718157e-01f,-4.54752982e-01f,+4.38936949e-01f,-4.51079965e-01f,+1.90274909e-01f,
-2.19982445e-01f,+7.28182077e-01f,-8.82965177e-02f,-5.28408051e-01f,+7.65654564e-01f,
-5.86107224e-02f,-6.28085077e-01f,+6.66417480e-01f,-6.48367882e-01f,-5.92627048e-01f,
+1.70187205e-01f,+1.32440552e-01f,-2.14298025e-01f,+5.05137742e-01f,+4.16215748e-01f,
+1.89405352e-01f,+4.44745183e-01f,-1.19945824e-01f,+3.60835165e-01f,-2.24642798e-01f,
-5.35549372e-02f,-4.81589109e-01f,+4.91014689e-01f,-2.68782735e-01f,+4.86141071e-03f,
+2.78287500e-01f,-8.77631009e-02f,+4.92788404e-01f,-7.55605623e-02f,-1.86274290e-01f,
+2.55159408e-01f,+4.97566670e-01f,+4.07121181e-01f,+6.16585389e-02f,-1.66545361e-01f,
-3.78943473e-01f,+1.98832721e-01f,-2.02873215e-01f,-4.55276549e-01f,-3.50429386e-01f,
+4.17899638e-01f,+5.32308340e-01f,-2.93896705e-01f,+9.54425633e-02f,-3.42766047e-01f,
+1.86938807e-01f,+3.94430995e-01f,-3.97194207e-01f,-2.78888643e-02f,-4.33780521e-01f,
+4.43555713e-01f,+2.39117995e-01f,+4.47251052e-01f,-4.47004259e-01f,-3.92993480e-01f,
+3.28447580e-01f,-4.73636240e-02f,+2.77124345e-01f,+3.82976294e-01f,+4.24303591e-01f,
-2.99556226e-01f,+1.96389124e-01f,+1.53130457e-01f,-1.78693652e-01f,-1.73242643e-01f,
+4.74927485e-01f,-2.18178332e-01f,-9.87212285e-02f,+5.09805977e-01f,-1.35156244e-01f,
-3.80128086e-01f,+3.52997750e-01f,-2.31328338e-01f,-6.08584464e-01f,+3.28259282e-02f,
-1.57273576e-01f,+2.02269137e-01f,+9.53909978e-02f,-3.50244790e-02f,-2.31222630e-01f,
+5.98515496e-02f,+1.17019475e-01f,-1.64440781e-01f,+7.44233578e-02f,+1.54342771e-01f,
+7.50239333e-03f,+8.77599865e-02f,+1.61082633e-02f,-8.06210041e-02f,+1.57346323e-01f,
+5.83419800e-02f,+1.96747392e-01f,-2.22925320e-01f,-2.01550052e-01f,+3.54639679e-01f,
+6.38813615e-01f,-1.36723623e-01f,-2.03825712e-01f,+6.03052676e-02f,+1.64103825e-02f,
-1.31263673e-01f,-8.40440616e-02f,-3.10518518e-02f,+2.63102800e-01f,-1.22375034e-01f,
-1.93910152e-01f,-1.47040132e-02f,+2.12954104e-01f,+1.01897217e-01f,+9.64647084e-02f,
-2.96373963e-02f,-4.67885137e-02f,-1.39611900e-01f,+2.81098694e-01f,-2.32976258e-01f,
+4.43185568e-02f,-1.39012814e-01f,+5.35958447e-02f,+2.46919349e-01f,-1.57536507e-01f,
-1.57627940e-01f,+8.57947543e-02f,-2.04710171e-01f,+2.43525684e-01f,+2.11864859e-01f,
-1.37778610e-01f,+2.45993495e-01f,-3.08106318e-02f,+1.86378852e-01f,-1.64747722e-02f,
-4.86121811e-02f,+1.80335760e-01f,-3.30713354e-02f,-1.26896501e-02f,+2.42535677e-02f,
+8.96958485e-02f,+1.63573951e-01f,-3.81310731e-02f,+1.45102546e-01f,+1.42851025e-01f,
+1.85423106e-01f,+1.07014984e-01f,-1.25110596e-01f,-6.40863776e-02f,+2.04364985e-01f,
+1.90420598e-01f,-2.93763727e-02f,-3.29680741e-03f,-7.52137303e-02f,-2.01705113e-01f,
+2.97119021e-02f,+2.28585958e-01f,-1.67200893e-01f,-1.12005301e-01f,-2.56969333e-02f,
-8.41691941e-02f,+9.97016132e-02f,-9.02855843e-02f,-1.29536495e-01f,+9.95281041e-02f,
+1.14349425e-01f,-1.66871667e-01f,-1.60753787e-01f,-1.08833477e-01f,+1.37282729e-01f,
-1.98496655e-01f,-1.95622146e-02f,-1.90677091e-01f,+1.99570060e-02f,+9.88568068e-02f,
+4.08161283e-02f,+7.06699491e-02f,+5.85001707e-03f,+2.18024433e-01f,-1.00734130e-01f,
+2.09027380e-01f,+1.58627182e-01f,-1.85123116e-01f,+2.30377913e-01f,+7.06979632e-03f,
+2.01064169e-01f,-1.34608597e-01f,-6.98445290e-02f,+1.53475553e-01f,-1.03884324e-01f,
+7.81590343e-02f,-4.53720987e-03f,+1.52660668e-01f,+1.79790944e-01f,-4.19104695e-02f,
+7.55572915e-02f,+8.95050764e-02f,-2.85847187e-02f,-1.45389959e-01f,-1.01569504e-01f,
+2.24495381e-01f,-1.94585711e-01f,-1.87082291e-01f,-1.84826955e-01f,+6.42369688e-02f,
+2.12107211e-01f,-1.18083619e-01f,+1.49650425e-01f,-1.96596593e-01f,-2.22411007e-01f,
+7.75416717e-02f,-2.36736804e-01f,-2.67773774e-03f,+9.48013589e-02f,-1.57190502e-01f,
-3.10545444e-01f,-4.78100106e-02f,+1.30016506e-02f,+1.44263387e-01f,+9.38546956e-02f,
+7.49135017e-02f,-1.57884181e-01f,+9.24193487e-02f,-1.83850214e-01f,-9.62553993e-02f,
-4.36917879e-03f,-7.55036622e-02f,-2.79021978e+00f,-3.45025063e+00f,-3.14661890e-01f,
-1.05495183e-02f,+1.88312978e-01f,+2.51873791e-01f,-1.34697735e-01f,-1.02258749e-01f,
+4.88915533e-01f,+2.90875703e-01f,-1.36846527e-01f,-2.11515769e-01f,+1.05504587e-01f,
-9.79923606e-02f,+2.03532681e-01f,+1.74686030e-01f,-1.73820123e-01f,+8.48917738e-02f,
+1.77986562e-01f,+3.36625993e-01f,-3.11638359e-02f,-7.73847342e-01f,-6.45380020e-02f,
-4.79022376e-02f,+2.43588522e-01f,+8.23615678e-03f,-1.15725115e-01f,-1.95272058e-01f,
-2.02216715e-01f,+1.32432496e-02f,-4.57980968e-02f,+2.87528317e-02f,-2.13558018e-01f,
+1.21849805e-01f,-3.41540240e-02f,-2.93502510e-01f,-5.31349599e-01f,+1.95473731e-01f,
-3.17688227e-01f,+6.92279637e-02f,-1.54748708e-02f,+2.33530346e-02f,+4.41582978e-01f,
+3.07693064e-01f,-2.00289711e-01f,-1.84623599e-02f,+1.18099779e-01f,+1.15475655e-01f,
+8.64905715e-02f,-2.20283911e-01f,+2.05355823e-01f,-7.25998729e-02f,-1.40757561e-01f,
+2.80463398e-02f,+1.66447759e-01f,-2.08813816e-01f,+1.85833484e-01f,-9.30414349e-02f,
-3.27943116e-02f,+1.49847537e-01f,-2.04811990e-01f,+1.02103949e-01f,+2.00166672e-01f,
+2.06420511e-01f,+8.37574601e-02f,-2.11468235e-01f,+1.76306993e-01f,-2.23200172e-01f,
+1.86797202e-01f,-8.28341395e-02f,+1.77194327e-02f,+4.08646762e-02f,-2.03744024e-02f,
+5.87294698e-02f,-6.87435567e-02f,+1.01565361e-01f,-9.73801315e-03f,-4.24583256e-02f,
+2.19071358e-01f,-1.50237262e-01f,+8.46529901e-02f,-2.03213707e-01f,-1.04189038e-01f,
-1.07348718e-01f,+1.31480545e-02f,-4.93710637e-02f,+1.14320219e-02f,+8.80170166e-02f,
-5.27700782e-02f,-2.00339392e-01f,+1.82692349e-01f,+1.30769521e-01f,-1.96708381e-01f,
+1.99753851e-01f,+1.86186731e-01f,+8.27056170e-02f,+1.45877272e-01f,+1.02383345e-01f,
+1.55003965e-01f,+5.82727790e-02f,+1.57678097e-01f,-5.86189330e-02f,+1.39580071e-01f,
-6.57986552e-02f,+1.36967629e-01f,+1.38938218e-01f,+2.71079540e-02f,-8.22497606e-02f,
-2.13514253e-01f,-1.75501600e-01f,-7.96315074e-03f,+8.61531273e-02f,-2.39793032e-01f,
+1.80529520e-01f,-2.08261013e-02f,-1.95292443e-01f,+5.62418327e-02f,-7.70348264e-03f,
-2.36779451e-02f,+1.53572291e-01f,-8.32648277e-02f,+3.26725066e-01f,+1.56694695e-01f,
-1.92383736e-01f,-7.16045350e-02f,-1.33741736e-01f,-1.31380081e-01f,-4.19787318e-02f,
-6.65454641e-02f,-2.82947421e-01f,-2.07928255e-01f,+7.89749697e-02f,+1.45687282e-01f,
+1.52014410e-02f,-1.75463364e-01f,+2.59710282e-01f,+4.01438087e-01f,+2.66080201e-01f,
+4.73136567e-02f,+1.31297857e-01f,+2.47979164e-01f,+1.94600999e-01f,+3.51435095e-01f,
-2.34743774e-01f,+6.53314888e-02f,+3.45196366e-01f,-1.43963203e-01f,+1.99359775e-01f,
+3.78750041e-02f,-2.96336580e-02f,-1.25291452e-01f,+1.94221482e-01f,+2.56347567e-01f,
+1.01441070e-01f,-1.32131979e-01f,+6.50378019e-02f,+1.29760742e-01f,+1.62713245e-01f,
+2.79121786e-01f,-1.28741059e-02f,+1.39874872e-02f,-1.32665604e-01f,+1.85226381e-01f,
-2.50402465e-02f,-1.71972081e-01f,+3.09365243e-01f,-1.11433379e-01f,-2.31433451e-01f,
+2.06437737e-01f,-2.89041132e-01f,+4.19172615e-01f,+4.00922865e-01f,+1.64421633e-01f,
+4.56010588e-02f,-2.36430168e-02f,-1.11355968e-01f,-7.18614906e-02f,-1.30663648e-01f,
-2.70519942e-01f,-7.66339898e-03f,-1.79916665e-01f,+3.37012887e-01f,-4.42624241e-02f,
+2.80243099e-01f,-2.65567780e-01f,+2.85083324e-01f,+1.98402748e-01f,-5.43387718e-02f,
-8.72305930e-02f,-3.59231144e-01f,+1.50622874e-01f,-2.53099352e-02f,+5.28299987e-01f,
+4.90622699e-01f,-4.34439518e-02f,-1.17582306e-01f,+7.17849731e-02f,+3.07642460e-01f,
+8.47910643e-02f,+2.85341650e-01f,+1.16724707e-01f,+1.84796363e-01f,-1.33606617e-03f,
-4.14284289e-01f,+3.40751298e-02f,-1.24271743e-01f,+4.48313534e-01f,+7.39327399e-03f,
-2.61968791e-01f,+1.85779169e-01f,-2.26807341e-01f,+3.71927261e-01f,-3.75090390e-01f,
+2.49097094e-01f,-2.91289985e-02f,+5.46852984e-02f,+1.57435790e-01f,-1.73841029e-01f,
-1.67030573e-01f,-1.67995468e-01f,-1.49341255e-01f,-3.67594808e-01f,+2.77425140e-01f,
-6.02509230e-02f,+1.18469715e-01f,+3.54012623e-02f,-4.62817140e-02f,-3.72248590e-01f,
+6.32056370e-02f,+1.33103415e-01f,-3.40412974e-01f,-2.18325078e-01f,+3.44174683e-01f,
-1.76384524e-01f,+2.77042061e-01f,+2.29862958e-01f,-1.39741272e-01f,+5.77346459e-02f,
-2.20191151e-01f,+1.98415071e-01f,+1.00592084e-01f,-1.46782190e-01f,+1.29385933e-01f,
-1.68312013e-01f,+9.09527913e-02f,-2.89289933e-02f,+1.60770118e-02f,+1.17004193e-01f,
+1.13630936e-01f,-1.16961695e-01f,+1.86625272e-01f,+4.02649455e-02f,+1.99402094e-01f,
+2.09149033e-01f,+3.64552215e-02f,+5.84996939e-02f,-2.57098246e+00f,-3.00343013e+00f,
+1.14888482e-01f,-7.88471778e-04f,-3.39416862e-02f,-7.80524686e-02f,+2.17038989e-01f,
+1.52944729e-01f,+2.69997478e-01f,-1.73858330e-01f,+3.92825678e-02f,+1.53320938e-01f,
+1.85337998e-02f,-2.04850167e-01f,+1.11216903e-01f,+1.35265396e-03f,-1.24423213e-01f,
-1.47292584e-01f,+1.24546677e-01f,-2.42750347e-01f,-6.35990426e-02f,-6.69658482e-01f,
+1.47259936e-01f,-1.35763377e-01f,-2.76139975e-01f,-6.83549270e-02f,+2.23060206e-01f,
+4.69062366e-02f,+1.98588148e-01f,-2.04286113e-01f,+3.07436883e-02f,-1.83613509e-01f,
-1.00011259e-01f,-1.73956409e-01f,+3.83871160e-02f,+1.28438354e-01f,-5.06703496e-01f,
+9.06248577e-03f,+2.36561638e-03f,+2.10891068e-01f,-2.63699472e-01f,+2.38596767e-01f,
+2.55711257e-01f,+1.87781021e-01f,-5.95861562e-02f,+1.22573771e-01f,-4.35747951e-02f,
+4.11616378e-02f,-5.71972989e-02f,-1.04837686e-01f,-2.77351528e-01f,+1.79357678e-01f,
-2.38946036e-01f,+2.39974454e-01f,-1.07050233e-01f,+6.56358972e-02f,-8.86488780e-02f,
+3.03491175e-01f,+2.06964985e-01f,-1.06539235e-01f,-1.91320688e-01f,+1.10882469e-01f,
+2.01433852e-01f,-8.09833556e-02f,-5.60860157e-01f,-6.79136813e-01f,-1.96479827e-01f,
-4.34136167e-02f,+4.37710285e-02f,+2.94813633e-01f,+1.34476483e-01f,+2.67916828e-01f,
+5.64739630e-02f,-3.78698744e-02f,+1.10786609e-01f,-2.16480926e-01f,+2.73685336e-01f,
-8.46180022e-02f,+2.11353868e-01f,+7.74076059e-02f,-1.76391527e-02f,+2.96887785e-01f,
-2.22634941e-01f,+1.67777643e-01f,-9.33656245e-02f,-1.95216969e-01f,+8.14179033e-02f,
+3.38882595e-01f,+5.72725125e-02f,-2.23687753e-01f,+3.30219939e-02f,-2.01262787e-01f,
-1.87999547e-01f,+2.75966488e-02f,+2.70018101e-01f,-2.43547589e-01f,+8.27041715e-02f,
+1.21936165e-01f,-9.87549648e-02f,-1.92693695e-01f,+2.86015254e-02f,+2.50697762e-01f,
-1.91764086e-01f,+4.63776588e-02f,+3.50861624e-02f,-1.23424500e-01f,+3.79859805e-01f,
+4.67827357e-02f,+8.96524489e-02f,+1.23028845e-01f,-1.50146872e-01f,-1.13219321e-02f,
+1.59867257e-02f,+9.57180858e-02f,+1.42811626e-01f,+2.81997621e-02f,+5.27951717e-02f,
-3.09607387e-02f,-1.43395036e-01f,-1.62761182e-01f,-3.02682519e-02f,-1.81652650e-01f,
+1.26824588e-01f,-3.56401652e-02f,-6.53476417e-02f,-6.92499727e-02f,-1.75168023e-01f,
+1.53410465e-01f,+1.12316519e-01f,-2.25742683e-01f,+2.29092032e-01f,-2.16636747e-01f,
+1.23832166e-01f,+1.02428526e-01f,+1.27530545e-02f,-9.43524688e-02f,+1.81009889e-01f,
+2.12061673e-01f,+1.59768701e-01f,-6.33137077e-02f,+1.29968524e-01f,+1.24539882e-01f,
-4.77421135e-02f,+7.44521022e-02f,+1.28195435e-01f,-2.01882809e-01f,+2.04452127e-01f,
+1.28978223e-01f,+1.45489961e-01f,-1.34521186e-01f,-2.67680883e-02f,-1.76212803e-01f,
-1.33403689e-02f,-5.60483932e-02f,+2.12068528e-01f,+1.41153216e-01f,+8.07119608e-02f,
+1.55873001e-01f,-1.27289653e-01f,-1.84854820e-01f,+2.07182318e-01f,-1.47622123e-01f,
-1.70704082e-01f,-1.66281044e-01f,-2.16857642e-01f,+2.00322896e-01f,-2.16963142e-02f,
+1.89966828e-01f,+1.75835580e-01f,-3.56456339e-02f,+1.41690314e-01f,-1.11546218e-02f,
-4.13896441e-02f,-2.30766132e-01f,+4.60765064e-02f,+2.34550998e-01f,+2.95542836e-01f,
+1.53292254e-01f,-4.13074493e-02f,-1.60012573e-01f,+7.46937171e-02f,-1.23512104e-01f,
+1.99557245e-02f,+1.36874840e-01f,+3.54283214e-01f,-1.96488425e-01f,-1.99716553e-01f,
+3.84170771e-01f,+1.19470656e-01f,+8.37087184e-02f,-5.10146432e-02f,-1.90338925e-01f,
-2.41712236e+00f,-2.95271850e+00f,+1.19347572e-01f,-1.92701757e-01f,+1.22223556e-01f,
-1.11060344e-01f,-5.04007787e-02f,-2.07545996e-01f,+1.57157823e-01f,-3.75419371e-02f,
+2.89056413e-02f,+3.58092725e-01f,+1.68177381e-01f,-1.62565678e-01f,-5.58346845e-02f,
-1.03414141e-01f,+1.37857378e-01f,-2.65388228e-02f,+2.00611204e-01f,-1.41559824e-01f,
+3.62564400e-02f,-5.18845916e-01f,+2.57666737e-01f,-1.36525407e-01f,-6.69793263e-02f,
+8.92662182e-02f,+1.81753486e-01f,-1.69630926e-02f,+3.49902749e-01f,+3.16698223e-01f,
-2.43299138e-02f,+2.27400228e-01f,-3.79183829e-01f,-7.63095692e-02f,+1.51810050e-01f,
+3.81869584e-01f,-2.84662604e-01f,+2.01003440e-02f,+3.17531824e-01f,-1.78136930e-01f,
-9.16855335e-02f,+3.57184321e-01f,-7.31365159e-02f,+1.96773395e-01f,+1.43567920e-02f,
-7.00796545e-02f,+8.14014375e-02f,-7.34158605e-02f,-1.25955939e-01f,+2.06889421e-01f,
+1.17536873e-01f,-6.92648292e-02f,+9.34282243e-02f,+1.84083074e-01f,-1.40796602e-02f,
-1.31371349e-01f,-1.29232943e-01f,-8.72430056e-02f,-2.17085049e-01f,+2.29914814e-01f,
-1.88647836e-01f,+4.14124429e-02f,-5.67762554e-03f,+6.26820326e-02f,-3.63833159e-02f,
-8.21848065e-02f,+1.70101166e-01f,+1.69527650e-01f,+1.97629958e-01f,+1.59875929e-01f,
+1.51353627e-02f,-9.80739146e-02f,+6.82301521e-02f,+9.17762518e-05f,-1.42802358e-01f,
+1.79417849e-01f,-2.10426152e-02f,-2.12992132e-02f,-4.04008180e-02f,+2.16320992e-01f,
+1.66335016e-01f,+6.68798387e-03f,+2.26377845e-02f,-7.20983744e-02f,+1.18064970e-01f,
-2.18386710e-01f,-5.76335937e-02f,-2.91720331e-02f,+3.20456326e-02f,+4.54904735e-02f,
-1.64409235e-01f,-1.68518126e-01f,+3.63523662e-02f,-9.95260626e-02f,+3.07405591e-02f,
+1.33348316e-01f,-2.12962314e-01f,-1.64252132e-01f,-3.49589288e-02f,-5.50063103e-02f,
+1.24172360e-01f,+8.07218850e-02f,-2.28402615e-02f,+1.13809556e-01f,+2.89378464e-02f,
+7.47258067e-02f,+5.44451475e-02f,+1.98807389e-01f,-1.37299180e-01f,-1.80148035e-01f,
-5.99610507e-02f,-1.39885396e-02f,+2.05237597e-01f,-2.22178176e-01f,+2.42162272e-01f,
-1.08215868e-01f,+1.09889098e-01f,-3.44074406e-02f,+8.37954283e-02f,+1.10491566e-01f,
+6.64393753e-02f,-1.96911454e-01f,+1.99677378e-01f,+2.13625535e-01f,-5.82019687e-02f,
+2.12105647e-01f,-1.61241338e-01f,-8.54143500e-02f,-2.56556559e+00f,-2.68372273e+00f,
-5.16160950e-02f,+1.18781812e-01f,-1.76909775e-01f,+3.60173453e-03f,-6.39409125e-02f,
-1.57007694e-01f,+9.36297998e-02f,-2.18799084e-01f,-4.66911606e-02f,+1.36851862e-01f,
+1.23388678e-01f,-7.89069831e-02f,-1.31792977e-01f,+3.06712892e-02f,+1.39044285e-01f,
+1.36398068e-02f,+1.54709697e-01f,+4.97008674e-04f,-1.94140635e-02f,-7.47266471e-01f,
+1.33299649e-01f,-2.76102155e-01f,-3.08034152e-01f,+2.57121325e-01f,-8.06329697e-02f,
+2.27435634e-01f,-1.35430560e-01f,+1.39841825e-01f,+3.44773531e-02f,-2.32034065e-02f,
-5.53136431e-02f,+8.94372910e-02f,+5.31581640e-02f,-1.22236088e-01f,-1.20941967e-01f,
+1.21646235e-03f,+1.87492013e-01f,-2.28607252e-01f,+7.31509179e-02f,+1.05672881e-01f,
+2.05702439e-01f,+1.37043431e-01f,-1.22316107e-01f,+2.24900544e-01f,-1.70450181e-01f,
-2.20045954e-01f,-6.53840154e-02f,+1.78957343e-01f,+3.80639732e-02f,+6.60640895e-02f,
+9.98073816e-02f,+1.23397589e-01f,+5.69939613e-02f,+8.34913254e-02f,-6.85815960e-02f,
-2.15305060e-01f,+1.15052074e-01f,-1.24542363e-01f,+1.14327967e-01f,-1.23187728e-01f,
+1.05687499e-01f,-3.19545418e-02f,+2.03143418e-01f,+1.98418558e-01f,+8.51660669e-02f,
-4.62777168e-02f,-2.22585484e-01f,+1.52073473e-01f,+5.73635101e-03f,-1.47837609e-01f,
-5.05699217e-02f,+1.04184300e-01f,+1.75114423e-01f,+2.03276187e-01f,-7.65013844e-02f,
+8.41453671e-02f,+1.12712532e-01f,-1.03647977e-01f,-2.05880389e-01f,-1.67500868e-01f,
-6.38647676e-02f,+6.65180683e-02f,-9.71323252e-03f,-1.28694683e-01f,-1.20052770e-01f,
+4.96993363e-02f,-1.31661057e-01f,+5.35406470e-02f,-4.02226299e-02f,+7.98511505e-02f,
-2.10362643e-01f,+1.10071570e-01f,+2.05317795e-01f,-5.98277301e-02f,+2.65501142e-02f,
+2.03088820e-01f,-1.77293405e-01f,-2.28649184e-01f,-6.27641380e-02f,-7.82524496e-02f,
+2.30740964e-01f,+9.90604162e-02f,+1.69277430e-01f,-1.79461271e-01f,+1.89121962e-01f,
-8.79923999e-02f,+2.30168402e-02f,+2.16018334e-01f,-7.37588257e-02f,-8.89932960e-02f,
-6.48319647e-02f,-1.20151713e-01f,+1.55043691e-01f,-1.97842956e-01f,+3.23241986e-02f,
-1.99882407e-02f,+1.81087464e-01f,-9.60280299e-02f,+6.10397104e-03f,+3.82542424e-02f,
-8.22419673e-02f,+2.65944391e-01f,-1.84935451e-01f,+7.42932484e-02f,-2.32864752e-01f,
-1.97334051e-01f,-2.67867112e+00f,-2.91213918e+00f,-5.15086725e-02f,-2.05617428e-01f,
+1.95673198e-01f,-5.12495041e-02f,+1.30599260e-01f,-5.93286306e-02f,+1.23717032e-01f,
+4.05719131e-02f,-7.65746981e-02f,-4.06264216e-02f,+1.54797966e-02f,-1.72638208e-01f,
-1.09438837e-01f,+1.84220657e-01f,+2.17654049e-01f,+1.69853956e-01f,+1.89554542e-01f,
-2.30462059e-01f,-2.82793626e-04f,-8.79235089e-01f,-9.09711886e-03f,+2.03589760e-02f,
+1.20042786e-01f,+2.33550251e-01f,+8.99312571e-02f,+4.49311845e-02f,+1.66822374e-01f,
+7.20011219e-02f,-1.90590888e-01f,-5.10647446e-02f,-2.57176846e-01f,-4.14058194e-02f,
-8.56670439e-02f,-8.95125344e-02f,-4.62918162e-01f,-1.95138678e-01f,+1.88376456e-01f,
+5.16099036e-02f,-1.62294105e-01f,+2.63281792e-01f,+3.83422613e-01f,+5.27433902e-02f,
-1.85090721e-01f,+2.69552357e-02f,+9.33383107e-02f,+1.78954020e-01f,+1.39287621e-01f,
+1.77029118e-01f,+2.90062100e-01f,+1.33038640e-01f,+6.13794811e-02f,-1.72735870e-01f,
+6.77326024e-02f,-2.02603135e-02f,+1.55188413e-02f,-1.63185552e-01f,-1.89931802e-02f,
+1.43842427e-02f,-1.28776625e-01f,+5.35886586e-02f,-9.84035656e-02f,-2.25028068e-01f,
-2.40212274e+00f,-3.16048241e+00f,+2.34121248e-01f,-1.16814524e-01f,-1.03257328e-01f,
+8.32144469e-02f,+1.86793506e-01f,-1.95772186e-01f,+2.59244204e-01f,+3.93282175e-02f,
+2.91038334e-01f,+1.53007060e-01f,+1.54945860e-02f,-8.20130259e-02f,+3.79004553e-02f,
+1.33941069e-01f,+1.10041693e-01f,-2.97222853e-01f,+1.56859577e-01f,-3.32802311e-02f,
-2.98656598e-02f,-8.63527954e-01f,+2.09313542e-01f,-2.64686555e-01f,-3.34941834e-01f,
-3.84115428e-02f,+1.63311943e-01f,+2.90232092e-01f,+2.75141656e-01f,+2.09718570e-01f,
-1.23207122e-01f,-4.88665246e-04f,-3.07740748e-01f,-2.48475298e-02f,-1.11554898e-01f,
-2.28843670e-02f,-1.32396355e-01f,-2.53101826e-01f,-6.80892467e-02f,-6.60685003e-02f,
-3.13951075e-02f,+2.89396375e-01f,+2.91661303e-02f,-5.48847839e-02f,+2.96641383e-02f,
+1.29015505e-01f,-1.53238177e-01f,+1.36596531e-01f,+1.27697363e-01f,+5.42329289e-02f,
+6.23356253e-02f,-1.33304298e-01f,+1.02372192e-01f,+2.04860494e-01f,-6.17620647e-02f,
-1.00802528e-02f,+1.48882702e-01f,-6.89132325e-03f,+1.92649946e-01f,-1.92194745e-01f,
-2.12487683e-01f,-2.83822380e-02f,+5.12632653e-02f,+1.52585506e-01f,-1.63435793e+00f,
-1.76284766e+00f,-1.77932113e-01f,-1.30279005e-01f,-1.30739108e-01f,+3.08172196e-01f,
+8.18693638e-02f,-2.61476506e-02f,+2.90528834e-01f,-1.89292356e-02f,-1.70438960e-01f,
+8.19151923e-02f,+4.03745435e-02f,-5.95967919e-02f,+3.44468117e-01f,-1.99666694e-01f,
+1.04916804e-02f,+5.34040071e-02f,-1.84039205e-01f,+2.14931712e-01f,+9.07368362e-02f,
-7.82639086e-01f,-2.98964679e-01f,+4.22177725e-02f,-2.22113002e-02f,-1.59338996e-01f,
-2.20830172e-01f,-3.32658775e-02f,+5.91430068e-02f,+1.25319734e-01f,+1.21191636e-01f,
-6.93257675e-02f,+1.08483136e-01f,-1.71734929e-01f,+1.10094763e-01f,-8.85441713e-03f,
-4.61085171e-01f,+1.68032289e-01f,-1.74389873e-02f,+5.89787364e-02f,+1.95424035e-01f,
-2.99046129e-01f,+4.63941842e-01f,+3.82259011e-01f,-2.07678020e-01f,-5.14526777e-02f,
-2.03600600e-01f,-2.79321253e-01f,+1.50427073e-01f,+1.60171762e-01f,-1.33064687e-01f,
+5.06243408e-02f,+4.51940931e-02f,+2.39870965e-01f,-1.35949224e-01f,+2.85713524e-01f,
+1.17459498e-01f,+1.69711381e-01f,-5.82943000e-02f,-5.29234186e-02f,-1.37402087e-01f,
-2.57333279e-01f,-1.33763283e-01f,-5.00482768e-02f,-8.44509602e-02f,+3.46884988e-02f,
-5.48594780e-02f,-7.27688596e-02f,-1.76879361e-01f,+1.95773080e-01f,-3.85308862e-02f,
+2.55326778e-01f,+3.22520196e-01f,+3.25441569e-01f,+1.09410271e-01f,-1.59793887e-02f,
+2.81335656e-02f,-8.71285498e-02f,+1.33160325e-02f,-2.02988818e-01f,-2.91078724e-02f,
+5.59935533e-02f,+6.44795001e-02f,+3.00089836e-01f,+7.88158402e-02f,-1.01306118e-01f,
+1.53601155e-01f,+8.61073360e-02f,+4.90661114e-02f,-2.39013419e-01f,+6.18696883e-02f,
+1.64724607e-02f,-1.50427550e-01f,-1.96141481e-01f,+2.70528674e-01f,-1.81355774e-01f,
+1.55036137e-01f,+1.36741370e-01f,-1.39482692e-01f,-1.86747998e-01f,+2.43082106e-01f,
+3.85314077e-02f,-1.58852011e-01f,-1.27280667e-01f,+2.15153247e-01f,+3.91379818e-02f,
+4.09565240e-01f,+3.90894830e-01f,+9.72649157e-02f,+9.03716683e-02f,+1.23366863e-01f,
+1.95760280e-01f,-1.91049635e-01f,-3.38675678e-02f,-2.28799894e-01f,+1.19408518e-01f,
-3.88962477e-02f,-1.89519182e-01f,+1.05547220e-01f,+8.06404948e-02f,+2.10120499e-01f,
+7.97602832e-02f,-5.23054898e-02f,-2.22070023e-01f,+1.15921587e-01f,+9.63432491e-02f,
-7.00548291e-04f,-1.27590954e-01f,+1.63073629e-01f,+2.26650298e-01f,-6.71139956e-02f,
+7.69796968e-02f,+2.05049664e-01f,+1.02308542e-02f,-1.24425597e-01f,+1.14881992e-01f,
-6.81747943e-02f,-1.21320769e-01f,-6.75540864e-02f,+1.20885164e-01f,-1.03990987e-01f,
+1.03901416e-01f,-6.46317005e-03f,+2.14295089e-02f,+2.19131619e-01f,-1.43194675e-01f,
+1.28307134e-01f,-1.55624673e-01f,+1.46599114e-02f,-1.62868798e-02f,-1.72819942e-02f,
+6.79096878e-02f,+1.60931706e-01f,+5.58644235e-02f,+1.70852929e-01f,-1.80228144e-01f,
+1.45563334e-01f,+2.11181998e-01f,+1.34148479e-01f,-1.73226565e-01f,-1.93676561e-01f,
-4.42955345e-02f,+1.58445805e-01f,+1.95436358e-01f,+2.13510185e-01f,+5.67657650e-02f,
+1.86194956e-01f,-1.62944108e-01f,-1.27599895e-01f,-1.05767444e-01f,-1.22269697e-01f,
-2.00513005e-03f,-1.74469128e-01f,}; 
k2c_tensor dense_68_kernel = {&dense_68_kernel_array[0],2,3072,{48,64, 1, 1, 1}}; 
float dense_68_bias_array[64] = {
-3.37479301e-02f,+0.00000000e+00f,-1.76747411e-01f,-1.53837383e-01f,-2.54949834e-03f,
-1.86014757e-01f,+0.00000000e+00f,-1.53237924e-01f,+1.74124122e-01f,+0.00000000e+00f,
+2.24687397e-01f,-2.49667645e-01f,+1.99781939e-01f,-1.01054655e-02f,-1.63847372e-01f,
+0.00000000e+00f,-1.48164988e-01f,-1.23379352e-02f,+0.00000000e+00f,+5.07743239e-01f,
+5.74564159e-01f,-1.82095975e-01f,-2.01876052e-02f,+0.00000000e+00f,+2.14568868e-01f,
+0.00000000e+00f,+1.92703709e-01f,+2.10445508e-01f,+2.29272664e-01f,-1.61298349e-01f,
-1.61544770e-01f,+1.62900701e-01f,+0.00000000e+00f,+2.23915800e-01f,-7.81227695e-03f,
-1.52172267e-01f,+2.13057458e-01f,+0.00000000e+00f,+2.35972017e-01f,-1.88574255e-01f,
+1.76760510e-01f,-1.82378337e-01f,+2.13333681e-01f,+2.53702402e-01f,-1.43428385e-01f,
-3.37557718e-02f,-1.68806285e-01f,-1.48735687e-01f,-1.38597772e-01f,+2.14681819e-01f,
-1.47379532e-01f,+2.63662159e-01f,-2.32060254e-02f,-8.33912566e-03f,-1.45878077e-01f,
+7.39522874e-02f,+2.04671532e-01f,-1.62523717e-01f,+0.00000000e+00f,+1.83737665e-01f,
-1.99944869e-01f,+2.18124241e-01f,+2.31055498e-01f,-2.89163962e-02f,}; 
k2c_tensor dense_68_bias = {&dense_68_bias_array[0],1,64,{64, 1, 1, 1, 1}}; 
float dense_68_fwork[3120] = {0}; 

 
float dense_69_kernel_array[64] = {
+1.04126640e-01f,-3.03587615e-02f,+4.22725052e-01f,+5.70722818e-01f,+5.50694056e-02f,
+4.49330002e-01f,+3.02686214e-01f,+6.12456799e-01f,-7.60005534e-01f,-2.97674537e-02f,
-6.85657144e-01f,+3.53983760e-01f,-7.15049326e-01f,+2.81774879e-01f,+5.30808151e-01f,
-1.90998495e-01f,+5.60291111e-01f,+7.47689605e-02f,+1.96375072e-01f,-4.27009487e+00f,
-4.82899618e+00f,+6.23310506e-01f,+4.04228270e-02f,+1.62306011e-01f,-7.96237528e-01f,
+1.50485337e-01f,-6.67816341e-01f,-1.14032054e+00f,-6.35785282e-01f,+5.35387456e-01f,
+4.57626224e-01f,-9.59728956e-01f,+1.76169604e-01f,-8.57919335e-01f,+1.35375813e-01f,
+5.63221157e-01f,-6.89748466e-01f,-2.09428295e-01f,-6.71343446e-01f,+4.72315073e-01f,
-1.75167394e+00f,+4.66886252e-01f,-6.18433535e-01f,-4.97837156e-01f,+6.33659303e-01f,
+4.88569103e-02f,+7.10447133e-01f,+6.34449124e-01f,+5.57954311e-01f,-5.92298388e-01f,
+7.55015612e-01f,-1.50879771e-01f,+2.26002216e-01f,+2.05131605e-01f,+7.65538990e-01f,
-1.51586759e+00f,-5.21884799e-01f,+5.50248742e-01f,+1.59030348e-01f,-5.64661384e-01f,
+4.69009548e-01f,-1.09819078e+00f,-1.05434096e+00f,+2.77412534e-01f,}; 
k2c_tensor dense_69_kernel = {&dense_69_kernel_array[0],2,64,{64, 1, 1, 1, 1}}; 
float dense_69_bias_array[1] = {
-1.68990746e-01f,}; 
k2c_tensor dense_69_bias = {&dense_69_bias_array[0],1,1,{1,1,1,1,1}}; 
float dense_69_fwork[128] = {0}; 

 
k2c_conv2d(&conv2d_8_output,conv2d_8_input_input,&conv2d_8_kernel, 
	&conv2d_8_bias,conv2d_8_stride,conv2d_8_dilation,k2c_relu); 
k2c_pad2d(&max_pooling2d_8_padded_input,&conv2d_8_output,max_pooling2d_8_fill, 
	max_pooling2d_8_pad); 
k2c_maxpool2d(&max_pooling2d_8_output,&max_pooling2d_8_padded_input,max_pooling2d_8_pool_size, 
	max_pooling2d_8_stride); 
k2c_flatten(&flatten_8_output,&max_pooling2d_8_output); 
k2c_dense(&dense_68_output,&flatten_8_output,&dense_68_kernel, 
	&dense_68_bias,k2c_relu,dense_68_fwork); 
k2c_dense(dense_69_output,&dense_68_output,&dense_69_kernel, 
	&dense_69_bias,k2c_sigmoid,dense_69_fwork); 

 } 


void CNN_SND_RTTModel::keras2c_model_Round_COMPLEXITY(const k2c_tensor* input_layer_32_input, k2c_tensor* keras_tensor_29_output) 
{ 

	cout << "CNN_SND_RTT_Model_Round_COMPLEXITY\n";

	size_t conv2d_8_stride[2] = {1,1}; 
	size_t conv2d_8_dilation[2] = {1,1}; 
	float conv2d_8_output_array[96] = {0}; 
	k2c_tensor conv2d_8_output = {&conv2d_8_output_array[0],3,96,{ 3, 2,16, 1, 1}}; 
	float conv2d_8_kernel_array[16] = {
	+6.06839120e-01f,+4.29091044e-02f,-1.52361751e-01f,-2.59288818e-01f,+4.21634853e-01f,
	-5.84188938e-01f,+1.80869508e+00f,+7.35317647e-01f,+9.56457555e-01f,-4.45320964e-01f,
	-5.02757072e-01f,+5.56682050e-02f,+4.91980672e-01f,+3.70125711e-01f,-3.29154134e-02f,
	+4.59337085e-01f,}; 
	k2c_tensor conv2d_8_kernel = {&conv2d_8_kernel_array[0],4,16,{ 1, 1, 1,16, 1}}; 
	float conv2d_8_bias_array[16] = {
	+6.18739910e-02f,-4.40888889e-02f,+0.00000000e+00f,+0.00000000e+00f,-2.04387382e-02f,
	+0.00000000e+00f,+3.23632181e-01f,+1.07471190e-01f,+1.65457323e-01f,+0.00000000e+00f,
	+0.00000000e+00f,-5.69938608e-02f,+6.79791579e-03f,-4.66092154e-02f,+0.00000000e+00f,
	+4.14614417e-02f,}; 
	k2c_tensor conv2d_8_bias = {&conv2d_8_bias_array[0],1,16,{16, 1, 1, 1, 1}}; 

	
	size_t max_pooling2d_8_stride[2] = {1,2}; 
	size_t max_pooling2d_8_pool_size[2] = {1,2}; 
	float max_pooling2d_8_output_array[48] = {0}; 
	k2c_tensor max_pooling2d_8_output = {&max_pooling2d_8_output_array[0],3,48,{ 3, 1,16, 1, 1}}; 
	float max_pooling2d_8_padded_input_array[96] = {0}; 
	k2c_tensor max_pooling2d_8_padded_input = {&max_pooling2d_8_padded_input_array[0],3,96,{ 3, 2,16, 1, 1}}; 
	size_t max_pooling2d_8_pad[4] = {0,0,0,0}; 
	float max_pooling2d_8_fill = -HUGE_VALF; 


	float flatten_8_output_array[48] = {0}; 
	k2c_tensor flatten_8_output = {&flatten_8_output_array[0],1,48,{48, 1, 1, 1, 1}}; 
	float dense_64_output_array[64] = {0}; 
	k2c_tensor dense_64_output = {&dense_64_output_array[0],1,64,{64, 1, 1, 1, 1}}; 
	float dense_64_kernel_array[3072] = {
	-1.04646766e+00f,-2.00150967e-01f,+2.56116446e-02f,-7.78451487e-02f,+2.40465537e-01f,
	+6.87405884e-01f,-2.41708815e-01f,+3.42945099e-01f,+5.83634079e-01f,-2.30432134e-02f,
	-1.57964617e-01f,+3.91459852e-01f,+1.36459991e-01f,-2.47828797e-01f,-6.50304735e-01f,
	+3.78336817e-01f,-1.01505823e-01f,+9.02509242e-02f,+3.68120849e-01f,+3.98371160e-01f,
	-6.28900051e-01f,+7.72221446e-01f,+3.84008825e-01f,-1.83184758e-01f,-1.45914525e-01f,
	-9.62680951e-02f,+1.56108677e-01f,+2.59422570e-01f,-6.35301769e-01f,+4.71609890e-01f,
	+6.96932077e-01f,-3.92234951e-01f,-5.20500317e-02f,-6.96515143e-02f,+4.93432462e-01f,
	-1.01154745e-01f,-4.74372096e-02f,+6.12215698e-01f,+2.02485099e-01f,+3.87637824e-01f,
	-2.28848115e-01f,-2.13306695e-02f,+7.77036548e-02f,+2.88804080e-02f,+5.95188975e-01f,
	-5.35041541e-02f,+1.09194309e-01f,+4.23208885e-02f,+1.10880658e-01f,-5.48548818e-01f,
	-4.88334056e-03f,+2.19015300e-01f,-4.67377484e-01f,+6.00917161e-01f,+1.51387185e-01f,
	+1.03775829e-01f,-1.79980218e-01f,-7.16028214e-01f,-2.30709836e-01f,+1.87800243e-01f,
	-2.06995249e-01f,-8.10450494e-01f,+3.59276049e-02f,-2.40280703e-01f,+2.49620900e-02f,
	+8.74860212e-02f,+8.52414668e-02f,+3.42519909e-01f,+6.68144524e-01f,+1.30675761e-02f,
	+4.77228239e-02f,+6.15138829e-01f,+2.68959910e-01f,-9.38991755e-02f,+1.43368155e-01f,
	+1.00769445e-01f,-1.47237793e-01f,+1.10974036e-01f,+4.13424671e-01f,-9.74259451e-02f,
	+3.95016015e-01f,+7.80312866e-02f,+5.19015849e-01f,+3.65022808e-01f,+3.97213310e-01f,
	-5.97250089e-02f,-2.03654263e-02f,+2.23961473e-02f,-1.85542852e-01f,+3.49893183e-01f,
	-1.82096153e-01f,+5.71361780e-01f,+1.87112823e-01f,+2.28888735e-01f,+6.62288889e-02f,
	+2.27603391e-01f,-5.18222973e-02f,+3.15182000e-01f,+1.18134335e-01f,-1.89261034e-01f,
	+3.36974800e-01f,+2.64687598e-01f,+1.92508623e-01f,-2.54979432e-02f,+5.26705086e-02f,
	+7.24732950e-02f,+9.57737148e-01f,-1.72803566e-01f,+3.96786302e-01f,+2.29431435e-01f,
	+5.96849382e-01f,-2.07909077e-01f,-9.57674757e-02f,+5.26594698e-01f,+9.50584829e-01f,
	+4.95958805e-01f,+4.89929110e-01f,-5.78998737e-02f,+6.77538887e-02f,-1.66929662e-02f,
	-1.77790210e-01f,+4.04306799e-01f,-2.18224198e-01f,+4.63831246e-01f,+2.26921946e-01f,
	+4.40104365e-01f,+1.11011557e-01f,-1.05938226e-01f,+1.84951723e-01f,-3.83630097e-02f,
	-2.69820392e-02f,+6.30481541e-02f,+1.84190422e-02f,-1.81719661e-04f,-1.86975121e-01f,
	-1.40258968e-01f,-2.30400860e-01f,+6.57466650e-02f,+2.27796048e-01f,-7.20308721e-02f,
	-9.20140892e-02f,-9.85300541e-03f,-1.28125995e-02f,-1.86091527e-01f,+2.12231696e-01f,
	+6.98324442e-02f,+1.79624557e-01f,+2.20962733e-01f,-1.12420604e-01f,+1.59518689e-01f,
	-1.59135550e-01f,+1.70865387e-01f,-1.93263143e-02f,-8.24332237e-03f,-2.49438435e-02f,
	-1.92151308e-01f,+2.00701207e-01f,-1.91093981e-03f,+2.00747699e-01f,+4.41029072e-02f,
	+1.14624679e-01f,+1.52416259e-01f,-1.71051085e-01f,-1.26986817e-01f,+2.14597464e-01f,
	-1.48542851e-01f,+3.86863947e-02f,+7.56714940e-02f,-1.73119560e-01f,-1.93140179e-01f,
	+1.55119091e-01f,-1.56257957e-01f,+1.71926290e-01f,+6.81735277e-02f,-7.92562962e-02f,
	+2.18146324e-01f,-1.34661078e-01f,-1.16871409e-01f,-2.10152671e-01f,-1.65901437e-01f,
	+2.64290571e-02f,-1.00589007e-01f,-6.10851347e-02f,+6.26621544e-02f,-5.62214553e-02f,
	+1.16910905e-01f,+1.42506212e-02f,-1.54645294e-02f,-1.93704873e-01f,-1.86613679e-01f,
	-2.37260610e-02f,+2.07894415e-01f,+6.46377206e-02f,+1.87929362e-01f,+1.35874569e-01f,
	-7.02048093e-02f,-1.92941248e-01f,-6.51825964e-02f,-1.80034339e-01f,-1.00755095e-02f,
	-2.18746662e-02f,-1.81843907e-01f,+1.11188859e-01f,+1.12745523e-01f,+1.68431967e-01f,
	+1.48049355e-01f,-7.07076490e-02f,-1.31141216e-01f,+2.75431275e-02f,+1.67300344e-01f,
	+2.17157573e-01f,+1.04800701e-01f,+1.59740627e-01f,-4.34073061e-02f,+1.35790199e-01f,
	+1.37261599e-01f,-1.28030002e-01f,+1.56859457e-01f,-1.09794937e-01f,+1.96181446e-01f,
	-1.67858899e-01f,-1.88601762e-02f,+3.15381885e-02f,-6.58200681e-02f,+1.91431433e-01f,
	+5.34721017e-02f,-1.95867121e-02f,+1.43292189e-01f,+2.91937292e-02f,-8.65602791e-02f,
	+1.52323663e-01f,-2.42094696e-02f,+1.52031809e-01f,-2.59575099e-02f,-4.49424982e-02f,
	-1.80695117e-01f,-1.54971302e-01f,+1.92337096e-01f,+1.37455404e-01f,+1.22051895e-01f,
	-1.61565199e-01f,+4.92329001e-02f,+2.29521900e-01f,-1.80727944e-01f,-1.51826262e-01f,
	+2.17164636e-01f,+9.01875198e-02f,-2.24133551e-01f,-1.87005028e-01f,-1.19888216e-01f,
	-1.84483662e-01f,+5.73599339e-02f,+1.56534374e-01f,+1.19357973e-01f,-1.27731070e-01f,
	-1.06026426e-01f,-8.65958452e-01f,+5.60081005e-03f,+7.87430108e-02f,-4.89958823e-02f,
	-8.71208310e-03f,+7.41881192e-01f,+4.74185273e-02f,+3.35471690e-01f,+3.29851568e-01f,
	+1.44839242e-01f,-4.60833609e-02f,+7.20676482e-01f,-1.11369021e-01f,-1.73043311e-01f,
	-4.57972586e-01f,+3.75372916e-01f,+5.55207655e-02f,+9.78103131e-02f,+5.37886322e-01f,
	+2.30079398e-01f,-6.26065016e-01f,+7.23526120e-01f,-9.20999348e-02f,+7.98708498e-02f,
	-1.22495398e-01f,+1.11695997e-01f,+2.13719100e-01f,+3.19281161e-01f,-4.24901426e-01f,
	+7.44959533e-01f,+6.60342932e-01f,-7.40263164e-01f,-1.29886940e-01f,-1.78173795e-01f,
	+1.22437745e-01f,+8.52981433e-02f,+1.71836361e-01f,+6.17952347e-01f,+2.77752191e-01f,
	+4.06940550e-01f,+2.16004550e-02f,+9.77413952e-02f,+2.81834275e-01f,+1.30633235e-01f,
	+1.85813323e-01f,-8.19376037e-02f,-7.20156804e-02f,+3.91982794e-02f,+5.18870838e-02f,
	-1.90065697e-01f,+6.52330890e-02f,+2.69287944e-01f,-5.84096491e-01f,+5.15497148e-01f,
	+4.30097356e-02f,+7.92682767e-02f,-1.81073397e-01f,-5.59461355e-01f,+1.74754024e-01f,
	-8.46137628e-02f,+1.08612299e-01f,-2.35105515e-01f,+9.38180462e-02f,+5.02197817e-02f,
	+1.36639774e-01f,-2.18688235e-01f,+5.45946360e-02f,-4.00000811e-03f,+1.09142601e-01f,
	+1.89609677e-01f,-8.80801380e-02f,+2.01110631e-01f,-7.32110888e-02f,-4.83326316e-02f,
	+2.02492476e-02f,-2.91004628e-02f,-2.18497187e-01f,+1.08252615e-01f,+1.40579492e-01f,
	-1.65665418e-01f,-1.23480916e-01f,+1.13846034e-01f,-1.20296516e-01f,-1.29107058e-01f,
	+1.18472099e-01f,-1.25105232e-01f,-6.80495203e-02f,-2.24798560e-01f,+2.26754248e-02f,
	-4.36924398e-03f,-2.12630183e-02f,-4.38996553e-02f,+1.88355148e-02f,-2.37386376e-02f,
	-7.33477175e-02f,+9.41906869e-02f,-1.39474764e-01f,+1.24633074e-01f,-1.89231724e-01f,
	+5.26678860e-02f,+1.58145100e-01f,+5.08578122e-02f,+6.40960932e-02f,-9.59951729e-02f,
	+1.78003728e-01f,-2.07973316e-01f,-2.22057998e-01f,+1.35879844e-01f,-1.30787164e-01f,
	-2.14510098e-01f,+3.74720991e-03f,-2.30754972e-01f,-5.59687167e-02f,-1.72758102e-02f,
	-2.12739646e-01f,-5.24802506e-02f,-1.11796208e-01f,+1.89908177e-01f,+1.89642906e-01f,
	+3.26437652e-02f,+1.28334045e-01f,-1.20151937e-02f,+1.65994316e-01f,-2.15860203e-01f,
	-1.36511147e-01f,+1.38765991e-01f,+3.02383304e-02f,+1.48883164e-02f,-3.41947496e-01f,
	-1.48060158e-01f,-5.73075823e-02f,-3.34936306e-02f,+3.25224817e-01f,+3.08310032e-01f,
	+1.85847968e-01f,+4.30899948e-01f,+2.49437854e-01f,+1.28681779e-01f,-5.78407943e-02f,
	+2.76681036e-01f,-2.91379541e-02f,+3.64138596e-02f,+3.37922648e-02f,+4.18684781e-01f,
	+2.39778996e-01f,+3.99048090e-01f,+5.10820150e-01f,+4.22813028e-01f,+1.01571597e-01f,
	+3.18644106e-01f,+3.35878789e-01f,-1.02487132e-01f,+2.06860662e-01f,+2.06925929e-01f,
	-2.79397964e-02f,+4.77776200e-01f,-2.21543998e-01f,+1.92776918e-01f,+6.85022324e-02f,
	-2.79534794e-03f,-1.98581651e-01f,+1.47494689e-01f,+4.40712988e-01f,+4.66611907e-02f,
	-3.67908855e-03f,+3.75579387e-01f,+3.11190218e-01f,+2.64796257e-01f,+1.08556777e-01f,
	-2.13449165e-01f,+6.56594813e-01f,-7.61235878e-02f,+2.30400860e-01f,-1.61820978e-01f,
	+7.12319136e-01f,-2.46446982e-01f,-2.31393650e-01f,+7.98316076e-02f,+7.30150878e-01f,
	+2.97845930e-01f,-3.45151909e-02f,+4.18799728e-01f,-9.08821076e-02f,+3.06625962e-02f,
	+1.19003177e-01f,-2.17225358e-01f,+2.91894674e-02f,+1.94006771e-01f,-2.90676951e-03f,
	+1.69077516e-01f,-1.11085467e-01f,+1.24271408e-01f,-1.23249805e+00f,-2.53782012e-02f,
	+1.85448050e-01f,-2.34166905e-01f,+1.81474194e-01f,+7.05287158e-01f,-5.67914695e-02f,
	+5.46578281e-02f,+4.95574445e-01f,+7.08856508e-02f,-1.36606187e-01f,+6.41831756e-01f,
	-1.57369807e-01f,-1.53980702e-01f,-3.64215702e-01f,+4.41740155e-01f,+9.76614207e-02f,
	+5.15470564e-01f,+5.75056076e-01f,+2.61446446e-01f,-3.98168176e-01f,+7.72681296e-01f,
	+5.71105778e-01f,+1.08765781e-01f,-2.09459007e-01f,+4.17673960e-02f,-4.65475023e-02f,
	+1.69433132e-01f,-7.47977078e-01f,+6.27327085e-01f,+6.09134912e-01f,-7.95458496e-01f,
	-2.23606318e-01f,-2.43955422e-02f,+3.43760401e-01f,-1.81327924e-01f,+4.07129347e-01f,
	+5.29231608e-01f,+2.24925742e-01f,+7.04539835e-01f,+6.41189814e-02f,-1.11944988e-01f,
	+3.01717192e-01f,-1.48925498e-01f,+5.17919779e-01f,+5.70563339e-02f,-4.44505364e-01f,
	-6.33717999e-02f,+2.16446891e-01f,-5.38861275e-01f,+9.17165652e-02f,-1.17898598e-01f,
	-7.71820724e-01f,+7.10615635e-01f,+1.87185377e-01f,-6.57866299e-02f,-8.50082487e-02f,
	-8.55479896e-01f,-1.75932199e-01f,+6.29974186e-01f,-1.47694975e-01f,-1.14097703e+00f,
	+1.82745874e-01f,-2.34990805e-01f,-1.27162445e+00f,-2.35183954e-01f,-1.78558871e-01f,
	-8.16863924e-02f,-9.27582830e-02f,+8.56315732e-01f,+1.14121800e-03f,-3.28126401e-02f,
	+6.07333183e-01f,-9.58495736e-02f,-1.74016237e-01f,+7.11600542e-01f,+1.78325057e-01f,
	-1.06802270e-01f,-6.30229592e-01f,+7.11642325e-01f,+1.40456453e-01f,+2.75818378e-01f,
	+9.13711011e-01f,+4.56393301e-01f,-4.57140237e-01f,+6.35715961e-01f,+4.89933759e-01f,
	-5.62380552e-02f,-1.70056283e-01f,+3.90454203e-01f,+5.13835549e-02f,+1.40768260e-01f,
	-7.20159769e-01f,+7.37536252e-01f,+4.94664282e-01f,-6.95571840e-01f,-1.09509118e-01f,
	+2.94962585e-01f,+7.43720114e-01f,-9.94684361e-03f,+1.23316415e-01f,+6.27203643e-01f,
	+6.64615095e-01f,+6.63509429e-01f,+7.61573613e-02f,+6.27746657e-02f,+1.50123790e-01f,
	+1.51698142e-01f,+4.44841832e-01f,-2.08275437e-01f,-2.54675061e-01f,+7.46685266e-02f,
	+1.40879467e-01f,-3.61289054e-01f,+1.16810225e-01f,+1.37906581e-01f,-7.62238741e-01f,
	+5.18706620e-01f,-6.83237091e-02f,+9.63838696e-02f,+1.11211836e-02f,-1.03466511e+00f,
	+7.90451169e-02f,+6.34890616e-01f,+5.56267798e-03f,-1.32933199e+00f,-1.90369338e-01f,
	+1.15073137e-01f,-2.09360123e-01f,-1.78956062e-01f,-2.24331170e-02f,-6.50431961e-02f,
	-7.43391365e-02f,+2.25086004e-01f,-1.16580918e-01f,+1.47931367e-01f,+1.27770960e-01f,
	+4.42236364e-02f,-2.21625686e-01f,+5.82790077e-02f,+1.30911320e-01f,+1.00904107e-01f,
	-9.42716897e-02f,+1.39806628e-01f,-5.27057797e-02f,-2.11823165e-01f,+1.82183444e-01f,
	+1.36344284e-01f,+1.48839086e-01f,+1.92934066e-01f,+1.44572198e-01f,-1.20353468e-01f,
	-1.81067109e-01f,+1.70073301e-01f,-2.01899573e-01f,-1.78729713e-01f,+1.60647064e-01f,
	-6.75870329e-02f,-2.28166878e-01f,-1.24062493e-01f,-2.21232459e-01f,-1.31481320e-01f,
	+1.16503775e-01f,-6.44347519e-02f,-1.70625895e-01f,-9.32396501e-02f,+5.58178127e-03f,
	-7.08988458e-02f,+3.28852534e-02f,-1.57231063e-01f,+6.11831844e-02f,+1.71877444e-01f,
	+2.28846371e-02f,+1.04871333e-01f,+1.30331516e-01f,-4.82866019e-02f,+1.22523427e-01f,
	+6.23057783e-02f,-3.96810472e-03f,-1.88450515e-03f,+1.11206532e-01f,+6.09896183e-02f,
	+4.00773883e-02f,+1.93566084e-02f,+1.05407089e-02f,+1.10652596e-01f,-1.75849423e-01f,
	+5.28958440e-02f,+1.33991390e-02f,+2.02942371e-01f,+2.04901099e-02f,-2.25483000e-01f,
	-8.05315375e-03f,-1.70379058e-01f,-2.43954360e-02f,+9.67732370e-02f,-1.81645036e-01f,
	-7.48659670e-03f,+2.21677452e-01f,-2.05457509e-02f,+9.32243168e-02f,+9.15332139e-02f,
	+1.42674178e-01f,+2.19592452e-01f,-3.48222256e-03f,-2.52411216e-02f,+7.75958300e-02f,
	-1.34405136e-01f,+1.29910588e-01f,-5.01259118e-02f,-1.74315766e-01f,+1.03372842e-01f,
	+1.10776156e-01f,+2.98250616e-02f,-4.04575467e-02f,-2.18551815e-01f,+4.92088795e-02f,
	-1.69627413e-01f,-1.57532364e-01f,-1.69328451e-02f,-2.06575543e-02f,-2.15967923e-01f,
	+1.87824339e-01f,-1.95817232e-01f,-2.38410681e-02f,-4.19290662e-02f,-1.14414208e-01f,
	+2.12507218e-01f,-9.69035923e-02f,-9.98496562e-02f,-2.44288743e-02f,+1.83551282e-01f,
	+1.92128032e-01f,+1.75917745e-01f,+1.55341417e-01f,+2.16735244e-01f,-5.91837317e-02f,
	+1.19184285e-01f,-3.78996432e-02f,-2.16996267e-01f,-4.16940898e-02f,+1.83223486e-01f,
	-8.73480737e-02f,+7.29084015e-02f,+7.70661235e-02f,+5.72988987e-02f,-1.36836410e-01f,
	+1.10785186e-01f,-1.30082309e-01f,-1.41348347e-01f,+3.01624537e-02f,-2.20943078e-01f,
	+2.10898191e-01f,-1.48570001e-01f,+1.26971543e-01f,+5.39743900e-02f,-2.45413017e-02f,
	-1.15874395e-01f,+9.38589126e-02f,+3.09998542e-01f,+5.45948982e-01f,+5.19335233e-02f,
	+3.42781872e-01f,+4.24149424e-01f,+2.20021933e-01f,-1.33915782e-01f,-7.95373917e-02f,
	+2.63830930e-01f,-1.37983292e-01f,-9.79798362e-02f,+1.42643675e-01f,+6.60405830e-02f,
	-1.14453770e-02f,+3.35608602e-01f,+3.18788528e-01f,+7.81951752e-03f,+4.31996197e-01f,
	+1.21871207e-03f,+3.16475868e-01f,-1.31624579e-01f,-2.33105272e-02f,+1.06276363e-01f,
	-2.23049194e-01f,+8.37225676e-01f,+3.48239601e-01f,+2.13949621e-01f,+1.52824894e-01f,
	+5.25300205e-02f,-1.64725423e-01f,+4.08371478e-01f,+1.64968714e-01f,-1.22429036e-01f,
	+2.55561173e-01f,+7.85639584e-02f,+3.50436985e-01f,+2.13738292e-01f,-1.97720945e-01f,
	-1.52510166e-01f,+5.60029566e-01f,-2.31967181e-01f,+4.34984267e-01f,-2.07426488e-01f,
	+6.73685312e-01f,-8.39810967e-02f,-2.14177027e-01f,+5.75403273e-01f,+9.46102500e-01f,
	+4.77120370e-01f,+2.06982970e-01f,+2.28808224e-01f,-2.24395871e-01f,-1.17941409e-01f,
	-9.95731354e-02f,+3.77602100e-01f,+1.21558219e-01f,+2.21467748e-01f,+3.54073942e-02f,
	+2.62034237e-01f,+7.41695762e-02f,+1.67425960e-01f,-1.00419807e+00f,-5.64102829e-02f,
	+6.67555183e-02f,-2.96446830e-01f,+2.13720992e-01f,+5.52708983e-01f,-2.92221576e-01f,
	+1.30725875e-01f,+3.50278080e-01f,-1.37789518e-01f,-4.73473817e-02f,+7.40303457e-01f,
	-4.87367483e-03f,-2.41710573e-01f,-3.33624542e-01f,+5.49133658e-01f,-2.12063178e-01f,
	+2.75375098e-01f,+1.31277397e-01f,-2.54875030e-02f,-2.01718748e-01f,+7.38292754e-01f,
	+2.80940711e-01f,+1.92231059e-01f,+1.05255187e-01f,+5.04588857e-02f,+1.70958638e-01f,
	+4.94526982e-01f,-6.61666393e-01f,+3.55450004e-01f,+6.48059249e-01f,-7.29827523e-01f,
	+3.86826470e-02f,-9.34771076e-02f,+2.45872661e-01f,-1.34854779e-01f,+1.51750803e-01f,
	+4.21044022e-01f,+2.55820066e-01f,+5.11728585e-01f,+4.13006246e-02f,+2.14911431e-01f,
	+7.72351325e-02f,+2.46456871e-03f,+3.16898912e-01f,-7.79363140e-03f,+1.11844659e-01f,
	+7.51848966e-02f,-1.71876729e-01f,-5.80228329e-01f,-5.50632514e-02f,+4.90833074e-02f,
	-7.25241005e-01f,+6.29615903e-01f,-3.49511243e-02f,-5.37155867e-02f,+7.50946999e-02f,
	-5.35211563e-01f,+1.22048467e-01f,+1.71887785e-01f,+4.17248309e-02f,-2.53866404e-01f,
	-2.26899445e-01f,+1.97643936e-01f,-4.93391067e-01f,+4.33035791e-02f,+1.35804519e-01f,
	-6.73804730e-02f,+3.91606778e-01f,+7.80965865e-01f,-7.20836148e-02f,+3.67382079e-01f,
	+3.87838542e-01f,+1.14294803e-02f,-1.64446235e-03f,+5.73924363e-01f,+1.44857630e-01f,
	-3.41487527e-02f,-5.89848280e-01f,+5.41638911e-01f,+1.17030084e-01f,+9.78178978e-02f,
	+2.03179389e-01f,+1.20668449e-01f,-3.15021574e-01f,+7.05946028e-01f,+2.13095590e-01f,
	-1.24002673e-01f,-1.10563911e-01f,-2.66846985e-01f,+4.24613059e-03f,+3.59353542e-01f,
	-5.69045305e-01f,+6.79070830e-01f,+5.54471910e-01f,-7.59138048e-01f,+1.60504460e-01f,
	-2.73202538e-01f,+3.44691575e-01f,-2.15561658e-01f,-2.09979787e-01f,+6.09228969e-01f,
	+1.89674273e-01f,+5.75392604e-01f,+7.71298110e-02f,+1.26284331e-01f,+9.48041603e-02f,
	+1.50802344e-01f,+3.67638707e-01f,-8.89405236e-03f,+3.18392575e-01f,+8.22743326e-02f,
	+6.14400692e-02f,-4.78730112e-01f,+2.10410669e-01f,+7.52217323e-02f,-6.43989325e-01f,
	+7.59134054e-01f,+6.19048141e-02f,-2.15448707e-01f,-6.17020279e-02f,-5.13854563e-01f,
	+9.84565616e-02f,-2.16395989e-01f,-4.87091988e-02f,-1.53111726e-01f,+2.01873779e-01f,
	-3.60780992e-02f,-1.82075202e-02f,+2.22231269e-01f,-1.23264819e-01f,+1.53149873e-01f,
	-2.24254563e-01f,-4.87810522e-02f,-4.30312753e-03f,+1.50110990e-01f,-6.33215457e-02f,
	-1.08696461e-01f,+1.38555408e-01f,+3.42206359e-02f,-1.30656451e-01f,-1.36336505e-01f,
	+1.29254341e-01f,-4.65430319e-02f,-1.49510875e-01f,+2.23291129e-01f,-5.09106815e-02f,
	+1.46738350e-01f,+4.40054834e-02f,+1.76855147e-01f,-7.96160251e-02f,+1.59437954e-01f,
	-1.89985141e-01f,-1.66756004e-01f,+1.09786063e-01f,+1.61241949e-01f,-1.89641520e-01f,
	+2.42512524e-02f,-1.28049091e-01f,-1.63855195e-01f,-1.34672403e-01f,-2.31399894e-01f,
	-1.17921211e-01f,+2.03950346e-01f,+4.65905368e-02f,+2.03236550e-01f,+2.09484905e-01f,
	+1.30182475e-01f,-4.28161025e-03f,+1.66724980e-01f,+1.44662082e-01f,+1.24308288e-01f,
	+2.67026424e-02f,-2.09056899e-01f,-4.00784612e-03f,-1.69283748e-02f,+5.48250973e-02f,
	-7.52677619e-02f,-1.56868696e-02f,-1.16882831e-01f,-1.31649345e-01f,+1.95421189e-01f,
	-8.71868283e-02f,-5.00196815e-02f,+8.09589028e-02f,+5.65606058e-02f,-1.91364840e-01f,
	+2.18818516e-01f,+1.41333878e-01f,-7.69680589e-02f,+1.98403776e-01f,+4.62320745e-02f,
	-8.98409486e-01f,-1.53475896e-01f,+6.16818592e-02f,-2.60704309e-01f,+6.72343075e-02f,
	+6.44449711e-01f,-2.63584286e-01f,+1.14627212e-01f,+5.95645964e-01f,+6.21841662e-02f,
	-1.05907559e-01f,+6.08550847e-01f,-6.02156594e-02f,+1.57697901e-01f,-3.93734604e-01f,
	+5.34188151e-01f,+4.82865497e-02f,+2.88546741e-01f,+2.66402960e-01f,+2.40304202e-01f,
	-4.65711355e-01f,+7.12483346e-01f,+7.54916742e-02f,-1.12924874e-01f,+3.34739089e-02f,
	-1.50765926e-01f,+1.90909415e-01f,+9.28051248e-02f,-6.04363382e-01f,+6.82315409e-01f,
	+6.80429757e-01f,-4.33393598e-01f,+1.25313327e-02f,+2.53740340e-01f,+3.34817290e-01f,
	-9.69369039e-02f,-6.00894801e-02f,+8.27176809e-01f,+2.82446057e-01f,+3.07327598e-01f,
	+2.09438324e-01f,-1.73876509e-01f,+4.55744982e-01f,-1.77329078e-01f,+4.94168818e-01f,
	-6.04990833e-02f,+1.37071997e-01f,+1.49035901e-01f,+2.01034844e-02f,-5.06848514e-01f,
	+3.97168756e-01f,+2.63237268e-01f,-4.50698555e-01f,+5.58753550e-01f,-1.75265744e-01f,
	-8.54747146e-02f,-2.31246099e-01f,-4.29533482e-01f,+1.05719596e-01f,+3.27098817e-01f,
	-9.90201533e-03f,-3.92404050e-01f,-2.23259360e-01f,-1.69110820e-01f,+3.38144302e-01f,
	-1.60632581e-01f,-1.28766224e-01f,-4.34191465e-01f,-2.71359622e-01f,+6.95084035e-01f,
	-9.57799137e-01f,-1.45414576e-01f,+5.62804818e-01f,-4.37873229e-02f,-6.68402910e-02f,
	+2.66402781e-01f,+1.47797331e-01f,+1.32206663e-01f,-2.48401582e-01f,+3.58567238e-01f,
	-5.73363841e-01f,-1.05412352e+00f,-7.52674460e-01f,-1.09092629e+00f,-1.30407631e-01f,
	+4.17955428e-01f,-5.43018699e-01f,+3.53795290e-03f,+6.43159449e-03f,-9.20652509e-01f,
	-9.47457701e-02f,-1.71426237e-01f,+4.38591331e-01f,+3.95031273e-01f,+4.96915221e-01f,
	+3.08153611e-02f,+3.71117815e-02f,-7.62949109e-01f,-1.01225638e+00f,-5.59390038e-02f,
	-9.43696320e-01f,+5.87882936e-01f,-6.82506025e-01f,+6.78342879e-01f,+4.26694453e-02f,
	-2.74793953e-02f,+1.87177490e-02f,-2.04792604e-01f,-9.95111525e-01f,-1.23773880e-01f,
	+3.40395361e-01f,+1.22000568e-01f,+1.57214776e-01f,+1.34352118e-01f,-5.93641475e-02f,
	-1.52907409e-02f,-7.72203952e-02f,+6.45130932e-01f,-2.19086677e-01f,+1.28733635e-01f,
	+7.83658028e-02f,+5.28388143e-01f,-1.40356213e-01f,-1.12017536e+00f,-7.71395713e-02f,
	+8.29861760e-01f,-2.34190673e-02f,+2.11979412e-02f,-8.70291367e-02f,+1.72051221e-01f,
	-1.40228108e-01f,+2.56286383e-01f,+4.39801723e-01f,+1.75017506e-01f,-1.91113930e-02f,
	+5.23301244e-01f,-1.55534875e-03f,+7.27747083e-02f,+8.57570767e-02f,+5.25630713e-02f,
	+6.42245188e-02f,+1.38948783e-01f,+4.83481407e-01f,-3.10821980e-02f,+1.69502541e-01f,
	+2.15981513e-01f,+6.86863437e-02f,-1.22129947e-01f,+3.93426716e-01f,+3.00688773e-01f,
	+1.35008425e-01f,-1.58494696e-01f,+6.01963401e-02f,+1.46492288e-01f,-1.34247378e-01f,
	+5.21141768e-01f,+4.76516694e-01f,-1.31837174e-01f,-3.37976329e-02f,+5.34270048e-01f,
	-5.95877022e-02f,+1.81903094e-01f,+1.86099917e-01f,+2.05218017e-01f,-5.44303544e-02f,
	+2.93399662e-01f,-1.91137046e-01f,+2.03080922e-02f,-9.98486131e-02f,-1.85115978e-01f,
	+7.42933273e-01f,-8.30326006e-02f,+1.46703497e-01f,-2.07394987e-01f,+5.17539859e-01f,
	+4.21247445e-02f,+9.92105454e-02f,+5.46957552e-01f,+4.38213259e-01f,+6.32304668e-01f,
	+2.74097055e-01f,-1.02235965e-01f,-1.39166698e-01f,+1.32114917e-01f,-1.79953620e-01f,
	+5.91704965e-01f,+6.98000491e-02f,+1.58354342e-01f,+1.97883964e-01f,+6.83859169e-01f,
	+1.44830003e-01f,-2.58419544e-01f,+2.36667395e-02f,-2.04997063e-01f,+8.35248828e-02f,
	-1.13988854e-01f,-1.68840274e-01f,+8.13157856e-03f,-1.27262443e-01f,-1.25415310e-01f,
	+2.25385427e-01f,+1.86708570e-02f,+4.67455685e-02f,-9.52020139e-02f,+1.57501131e-01f,
	-5.42739183e-02f,-1.23540238e-01f,-1.69909388e-01f,+5.31064272e-02f,+4.92865145e-02f,
	-1.22447014e-02f,+1.97915137e-01f,-1.12237841e-01f,+2.23310202e-01f,-4.35375422e-02f,
	-8.00889432e-02f,-1.50637060e-01f,-8.29821527e-02f,-1.68480203e-01f,+4.80368733e-04f,
	-1.67562187e-01f,+1.91142946e-01f,-1.42129853e-01f,-1.44983813e-01f,+1.62084699e-01f,
	-1.28679067e-01f,-7.49790668e-03f,+1.62017792e-02f,-7.02388585e-02f,+6.50417209e-02f,
	+2.14048654e-01f,-4.07678932e-02f,-1.56683981e-01f,+4.09022272e-02f,+1.81977689e-01f,
	-1.76792234e-01f,-1.71355858e-01f,-1.28918678e-01f,+7.28165209e-02f,+2.21293151e-01f,
	+1.11013830e-01f,-1.10297158e-01f,+1.52434468e-01f,-1.12214550e-01f,-1.86013728e-02f,
	+7.51657188e-02f,-8.46618712e-02f,-2.01276556e-01f,-3.14086080e-02f,+1.27071917e-01f,
	-2.30549201e-01f,+8.49840343e-02f,+1.84625477e-01f,-6.12145364e-02f,-1.79205388e-01f,
	-8.71002972e-02f,+3.38907540e-03f,-1.67219490e-01f,-2.23874792e-01f,-1.44176543e-01f,
	-1.74296647e-02f,-2.20728084e-01f,-1.05832338e-01f,+5.24619222e-02f,+4.60222363e-04f,
	+1.50401086e-01f,+4.57689166e-04f,-1.21440239e-01f,+1.56082600e-01f,-6.45221025e-02f,
	-5.86997867e-02f,+6.82267547e-03f,+2.15162247e-01f,+1.61274433e-01f,+2.23427862e-01f,
	-7.61014223e-03f,-2.52800286e-02f,+1.57966316e-01f,-1.21968344e-01f,-1.64608553e-01f,
	+1.48755372e-01f,+8.84702802e-02f,+1.02173805e-01f,+1.16249114e-01f,+4.59039509e-02f,
	+4.42214310e-02f,-6.48576170e-02f,-1.70069695e-01f,+1.03225052e-01f,-1.29598856e-01f,
	+7.15090036e-02f,-1.35114700e-01f,+1.63875073e-01f,-5.06486595e-02f,+1.11623824e-01f,
	-7.55630434e-02f,-5.90077639e-02f,-2.23660842e-01f,+5.29654324e-03f,+1.31775707e-01f,
	-7.81790018e-02f,+4.14342880e-02f,+1.18866384e-01f,+2.19750673e-01f,+4.42630053e-03f,
	+1.73922658e-01f,-1.60313204e-01f,+2.29991287e-01f,-2.15629593e-01f,+1.32039040e-01f,
	-2.03229159e-01f,+1.25441730e-01f,-1.22201882e-01f,+2.27237314e-01f,-1.62834585e-01f,
	-1.54632270e-01f,-1.00725889e-02f,-1.67356998e-01f,+6.37766421e-02f,+2.29726017e-01f,
	+1.92181766e-01f,+1.76086873e-01f,+1.71194673e-01f,-4.68169808e-01f,+1.61854222e-01f,
	+6.91811442e-01f,-1.14727926e+00f,-2.68249750e-01f,+4.15208817e-01f,-4.35013697e-02f,
	-2.60113627e-02f,+7.48925984e-01f,+1.43321797e-01f,-4.46980409e-02f,+7.05619529e-02f,
	+5.17312586e-01f,-9.48804617e-01f,-8.85825872e-01f,-1.00157619e+00f,-1.18457854e+00f,
	-2.56442040e-01f,+4.27607447e-01f,-8.22834373e-01f,+2.29225457e-02f,-1.33168265e-01f,
	-8.10619414e-01f,-1.40350759e-02f,-4.04573008e-02f,+8.90428275e-02f,+7.57724404e-01f,
	+5.15060425e-01f,-9.81619209e-03f,-1.99294031e-01f,-6.24922454e-01f,-6.51672840e-01f,
	+5.27783222e-02f,-6.57775223e-01f,+7.88412511e-01f,-9.21554565e-01f,+6.78590119e-01f,
	-1.93919703e-01f,+1.56068355e-01f,-7.22061172e-02f,+9.98846814e-03f,-6.26548648e-01f,
	+8.39252099e-02f,+3.68976146e-01f,-1.62552029e-01f,-2.69870199e-02f,-2.01844022e-01f,
	+2.07068231e-02f,-1.76266626e-01f,+4.51093400e-03f,+7.61978984e-01f,+5.20978048e-02f,
	-1.12604201e-01f,-6.53555393e-02f,+7.08948970e-01f,-2.49873251e-02f,-8.73567522e-01f,
	-1.86681435e-01f,+1.12983537e+00f,-3.83464471e-02f,+6.29418045e-02f,-1.47220284e-01f,
	-1.23072892e-01f,-2.10901827e-01f,+1.79976791e-01f,+2.11331993e-01f,+1.39724076e-01f,
	-4.99501824e-03f,+9.47250724e-02f,+1.52305394e-01f,-1.72536060e-01f,-1.14466965e-01f,
	-1.36714503e-01f,+1.37996644e-01f,-1.11048087e-01f,+6.36558831e-02f,+5.36567569e-02f,
	+1.23493373e-01f,-7.35286027e-02f,+3.92141044e-02f,-1.59330502e-01f,+4.22472954e-02f,
	+6.21093214e-02f,-9.14985687e-02f,-1.48694828e-01f,+1.40167385e-01f,+1.49677098e-01f,
	-1.92834198e-01f,+8.08086395e-02f,+1.20534569e-01f,+1.55209631e-01f,+9.10361409e-02f,
	+1.48019105e-01f,+1.42013639e-01f,+8.56179595e-02f,-5.99132627e-02f,+1.83756560e-01f,
	+9.41562951e-02f,-2.06284046e-01f,-8.02612901e-02f,+1.72648013e-01f,+1.93447620e-01f,
	-1.47593811e-01f,-1.09631866e-02f,+8.56287777e-02f,-2.73878574e-02f,-1.98917866e-01f,
	+1.63550079e-01f,-2.31292397e-01f,+1.05883062e-01f,+1.14388287e-01f,+1.01952076e-01f,
	+9.86360013e-02f,+5.29870987e-02f,+1.47052586e-01f,+1.86319768e-01f,-1.79721847e-01f,
	+1.16627842e-01f,-2.21863359e-01f,-1.14244796e-01f,+1.87686116e-01f,-1.53433353e-01f,
	-2.20551938e-01f,-1.54120058e-01f,-1.88010529e-01f,+1.15968943e-01f,-4.16436791e-02f,
	-2.03918383e-01f,+6.96240962e-02f,+3.27976823e-01f,+3.39136064e-01f,-1.29246905e-01f,
	+4.14490849e-01f,+4.24974501e-01f,+2.10596714e-03f,-1.91158563e-01f,+1.30250007e-01f,
	+1.82329953e-01f,+1.26432195e-01f,+2.40825281e-01f,+4.78492320e-01f,-1.46637768e-01f,
	-1.85985848e-01f,-2.68082887e-01f,-3.32713187e-01f,+4.38866049e-01f,+2.17501894e-01f,
	+4.73295972e-02f,+6.28045201e-03f,+4.83326316e-02f,-2.77834982e-01f,-9.00756717e-02f,
	+5.29296100e-01f,+4.37435508e-01f,+4.88232791e-01f,+3.03205460e-01f,+2.74925202e-01f,
	+1.70540065e-01f,+5.19315153e-03f,-1.26401512e-02f,-1.44073531e-01f,+3.70760486e-02f,
	+2.23312527e-01f,-5.38300239e-02f,+3.03954780e-01f,-1.09911263e-01f,+6.20737374e-02f,
	+3.58741254e-01f,+1.92165673e-01f,-2.53745794e-01f,+1.36535779e-01f,+7.34515011e-01f,
	+4.11399417e-02f,-1.31447002e-01f,+2.82799214e-01f,+5.07604659e-01f,+2.05984101e-01f,
	+2.28212655e-01f,+4.54469085e-01f,+1.74686342e-01f,-2.15786532e-01f,-1.37003943e-01f,
	+5.75878918e-01f,-1.13580614e-01f,-2.19764456e-01f,-1.95527405e-01f,+8.21009874e-01f,
	-2.07313925e-01f,+4.03981144e-03f,+8.73807222e-02f,-1.54495379e-02f,-1.40706226e-01f,
	-6.45785749e-01f,-2.09482044e-01f,+7.32419908e-01f,-1.08512950e+00f,-1.64536148e-01f,
	+5.13532460e-01f,-3.51964496e-02f,+9.98395085e-02f,+6.44876599e-01f,-1.73655152e-02f,
	-2.57541854e-02f,+1.12243786e-01f,+7.39609778e-01f,-8.72088492e-01f,-7.89502740e-01f,
	-1.01226318e+00f,-1.52831495e+00f,+1.20828070e-01f,+6.33807778e-01f,-7.91609824e-01f,
	+2.18437642e-01f,+1.08177692e-01f,-7.26276815e-01f,+4.90831137e-02f,-4.34275866e-01f,
	+4.54420924e-01f,+7.07995832e-01f,+4.12424356e-01f,+2.80914843e-01f,+8.70650411e-02f,
	-7.41036355e-01f,-9.03153598e-01f,-4.17102501e-02f,-8.79117310e-01f,+6.67193353e-01f,
	-9.16780949e-01f,+6.81531966e-01f,-1.94898546e-01f,+1.93283092e-02f,-1.34873182e-01f,
	-1.86329931e-01f,-7.73465335e-01f,-4.76354435e-02f,+3.66158128e-01f,+1.34201705e-01f,
	+5.16017200e-03f,-9.70127806e-02f,-3.28819931e-01f,-4.03182656e-01f,+3.40848207e-01f,
	+6.57390177e-01f,+2.10203499e-01f,-7.57949799e-02f,+1.27874911e-02f,+8.67569745e-01f,
	+3.98323834e-02f,-9.52044129e-01f,-3.98684144e-02f,+9.18968201e-01f,+1.32576406e-01f,
	-1.29724145e-01f,+4.96553183e-02f,-1.47270173e-01f,+1.67195559e-01f,-7.23933876e-01f,
	-4.59571838e-01f,+7.87148118e-01f,-8.21358562e-01f,-3.23537767e-01f,+6.99336171e-01f,
	-7.00934902e-02f,-1.46752387e-01f,+6.97529018e-01f,-1.50084630e-01f,-8.07714462e-02f,
	-1.18245073e-01f,+5.53868651e-01f,-6.74526632e-01f,-1.11848640e+00f,-8.22608888e-01f,
	-1.42287683e+00f,-8.80462602e-02f,+7.10746288e-01f,-6.72492445e-01f,-4.37047482e-02f,
	-1.50183618e-01f,-8.67867231e-01f,-2.15446115e-01f,-4.61278915e-01f,+4.51687127e-01f,
	+3.51440370e-01f,+5.25827169e-01f,+4.39750195e-01f,+1.78014368e-01f,-8.57573688e-01f,
	-1.16105258e+00f,+3.61947976e-02f,-1.01036644e+00f,+5.09036064e-01f,-9.12762344e-01f,
	+6.54488206e-01f,-1.26740932e-02f,-1.57654703e-01f,-5.12672365e-01f,-2.82160635e-03f,
	-1.10837293e+00f,-1.25263989e-01f,-3.16962600e-02f,-2.64972597e-01f,-8.33643824e-02f,
	-2.21006304e-01f,-3.60852271e-01f,-2.28564039e-01f,+1.18415125e-01f,+5.07147133e-01f,
	+6.60852417e-02f,-1.60208359e-01f,+4.85161543e-02f,+6.87304735e-01f,-1.73904717e-01f,
	-8.30965281e-01f,+1.40756398e-01f,+8.29481781e-01f,+4.64669690e-02f,-2.45444536e-01f,
	+2.21770942e-01f,-7.19748437e-03f,+2.19923854e-01f,-3.23233306e-02f,-1.47713393e-01f,
	+2.19161719e-01f,+7.88816512e-02f,-1.34125650e-01f,-1.01128191e-01f,-3.68694812e-02f,
	-1.75318673e-01f,+1.78935826e-02f,-1.13020286e-01f,-1.94026262e-01f,+1.77971154e-01f,
	-1.06286883e-01f,+8.47122073e-02f,+1.31515265e-02f,-1.68305218e-01f,-1.49520367e-01f,
	+1.17042482e-01f,-2.01591551e-01f,+2.03737468e-01f,+4.07990813e-03f,-2.01736510e-01f,
	-2.20418453e-01f,-1.61835596e-01f,+2.39487290e-02f,-5.01776189e-02f,+3.71238291e-02f,
	+2.06075341e-01f,+1.35874957e-01f,-8.88769329e-03f,+1.42715722e-01f,+7.70223141e-02f,
	+1.81234211e-01f,+3.30290496e-02f,+2.14021713e-01f,-1.43096060e-01f,+1.29747361e-01f,
	-9.45477188e-02f,+3.88039351e-02f,+1.70627266e-01f,+2.16362268e-01f,+6.54624701e-02f,
	-9.89683270e-02f,+2.21407503e-01f,+6.71644509e-02f,-2.10869282e-01f,-1.68186352e-01f,
	+8.43090713e-02f,+8.87694359e-02f,+1.57377124e-01f,+7.21235275e-02f,-1.40274927e-01f,
	+1.37938797e-01f,-1.14259571e-02f,-1.66455090e-01f,+2.48256326e-02f,-2.23006308e-02f,
	+1.98833048e-01f,+1.31265938e-01f,-1.47035360e-01f,-2.07550883e-01f,-1.49496526e-01f,
	+1.61964387e-01f,+2.60385573e-02f,-1.21004902e-01f,+2.02458590e-01f,+8.85866582e-03f,
	-1.47493660e-01f,-1.33122906e-01f,+6.96797669e-03f,+1.43444359e-01f,-1.08721733e-01f,
	-2.28256553e-01f,+2.10311204e-01f,+2.10493654e-01f,-2.59948075e-02f,+2.11098611e-01f,
	-2.70988643e-02f,-9.93483216e-02f,+7.87457824e-02f,+1.18516237e-01f,-1.87345743e-02f,
	+1.27349049e-01f,+1.32083684e-01f,-2.18811184e-01f,-7.49693811e-02f,-6.37684166e-02f,
	-1.26190752e-01f,+9.54155624e-03f,+1.89966649e-01f,+1.84480637e-01f,+7.50422776e-02f,
	+1.50126368e-02f,-1.58464625e-01f,-1.11481503e-01f,-1.44248605e-01f,+2.70392001e-03f,
	-2.92311311e-02f,-2.03449279e-02f,-1.46526515e-01f,+2.13237226e-01f,+1.71064198e-01f,
	+6.99971020e-02f,-1.11391664e-01f,+2.08107948e-01f,-1.15308508e-01f,-2.21817672e-01f,
	+6.46610558e-02f,+9.11187530e-02f,-3.61897349e-02f,-1.40201807e-01f,-1.77992627e-01f,
	+1.54454023e-01f,-1.17312647e-01f,-1.45782858e-01f,-7.64609277e-02f,-1.76170915e-01f,
	+7.01653957e-03f,-7.45563954e-02f,+3.96701396e-02f,-5.65044284e-02f,-9.88588482e-02f,
	-6.26555830e-02f,+4.51428294e-02f,-1.90165699e-01f,+6.01630397e-02f,-1.51638553e-01f,
	-1.73400994e-02f,+2.94859350e-01f,+5.67926705e-01f,+1.89105093e-01f,+5.10498434e-02f,
	+5.89174569e-01f,+3.05911571e-01f,-1.55390194e-02f,+5.79987466e-02f,-6.25384897e-02f,
	-2.30833963e-01f,-2.26858016e-02f,+3.63449931e-01f,-1.07396670e-01f,+3.02694112e-01f,
	+3.99855301e-02f,+5.34029026e-03f,-2.10118279e-01f,+3.50398272e-01f,+3.17724764e-01f,
	+2.52922565e-01f,-1.70676708e-01f,+4.05564904e-02f,+1.68378279e-01f,-1.02308571e-01f,
	+7.66981065e-01f,+4.22521383e-01f,+2.08013609e-01f,+5.08417748e-02f,+3.80889505e-01f,
	-2.02636868e-01f,+7.13537447e-03f,+2.07301959e-01f,+1.97331786e-01f,+2.86621973e-02f,
	+1.78025559e-01f,+2.74367183e-02f,+1.98063269e-01f,+2.06260651e-01f,+2.15426639e-01f,
	+7.91964233e-01f,-8.39946717e-02f,+1.81544200e-01f,-2.15558499e-01f,+5.01823425e-01f,
	-6.43550605e-02f,-4.73074142e-05f,+4.31438565e-01f,+4.42120731e-01f,+5.86852431e-01f,
	+4.98544067e-01f,-2.33834470e-03f,+1.23610623e-01f,-1.69767797e-01f,-1.86192244e-01f,
	+5.07689595e-01f,+1.98609233e-02f,-2.36365274e-02f,-1.48597047e-01f,+6.62457407e-01f,
	-1.85704604e-02f,-1.00636385e-01f,-3.49135697e-02f,-2.26293087e-01f,+1.88097239e-01f,
	-4.98570055e-01f,+1.09996602e-01f,+8.53529155e-01f,-7.91953802e-01f,+2.00349521e-02f,
	+4.46348011e-01f,+1.91682532e-01f,-9.75471437e-02f,+3.14315289e-01f,-1.80284604e-01f,
	-1.63049191e-01f,-2.12588355e-01f,+7.15632975e-01f,-9.42382753e-01f,-7.89160311e-01f,
	-6.35998130e-01f,-1.12860370e+00f,-6.43072948e-02f,+8.08465123e-01f,-7.13196397e-01f,
	-2.17229471e-01f,-2.21142665e-01f,-9.60593939e-01f,+8.10332000e-02f,+2.26877362e-01f,
	-1.03126325e-01f,+5.76007366e-01f,+6.65265441e-01f,+3.51995267e-02f,-1.28370032e-01f,
	-6.54851854e-01f,-9.39537048e-01f,+1.81542542e-02f,-9.80724335e-01f,+8.51716220e-01f,
	-1.08186293e+00f,+7.00022399e-01f,-9.44611281e-02f,-5.12663871e-02f,+7.03461021e-02f,
	+1.13616429e-01f,-7.76273727e-01f,+1.20489478e-01f,+3.87153476e-01f,+4.94443206e-03f,
	-5.37903942e-02f,-2.33599454e-01f,+7.78990462e-02f,-3.14857028e-02f,+1.79045379e-01f,
	+6.29455447e-01f,-2.37085428e-02f,+3.70836556e-02f,-1.75149322e-01f,+3.32597077e-01f,
	+2.05488265e-01f,-9.50710952e-01f,+5.11533022e-02f,+9.95022357e-01f,-1.08774930e-01f,
	-2.07295120e-01f,+1.22407921e-01f,-1.50930688e-01f,+9.79214758e-02f,-5.26154160e-01f,
	-1.30497470e-01f,+5.42778254e-01f,-8.56623352e-01f,-2.31522112e-03f,+6.69524610e-01f,
	-1.29052892e-01f,-1.67619124e-01f,+4.32902426e-01f,-1.94117591e-01f,-1.70070529e-01f,
	-2.54644930e-01f,+8.12476695e-01f,-6.27047837e-01f,-8.08149338e-01f,-8.20385218e-01f,
	-1.29747391e+00f,-2.44345754e-01f,+7.59480655e-01f,-6.63527429e-01f,-7.47908652e-02f,
	+1.47229224e-01f,-6.37967587e-01f,-1.92245334e-01f,+3.45457681e-02f,-1.84569627e-01f,
	+7.92601526e-01f,+6.88228428e-01f,+1.37223735e-01f,-1.71789899e-01f,-8.25270116e-01f,
	-6.87544107e-01f,-1.75168812e-01f,-6.52711630e-01f,+6.18714690e-01f,-9.75960493e-01f,
	+6.03378773e-01f,-4.45072204e-02f,-1.62608445e-01f,+1.75868824e-01f,-1.51330590e-01f,
	-9.19984519e-01f,-9.99912247e-02f,+2.19012797e-01f,-5.88810025e-03f,-1.26372099e-01f,
	-1.02097794e-01f,-1.92542940e-01f,-1.57805637e-01f,+3.63228768e-02f,+6.18248522e-01f,
	-1.84104353e-01f,+1.65241957e-01f,+1.77357316e-01f,+4.02341098e-01f,-5.57318628e-02f,
	-8.15562308e-01f,+1.04369283e-01f,+8.44725430e-01f,-1.39885932e-01f,+1.24190114e-02f,
	-1.78698301e-01f,+1.00517362e-01f,-9.37238336e-04f,-1.60076916e-01f,-1.18218042e-01f,
	-7.95754194e-02f,-1.84042469e-01f,-4.16519344e-02f,+1.26363248e-01f,-6.19042665e-02f,
	+1.62297308e-01f,-2.28009284e-01f,+1.35403186e-01f,-1.97749034e-01f,+3.66494060e-02f,
	+1.76675141e-01f,+2.51162946e-02f,-8.82411003e-02f,+2.21060902e-01f,+6.44403100e-02f,
	-2.13757455e-01f,-4.50126380e-02f,+1.21936888e-01f,-2.10901394e-01f,+6.96859658e-02f,
	-6.82359338e-02f,+1.11989349e-01f,-1.79990977e-01f,-1.11941844e-02f,+1.69650763e-01f,
	-8.42412561e-02f,+8.13968480e-03f,+9.15387273e-02f,-2.15893760e-01f,-2.01416343e-01f,
	+1.45831704e-01f,-1.66538954e-02f,-1.57147557e-01f,+2.01343209e-01f,+1.66135520e-01f,
	-1.43096328e-01f,-2.29209572e-01f,-7.03409016e-02f,+1.43235177e-02f,-1.13742903e-01f,
	+1.14497691e-01f,+1.73835456e-01f,-5.91707677e-02f,+2.13176310e-01f,+1.57134384e-01f,
	-3.76681536e-02f,-1.94777697e-01f,+8.24605525e-02f,-2.41211057e-03f,-1.47067010e-02f,
	-3.85961682e-02f,+1.75634474e-01f,-8.20080489e-02f,-1.04428709e-01f,-1.34521186e-01f,
	+1.60524786e-01f,+5.56575358e-02f,+1.26744509e-01f,-4.74422425e-02f,+1.75923347e-01f,
	+1.48188025e-01f,-1.48637325e-01f,-8.01292777e-01f,-2.15176940e-02f,+7.92560995e-01f,
	-8.77449334e-01f,-2.86849737e-01f,+6.97289348e-01f,+4.25997144e-03f,-1.89454839e-01f,
	+5.39465666e-01f,-7.10370317e-02f,+1.33137152e-01f,-3.54235508e-02f,+6.77951992e-01f,
	-6.64113224e-01f,-5.82934856e-01f,-7.99906671e-01f,-1.30300379e+00f,-2.09707469e-01f,
	+4.66109335e-01f,-3.92494708e-01f,-7.81100839e-02f,-3.32456082e-02f,-5.52355587e-01f,
	-1.06680065e-01f,-1.29499480e-01f,+3.71201783e-02f,+5.68718493e-01f,+6.42071068e-01f,
	-2.24589836e-02f,-5.56126609e-02f,-7.90206373e-01f,-8.59359264e-01f,+1.38056695e-01f,
	-5.50424278e-01f,+8.34207535e-01f,-9.23117280e-01f,+5.99596143e-01f,-1.49175644e-01f,
	+7.00089037e-02f,-3.63927186e-02f,-2.14705750e-01f,-9.61494803e-01f,-2.22584337e-01f,
	+3.07574332e-01f,-2.64828969e-02f,+6.02636933e-02f,+6.28632158e-02f,-2.80077127e-03f,
	+1.20886296e-01f,-3.10475938e-02f,+7.37102032e-01f,-1.89661711e-01f,-2.29366958e-01f,
	-1.92641661e-01f,+6.01577759e-01f,+2.07801968e-01f,-7.22877383e-01f,-1.48075223e-01f,
	+9.77444828e-01f,+1.37370616e-01f,-4.81271558e-02f,+8.99890304e-01f,-3.58740874e-02f,
	+6.09807558e-02f,+5.20732224e-01f,-2.61026829e-01f,-6.93876445e-02f,+7.06165910e-01f,
	-6.45061910e-01f,-6.22724257e-02f,-1.81815475e-01f,+1.62741840e-02f,-1.99983492e-01f,
	+1.49910776e-02f,-8.91696289e-02f,-1.23505779e-01f,-2.64263332e-01f,+3.86954427e-01f,
	+6.43897057e-02f,+1.29822552e-01f,+4.91990656e-01f,-8.29924420e-02f,-6.52325153e-02f,
	+9.19516087e-02f,-7.56398588e-02f,-6.38839155e-02f,+4.23540831e-01f,+1.60889328e-01f,
	-7.49923229e-01f,-8.05762634e-02f,-4.03858602e-01f,-3.81927371e-01f,+1.47420973e-01f,
	+1.09026268e-01f,+5.41566573e-02f,+2.79398412e-01f,-1.65085584e-01f,+3.46840829e-01f,
	-2.68605679e-01f,+2.26571281e-02f,-7.62174278e-03f,+1.41942203e-02f,-1.52952164e-01f,
	-1.03257382e+00f,+1.80607766e-01f,+1.09862044e-01f,-4.87947874e-02f,-1.58476210e+00f,
	-3.96336876e-02f,-5.91412708e-02f,+1.41406775e-01f,-8.37152302e-01f,-4.45431530e-01f,
	+2.95460284e-01f,-9.36934352e-03f,-1.36579067e-01f,-1.19187832e-01f,+2.27844059e-01f,
	-2.13659510e-01f,-2.21352592e-01f,+3.17630798e-01f,+1.05008036e-02f,-1.06249166e+00f,
	+3.52016799e-02f,-2.14665741e-01f,+3.13637882e-01f,-1.02843605e-02f,-1.56635180e-01f,
	+5.30189395e-01f,+2.75224030e-01f,-1.59446970e-01f,+5.63505173e-01f,+3.71606380e-01f,
	-1.96353331e-01f,-7.02274963e-02f,-1.70635939e-01f,-9.71428454e-02f,+1.81390643e-01f,
	+1.16298422e-01f,+5.87592244e-01f,-1.69552714e-02f,+2.29497030e-01f,+2.94776887e-01f,
	+2.73158312e-01f,+1.36593357e-01f,+5.96116602e-01f,-2.05094680e-01f,+2.57139951e-01f,
	+2.38767564e-02f,-2.04032406e-01f,+2.96604872e-01f,+2.06635118e-01f,+6.93064690e-01f,
	+9.98153165e-02f,+1.29113406e-01f,+1.63795501e-01f,+5.16498089e-01f,-6.60931766e-02f,
	+3.18730295e-01f,+1.32589927e-02f,-8.10948536e-02f,+4.81720746e-01f,+9.76515561e-02f,
	+9.24800485e-02f,+1.99111160e-02f,-5.09918481e-02f,-1.59499433e-03f,+5.57816505e-01f,
	-1.84795454e-01f,+1.36437595e-01f,+6.02144450e-02f,+4.16032732e-01f,-1.44320995e-01f,
	-2.03176141e-01f,+6.48059070e-01f,+4.67757672e-01f,+3.96368414e-01f,+3.66022646e-01f,
	-1.39002189e-01f,+5.18072881e-02f,-1.00896269e-01f,-4.82333601e-02f,+1.13945611e-01f,
	+4.56538200e-02f,+4.04089056e-02f,-1.82547390e-01f,+6.59318805e-01f,-4.50248970e-03f,
	+1.35223851e-01f,-9.01108682e-02f,-9.33733582e-02f,-9.35568511e-02f,+1.70197934e-01f,
	-9.41899121e-02f,-2.16382742e-01f,+1.83302015e-01f,+1.08089179e-01f,-1.46786273e-01f,
	-1.80530772e-01f,-1.93520337e-01f,+1.75860912e-01f,-1.81857795e-02f,+2.04561502e-01f,
	-1.63646430e-01f,-2.01991901e-01f,-2.04647258e-01f,+6.36902750e-02f,-8.97262990e-02f,
	+2.00120598e-01f,-9.19517875e-02f,-1.62360787e-01f,-6.66947812e-02f,-9.10534114e-02f,
	+8.16219449e-02f,+1.35195822e-01f,-7.66736120e-02f,-1.10511161e-01f,-3.96810472e-03f,
	-8.70113522e-02f,+1.63385630e-01f,+5.28355241e-02f,-2.57357955e-03f,+4.89601791e-02f,
	+3.44628394e-02f,-1.93414897e-01f,+2.04471231e-01f,-5.03580123e-02f,+7.16477931e-02f,
	-2.26535067e-01f,-1.56540439e-01f,-1.90399185e-01f,+7.02032745e-02f,-1.46472275e-01f,
	-5.67270964e-02f,+1.52811706e-01f,-6.12690002e-02f,+6.70139492e-03f,+6.81765974e-02f,
	+1.56845391e-01f,-1.57900989e-01f,+6.73946738e-02f,+1.74914300e-03f,+1.22970194e-01f,
	+6.55514896e-02f,+1.42613262e-01f,+1.00279868e-01f,+1.14087015e-01f,+1.72093332e-01f,
	-7.21629262e-02f,-1.82710677e-01f,-2.63450593e-02f,+2.25972921e-01f,+2.05986440e-01f,
	-5.75018078e-02f,-1.00533321e-01f,-1.49658442e-01f,-1.00821599e-01f,-1.85267150e-01f,
	-3.12053710e-02f,+4.99401093e-02f,-6.04865551e-02f,+1.79554194e-01f,+1.37789965e-01f,
	-2.21631765e-01f,-2.11852148e-01f,-8.81402344e-02f,-4.18112427e-02f,+5.56267798e-03f,
	-6.44722730e-02f,-2.22805068e-01f,+2.08555490e-01f,-1.27699673e-01f,+1.09935492e-01f,
	-1.93558812e-01f,-4.38865274e-02f,-9.81129259e-02f,-1.11379519e-01f,-1.47204384e-01f,
	-1.13248795e-01f,-9.43308920e-02f,+7.84695148e-05f,+5.33131957e-02f,-1.38566047e-02f,
	+1.92382932e-02f,-1.80178583e-02f,-3.63386273e-02f,-1.48833454e-01f,+9.05360579e-02f,
